digraph Tree {
node [shape=box, style="filled, rounded", color="black", fontname=helvetica] ;
edge [fontname=helvetica] ;
0 [label=<X<SUB>282</SUB> &le; 0.5<br/>gini = 0.5<br/>samples = 1037<br/>value = [519, 518]<br/>class = negative>, fillcolor="#ffffff"] ;
1 [label=<X<SUB>971</SUB> &le; 0.5<br/>gini = 0.467<br/>samples = 732<br/>value = [460, 272]<br/>class = negative>, fillcolor="#f4ccae"] ;
0 -> 1 [labeldistance=2.5, labelangle=45, headlabel="True"] ;
2 [label=<X<SUB>695</SUB> &le; 0.5<br/>gini = 0.412<br/>samples = 548<br/>value = [389, 159]<br/>class = negative>, fillcolor="#f0b58a"] ;
1 -> 2 ;
3 [label=<X<SUB>92</SUB> &le; 0.5<br/>gini = 0.39<br/>samples = 513<br/>value = [377, 136]<br/>class = negative>, fillcolor="#eeae80"] ;
2 -> 3 ;
4 [label=<X<SUB>383</SUB> &le; 0.5<br/>gini = 0.486<br/>samples = 139<br/>value = [81, 58]<br/>class = negative>, fillcolor="#f8dbc7"] ;
3 -> 4 ;
5 [label=<X<SUB>418</SUB> &le; 0.5<br/>gini = 0.492<br/>samples = 80<br/>value = [35, 45]<br/>class = positive>, fillcolor="#d3e9f9"] ;
4 -> 5 ;
6 [label=<X<SUB>665</SUB> &le; 0.5<br/>gini = 0.5<br/>samples = 65<br/>value = [33, 32]<br/>class = negative>, fillcolor="#fefbf9"] ;
5 -> 6 ;
7 [label=<X<SUB>178</SUB> &le; 0.5<br/>gini = 0.477<br/>samples = 51<br/>value = [31, 20]<br/>class = negative>, fillcolor="#f6d2b9"] ;
6 -> 7 ;
8 [label=<X<SUB>985</SUB> &le; 0.5<br/>gini = 0.382<br/>samples = 35<br/>value = [26, 9]<br/>class = negative>, fillcolor="#eead7e"] ;
7 -> 8 ;
9 [label=<X<SUB>965</SUB> &le; 0.5<br/>gini = 0.495<br/>samples = 20<br/>value = [11, 9]<br/>class = negative>, fillcolor="#fae8db"] ;
8 -> 9 ;
10 [label=<X<SUB>557</SUB> &le; 0.5<br/>gini = 0.408<br/>samples = 14<br/>value = [10, 4]<br/>class = negative>, fillcolor="#efb388"] ;
9 -> 10 ;
11 [label=<X<SUB>355</SUB> &le; 0.5<br/>gini = 0.278<br/>samples = 12<br/>value = [10, 2]<br/>class = negative>, fillcolor="#ea9a61"] ;
10 -> 11 ;
12 [label=<X<SUB>505</SUB> &le; 0.5<br/>gini = 0.165<br/>samples = 11<br/>value = [10, 1]<br/>class = negative>, fillcolor="#e88e4d"] ;
11 -> 12 ;
13 [label=<gini = 0.0<br/>samples = 10<br/>value = [10, 0]<br/>class = negative>, fillcolor="#e58139"] ;
12 -> 13 ;
14 [label=<gini = 0.0<br/>samples = 1<br/>value = [0, 1]<br/>class = positive>, fillcolor="#399de5"] ;
12 -> 14 ;
15 [label=<gini = 0.0<br/>samples = 1<br/>value = [0, 1]<br/>class = positive>, fillcolor="#399de5"] ;
11 -> 15 ;
16 [label=<gini = 0.0<br/>samples = 2<br/>value = [0, 2]<br/>class = positive>, fillcolor="#399de5"] ;
10 -> 16 ;
17 [label=<X<SUB>921</SUB> &le; 0.5<br/>gini = 0.278<br/>samples = 6<br/>value = [1, 5]<br/>class = positive>, fillcolor="#61b1ea"] ;
9 -> 17 ;
18 [label=<gini = 0.0<br/>samples = 5<br/>value = [0, 5]<br/>class = positive>, fillcolor="#399de5"] ;
17 -> 18 ;
19 [label=<gini = 0.0<br/>samples = 1<br/>value = [1, 0]<br/>class = negative>, fillcolor="#e58139"] ;
17 -> 19 ;
20 [label=<gini = 0.0<br/>samples = 15<br/>value = [15, 0]<br/>class = negative>, fillcolor="#e58139"] ;
8 -> 20 ;
21 [label=<X<SUB>696</SUB> &le; 0.5<br/>gini = 0.43<br/>samples = 16<br/>value = [5, 11]<br/>class = positive>, fillcolor="#93caf1"] ;
7 -> 21 ;
22 [label=<X<SUB>799</SUB> &le; 0.5<br/>gini = 0.337<br/>samples = 14<br/>value = [3, 11]<br/>class = positive>, fillcolor="#6fb8ec"] ;
21 -> 22 ;
23 [label=<X<SUB>16</SUB> &le; 0.5<br/>gini = 0.153<br/>samples = 12<br/>value = [1, 11]<br/>class = positive>, fillcolor="#4ba6e7"] ;
22 -> 23 ;
24 [label=<gini = 0.0<br/>samples = 11<br/>value = [0, 11]<br/>class = positive>, fillcolor="#399de5"] ;
23 -> 24 ;
25 [label=<gini = 0.0<br/>samples = 1<br/>value = [1, 0]<br/>class = negative>, fillcolor="#e58139"] ;
23 -> 25 ;
26 [label=<gini = 0.0<br/>samples = 2<br/>value = [2, 0]<br/>class = negative>, fillcolor="#e58139"] ;
22 -> 26 ;
27 [label=<gini = 0.0<br/>samples = 2<br/>value = [2, 0]<br/>class = negative>, fillcolor="#e58139"] ;
21 -> 27 ;
28 [label=<X<SUB>864</SUB> &le; 0.5<br/>gini = 0.245<br/>samples = 14<br/>value = [2, 12]<br/>class = positive>, fillcolor="#5aade9"] ;
6 -> 28 ;
29 [label=<gini = 0.0<br/>samples = 12<br/>value = [0, 12]<br/>class = positive>, fillcolor="#399de5"] ;
28 -> 29 ;
30 [label=<gini = 0.0<br/>samples = 2<br/>value = [2, 0]<br/>class = negative>, fillcolor="#e58139"] ;
28 -> 30 ;
31 [label=<X<SUB>948</SUB> &le; 0.5<br/>gini = 0.231<br/>samples = 15<br/>value = [2, 13]<br/>class = positive>, fillcolor="#57ace9"] ;
5 -> 31 ;
32 [label=<X<SUB>599</SUB> &le; 0.5<br/>gini = 0.133<br/>samples = 14<br/>value = [1, 13]<br/>class = positive>, fillcolor="#48a5e7"] ;
31 -> 32 ;
33 [label=<gini = 0.0<br/>samples = 13<br/>value = [0, 13]<br/>class = positive>, fillcolor="#399de5"] ;
32 -> 33 ;
34 [label=<gini = 0.0<br/>samples = 1<br/>value = [1, 0]<br/>class = negative>, fillcolor="#e58139"] ;
32 -> 34 ;
35 [label=<gini = 0.0<br/>samples = 1<br/>value = [1, 0]<br/>class = negative>, fillcolor="#e58139"] ;
31 -> 35 ;
36 [label=<X<SUB>706</SUB> &le; 0.5<br/>gini = 0.344<br/>samples = 59<br/>value = [46, 13]<br/>class = negative>, fillcolor="#eca571"] ;
4 -> 36 ;
37 [label=<X<SUB>105</SUB> &le; 0.5<br/>gini = 0.256<br/>samples = 53<br/>value = [45, 8]<br/>class = negative>, fillcolor="#ea975c"] ;
36 -> 37 ;
38 [label=<X<SUB>1023</SUB> &le; 0.5<br/>gini = 0.208<br/>samples = 51<br/>value = [45, 6]<br/>class = negative>, fillcolor="#e89253"] ;
37 -> 38 ;
39 [label=<X<SUB>826</SUB> &le; 0.5<br/>gini = 0.18<br/>samples = 50<br/>value = [45, 5]<br/>class = negative>, fillcolor="#e88f4f"] ;
38 -> 39 ;
40 [label=<X<SUB>973</SUB> &le; 0.5<br/>gini = 0.15<br/>samples = 49<br/>value = [45, 4]<br/>class = negative>, fillcolor="#e78c4b"] ;
39 -> 40 ;
41 [label=<X<SUB>158</SUB> &le; 0.5<br/>gini = 0.117<br/>samples = 48<br/>value = [45, 3]<br/>class = negative>, fillcolor="#e78946"] ;
40 -> 41 ;
42 [label=<X<SUB>611</SUB> &le; 0.5<br/>gini = 0.081<br/>samples = 47<br/>value = [45, 2]<br/>class = negative>, fillcolor="#e68742"] ;
41 -> 42 ;
43 [label=<X<SUB>949</SUB> &le; 0.5<br/>gini = 0.043<br/>samples = 46<br/>value = [45, 1]<br/>class = negative>, fillcolor="#e6843d"] ;
42 -> 43 ;
44 [label=<gini = 0.0<br/>samples = 45<br/>value = [45, 0]<br/>class = negative>, fillcolor="#e58139"] ;
43 -> 44 ;
45 [label=<gini = 0.0<br/>samples = 1<br/>value = [0, 1]<br/>class = positive>, fillcolor="#399de5"] ;
43 -> 45 ;
46 [label=<gini = 0.0<br/>samples = 1<br/>value = [0, 1]<br/>class = positive>, fillcolor="#399de5"] ;
42 -> 46 ;
47 [label=<gini = 0.0<br/>samples = 1<br/>value = [0, 1]<br/>class = positive>, fillcolor="#399de5"] ;
41 -> 47 ;
48 [label=<gini = 0.0<br/>samples = 1<br/>value = [0, 1]<br/>class = positive>, fillcolor="#399de5"] ;
40 -> 48 ;
49 [label=<gini = 0.0<br/>samples = 1<br/>value = [0, 1]<br/>class = positive>, fillcolor="#399de5"] ;
39 -> 49 ;
50 [label=<gini = 0.0<br/>samples = 1<br/>value = [0, 1]<br/>class = positive>, fillcolor="#399de5"] ;
38 -> 50 ;
51 [label=<gini = 0.0<br/>samples = 2<br/>value = [0, 2]<br/>class = positive>, fillcolor="#399de5"] ;
37 -> 51 ;
52 [label=<X<SUB>183</SUB> &le; 0.5<br/>gini = 0.278<br/>samples = 6<br/>value = [1, 5]<br/>class = positive>, fillcolor="#61b1ea"] ;
36 -> 52 ;
53 [label=<gini = 0.0<br/>samples = 5<br/>value = [0, 5]<br/>class = positive>, fillcolor="#399de5"] ;
52 -> 53 ;
54 [label=<gini = 0.0<br/>samples = 1<br/>value = [1, 0]<br/>class = negative>, fillcolor="#e58139"] ;
52 -> 54 ;
55 [label=<X<SUB>140</SUB> &le; 0.5<br/>gini = 0.33<br/>samples = 374<br/>value = [296, 78]<br/>class = negative>, fillcolor="#eca26d"] ;
3 -> 55 ;
56 [label=<X<SUB>792</SUB> &le; 0.5<br/>gini = 0.312<br/>samples = 367<br/>value = [296, 71]<br/>class = negative>, fillcolor="#eb9f68"] ;
55 -> 56 ;
57 [label=<X<SUB>715</SUB> &le; 0.5<br/>gini = 0.262<br/>samples = 329<br/>value = [278, 51]<br/>class = negative>, fillcolor="#ea985d"] ;
56 -> 57 ;
58 [label=<X<SUB>989</SUB> &le; 0.5<br/>gini = 0.245<br/>samples = 322<br/>value = [276, 46]<br/>class = negative>, fillcolor="#e9965a"] ;
57 -> 58 ;
59 [label=<X<SUB>493</SUB> &le; 0.5<br/>gini = 0.193<br/>samples = 259<br/>value = [231, 28]<br/>class = negative>, fillcolor="#e89051"] ;
58 -> 59 ;
60 [label=<X<SUB>159</SUB> &le; 0.5<br/>gini = 0.156<br/>samples = 235<br/>value = [215, 20]<br/>class = negative>, fillcolor="#e78d4b"] ;
59 -> 60 ;
61 [label=<X<SUB>1016</SUB> &le; 0.5<br/>gini = 0.137<br/>samples = 229<br/>value = [212, 17]<br/>class = negative>, fillcolor="#e78b49"] ;
60 -> 61 ;
62 [label=<X<SUB>686</SUB> &le; 0.5<br/>gini = 0.118<br/>samples = 223<br/>value = [209, 14]<br/>class = negative>, fillcolor="#e78946"] ;
61 -> 62 ;
63 [label=<X<SUB>644</SUB> &le; 0.5<br/>gini = 0.097<br/>samples = 216<br/>value = [205, 11]<br/>class = negative>, fillcolor="#e68844"] ;
62 -> 63 ;
64 [label=<X<SUB>622</SUB> &le; 0.5<br/>gini = 0.082<br/>samples = 211<br/>value = [202, 9]<br/>class = negative>, fillcolor="#e68742"] ;
63 -> 64 ;
65 [label=<X<SUB>795</SUB> &le; 0.5<br/>gini = 0.066<br/>samples = 205<br/>value = [198, 7]<br/>class = negative>, fillcolor="#e68540"] ;
64 -> 65 ;
66 [label=<gini = 0.057<br/>samples = 203<br/>value = [197, 6]<br/>class = negative>, fillcolor="#e6853f"] ;
65 -> 66 ;
67 [label=<gini = 0.5<br/>samples = 2<br/>value = [1, 1]<br/>class = negative>, fillcolor="#ffffff"] ;
65 -> 67 ;
68 [label=<X<SUB>383</SUB> &le; 0.5<br/>gini = 0.444<br/>samples = 6<br/>value = [4, 2]<br/>class = negative>, fillcolor="#f2c09c"] ;
64 -> 68 ;
69 [label=<gini = 0.0<br/>samples = 2<br/>value = [0, 2]<br/>class = positive>, fillcolor="#399de5"] ;
68 -> 69 ;
70 [label=<gini = 0.0<br/>samples = 4<br/>value = [4, 0]<br/>class = negative>, fillcolor="#e58139"] ;
68 -> 70 ;
71 [label=<X<SUB>447</SUB> &le; 0.5<br/>gini = 0.48<br/>samples = 5<br/>value = [3, 2]<br/>class = negative>, fillcolor="#f6d5bd"] ;
63 -> 71 ;
72 [label=<gini = 0.0<br/>samples = 3<br/>value = [3, 0]<br/>class = negative>, fillcolor="#e58139"] ;
71 -> 72 ;
73 [label=<gini = 0.0<br/>samples = 2<br/>value = [0, 2]<br/>class = positive>, fillcolor="#399de5"] ;
71 -> 73 ;
74 [label=<X<SUB>492</SUB> &le; 0.5<br/>gini = 0.49<br/>samples = 7<br/>value = [4, 3]<br/>class = negative>, fillcolor="#f8e0ce"] ;
62 -> 74 ;
75 [label=<gini = 0.0<br/>samples = 4<br/>value = [4, 0]<br/>class = negative>, fillcolor="#e58139"] ;
74 -> 75 ;
76 [label=<gini = 0.0<br/>samples = 3<br/>value = [0, 3]<br/>class = positive>, fillcolor="#399de5"] ;
74 -> 76 ;
77 [label=<X<SUB>595</SUB> &le; 0.5<br/>gini = 0.5<br/>samples = 6<br/>value = [3, 3]<br/>class = negative>, fillcolor="#ffffff"] ;
61 -> 77 ;
78 [label=<gini = 0.0<br/>samples = 3<br/>value = [3, 0]<br/>class = negative>, fillcolor="#e58139"] ;
77 -> 78 ;
79 [label=<gini = 0.0<br/>samples = 3<br/>value = [0, 3]<br/>class = positive>, fillcolor="#399de5"] ;
77 -> 79 ;
80 [label=<X<SUB>342</SUB> &le; 0.5<br/>gini = 0.5<br/>samples = 6<br/>value = [3, 3]<br/>class = negative>, fillcolor="#ffffff"] ;
60 -> 80 ;
81 [label=<gini = 0.0<br/>samples = 3<br/>value = [3, 0]<br/>class = negative>, fillcolor="#e58139"] ;
80 -> 81 ;
82 [label=<gini = 0.0<br/>samples = 3<br/>value = [0, 3]<br/>class = positive>, fillcolor="#399de5"] ;
80 -> 82 ;
83 [label=<X<SUB>391</SUB> &le; 0.5<br/>gini = 0.444<br/>samples = 24<br/>value = [16, 8]<br/>class = negative>, fillcolor="#f2c09c"] ;
59 -> 83 ;
84 [label=<X<SUB>759</SUB> &le; 0.5<br/>gini = 0.363<br/>samples = 21<br/>value = [16, 5]<br/>class = negative>, fillcolor="#eda877"] ;
83 -> 84 ;
85 [label=<X<SUB>631</SUB> &le; 0.5<br/>gini = 0.375<br/>samples = 4<br/>value = [1, 3]<br/>class = positive>, fillcolor="#7bbeee"] ;
84 -> 85 ;
86 [label=<gini = 0.0<br/>samples = 3<br/>value = [0, 3]<br/>class = positive>, fillcolor="#399de5"] ;
85 -> 86 ;
87 [label=<gini = 0.0<br/>samples = 1<br/>value = [1, 0]<br/>class = negative>, fillcolor="#e58139"] ;
85 -> 87 ;
88 [label=<X<SUB>591</SUB> &le; 0.5<br/>gini = 0.208<br/>samples = 17<br/>value = [15, 2]<br/>class = negative>, fillcolor="#e89253"] ;
84 -> 88 ;
89 [label=<X<SUB>158</SUB> &le; 0.5<br/>gini = 0.117<br/>samples = 16<br/>value = [15, 1]<br/>class = negative>, fillcolor="#e78946"] ;
88 -> 89 ;
90 [label=<gini = 0.0<br/>samples = 15<br/>value = [15, 0]<br/>class = negative>, fillcolor="#e58139"] ;
89 -> 90 ;
91 [label=<gini = 0.0<br/>samples = 1<br/>value = [0, 1]<br/>class = positive>, fillcolor="#399de5"] ;
89 -> 91 ;
92 [label=<gini = 0.0<br/>samples = 1<br/>value = [0, 1]<br/>class = positive>, fillcolor="#399de5"] ;
88 -> 92 ;
93 [label=<gini = 0.0<br/>samples = 3<br/>value = [0, 3]<br/>class = positive>, fillcolor="#399de5"] ;
83 -> 93 ;
94 [label=<X<SUB>470</SUB> &le; 0.5<br/>gini = 0.408<br/>samples = 63<br/>value = [45, 18]<br/>class = negative>, fillcolor="#efb388"] ;
58 -> 94 ;
95 [label=<X<SUB>139</SUB> &le; 0.5<br/>gini = 0.362<br/>samples = 59<br/>value = [45, 14]<br/>class = negative>, fillcolor="#eda877"] ;
94 -> 95 ;
96 [label=<X<SUB>114</SUB> &le; 0.5<br/>gini = 0.282<br/>samples = 53<br/>value = [44, 9]<br/>class = negative>, fillcolor="#ea9b61"] ;
95 -> 96 ;
97 [label=<X<SUB>422</SUB> &le; 0.5<br/>gini = 0.187<br/>samples = 48<br/>value = [43, 5]<br/>class = negative>, fillcolor="#e89050"] ;
96 -> 97 ;
98 [label=<X<SUB>955</SUB> &le; 0.5<br/>gini = 0.124<br/>samples = 45<br/>value = [42, 3]<br/>class = negative>, fillcolor="#e78a47"] ;
97 -> 98 ;
99 [label=<X<SUB>951</SUB> &le; 0.5<br/>gini = 0.087<br/>samples = 44<br/>value = [42, 2]<br/>class = negative>, fillcolor="#e68742"] ;
98 -> 99 ;
100 [label=<X<SUB>132</SUB> &le; 0.5<br/>gini = 0.045<br/>samples = 43<br/>value = [42, 1]<br/>class = negative>, fillcolor="#e6843e"] ;
99 -> 100 ;
101 [label=<gini = 0.0<br/>samples = 40<br/>value = [40, 0]<br/>class = negative>, fillcolor="#e58139"] ;
100 -> 101 ;
102 [label=<gini = 0.444<br/>samples = 3<br/>value = [2, 1]<br/>class = negative>, fillcolor="#f2c09c"] ;
100 -> 102 ;
103 [label=<gini = 0.0<br/>samples = 1<br/>value = [0, 1]<br/>class = positive>, fillcolor="#399de5"] ;
99 -> 103 ;
104 [label=<gini = 0.0<br/>samples = 1<br/>value = [0, 1]<br/>class = positive>, fillcolor="#399de5"] ;
98 -> 104 ;
105 [label=<X<SUB>657</SUB> &le; 0.5<br/>gini = 0.444<br/>samples = 3<br/>value = [1, 2]<br/>class = positive>, fillcolor="#9ccef2"] ;
97 -> 105 ;
106 [label=<gini = 0.0<br/>samples = 2<br/>value = [0, 2]<br/>class = positive>, fillcolor="#399de5"] ;
105 -> 106 ;
107 [label=<gini = 0.0<br/>samples = 1<br/>value = [1, 0]<br/>class = negative>, fillcolor="#e58139"] ;
105 -> 107 ;
108 [label=<X<SUB>530</SUB> &le; 0.5<br/>gini = 0.32<br/>samples = 5<br/>value = [1, 4]<br/>class = positive>, fillcolor="#6ab6ec"] ;
96 -> 108 ;
109 [label=<gini = 0.0<br/>samples = 4<br/>value = [0, 4]<br/>class = positive>, fillcolor="#399de5"] ;
108 -> 109 ;
110 [label=<gini = 0.0<br/>samples = 1<br/>value = [1, 0]<br/>class = negative>, fillcolor="#e58139"] ;
108 -> 110 ;
111 [label=<X<SUB>581</SUB> &le; 0.5<br/>gini = 0.278<br/>samples = 6<br/>value = [1, 5]<br/>class = positive>, fillcolor="#61b1ea"] ;
95 -> 111 ;
112 [label=<gini = 0.0<br/>samples = 5<br/>value = [0, 5]<br/>class = positive>, fillcolor="#399de5"] ;
111 -> 112 ;
113 [label=<gini = 0.0<br/>samples = 1<br/>value = [1, 0]<br/>class = negative>, fillcolor="#e58139"] ;
111 -> 113 ;
114 [label=<gini = 0.0<br/>samples = 4<br/>value = [0, 4]<br/>class = positive>, fillcolor="#399de5"] ;
94 -> 114 ;
115 [label=<X<SUB>556</SUB> &le; 0.5<br/>gini = 0.408<br/>samples = 7<br/>value = [2, 5]<br/>class = positive>, fillcolor="#88c4ef"] ;
57 -> 115 ;
116 [label=<gini = 0.0<br/>samples = 2<br/>value = [2, 0]<br/>class = negative>, fillcolor="#e58139"] ;
115 -> 116 ;
117 [label=<gini = 0.0<br/>samples = 5<br/>value = [0, 5]<br/>class = positive>, fillcolor="#399de5"] ;
115 -> 117 ;
118 [label=<X<SUB>753</SUB> &le; 0.5<br/>gini = 0.499<br/>samples = 38<br/>value = [18, 20]<br/>class = positive>, fillcolor="#ebf5fc"] ;
56 -> 118 ;
119 [label=<X<SUB>856</SUB> &le; 0.5<br/>gini = 0.444<br/>samples = 30<br/>value = [10, 20]<br/>class = positive>, fillcolor="#9ccef2"] ;
118 -> 119 ;
120 [label=<X<SUB>386</SUB> &le; 0.5<br/>gini = 0.33<br/>samples = 24<br/>value = [5, 19]<br/>class = positive>, fillcolor="#6db7ec"] ;
119 -> 120 ;
121 [label=<X<SUB>281</SUB> &le; 0.5<br/>gini = 0.245<br/>samples = 21<br/>value = [3, 18]<br/>class = positive>, fillcolor="#5aade9"] ;
120 -> 121 ;
122 [label=<X<SUB>689</SUB> &le; 0.5<br/>gini = 0.105<br/>samples = 18<br/>value = [1, 17]<br/>class = positive>, fillcolor="#45a3e7"] ;
121 -> 122 ;
123 [label=<gini = 0.0<br/>samples = 17<br/>value = [0, 17]<br/>class = positive>, fillcolor="#399de5"] ;
122 -> 123 ;
124 [label=<gini = 0.0<br/>samples = 1<br/>value = [1, 0]<br/>class = negative>, fillcolor="#e58139"] ;
122 -> 124 ;
125 [label=<X<SUB>26</SUB> &le; 0.5<br/>gini = 0.444<br/>samples = 3<br/>value = [2, 1]<br/>class = negative>, fillcolor="#f2c09c"] ;
121 -> 125 ;
126 [label=<gini = 0.0<br/>samples = 2<br/>value = [2, 0]<br/>class = negative>, fillcolor="#e58139"] ;
125 -> 126 ;
127 [label=<gini = 0.0<br/>samples = 1<br/>value = [0, 1]<br/>class = positive>, fillcolor="#399de5"] ;
125 -> 127 ;
128 [label=<X<SUB>559</SUB> &le; 0.5<br/>gini = 0.444<br/>samples = 3<br/>value = [2, 1]<br/>class = negative>, fillcolor="#f2c09c"] ;
120 -> 128 ;
129 [label=<gini = 0.0<br/>samples = 2<br/>value = [2, 0]<br/>class = negative>, fillcolor="#e58139"] ;
128 -> 129 ;
130 [label=<gini = 0.0<br/>samples = 1<br/>value = [0, 1]<br/>class = positive>, fillcolor="#399de5"] ;
128 -> 130 ;
131 [label=<X<SUB>11</SUB> &le; 0.5<br/>gini = 0.278<br/>samples = 6<br/>value = [5, 1]<br/>class = negative>, fillcolor="#ea9a61"] ;
119 -> 131 ;
132 [label=<gini = 0.0<br/>samples = 5<br/>value = [5, 0]<br/>class = negative>, fillcolor="#e58139"] ;
131 -> 132 ;
133 [label=<gini = 0.0<br/>samples = 1<br/>value = [0, 1]<br/>class = positive>, fillcolor="#399de5"] ;
131 -> 133 ;
134 [label=<gini = 0.0<br/>samples = 8<br/>value = [8, 0]<br/>class = negative>, fillcolor="#e58139"] ;
118 -> 134 ;
135 [label=<gini = 0.0<br/>samples = 7<br/>value = [0, 7]<br/>class = positive>, fillcolor="#399de5"] ;
55 -> 135 ;
136 [label=<X<SUB>796</SUB> &le; 0.5<br/>gini = 0.451<br/>samples = 35<br/>value = [12, 23]<br/>class = positive>, fillcolor="#a0d0f3"] ;
2 -> 136 ;
137 [label=<X<SUB>903</SUB> &le; 0.5<br/>gini = 0.496<br/>samples = 22<br/>value = [12, 10]<br/>class = negative>, fillcolor="#fbeade"] ;
136 -> 137 ;
138 [label=<X<SUB>394</SUB> &le; 0.5<br/>gini = 0.337<br/>samples = 14<br/>value = [11, 3]<br/>class = negative>, fillcolor="#eca36f"] ;
137 -> 138 ;
139 [label=<gini = 0.0<br/>samples = 10<br/>value = [10, 0]<br/>class = negative>, fillcolor="#e58139"] ;
138 -> 139 ;
140 [label=<X<SUB>640</SUB> &le; 0.5<br/>gini = 0.375<br/>samples = 4<br/>value = [1, 3]<br/>class = positive>, fillcolor="#7bbeee"] ;
138 -> 140 ;
141 [label=<gini = 0.0<br/>samples = 3<br/>value = [0, 3]<br/>class = positive>, fillcolor="#399de5"] ;
140 -> 141 ;
142 [label=<gini = 0.0<br/>samples = 1<br/>value = [1, 0]<br/>class = negative>, fillcolor="#e58139"] ;
140 -> 142 ;
143 [label=<X<SUB>536</SUB> &le; 0.5<br/>gini = 0.219<br/>samples = 8<br/>value = [1, 7]<br/>class = positive>, fillcolor="#55abe9"] ;
137 -> 143 ;
144 [label=<gini = 0.0<br/>samples = 7<br/>value = [0, 7]<br/>class = positive>, fillcolor="#399de5"] ;
143 -> 144 ;
145 [label=<gini = 0.0<br/>samples = 1<br/>value = [1, 0]<br/>class = negative>, fillcolor="#e58139"] ;
143 -> 145 ;
146 [label=<gini = 0.0<br/>samples = 13<br/>value = [0, 13]<br/>class = positive>, fillcolor="#399de5"] ;
136 -> 146 ;
147 [label=<X<SUB>662</SUB> &le; 0.5<br/>gini = 0.474<br/>samples = 184<br/>value = [71, 113]<br/>class = positive>, fillcolor="#b5dbf5"] ;
1 -> 147 ;
148 [label=<X<SUB>771</SUB> &le; 0.5<br/>gini = 0.497<br/>samples = 109<br/>value = [59, 50]<br/>class = negative>, fillcolor="#fbece1"] ;
147 -> 148 ;
149 [label=<X<SUB>176</SUB> &le; 0.5<br/>gini = 0.5<br/>samples = 95<br/>value = [46, 49]<br/>class = positive>, fillcolor="#f3f9fd"] ;
148 -> 149 ;
150 [label=<X<SUB>606</SUB> &le; 0.5<br/>gini = 0.49<br/>samples = 86<br/>value = [37, 49]<br/>class = positive>, fillcolor="#cfe7f9"] ;
149 -> 150 ;
151 [label=<X<SUB>717</SUB> &le; 0.5<br/>gini = 0.498<br/>samples = 79<br/>value = [37, 42]<br/>class = positive>, fillcolor="#e7f3fc"] ;
150 -> 151 ;
152 [label=<X<SUB>0</SUB> &le; 0.5<br/>gini = 0.493<br/>samples = 75<br/>value = [33, 42]<br/>class = positive>, fillcolor="#d5eaf9"] ;
151 -> 152 ;
153 [label=<X<SUB>640</SUB> &le; 0.5<br/>gini = 0.475<br/>samples = 62<br/>value = [24, 38]<br/>class = positive>, fillcolor="#b6dbf5"] ;
152 -> 153 ;
154 [label=<X<SUB>884</SUB> &le; 0.5<br/>gini = 0.493<br/>samples = 25<br/>value = [14, 11]<br/>class = negative>, fillcolor="#f9e4d5"] ;
153 -> 154 ;
155 [label=<X<SUB>1015</SUB> &le; 0.5<br/>gini = 0.469<br/>samples = 16<br/>value = [6, 10]<br/>class = positive>, fillcolor="#b0d8f5"] ;
154 -> 155 ;
156 [label=<X<SUB>571</SUB> &le; 0.5<br/>gini = 0.496<br/>samples = 11<br/>value = [6, 5]<br/>class = negative>, fillcolor="#fbeade"] ;
155 -> 156 ;
157 [label=<X<SUB>465</SUB> &le; 0.5<br/>gini = 0.444<br/>samples = 9<br/>value = [6, 3]<br/>class = negative>, fillcolor="#f2c09c"] ;
156 -> 157 ;
158 [label=<X<SUB>1018</SUB> &le; 0.5<br/>gini = 0.48<br/>samples = 5<br/>value = [2, 3]<br/>class = positive>, fillcolor="#bddef6"] ;
157 -> 158 ;
159 [label=<gini = 0.375<br/>samples = 4<br/>value = [1, 3]<br/>class = positive>, fillcolor="#7bbeee"] ;
158 -> 159 ;
160 [label=<gini = 0.0<br/>samples = 1<br/>value = [1, 0]<br/>class = negative>, fillcolor="#e58139"] ;
158 -> 160 ;
161 [label=<gini = 0.0<br/>samples = 4<br/>value = [4, 0]<br/>class = negative>, fillcolor="#e58139"] ;
157 -> 161 ;
162 [label=<gini = 0.0<br/>samples = 2<br/>value = [0, 2]<br/>class = positive>, fillcolor="#399de5"] ;
156 -> 162 ;
163 [label=<gini = 0.0<br/>samples = 5<br/>value = [0, 5]<br/>class = positive>, fillcolor="#399de5"] ;
155 -> 163 ;
164 [label=<X<SUB>973</SUB> &le; 0.5<br/>gini = 0.198<br/>samples = 9<br/>value = [8, 1]<br/>class = negative>, fillcolor="#e89152"] ;
154 -> 164 ;
165 [label=<gini = 0.0<br/>samples = 8<br/>value = [8, 0]<br/>class = negative>, fillcolor="#e58139"] ;
164 -> 165 ;
166 [label=<gini = 0.0<br/>samples = 1<br/>value = [0, 1]<br/>class = positive>, fillcolor="#399de5"] ;
164 -> 166 ;
167 [label=<X<SUB>1004</SUB> &le; 0.5<br/>gini = 0.394<br/>samples = 37<br/>value = [10, 27]<br/>class = positive>, fillcolor="#82c1ef"] ;
153 -> 167 ;
168 [label=<X<SUB>374</SUB> &le; 0.5<br/>gini = 0.353<br/>samples = 35<br/>value = [8, 27]<br/>class = positive>, fillcolor="#74baed"] ;
167 -> 168 ;
169 [label=<X<SUB>40</SUB> &le; 0.5<br/>gini = 0.305<br/>samples = 32<br/>value = [6, 26]<br/>class = positive>, fillcolor="#67b4eb"] ;
168 -> 169 ;
170 [label=<X<SUB>36</SUB> &le; 0.5<br/>gini = 0.238<br/>samples = 29<br/>value = [4, 25]<br/>class = positive>, fillcolor="#59ade9"] ;
169 -> 170 ;
171 [label=<X<SUB>264</SUB> &le; 0.5<br/>gini = 0.191<br/>samples = 28<br/>value = [3, 25]<br/>class = positive>, fillcolor="#51a9e8"] ;
170 -> 171 ;
172 [label=<X<SUB>730</SUB> &le; 0.5<br/>gini = 0.137<br/>samples = 27<br/>value = [2, 25]<br/>class = positive>, fillcolor="#49a5e7"] ;
171 -> 172 ;
173 [label=<gini = 0.077<br/>samples = 25<br/>value = [1, 24]<br/>class = positive>, fillcolor="#41a1e6"] ;
172 -> 173 ;
174 [label=<gini = 0.5<br/>samples = 2<br/>value = [1, 1]<br/>class = negative>, fillcolor="#ffffff"] ;
172 -> 174 ;
175 [label=<gini = 0.0<br/>samples = 1<br/>value = [1, 0]<br/>class = negative>, fillcolor="#e58139"] ;
171 -> 175 ;
176 [label=<gini = 0.0<br/>samples = 1<br/>value = [1, 0]<br/>class = negative>, fillcolor="#e58139"] ;
170 -> 176 ;
177 [label=<X<SUB>305</SUB> &le; 0.5<br/>gini = 0.444<br/>samples = 3<br/>value = [2, 1]<br/>class = negative>, fillcolor="#f2c09c"] ;
169 -> 177 ;
178 [label=<gini = 0.0<br/>samples = 1<br/>value = [0, 1]<br/>class = positive>, fillcolor="#399de5"] ;
177 -> 178 ;
179 [label=<gini = 0.0<br/>samples = 2<br/>value = [2, 0]<br/>class = negative>, fillcolor="#e58139"] ;
177 -> 179 ;
180 [label=<X<SUB>524</SUB> &le; 0.5<br/>gini = 0.444<br/>samples = 3<br/>value = [2, 1]<br/>class = negative>, fillcolor="#f2c09c"] ;
168 -> 180 ;
181 [label=<gini = 0.0<br/>samples = 2<br/>value = [2, 0]<br/>class = negative>, fillcolor="#e58139"] ;
180 -> 181 ;
182 [label=<gini = 0.0<br/>samples = 1<br/>value = [0, 1]<br/>class = positive>, fillcolor="#399de5"] ;
180 -> 182 ;
183 [label=<gini = 0.0<br/>samples = 2<br/>value = [2, 0]<br/>class = negative>, fillcolor="#e58139"] ;
167 -> 183 ;
184 [label=<X<SUB>103</SUB> &le; 0.5<br/>gini = 0.426<br/>samples = 13<br/>value = [9, 4]<br/>class = negative>, fillcolor="#f1b991"] ;
152 -> 184 ;
185 [label=<X<SUB>498</SUB> &le; 0.5<br/>gini = 0.298<br/>samples = 11<br/>value = [9, 2]<br/>class = negative>, fillcolor="#eb9d65"] ;
184 -> 185 ;
186 [label=<gini = 0.0<br/>samples = 9<br/>value = [9, 0]<br/>class = negative>, fillcolor="#e58139"] ;
185 -> 186 ;
187 [label=<gini = 0.0<br/>samples = 2<br/>value = [0, 2]<br/>class = positive>, fillcolor="#399de5"] ;
185 -> 187 ;
188 [label=<gini = 0.0<br/>samples = 2<br/>value = [0, 2]<br/>class = positive>, fillcolor="#399de5"] ;
184 -> 188 ;
189 [label=<gini = 0.0<br/>samples = 4<br/>value = [4, 0]<br/>class = negative>, fillcolor="#e58139"] ;
151 -> 189 ;
190 [label=<gini = 0.0<br/>samples = 7<br/>value = [0, 7]<br/>class = positive>, fillcolor="#399de5"] ;
150 -> 190 ;
191 [label=<gini = 0.0<br/>samples = 9<br/>value = [9, 0]<br/>class = negative>, fillcolor="#e58139"] ;
149 -> 191 ;
192 [label=<X<SUB>238</SUB> &le; 0.5<br/>gini = 0.133<br/>samples = 14<br/>value = [13, 1]<br/>class = negative>, fillcolor="#e78b48"] ;
148 -> 192 ;
193 [label=<gini = 0.0<br/>samples = 13<br/>value = [13, 0]<br/>class = negative>, fillcolor="#e58139"] ;
192 -> 193 ;
194 [label=<gini = 0.0<br/>samples = 1<br/>value = [0, 1]<br/>class = positive>, fillcolor="#399de5"] ;
192 -> 194 ;
195 [label=<X<SUB>668</SUB> &le; 0.5<br/>gini = 0.269<br/>samples = 75<br/>value = [12, 63]<br/>class = positive>, fillcolor="#5fb0ea"] ;
147 -> 195 ;
196 [label=<X<SUB>563</SUB> &le; 0.5<br/>gini = 0.185<br/>samples = 68<br/>value = [7, 61]<br/>class = positive>, fillcolor="#50a8e8"] ;
195 -> 196 ;
197 [label=<X<SUB>204</SUB> &le; 0.5<br/>gini = 0.14<br/>samples = 66<br/>value = [5, 61]<br/>class = positive>, fillcolor="#49a5e7"] ;
196 -> 197 ;
198 [label=<X<SUB>366</SUB> &le; 0.5<br/>gini = 0.089<br/>samples = 64<br/>value = [3, 61]<br/>class = positive>, fillcolor="#43a2e6"] ;
197 -> 198 ;
199 [label=<X<SUB>43</SUB> &le; 0.5<br/>gini = 0.061<br/>samples = 63<br/>value = [2, 61]<br/>class = positive>, fillcolor="#3fa0e6"] ;
198 -> 199 ;
200 [label=<X<SUB>979</SUB> &le; 0.5<br/>gini = 0.032<br/>samples = 62<br/>value = [1, 61]<br/>class = positive>, fillcolor="#3c9fe5"] ;
199 -> 200 ;
201 [label=<gini = 0.0<br/>samples = 61<br/>value = [0, 61]<br/>class = positive>, fillcolor="#399de5"] ;
200 -> 201 ;
202 [label=<gini = 0.0<br/>samples = 1<br/>value = [1, 0]<br/>class = negative>, fillcolor="#e58139"] ;
200 -> 202 ;
203 [label=<gini = 0.0<br/>samples = 1<br/>value = [1, 0]<br/>class = negative>, fillcolor="#e58139"] ;
199 -> 203 ;
204 [label=<gini = 0.0<br/>samples = 1<br/>value = [1, 0]<br/>class = negative>, fillcolor="#e58139"] ;
198 -> 204 ;
205 [label=<gini = 0.0<br/>samples = 2<br/>value = [2, 0]<br/>class = negative>, fillcolor="#e58139"] ;
197 -> 205 ;
206 [label=<gini = 0.0<br/>samples = 2<br/>value = [2, 0]<br/>class = negative>, fillcolor="#e58139"] ;
196 -> 206 ;
207 [label=<X<SUB>1007</SUB> &le; 0.5<br/>gini = 0.408<br/>samples = 7<br/>value = [5, 2]<br/>class = negative>, fillcolor="#efb388"] ;
195 -> 207 ;
208 [label=<X<SUB>15</SUB> &le; 0.5<br/>gini = 0.444<br/>samples = 3<br/>value = [1, 2]<br/>class = positive>, fillcolor="#9ccef2"] ;
207 -> 208 ;
209 [label=<gini = 0.0<br/>samples = 1<br/>value = [1, 0]<br/>class = negative>, fillcolor="#e58139"] ;
208 -> 209 ;
210 [label=<gini = 0.0<br/>samples = 2<br/>value = [0, 2]<br/>class = positive>, fillcolor="#399de5"] ;
208 -> 210 ;
211 [label=<gini = 0.0<br/>samples = 4<br/>value = [4, 0]<br/>class = negative>, fillcolor="#e58139"] ;
207 -> 211 ;
212 [label=<X<SUB>890</SUB> &le; 0.5<br/>gini = 0.312<br/>samples = 305<br/>value = [59, 246]<br/>class = positive>, fillcolor="#68b5eb"] ;
0 -> 212 [labeldistance=2.5, labelangle=-45, headlabel="False"] ;
213 [label=<X<SUB>749</SUB> &le; 0.5<br/>gini = 0.231<br/>samples = 263<br/>value = [35, 228]<br/>class = positive>, fillcolor="#57ace9"] ;
212 -> 213 ;
214 [label=<X<SUB>324</SUB> &le; 0.5<br/>gini = 0.161<br/>samples = 238<br/>value = [21, 217]<br/>class = positive>, fillcolor="#4ca6e8"] ;
213 -> 214 ;
215 [label=<X<SUB>808</SUB> &le; 0.5<br/>gini = 0.148<br/>samples = 236<br/>value = [19, 217]<br/>class = positive>, fillcolor="#4aa6e7"] ;
214 -> 215 ;
216 [label=<X<SUB>962</SUB> &le; 0.5<br/>gini = 0.135<br/>samples = 234<br/>value = [17, 217]<br/>class = positive>, fillcolor="#49a5e7"] ;
215 -> 216 ;
217 [label=<X<SUB>933</SUB> &le; 0.5<br/>gini = 0.115<br/>samples = 229<br/>value = [14, 215]<br/>class = positive>, fillcolor="#46a3e7"] ;
216 -> 217 ;
218 [label=<X<SUB>737</SUB> &le; 0.5<br/>gini = 0.087<br/>samples = 219<br/>value = [10, 209]<br/>class = positive>, fillcolor="#42a2e6"] ;
217 -> 218 ;
219 [label=<X<SUB>464</SUB> &le; 0.5<br/>gini = 0.079<br/>samples = 218<br/>value = [9, 209]<br/>class = positive>, fillcolor="#42a1e6"] ;
218 -> 219 ;
220 [label=<X<SUB>221</SUB> &le; 0.5<br/>gini = 0.071<br/>samples = 217<br/>value = [8, 209]<br/>class = positive>, fillcolor="#41a1e6"] ;
219 -> 220 ;
221 [label=<X<SUB>329</SUB> &le; 0.5<br/>gini = 0.063<br/>samples = 216<br/>value = [7, 209]<br/>class = positive>, fillcolor="#40a0e6"] ;
220 -> 221 ;
222 [label=<X<SUB>703</SUB> &le; 0.5<br/>gini = 0.054<br/>samples = 215<br/>value = [6, 209]<br/>class = positive>, fillcolor="#3fa0e6"] ;
221 -> 222 ;
223 [label=<X<SUB>772</SUB> &le; 0.5<br/>gini = 0.037<br/>samples = 210<br/>value = [4, 206]<br/>class = positive>, fillcolor="#3d9fe6"] ;
222 -> 223 ;
224 [label=<X<SUB>142</SUB> &le; 0.5<br/>gini = 0.028<br/>samples = 208<br/>value = [3, 205]<br/>class = positive>, fillcolor="#3c9ee5"] ;
223 -> 224 ;
225 [label=<X<SUB>83</SUB> &le; 0.5<br/>gini = 0.019<br/>samples = 206<br/>value = [2, 204]<br/>class = positive>, fillcolor="#3b9ee5"] ;
224 -> 225 ;
226 [label=<gini = 0.01<br/>samples = 204<br/>value = [1, 203]<br/>class = positive>, fillcolor="#3a9de5"] ;
225 -> 226 ;
227 [label=<gini = 0.5<br/>samples = 2<br/>value = [1, 1]<br/>class = negative>, fillcolor="#ffffff"] ;
225 -> 227 ;
228 [label=<X<SUB>720</SUB> &le; 0.5<br/>gini = 0.5<br/>samples = 2<br/>value = [1, 1]<br/>class = negative>, fillcolor="#ffffff"] ;
224 -> 228 ;
229 [label=<gini = 0.0<br/>samples = 1<br/>value = [0, 1]<br/>class = positive>, fillcolor="#399de5"] ;
228 -> 229 ;
230 [label=<gini = 0.0<br/>samples = 1<br/>value = [1, 0]<br/>class = negative>, fillcolor="#e58139"] ;
228 -> 230 ;
231 [label=<X<SUB>773</SUB> &le; 0.5<br/>gini = 0.5<br/>samples = 2<br/>value = [1, 1]<br/>class = negative>, fillcolor="#ffffff"] ;
223 -> 231 ;
232 [label=<gini = 0.0<br/>samples = 1<br/>value = [0, 1]<br/>class = positive>, fillcolor="#399de5"] ;
231 -> 232 ;
233 [label=<gini = 0.0<br/>samples = 1<br/>value = [1, 0]<br/>class = negative>, fillcolor="#e58139"] ;
231 -> 233 ;
234 [label=<X<SUB>479</SUB> &le; 0.5<br/>gini = 0.48<br/>samples = 5<br/>value = [2, 3]<br/>class = positive>, fillcolor="#bddef6"] ;
222 -> 234 ;
235 [label=<gini = 0.0<br/>samples = 3<br/>value = [0, 3]<br/>class = positive>, fillcolor="#399de5"] ;
234 -> 235 ;
236 [label=<gini = 0.0<br/>samples = 2<br/>value = [2, 0]<br/>class = negative>, fillcolor="#e58139"] ;
234 -> 236 ;
237 [label=<gini = 0.0<br/>samples = 1<br/>value = [1, 0]<br/>class = negative>, fillcolor="#e58139"] ;
221 -> 237 ;
238 [label=<gini = 0.0<br/>samples = 1<br/>value = [1, 0]<br/>class = negative>, fillcolor="#e58139"] ;
220 -> 238 ;
239 [label=<gini = 0.0<br/>samples = 1<br/>value = [1, 0]<br/>class = negative>, fillcolor="#e58139"] ;
219 -> 239 ;
240 [label=<gini = 0.0<br/>samples = 1<br/>value = [1, 0]<br/>class = negative>, fillcolor="#e58139"] ;
218 -> 240 ;
241 [label=<X<SUB>629</SUB> &le; 0.5<br/>gini = 0.48<br/>samples = 10<br/>value = [4, 6]<br/>class = positive>, fillcolor="#bddef6"] ;
217 -> 241 ;
242 [label=<X<SUB>751</SUB> &le; 0.5<br/>gini = 0.32<br/>samples = 5<br/>value = [4, 1]<br/>class = negative>, fillcolor="#eca06a"] ;
241 -> 242 ;
243 [label=<gini = 0.0<br/>samples = 4<br/>value = [4, 0]<br/>class = negative>, fillcolor="#e58139"] ;
242 -> 243 ;
244 [label=<gini = 0.0<br/>samples = 1<br/>value = [0, 1]<br/>class = positive>, fillcolor="#399de5"] ;
242 -> 244 ;
245 [label=<gini = 0.0<br/>samples = 5<br/>value = [0, 5]<br/>class = positive>, fillcolor="#399de5"] ;
241 -> 245 ;
246 [label=<X<SUB>27</SUB> &le; 0.5<br/>gini = 0.48<br/>samples = 5<br/>value = [3, 2]<br/>class = negative>, fillcolor="#f6d5bd"] ;
216 -> 246 ;
247 [label=<gini = 0.0<br/>samples = 3<br/>value = [3, 0]<br/>class = negative>, fillcolor="#e58139"] ;
246 -> 247 ;
248 [label=<gini = 0.0<br/>samples = 2<br/>value = [0, 2]<br/>class = positive>, fillcolor="#399de5"] ;
246 -> 248 ;
249 [label=<gini = 0.0<br/>samples = 2<br/>value = [2, 0]<br/>class = negative>, fillcolor="#e58139"] ;
215 -> 249 ;
250 [label=<gini = 0.0<br/>samples = 2<br/>value = [2, 0]<br/>class = negative>, fillcolor="#e58139"] ;
214 -> 250 ;
251 [label=<X<SUB>999</SUB> &le; 0.5<br/>gini = 0.493<br/>samples = 25<br/>value = [14, 11]<br/>class = negative>, fillcolor="#f9e4d5"] ;
213 -> 251 ;
252 [label=<X<SUB>721</SUB> &le; 0.5<br/>gini = 0.42<br/>samples = 20<br/>value = [14, 6]<br/>class = negative>, fillcolor="#f0b78e"] ;
251 -> 252 ;
253 [label=<X<SUB>487</SUB> &le; 0.5<br/>gini = 0.291<br/>samples = 17<br/>value = [14, 3]<br/>class = negative>, fillcolor="#eb9c63"] ;
252 -> 253 ;
254 [label=<X<SUB>527</SUB> &le; 0.5<br/>gini = 0.124<br/>samples = 15<br/>value = [14, 1]<br/>class = negative>, fillcolor="#e78a47"] ;
253 -> 254 ;
255 [label=<gini = 0.0<br/>samples = 14<br/>value = [14, 0]<br/>class = negative>, fillcolor="#e58139"] ;
254 -> 255 ;
256 [label=<gini = 0.0<br/>samples = 1<br/>value = [0, 1]<br/>class = positive>, fillcolor="#399de5"] ;
254 -> 256 ;
257 [label=<gini = 0.0<br/>samples = 2<br/>value = [0, 2]<br/>class = positive>, fillcolor="#399de5"] ;
253 -> 257 ;
258 [label=<gini = 0.0<br/>samples = 3<br/>value = [0, 3]<br/>class = positive>, fillcolor="#399de5"] ;
252 -> 258 ;
259 [label=<gini = 0.0<br/>samples = 5<br/>value = [0, 5]<br/>class = positive>, fillcolor="#399de5"] ;
251 -> 259 ;
260 [label=<X<SUB>212</SUB> &le; 0.5<br/>gini = 0.49<br/>samples = 42<br/>value = [24, 18]<br/>class = negative>, fillcolor="#f8e0ce"] ;
212 -> 260 ;
261 [label=<X<SUB>490</SUB> &le; 0.5<br/>gini = 0.431<br/>samples = 35<br/>value = [24, 11]<br/>class = negative>, fillcolor="#f1bb94"] ;
260 -> 261 ;
262 [label=<X<SUB>373</SUB> &le; 0.5<br/>gini = 0.5<br/>samples = 22<br/>value = [11, 11]<br/>class = negative>, fillcolor="#ffffff"] ;
261 -> 262 ;
263 [label=<X<SUB>829</SUB> &le; 0.5<br/>gini = 0.408<br/>samples = 14<br/>value = [4, 10]<br/>class = positive>, fillcolor="#88c4ef"] ;
262 -> 263 ;
264 [label=<X<SUB>109</SUB> &le; 0.5<br/>gini = 0.278<br/>samples = 12<br/>value = [2, 10]<br/>class = positive>, fillcolor="#61b1ea"] ;
263 -> 264 ;
265 [label=<X<SUB>332</SUB> &le; 0.5<br/>gini = 0.165<br/>samples = 11<br/>value = [1, 10]<br/>class = positive>, fillcolor="#4da7e8"] ;
264 -> 265 ;
266 [label=<gini = 0.0<br/>samples = 10<br/>value = [0, 10]<br/>class = positive>, fillcolor="#399de5"] ;
265 -> 266 ;
267 [label=<gini = 0.0<br/>samples = 1<br/>value = [1, 0]<br/>class = negative>, fillcolor="#e58139"] ;
265 -> 267 ;
268 [label=<gini = 0.0<br/>samples = 1<br/>value = [1, 0]<br/>class = negative>, fillcolor="#e58139"] ;
264 -> 268 ;
269 [label=<gini = 0.0<br/>samples = 2<br/>value = [2, 0]<br/>class = negative>, fillcolor="#e58139"] ;
263 -> 269 ;
270 [label=<X<SUB>442</SUB> &le; 0.5<br/>gini = 0.219<br/>samples = 8<br/>value = [7, 1]<br/>class = negative>, fillcolor="#e99355"] ;
262 -> 270 ;
271 [label=<gini = 0.0<br/>samples = 7<br/>value = [7, 0]<br/>class = negative>, fillcolor="#e58139"] ;
270 -> 271 ;
272 [label=<gini = 0.0<br/>samples = 1<br/>value = [0, 1]<br/>class = positive>, fillcolor="#399de5"] ;
270 -> 272 ;
273 [label=<gini = 0.0<br/>samples = 13<br/>value = [13, 0]<br/>class = negative>, fillcolor="#e58139"] ;
261 -> 273 ;
274 [label=<gini = 0.0<br/>samples = 7<br/>value = [0, 7]<br/>class = positive>, fillcolor="#399de5"] ;
260 -> 274 ;
}