digraph Tree {
node [shape=box, style="filled, rounded", color="black", fontname=helvetica] ;
edge [fontname=helvetica] ;
0 [label=<time &le; 62.0<br/>gini = 0.436<br/>samples = 240<br/>value = [163, 77]<br/>class = 0>, fillcolor="#f1bd97"] ;
1 [label=<creatinine_phosphokinase &le; 110.5<br/>gini = 0.208<br/>samples = 51<br/>value = [6, 45]<br/>class = 1>, fillcolor="#53aae8"] ;
0 -> 1 [labeldistance=2.5, labelangle=45, headlabel="True"] ;
2 [label=<gini = 0.463<br/>samples = 11<br/>value = [4, 7]<br/>class = 1>, fillcolor="#aad5f4"] ;
1 -> 2 ;
3 [label=<gini = 0.095<br/>samples = 40<br/>value = [2, 38]<br/>class = 1>, fillcolor="#43a2e6"] ;
1 -> 3 ;
4 [label=<serum_creatinine &le; 1.55<br/>gini = 0.281<br/>samples = 189<br/>value = [157, 32]<br/>class = 0>, fillcolor="#ea9b61"] ;
0 -> 4 [labeldistance=2.5, labelangle=-45, headlabel="False"] ;
5 [label=<gini = 0.173<br/>samples = 157<br/>value = [142, 15]<br/>class = 0>, fillcolor="#e88e4e"] ;
4 -> 5 ;
6 [label=<gini = 0.498<br/>samples = 32<br/>value = [15, 17]<br/>class = 1>, fillcolor="#e8f3fc"] ;
4 -> 6 ;
}