digraph Tree {
node [shape=box, style="filled, rounded", color="black", fontname=helvetica] ;
edge [fontname=helvetica] ;
0 [label=<time &le; -0.733<br/>entropy = 0.905<br/>samples = 240<br/>value = [163, 77]<br/>class = 0>, fillcolor="#f1bd97"] ;
1 [label=<serum_sodium &le; -0.052<br/>entropy = 0.709<br/>samples = 62<br/>value = [12, 50]<br/>class = 1>, fillcolor="#69b5eb"] ;
0 -> 1 [labeldistance=2.5, labelangle=45, headlabel="True"] ;
2 [label=<entropy = 0.316<br/>samples = 35<br/>value = [2, 33]<br/>class = 1>, fillcolor="#45a3e7"] ;
1 -> 2 ;
3 [label=<entropy = 0.951<br/>samples = 27<br/>value = [10, 17]<br/>class = 1>, fillcolor="#add7f4"] ;
1 -> 3 ;
4 [label=<ejection_fraction &le; -0.475<br/>entropy = 0.614<br/>samples = 178<br/>value = [151, 27]<br/>class = 0>, fillcolor="#ea985c"] ;
0 -> 4 [labeldistance=2.5, labelangle=-45, headlabel="False"] ;
5 [label=<entropy = 0.981<br/>samples = 43<br/>value = [25, 18]<br/>class = 0>, fillcolor="#f8dcc8"] ;
4 -> 5 ;
6 [label=<entropy = 0.353<br/>samples = 135<br/>value = [126, 9]<br/>class = 0>, fillcolor="#e78a47"] ;
4 -> 6 ;
}