digraph Tree {
node [shape=box, style="filled, rounded", color="black", fontname=helvetica] ;
edge [fontname=helvetica] ;
0 [label=<time &le; -0.797<br/>gini = 0.436<br/>samples = 240<br/>value = [163, 77]<br/>class = 0>, fillcolor="#f1bd97"] ;
1 [label=<serum_sodium &le; -0.052<br/>gini = 0.241<br/>samples = 57<br/>value = [8, 49]<br/>class = 1>, fillcolor="#59ade9"] ;
0 -> 1 [labeldistance=2.5, labelangle=45, headlabel="True"] ;
2 [label=<ejection_fraction &le; 0.816<br/>gini = 0.067<br/>samples = 29<br/>value = [1, 28]<br/>class = 1>, fillcolor="#40a0e6"] ;
1 -> 2 ;
3 [label=<gini = 0.0<br/>samples = 24<br/>value = [0, 24]<br/>class = 1>, fillcolor="#399de5"] ;
2 -> 3 ;
4 [label=<anaemia &le; 0.138<br/>gini = 0.32<br/>samples = 5<br/>value = [1, 4]<br/>class = 1>, fillcolor="#6ab6ec"] ;
2 -> 4 ;
5 [label=<gini = 0.0<br/>samples = 1<br/>value = [1, 0]<br/>class = 0>, fillcolor="#e58139"] ;
4 -> 5 ;
6 [label=<gini = 0.0<br/>samples = 4<br/>value = [0, 4]<br/>class = 1>, fillcolor="#399de5"] ;
4 -> 6 ;
7 [label=<creatinine_phosphokinase &le; -0.897<br/>gini = 0.375<br/>samples = 28<br/>value = [7, 21]<br/>class = 1>, fillcolor="#7bbeee"] ;
1 -> 7 ;
8 [label=<gini = 0.0<br/>samples = 2<br/>value = [2, 0]<br/>class = 0>, fillcolor="#e58139"] ;
7 -> 8 ;
9 [label=<serum_sodium &le; 0.685<br/>gini = 0.311<br/>samples = 26<br/>value = [5, 21]<br/>class = 1>, fillcolor="#68b4eb"] ;
7 -> 9 ;
10 [label=<high_blood_pressure &le; 0.312<br/>gini = 0.444<br/>samples = 15<br/>value = [5, 10]<br/>class = 1>, fillcolor="#9ccef2"] ;
9 -> 10 ;
11 [label=<time &le; -1.423<br/>gini = 0.469<br/>samples = 8<br/>value = [5, 3]<br/>class = 0>, fillcolor="#f5cdb0"] ;
10 -> 11 ;
12 [label=<gini = 0.0<br/>samples = 3<br/>value = [0, 3]<br/>class = 1>, fillcolor="#399de5"] ;
11 -> 12 ;
13 [label=<gini = 0.0<br/>samples = 5<br/>value = [5, 0]<br/>class = 0>, fillcolor="#e58139"] ;
11 -> 13 ;
14 [label=<gini = 0.0<br/>samples = 7<br/>value = [0, 7]<br/>class = 1>, fillcolor="#399de5"] ;
10 -> 14 ;
15 [label=<gini = 0.0<br/>samples = 11<br/>value = [0, 11]<br/>class = 1>, fillcolor="#399de5"] ;
9 -> 15 ;
16 [label=<ejection_fraction &le; -0.475<br/>gini = 0.259<br/>samples = 183<br/>value = [155, 28]<br/>class = 0>, fillcolor="#ea985d"] ;
0 -> 16 [labeldistance=2.5, labelangle=-45, headlabel="False"] ;
17 [label=<serum_creatinine &le; -0.418<br/>gini = 0.468<br/>samples = 51<br/>value = [32, 19]<br/>class = 0>, fillcolor="#f4ccaf"] ;
16 -> 17 ;
18 [label=<time &le; -0.616<br/>gini = 0.105<br/>samples = 18<br/>value = [17, 1]<br/>class = 0>, fillcolor="#e78845"] ;
17 -> 18 ;
19 [label=<gini = 0.0<br/>samples = 1<br/>value = [0, 1]<br/>class = 1>, fillcolor="#399de5"] ;
18 -> 19 ;
20 [label=<gini = 0.0<br/>samples = 17<br/>value = [17, 0]<br/>class = 0>, fillcolor="#e58139"] ;
18 -> 20 ;
21 [label=<platelets &le; 0.846<br/>gini = 0.496<br/>samples = 33<br/>value = [15, 18]<br/>class = 1>, fillcolor="#deeffb"] ;
17 -> 21 ;
22 [label=<ejection_fraction &le; -1.335<br/>gini = 0.497<br/>samples = 28<br/>value = [15, 13]<br/>class = 0>, fillcolor="#fceee5"] ;
21 -> 22 ;
23 [label=<gini = 0.0<br/>samples = 5<br/>value = [0, 5]<br/>class = 1>, fillcolor="#399de5"] ;
22 -> 23 ;
24 [label=<serum_sodium &le; 0.562<br/>gini = 0.454<br/>samples = 23<br/>value = [15, 8]<br/>class = 0>, fillcolor="#f3c4a3"] ;
22 -> 24 ;
25 [label=<platelets &le; -0.174<br/>gini = 0.488<br/>samples = 19<br/>value = [11, 8]<br/>class = 0>, fillcolor="#f8ddc9"] ;
24 -> 25 ;
26 [label=<creatinine_phosphokinase &le; -0.939<br/>gini = 0.444<br/>samples = 9<br/>value = [3, 6]<br/>class = 1>, fillcolor="#9ccef2"] ;
25 -> 26 ;
27 [label=<gini = 0.0<br/>samples = 3<br/>value = [3, 0]<br/>class = 0>, fillcolor="#e58139"] ;
26 -> 27 ;
28 [label=<gini = 0.0<br/>samples = 6<br/>value = [0, 6]<br/>class = 1>, fillcolor="#399de5"] ;
26 -> 28 ;
29 [label=<serum_creatinine &le; -0.186<br/>gini = 0.32<br/>samples = 10<br/>value = [8, 2]<br/>class = 0>, fillcolor="#eca06a"] ;
25 -> 29 ;
30 [label=<gini = 0.0<br/>samples = 1<br/>value = [0, 1]<br/>class = 1>, fillcolor="#399de5"] ;
29 -> 30 ;
31 [label=<smoking &le; 0.383<br/>gini = 0.198<br/>samples = 9<br/>value = [8, 1]<br/>class = 0>, fillcolor="#e89152"] ;
29 -> 31 ;
32 [label=<gini = 0.0<br/>samples = 6<br/>value = [6, 0]<br/>class = 0>, fillcolor="#e58139"] ;
31 -> 32 ;
33 [label=<ejection_fraction &le; -0.905<br/>gini = 0.444<br/>samples = 3<br/>value = [2, 1]<br/>class = 0>, fillcolor="#f2c09c"] ;
31 -> 33 ;
34 [label=<gini = 0.0<br/>samples = 1<br/>value = [0, 1]<br/>class = 1>, fillcolor="#399de5"] ;
33 -> 34 ;
35 [label=<gini = 0.0<br/>samples = 2<br/>value = [2, 0]<br/>class = 0>, fillcolor="#e58139"] ;
33 -> 35 ;
36 [label=<gini = 0.0<br/>samples = 4<br/>value = [4, 0]<br/>class = 0>, fillcolor="#e58139"] ;
24 -> 36 ;
37 [label=<gini = 0.0<br/>samples = 5<br/>value = [0, 5]<br/>class = 1>, fillcolor="#399de5"] ;
21 -> 37 ;
38 [label=<age &le; 0.856<br/>gini = 0.127<br/>samples = 132<br/>value = [123, 9]<br/>class = 0>, fillcolor="#e78a47"] ;
16 -> 38 ;
39 [label=<serum_creatinine &le; -1.35<br/>gini = 0.052<br/>samples = 112<br/>value = [109, 3]<br/>class = 0>, fillcolor="#e6843e"] ;
38 -> 39 ;
40 [label=<gini = 0.0<br/>samples = 1<br/>value = [0, 1]<br/>class = 1>, fillcolor="#399de5"] ;
39 -> 40 ;
41 [label=<platelets &le; -2.049<br/>gini = 0.035<br/>samples = 111<br/>value = [109, 2]<br/>class = 0>, fillcolor="#e5833d"] ;
39 -> 41 ;
42 [label=<ejection_fraction &le; -0.13<br/>gini = 0.375<br/>samples = 4<br/>value = [3, 1]<br/>class = 0>, fillcolor="#eeab7b"] ;
41 -> 42 ;
43 [label=<gini = 0.0<br/>samples = 1<br/>value = [0, 1]<br/>class = 1>, fillcolor="#399de5"] ;
42 -> 43 ;
44 [label=<gini = 0.0<br/>samples = 3<br/>value = [3, 0]<br/>class = 0>, fillcolor="#e58139"] ;
42 -> 44 ;
45 [label=<age &le; 0.73<br/>gini = 0.019<br/>samples = 107<br/>value = [106, 1]<br/>class = 0>, fillcolor="#e5823b"] ;
41 -> 45 ;
46 [label=<gini = 0.0<br/>samples = 96<br/>value = [96, 0]<br/>class = 0>, fillcolor="#e58139"] ;
45 -> 46 ;
47 [label=<ejection_fraction &le; 1.461<br/>gini = 0.165<br/>samples = 11<br/>value = [10, 1]<br/>class = 0>, fillcolor="#e88e4d"] ;
45 -> 47 ;
48 [label=<gini = 0.0<br/>samples = 8<br/>value = [8, 0]<br/>class = 0>, fillcolor="#e58139"] ;
47 -> 48 ;
49 [label=<serum_creatinine &le; -0.069<br/>gini = 0.444<br/>samples = 3<br/>value = [2, 1]<br/>class = 0>, fillcolor="#f2c09c"] ;
47 -> 49 ;
50 [label=<gini = 0.0<br/>samples = 2<br/>value = [2, 0]<br/>class = 0>, fillcolor="#e58139"] ;
49 -> 50 ;
51 [label=<gini = 0.0<br/>samples = 1<br/>value = [0, 1]<br/>class = 1>, fillcolor="#399de5"] ;
49 -> 51 ;
52 [label=<time &le; 0.687<br/>gini = 0.42<br/>samples = 20<br/>value = [14, 6]<br/>class = 0>, fillcolor="#f0b78e"] ;
38 -> 52 ;
53 [label=<time &le; -0.287<br/>gini = 0.497<br/>samples = 13<br/>value = [7, 6]<br/>class = 0>, fillcolor="#fbede3"] ;
52 -> 53 ;
54 [label=<age &le; 1.867<br/>gini = 0.278<br/>samples = 6<br/>value = [5, 1]<br/>class = 0>, fillcolor="#ea9a61"] ;
53 -> 54 ;
55 [label=<gini = 0.0<br/>samples = 4<br/>value = [4, 0]<br/>class = 0>, fillcolor="#e58139"] ;
54 -> 55 ;
56 [label=<serum_sodium &le; -0.421<br/>gini = 0.5<br/>samples = 2<br/>value = [1, 1]<br/>class = 0>, fillcolor="#ffffff"] ;
54 -> 56 ;
57 [label=<gini = 0.0<br/>samples = 1<br/>value = [0, 1]<br/>class = 1>, fillcolor="#399de5"] ;
56 -> 57 ;
58 [label=<gini = 0.0<br/>samples = 1<br/>value = [1, 0]<br/>class = 0>, fillcolor="#e58139"] ;
56 -> 58 ;
59 [label=<ejection_fraction &le; -0.13<br/>gini = 0.408<br/>samples = 7<br/>value = [2, 5]<br/>class = 1>, fillcolor="#88c4ef"] ;
53 -> 59 ;
60 [label=<gini = 0.0<br/>samples = 1<br/>value = [1, 0]<br/>class = 0>, fillcolor="#e58139"] ;
59 -> 60 ;
61 [label=<age &le; 1.825<br/>gini = 0.278<br/>samples = 6<br/>value = [1, 5]<br/>class = 1>, fillcolor="#61b1ea"] ;
59 -> 61 ;
62 [label=<gini = 0.0<br/>samples = 5<br/>value = [0, 5]<br/>class = 1>, fillcolor="#399de5"] ;
61 -> 62 ;
63 [label=<gini = 0.0<br/>samples = 1<br/>value = [1, 0]<br/>class = 0>, fillcolor="#e58139"] ;
61 -> 63 ;
64 [label=<gini = 0.0<br/>samples = 7<br/>value = [7, 0]<br/>class = 0>, fillcolor="#e58139"] ;
52 -> 64 ;
}