digraph Tree {
node [shape=box, style="filled, rounded", color="black", fontname=helvetica] ;
edge [fontname=helvetica] ;
0 [label=<time &le; -0.733<br/>gini = 0.436<br/>samples = 240<br/>value = [163, 77]<br/>class = 0>, fillcolor="#f1bd97"] ;
1 [label=<serum_sodium &le; -0.085<br/>gini = 0.255<br/>samples = 60<br/>value = [9, 51]<br/>class = 1>, fillcolor="#5caeea"] ;
0 -> 1 [labeldistance=2.5, labelangle=45, headlabel="True"] ;
2 [label=<ejection_fraction &le; 0.982<br/>gini = 0.061<br/>samples = 32<br/>value = [1, 31]<br/>class = 1>, fillcolor="#3fa0e6"] ;
1 -> 2 ;
3 [label=<gini = 0.0<br/>samples = 26<br/>value = [0, 26]<br/>class = 1>, fillcolor="#399de5"] ;
2 -> 3 ;
4 [label=<anaemia &le; 0.138<br/>gini = 0.278<br/>samples = 6<br/>value = [1, 5]<br/>class = 1>, fillcolor="#61b1ea"] ;
2 -> 4 ;
5 [label=<gini = 0.0<br/>samples = 1<br/>value = [1, 0]<br/>class = 0>, fillcolor="#e58139"] ;
4 -> 5 ;
6 [label=<gini = 0.0<br/>samples = 5<br/>value = [0, 5]<br/>class = 1>, fillcolor="#399de5"] ;
4 -> 6 ;
7 [label=<age &le; 0.532<br/>gini = 0.408<br/>samples = 28<br/>value = [8, 20]<br/>class = 1>, fillcolor="#88c4ef"] ;
1 -> 7 ;
8 [label=<time &le; -1.055<br/>gini = 0.488<br/>samples = 19<br/>value = [8, 11]<br/>class = 1>, fillcolor="#c9e4f8"] ;
7 -> 8 ;
9 [label=<serum_creatinine &le; -0.077<br/>gini = 0.375<br/>samples = 12<br/>value = [3, 9]<br/>class = 1>, fillcolor="#7bbeee"] ;
8 -> 9 ;
10 [label=<gini = 0.0<br/>samples = 6<br/>value = [0, 6]<br/>class = 1>, fillcolor="#399de5"] ;
9 -> 10 ;
11 [label=<serum_creatinine &le; 0.527<br/>gini = 0.5<br/>samples = 6<br/>value = [3, 3]<br/>class = 0>, fillcolor="#ffffff"] ;
9 -> 11 ;
12 [label=<gini = 0.0<br/>samples = 2<br/>value = [2, 0]<br/>class = 0>, fillcolor="#e58139"] ;
11 -> 12 ;
13 [label=<creatinine_phosphokinase &le; 0.63<br/>gini = 0.375<br/>samples = 4<br/>value = [1, 3]<br/>class = 1>, fillcolor="#7bbeee"] ;
11 -> 13 ;
14 [label=<gini = 0.0<br/>samples = 3<br/>value = [0, 3]<br/>class = 1>, fillcolor="#399de5"] ;
13 -> 14 ;
15 [label=<gini = 0.0<br/>samples = 1<br/>value = [1, 0]<br/>class = 0>, fillcolor="#e58139"] ;
13 -> 15 ;
16 [label=<ejection_fraction &le; -0.724<br/>gini = 0.408<br/>samples = 7<br/>value = [5, 2]<br/>class = 0>, fillcolor="#efb388"] ;
8 -> 16 ;
17 [label=<gini = 0.0<br/>samples = 2<br/>value = [0, 2]<br/>class = 1>, fillcolor="#399de5"] ;
16 -> 17 ;
18 [label=<gini = 0.0<br/>samples = 5<br/>value = [5, 0]<br/>class = 0>, fillcolor="#e58139"] ;
16 -> 18 ;
19 [label=<gini = 0.0<br/>samples = 9<br/>value = [0, 9]<br/>class = 1>, fillcolor="#399de5"] ;
7 -> 19 ;
20 [label=<serum_creatinine &le; 1.131<br/>gini = 0.247<br/>samples = 180<br/>value = [154, 26]<br/>class = 0>, fillcolor="#e9965a"] ;
0 -> 20 [labeldistance=2.5, labelangle=-45, headlabel="False"] ;
21 [label=<ejection_fraction &le; -0.967<br/>gini = 0.116<br/>samples = 146<br/>value = [137, 9]<br/>class = 0>, fillcolor="#e78946"] ;
20 -> 21 ;
22 [label=<age &le; -0.717<br/>gini = 0.444<br/>samples = 18<br/>value = [12, 6]<br/>class = 0>, fillcolor="#f2c09c"] ;
21 -> 22 ;
23 [label=<gini = 0.0<br/>samples = 4<br/>value = [4, 0]<br/>class = 0>, fillcolor="#e58139"] ;
22 -> 23 ;
24 [label=<time &le; 1.036<br/>gini = 0.49<br/>samples = 14<br/>value = [8, 6]<br/>class = 0>, fillcolor="#f8e0ce"] ;
22 -> 24 ;
25 [label=<time &le; 0.629<br/>gini = 0.444<br/>samples = 12<br/>value = [8, 4]<br/>class = 0>, fillcolor="#f2c09c"] ;
24 -> 25 ;
26 [label=<time &le; -0.152<br/>gini = 0.5<br/>samples = 8<br/>value = [4, 4]<br/>class = 0>, fillcolor="#ffffff"] ;
25 -> 26 ;
27 [label=<serum_creatinine &le; -0.378<br/>gini = 0.32<br/>samples = 5<br/>value = [4, 1]<br/>class = 0>, fillcolor="#eca06a"] ;
26 -> 27 ;
28 [label=<gini = 0.0<br/>samples = 1<br/>value = [0, 1]<br/>class = 1>, fillcolor="#399de5"] ;
27 -> 28 ;
29 [label=<gini = 0.0<br/>samples = 4<br/>value = [4, 0]<br/>class = 0>, fillcolor="#e58139"] ;
27 -> 29 ;
30 [label=<gini = 0.0<br/>samples = 3<br/>value = [0, 3]<br/>class = 1>, fillcolor="#399de5"] ;
26 -> 30 ;
31 [label=<gini = 0.0<br/>samples = 4<br/>value = [4, 0]<br/>class = 0>, fillcolor="#e58139"] ;
25 -> 31 ;
32 [label=<gini = 0.0<br/>samples = 2<br/>value = [0, 2]<br/>class = 1>, fillcolor="#399de5"] ;
24 -> 32 ;
33 [label=<age &le; 1.647<br/>gini = 0.046<br/>samples = 128<br/>value = [125, 3]<br/>class = 0>, fillcolor="#e6843e"] ;
21 -> 33 ;
34 [label=<gini = 0.016<br/>samples = 122<br/>value = [121, 1]<br/>class = 0>, fillcolor="#e5823b"] ;
33 -> 34 ;
35 [label=<serum_creatinine &le; 0.044<br/>gini = 0.444<br/>samples = 6<br/>value = [4, 2]<br/>class = 0>, fillcolor="#f2c09c"] ;
33 -> 35 ;
36 [label=<gini = 0.0<br/>samples = 3<br/>value = [3, 0]<br/>class = 0>, fillcolor="#e58139"] ;
35 -> 36 ;
37 [label=<creatinine_phosphokinase &le; 1.527<br/>gini = 0.444<br/>samples = 3<br/>value = [1, 2]<br/>class = 1>, fillcolor="#9ccef2"] ;
35 -> 37 ;
38 [label=<gini = 0.0<br/>samples = 2<br/>value = [0, 2]<br/>class = 1>, fillcolor="#399de5"] ;
37 -> 38 ;
39 [label=<gini = 0.0<br/>samples = 1<br/>value = [1, 0]<br/>class = 0>, fillcolor="#e58139"] ;
37 -> 39 ;
40 [label=<creatinine_phosphokinase &le; -1.027<br/>gini = 0.5<br/>samples = 34<br/>value = [17, 17]<br/>class = 0>, fillcolor="#ffffff"] ;
20 -> 40 ;
41 [label=<gini = 0.0<br/>samples = 5<br/>value = [5, 0]<br/>class = 0>, fillcolor="#e58139"] ;
40 -> 41 ;
42 [label=<time &le; 1.036<br/>gini = 0.485<br/>samples = 29<br/>value = [12, 17]<br/>class = 1>, fillcolor="#c5e2f7"] ;
40 -> 42 ;
43 [label=<high_blood_pressure &le; 0.312<br/>gini = 0.423<br/>samples = 23<br/>value = [7, 16]<br/>class = 1>, fillcolor="#90c8f0"] ;
42 -> 43 ;
44 [label=<platelets &le; -0.477<br/>gini = 0.498<br/>samples = 15<br/>value = [7, 8]<br/>class = 1>, fillcolor="#e6f3fc"] ;
43 -> 44 ;
45 [label=<platelets &le; -0.922<br/>gini = 0.278<br/>samples = 6<br/>value = [1, 5]<br/>class = 1>, fillcolor="#61b1ea"] ;
44 -> 45 ;
46 [label=<ejection_fraction &le; -0.967<br/>gini = 0.5<br/>samples = 2<br/>value = [1, 1]<br/>class = 0>, fillcolor="#ffffff"] ;
45 -> 46 ;
47 [label=<gini = 0.0<br/>samples = 1<br/>value = [1, 0]<br/>class = 0>, fillcolor="#e58139"] ;
46 -> 47 ;
48 [label=<gini = 0.0<br/>samples = 1<br/>value = [0, 1]<br/>class = 1>, fillcolor="#399de5"] ;
46 -> 48 ;
49 [label=<gini = 0.0<br/>samples = 4<br/>value = [0, 4]<br/>class = 1>, fillcolor="#399de5"] ;
45 -> 49 ;
50 [label=<anaemia &le; 0.138<br/>gini = 0.444<br/>samples = 9<br/>value = [6, 3]<br/>class = 0>, fillcolor="#f2c09c"] ;
44 -> 50 ;
51 [label=<ejection_fraction &le; -0.724<br/>gini = 0.48<br/>samples = 5<br/>value = [2, 3]<br/>class = 1>, fillcolor="#bddef6"] ;
50 -> 51 ;
52 [label=<gini = 0.0<br/>samples = 2<br/>value = [0, 2]<br/>class = 1>, fillcolor="#399de5"] ;
51 -> 52 ;
53 [label=<age &le; 1.825<br/>gini = 0.444<br/>samples = 3<br/>value = [2, 1]<br/>class = 0>, fillcolor="#f2c09c"] ;
51 -> 53 ;
54 [label=<gini = 0.0<br/>samples = 2<br/>value = [2, 0]<br/>class = 0>, fillcolor="#e58139"] ;
53 -> 54 ;
55 [label=<gini = 0.0<br/>samples = 1<br/>value = [0, 1]<br/>class = 1>, fillcolor="#399de5"] ;
53 -> 55 ;
56 [label=<gini = 0.0<br/>samples = 4<br/>value = [4, 0]<br/>class = 0>, fillcolor="#e58139"] ;
50 -> 56 ;
57 [label=<gini = 0.0<br/>samples = 8<br/>value = [0, 8]<br/>class = 1>, fillcolor="#399de5"] ;
43 -> 57 ;
58 [label=<ejection_fraction &le; -1.455<br/>gini = 0.278<br/>samples = 6<br/>value = [5, 1]<br/>class = 0>, fillcolor="#ea9a61"] ;
42 -> 58 ;
59 [label=<gini = 0.0<br/>samples = 1<br/>value = [0, 1]<br/>class = 1>, fillcolor="#399de5"] ;
58 -> 59 ;
60 [label=<gini = 0.0<br/>samples = 5<br/>value = [5, 0]<br/>class = 0>, fillcolor="#e58139"] ;
58 -> 60 ;
}