digraph Tree {
node [shape=box, style="filled, rounded", color="black", fontname=helvetica] ;
edge [fontname=helvetica] ;
0 [label=<time &le; -0.726<br/>gini = 0.5<br/>samples = 154<br/>value = [77, 77]<br/>class = 0>, fillcolor="#ffffff"] ;
1 [label=<serum_sodium &le; -0.028<br/>gini = 0.165<br/>samples = 55<br/>value = [5, 50]<br/>class = 1>, fillcolor="#4da7e8"] ;
0 -> 1 [labeldistance=2.5, labelangle=45, headlabel="True"] ;
2 [label=<gini = 0.0<br/>samples = 28<br/>value = [0, 28]<br/>class = 1>, fillcolor="#399de5"] ;
1 -> 2 ;
3 [label=<serum_sodium &le; 0.426<br/>gini = 0.302<br/>samples = 27<br/>value = [5, 22]<br/>class = 1>, fillcolor="#66b3eb"] ;
1 -> 3 ;
4 [label=<time &le; -1.533<br/>gini = 0.496<br/>samples = 11<br/>value = [5, 6]<br/>class = 1>, fillcolor="#deeffb"] ;
3 -> 4 ;
5 [label=<gini = 0.0<br/>samples = 4<br/>value = [0, 4]<br/>class = 1>, fillcolor="#399de5"] ;
4 -> 5 ;
6 [label=<creatinine_phosphokinase &le; -0.187<br/>gini = 0.408<br/>samples = 7<br/>value = [5, 2]<br/>class = 0>, fillcolor="#efb388"] ;
4 -> 6 ;
7 [label=<gini = 0.0<br/>samples = 4<br/>value = [4, 0]<br/>class = 0>, fillcolor="#e58139"] ;
6 -> 7 ;
8 [label=<time &le; -1.055<br/>gini = 0.444<br/>samples = 3<br/>value = [1, 2]<br/>class = 1>, fillcolor="#9ccef2"] ;
6 -> 8 ;
9 [label=<gini = 0.0<br/>samples = 2<br/>value = [0, 2]<br/>class = 1>, fillcolor="#399de5"] ;
8 -> 9 ;
10 [label=<gini = 0.0<br/>samples = 1<br/>value = [1, 0]<br/>class = 0>, fillcolor="#e58139"] ;
8 -> 10 ;
11 [label=<gini = 0.0<br/>samples = 16<br/>value = [0, 16]<br/>class = 1>, fillcolor="#399de5"] ;
3 -> 11 ;
12 [label=<ejection_fraction &le; -0.896<br/>gini = 0.397<br/>samples = 99<br/>value = [72, 27]<br/>class = 0>, fillcolor="#efb083"] ;
0 -> 12 [labeldistance=2.5, labelangle=-45, headlabel="False"] ;
13 [label=<creatinine_phosphokinase &le; 0.35<br/>gini = 0.463<br/>samples = 22<br/>value = [8, 14]<br/>class = 1>, fillcolor="#aad5f4"] ;
12 -> 13 ;
14 [label=<ejection_fraction &le; -1.319<br/>gini = 0.494<br/>samples = 18<br/>value = [8, 10]<br/>class = 1>, fillcolor="#d7ebfa"] ;
13 -> 14 ;
15 [label=<gini = 0.0<br/>samples = 3<br/>value = [0, 3]<br/>class = 1>, fillcolor="#399de5"] ;
14 -> 15 ;
16 [label=<anaemia &le; 0.138<br/>gini = 0.498<br/>samples = 15<br/>value = [8, 7]<br/>class = 0>, fillcolor="#fcefe6"] ;
14 -> 16 ;
17 [label=<diabetes &le; 0.166<br/>gini = 0.245<br/>samples = 7<br/>value = [6, 1]<br/>class = 0>, fillcolor="#e9965a"] ;
16 -> 17 ;
18 [label=<gini = 0.0<br/>samples = 5<br/>value = [5, 0]<br/>class = 0>, fillcolor="#e58139"] ;
17 -> 18 ;
19 [label=<serum_creatinine &le; 0.006<br/>gini = 0.5<br/>samples = 2<br/>value = [1, 1]<br/>class = 0>, fillcolor="#ffffff"] ;
17 -> 19 ;
20 [label=<gini = 0.0<br/>samples = 1<br/>value = [0, 1]<br/>class = 1>, fillcolor="#399de5"] ;
19 -> 20 ;
21 [label=<gini = 0.0<br/>samples = 1<br/>value = [1, 0]<br/>class = 0>, fillcolor="#e58139"] ;
19 -> 21 ;
22 [label=<serum_sodium &le; 0.426<br/>gini = 0.375<br/>samples = 8<br/>value = [2, 6]<br/>class = 1>, fillcolor="#7bbeee"] ;
16 -> 22 ;
23 [label=<gini = 0.0<br/>samples = 5<br/>value = [0, 5]<br/>class = 1>, fillcolor="#399de5"] ;
22 -> 23 ;
24 [label=<high_blood_pressure &le; 0.312<br/>gini = 0.444<br/>samples = 3<br/>value = [2, 1]<br/>class = 0>, fillcolor="#f2c09c"] ;
22 -> 24 ;
25 [label=<gini = 0.0<br/>samples = 2<br/>value = [2, 0]<br/>class = 0>, fillcolor="#e58139"] ;
24 -> 25 ;
26 [label=<gini = 0.0<br/>samples = 1<br/>value = [0, 1]<br/>class = 1>, fillcolor="#399de5"] ;
24 -> 26 ;
27 [label=<gini = 0.0<br/>samples = 4<br/>value = [0, 4]<br/>class = 1>, fillcolor="#399de5"] ;
13 -> 27 ;
28 [label=<serum_creatinine &le; 0.408<br/>gini = 0.281<br/>samples = 77<br/>value = [64, 13]<br/>class = 0>, fillcolor="#ea9b61"] ;
12 -> 28 ;
29 [label=<platelets &le; -1.637<br/>gini = 0.216<br/>samples = 73<br/>value = [64, 9]<br/>class = 0>, fillcolor="#e99355"] ;
28 -> 29 ;
30 [label=<gini = 0.0<br/>samples = 2<br/>value = [0, 2]<br/>class = 1>, fillcolor="#399de5"] ;
29 -> 30 ;
31 [label=<age &le; 1.572<br/>gini = 0.178<br/>samples = 71<br/>value = [64, 7]<br/>class = 0>, fillcolor="#e88f4f"] ;
29 -> 31 ;
32 [label=<platelets &le; 3.212<br/>gini = 0.114<br/>samples = 66<br/>value = [62, 4]<br/>class = 0>, fillcolor="#e78946"] ;
31 -> 32 ;
33 [label=<serum_creatinine &le; -0.72<br/>gini = 0.088<br/>samples = 65<br/>value = [62, 3]<br/>class = 0>, fillcolor="#e68743"] ;
32 -> 33 ;
34 [label=<time &le; 0.81<br/>gini = 0.5<br/>samples = 2<br/>value = [1, 1]<br/>class = 0>, fillcolor="#ffffff"] ;
33 -> 34 ;
35 [label=<gini = 0.0<br/>samples = 1<br/>value = [0, 1]<br/>class = 1>, fillcolor="#399de5"] ;
34 -> 35 ;
36 [label=<gini = 0.0<br/>samples = 1<br/>value = [1, 0]<br/>class = 0>, fillcolor="#e58139"] ;
34 -> 36 ;
37 [label=<creatinine_phosphokinase &le; 1.827<br/>gini = 0.061<br/>samples = 63<br/>value = [61, 2]<br/>class = 0>, fillcolor="#e6853f"] ;
33 -> 37 ;
38 [label=<gini = 0.032<br/>samples = 61<br/>value = [60, 1]<br/>class = 0>, fillcolor="#e5833c"] ;
37 -> 38 ;
39 [label=<diabetes &le; 0.166<br/>gini = 0.5<br/>samples = 2<br/>value = [1, 1]<br/>class = 0>, fillcolor="#ffffff"] ;
37 -> 39 ;
40 [label=<gini = 0.0<br/>samples = 1<br/>value = [1, 0]<br/>class = 0>, fillcolor="#e58139"] ;
39 -> 40 ;
41 [label=<gini = 0.0<br/>samples = 1<br/>value = [0, 1]<br/>class = 1>, fillcolor="#399de5"] ;
39 -> 41 ;
42 [label=<gini = 0.0<br/>samples = 1<br/>value = [0, 1]<br/>class = 1>, fillcolor="#399de5"] ;
32 -> 42 ;
43 [label=<serum_sodium &le; -0.255<br/>gini = 0.48<br/>samples = 5<br/>value = [2, 3]<br/>class = 1>, fillcolor="#bddef6"] ;
31 -> 43 ;
44 [label=<gini = 0.0<br/>samples = 3<br/>value = [0, 3]<br/>class = 1>, fillcolor="#399de5"] ;
43 -> 44 ;
45 [label=<gini = 0.0<br/>samples = 2<br/>value = [2, 0]<br/>class = 0>, fillcolor="#e58139"] ;
43 -> 45 ;
46 [label=<gini = 0.0<br/>samples = 4<br/>value = [0, 4]<br/>class = 1>, fillcolor="#399de5"] ;
28 -> 46 ;
}