digraph Tree {
node [shape=box, style="filled, rounded", color="black", fontname=helvetica] ;
edge [fontname=helvetica] ;
0 [label=<time &le; -0.816<br/>entropy = 1.0<br/>samples = 325<br/>value = [162, 163]<br/>class = 1>, fillcolor="#fefeff"] ;
1 [label=<serum_sodium &le; -0.052<br/>entropy = 0.342<br/>samples = 110<br/>value = [7, 103]<br/>class = 1>, fillcolor="#46a4e7"] ;
0 -> 1 [labeldistance=2.5, labelangle=45, headlabel="True"] ;
2 [label=<entropy = 0.0<br/>samples = 54<br/>value = [0, 54]<br/>class = 1>, fillcolor="#399de5"] ;
1 -> 2 ;
3 [label=<creatinine_phosphokinase &le; -0.897<br/>entropy = 0.544<br/>samples = 56<br/>value = [7, 49]<br/>class = 1>, fillcolor="#55abe9"] ;
1 -> 3 ;
4 [label=<entropy = 0.0<br/>samples = 3<br/>value = [3, 0]<br/>class = 0>, fillcolor="#e58139"] ;
3 -> 4 ;
5 [label=<age &le; 0.014<br/>entropy = 0.386<br/>samples = 53<br/>value = [4, 49]<br/>class = 1>, fillcolor="#49a5e7"] ;
3 -> 5 ;
6 [label=<time &le; -1.055<br/>entropy = 0.764<br/>samples = 18<br/>value = [4, 14]<br/>class = 1>, fillcolor="#72b9ec"] ;
5 -> 6 ;
7 [label=<creatinine_phosphokinase &le; 1.833<br/>entropy = 0.391<br/>samples = 13<br/>value = [1, 12]<br/>class = 1>, fillcolor="#49a5e7"] ;
6 -> 7 ;
8 [label=<entropy = 0.0<br/>samples = 11<br/>value = [0, 11]<br/>class = 1>, fillcolor="#399de5"] ;
7 -> 8 ;
9 [label=<platelets &le; 0.319<br/>entropy = 1.0<br/>samples = 2<br/>value = [1, 1]<br/>class = 0>, fillcolor="#ffffff"] ;
7 -> 9 ;
10 [label=<entropy = 0.0<br/>samples = 1<br/>value = [0, 1]<br/>class = 1>, fillcolor="#399de5"] ;
9 -> 10 ;
11 [label=<entropy = 0.0<br/>samples = 1<br/>value = [1, 0]<br/>class = 0>, fillcolor="#e58139"] ;
9 -> 11 ;
12 [label=<platelets &le; 0.823<br/>entropy = 0.971<br/>samples = 5<br/>value = [3, 2]<br/>class = 0>, fillcolor="#f6d5bd"] ;
6 -> 12 ;
13 [label=<entropy = 0.0<br/>samples = 3<br/>value = [3, 0]<br/>class = 0>, fillcolor="#e58139"] ;
12 -> 13 ;
14 [label=<entropy = 0.0<br/>samples = 2<br/>value = [0, 2]<br/>class = 1>, fillcolor="#399de5"] ;
12 -> 14 ;
15 [label=<entropy = 0.0<br/>samples = 35<br/>value = [0, 35]<br/>class = 1>, fillcolor="#399de5"] ;
5 -> 15 ;
16 [label=<serum_creatinine &le; 0.513<br/>entropy = 0.854<br/>samples = 215<br/>value = [155, 60]<br/>class = 0>, fillcolor="#efb286"] ;
0 -> 16 [labeldistance=2.5, labelangle=-45, headlabel="False"] ;
17 [label=<ejection_fraction &le; -0.905<br/>entropy = 0.689<br/>samples = 163<br/>value = [133, 30]<br/>class = 0>, fillcolor="#eb9d66"] ;
16 -> 17 ;
18 [label=<time &le; -0.642<br/>entropy = 0.983<br/>samples = 26<br/>value = [11, 15]<br/>class = 1>, fillcolor="#cae5f8"] ;
17 -> 18 ;
19 [label=<entropy = 0.0<br/>samples = 6<br/>value = [0, 6]<br/>class = 1>, fillcolor="#399de5"] ;
18 -> 19 ;
20 [label=<platelets &le; -0.4<br/>entropy = 0.993<br/>samples = 20<br/>value = [11, 9]<br/>class = 0>, fillcolor="#fae8db"] ;
18 -> 20 ;
21 [label=<platelets &le; -0.822<br/>entropy = 0.845<br/>samples = 11<br/>value = [3, 8]<br/>class = 1>, fillcolor="#83c2ef"] ;
20 -> 21 ;
22 [label=<entropy = 0.0<br/>samples = 3<br/>value = [3, 0]<br/>class = 0>, fillcolor="#e58139"] ;
21 -> 22 ;
23 [label=<entropy = 0.0<br/>samples = 8<br/>value = [0, 8]<br/>class = 1>, fillcolor="#399de5"] ;
21 -> 23 ;
24 [label=<creatinine_phosphokinase &le; -0.182<br/>entropy = 0.503<br/>samples = 9<br/>value = [8, 1]<br/>class = 0>, fillcolor="#e89152"] ;
20 -> 24 ;
25 [label=<entropy = 0.0<br/>samples = 6<br/>value = [6, 0]<br/>class = 0>, fillcolor="#e58139"] ;
24 -> 25 ;
26 [label=<creatinine_phosphokinase &le; 0.1<br/>entropy = 0.918<br/>samples = 3<br/>value = [2, 1]<br/>class = 0>, fillcolor="#f2c09c"] ;
24 -> 26 ;
27 [label=<entropy = 0.0<br/>samples = 1<br/>value = [0, 1]<br/>class = 1>, fillcolor="#399de5"] ;
26 -> 27 ;
28 [label=<entropy = 0.0<br/>samples = 2<br/>value = [2, 0]<br/>class = 0>, fillcolor="#e58139"] ;
26 -> 28 ;
29 [label=<time &le; 0.552<br/>entropy = 0.498<br/>samples = 137<br/>value = [122, 15]<br/>class = 0>, fillcolor="#e89051"] ;
17 -> 29 ;
30 [label=<time &le; -0.074<br/>entropy = 0.706<br/>samples = 78<br/>value = [63, 15]<br/>class = 0>, fillcolor="#eb9f68"] ;
29 -> 30 ;
31 [label=<age &le; 0.646<br/>entropy = 0.424<br/>samples = 58<br/>value = [53, 5]<br/>class = 0>, fillcolor="#e78d4c"] ;
30 -> 31 ;
32 [label=<entropy = 0.0<br/>samples = 48<br/>value = [48, 0]<br/>class = 0>, fillcolor="#e58139"] ;
31 -> 32 ;
33 [label=<platelets &le; 0.005<br/>entropy = 1.0<br/>samples = 10<br/>value = [5, 5]<br/>class = 0>, fillcolor="#ffffff"] ;
31 -> 33 ;
34 [label=<entropy = 0.0<br/>samples = 3<br/>value = [3, 0]<br/>class = 0>, fillcolor="#e58139"] ;
33 -> 34 ;
35 [label=<serum_creatinine &le; -0.092<br/>entropy = 0.863<br/>samples = 7<br/>value = [2, 5]<br/>class = 1>, fillcolor="#88c4ef"] ;
33 -> 35 ;
36 [label=<age &le; 1.403<br/>entropy = 0.918<br/>samples = 3<br/>value = [2, 1]<br/>class = 0>, fillcolor="#f2c09c"] ;
35 -> 36 ;
37 [label=<entropy = 0.0<br/>samples = 2<br/>value = [2, 0]<br/>class = 0>, fillcolor="#e58139"] ;
36 -> 37 ;
38 [label=<entropy = 0.0<br/>samples = 1<br/>value = [0, 1]<br/>class = 1>, fillcolor="#399de5"] ;
36 -> 38 ;
39 [label=<entropy = 0.0<br/>samples = 4<br/>value = [0, 4]<br/>class = 1>, fillcolor="#399de5"] ;
35 -> 39 ;
40 [label=<time &le; 0.061<br/>entropy = 1.0<br/>samples = 20<br/>value = [10, 10]<br/>class = 0>, fillcolor="#ffffff"] ;
30 -> 40 ;
41 [label=<entropy = 0.0<br/>samples = 7<br/>value = [0, 7]<br/>class = 1>, fillcolor="#399de5"] ;
40 -> 41 ;
42 [label=<serum_creatinine &le; -1.35<br/>entropy = 0.779<br/>samples = 13<br/>value = [10, 3]<br/>class = 0>, fillcolor="#eda774"] ;
40 -> 42 ;
43 [label=<entropy = 0.0<br/>samples = 3<br/>value = [0, 3]<br/>class = 1>, fillcolor="#399de5"] ;
42 -> 43 ;
44 [label=<entropy = 0.0<br/>samples = 10<br/>value = [10, 0]<br/>class = 0>, fillcolor="#e58139"] ;
42 -> 44 ;
45 [label=<entropy = 0.0<br/>samples = 59<br/>value = [59, 0]<br/>class = 0>, fillcolor="#e58139"] ;
29 -> 45 ;
46 [label=<creatinine_phosphokinase &le; -0.901<br/>entropy = 0.983<br/>samples = 52<br/>value = [22, 30]<br/>class = 1>, fillcolor="#cae5f8"] ;
16 -> 46 ;
47 [label=<entropy = 0.0<br/>samples = 6<br/>value = [6, 0]<br/>class = 0>, fillcolor="#e58139"] ;
46 -> 47 ;
48 [label=<time &le; 1.449<br/>entropy = 0.932<br/>samples = 46<br/>value = [16, 30]<br/>class = 1>, fillcolor="#a3d1f3"] ;
46 -> 48 ;
49 [label=<diabetes &le; 0.166<br/>entropy = 0.863<br/>samples = 42<br/>value = [12, 30]<br/>class = 1>, fillcolor="#88c4ef"] ;
48 -> 49 ;
50 [label=<platelets &le; 0.25<br/>entropy = 0.637<br/>samples = 31<br/>value = [5, 26]<br/>class = 1>, fillcolor="#5fb0ea"] ;
49 -> 50 ;
51 [label=<serum_creatinine &le; 0.746<br/>entropy = 0.391<br/>samples = 26<br/>value = [2, 24]<br/>class = 1>, fillcolor="#49a5e7"] ;
50 -> 51 ;
52 [label=<entropy = 0.0<br/>samples = 1<br/>value = [1, 0]<br/>class = 0>, fillcolor="#e58139"] ;
51 -> 52 ;
53 [label=<creatinine_phosphokinase &le; -0.711<br/>entropy = 0.242<br/>samples = 25<br/>value = [1, 24]<br/>class = 1>, fillcolor="#41a1e6"] ;
51 -> 53 ;
54 [label=<creatinine_phosphokinase &le; -0.801<br/>entropy = 0.918<br/>samples = 3<br/>value = [1, 2]<br/>class = 1>, fillcolor="#9ccef2"] ;
53 -> 54 ;
55 [label=<entropy = 0.0<br/>samples = 2<br/>value = [0, 2]<br/>class = 1>, fillcolor="#399de5"] ;
54 -> 55 ;
56 [label=<entropy = 0.0<br/>samples = 1<br/>value = [1, 0]<br/>class = 0>, fillcolor="#e58139"] ;
54 -> 56 ;
57 [label=<entropy = 0.0<br/>samples = 22<br/>value = [0, 22]<br/>class = 1>, fillcolor="#399de5"] ;
53 -> 57 ;
58 [label=<creatinine_phosphokinase &le; 1.019<br/>entropy = 0.971<br/>samples = 5<br/>value = [3, 2]<br/>class = 0>, fillcolor="#f6d5bd"] ;
50 -> 58 ;
59 [label=<entropy = 0.0<br/>samples = 3<br/>value = [3, 0]<br/>class = 0>, fillcolor="#e58139"] ;
58 -> 59 ;
60 [label=<entropy = 0.0<br/>samples = 2<br/>value = [0, 2]<br/>class = 1>, fillcolor="#399de5"] ;
58 -> 60 ;
61 [label=<creatinine_phosphokinase &le; -0.589<br/>entropy = 0.946<br/>samples = 11<br/>value = [7, 4]<br/>class = 0>, fillcolor="#f4c9aa"] ;
49 -> 61 ;
62 [label=<entropy = 0.0<br/>samples = 4<br/>value = [0, 4]<br/>class = 1>, fillcolor="#399de5"] ;
61 -> 62 ;
63 [label=<entropy = 0.0<br/>samples = 7<br/>value = [7, 0]<br/>class = 0>, fillcolor="#e58139"] ;
61 -> 63 ;
64 [label=<entropy = 0.0<br/>samples = 4<br/>value = [4, 0]<br/>class = 0>, fillcolor="#e58139"] ;
48 -> 64 ;
}