digraph Tree {
node [shape=box, style="filled, rounded", color="black", fontname=helvetica] ;
edge [fontname=helvetica] ;
0 [label=<time &le; -0.668<br/>gini = 0.5<br/>samples = 326<br/>value = [163, 163]<br/>class = 0>, fillcolor="#ffffff"] ;
1 [label=<ejection_fraction &le; 0.085<br/>gini = 0.188<br/>samples = 133<br/>value = [14, 119]<br/>class = 1>, fillcolor="#50a9e8"] ;
0 -> 1 [labeldistance=2.5, labelangle=45, headlabel="True"] ;
2 [label=<creatinine_phosphokinase &le; -0.966<br/>gini = 0.088<br/>samples = 109<br/>value = [5, 104]<br/>class = 1>, fillcolor="#43a2e6"] ;
1 -> 2 ;
3 [label=<gini = 0.0<br/>samples = 1<br/>value = [1, 0]<br/>class = 0>, fillcolor="#e58139"] ;
2 -> 3 ;
4 [label=<creatinine_phosphokinase &le; -0.91<br/>gini = 0.071<br/>samples = 108<br/>value = [4, 104]<br/>class = 1>, fillcolor="#41a1e6"] ;
2 -> 4 ;
5 [label=<platelets &le; -0.595<br/>gini = 0.346<br/>samples = 9<br/>value = [2, 7]<br/>class = 1>, fillcolor="#72b9ec"] ;
4 -> 5 ;
6 [label=<gini = 0.0<br/>samples = 7<br/>value = [0, 7]<br/>class = 1>, fillcolor="#399de5"] ;
5 -> 6 ;
7 [label=<gini = 0.0<br/>samples = 2<br/>value = [2, 0]<br/>class = 0>, fillcolor="#e58139"] ;
5 -> 7 ;
8 [label=<platelets &le; -1.69<br/>gini = 0.04<br/>samples = 99<br/>value = [2, 97]<br/>class = 1>, fillcolor="#3d9fe6"] ;
4 -> 8 ;
9 [label=<gini = 0.0<br/>samples = 1<br/>value = [1, 0]<br/>class = 0>, fillcolor="#e58139"] ;
8 -> 9 ;
10 [label=<gini = 0.02<br/>samples = 98<br/>value = [1, 97]<br/>class = 1>, fillcolor="#3b9ee5"] ;
8 -> 10 ;
11 [label=<time &le; -0.855<br/>gini = 0.469<br/>samples = 24<br/>value = [9, 15]<br/>class = 1>, fillcolor="#b0d8f5"] ;
1 -> 11 ;
12 [label=<serum_creatinine &le; -0.418<br/>gini = 0.278<br/>samples = 18<br/>value = [3, 15]<br/>class = 1>, fillcolor="#61b1ea"] ;
11 -> 12 ;
13 [label=<sex &le; -0.312<br/>gini = 0.375<br/>samples = 4<br/>value = [3, 1]<br/>class = 0>, fillcolor="#eeab7b"] ;
12 -> 13 ;
14 [label=<gini = 0.0<br/>samples = 1<br/>value = [0, 1]<br/>class = 1>, fillcolor="#399de5"] ;
13 -> 14 ;
15 [label=<gini = 0.0<br/>samples = 3<br/>value = [3, 0]<br/>class = 0>, fillcolor="#e58139"] ;
13 -> 15 ;
16 [label=<gini = 0.0<br/>samples = 14<br/>value = [0, 14]<br/>class = 1>, fillcolor="#399de5"] ;
12 -> 16 ;
17 [label=<gini = 0.0<br/>samples = 6<br/>value = [6, 0]<br/>class = 0>, fillcolor="#e58139"] ;
11 -> 17 ;
18 [label=<serum_creatinine &le; 0.513<br/>gini = 0.352<br/>samples = 193<br/>value = [149, 44]<br/>class = 0>, fillcolor="#eda673"] ;
0 -> 18 [labeldistance=2.5, labelangle=-45, headlabel="False"] ;
19 [label=<age &le; 1.53<br/>gini = 0.177<br/>samples = 143<br/>value = [129, 14]<br/>class = 0>, fillcolor="#e88f4e"] ;
18 -> 19 ;
20 [label=<ejection_fraction &le; -0.905<br/>gini = 0.113<br/>samples = 133<br/>value = [125, 8]<br/>class = 0>, fillcolor="#e78946"] ;
19 -> 20 ;
21 [label=<time &le; 0.229<br/>gini = 0.48<br/>samples = 20<br/>value = [12, 8]<br/>class = 0>, fillcolor="#f6d5bd"] ;
20 -> 21 ;
22 [label=<gini = 0.0<br/>samples = 6<br/>value = [6, 0]<br/>class = 0>, fillcolor="#e58139"] ;
21 -> 22 ;
23 [label=<gini = 0.49<br/>samples = 14<br/>value = [6, 8]<br/>class = 1>, fillcolor="#cee6f8"] ;
21 -> 23 ;
24 [label=<gini = 0.0<br/>samples = 113<br/>value = [113, 0]<br/>class = 0>, fillcolor="#e58139"] ;
20 -> 24 ;
25 [label=<serum_sodium &le; -0.298<br/>gini = 0.48<br/>samples = 10<br/>value = [4, 6]<br/>class = 1>, fillcolor="#bddef6"] ;
19 -> 25 ;
26 [label=<creatinine_phosphokinase &le; 1.189<br/>gini = 0.245<br/>samples = 7<br/>value = [1, 6]<br/>class = 1>, fillcolor="#5aade9"] ;
25 -> 26 ;
27 [label=<gini = 0.0<br/>samples = 6<br/>value = [0, 6]<br/>class = 1>, fillcolor="#399de5"] ;
26 -> 27 ;
28 [label=<gini = 0.0<br/>samples = 1<br/>value = [1, 0]<br/>class = 0>, fillcolor="#e58139"] ;
26 -> 28 ;
29 [label=<gini = 0.0<br/>samples = 3<br/>value = [3, 0]<br/>class = 0>, fillcolor="#e58139"] ;
25 -> 29 ;
30 [label=<time &le; 1.449<br/>gini = 0.48<br/>samples = 50<br/>value = [20, 30]<br/>class = 1>, fillcolor="#bddef6"] ;
18 -> 30 ;
31 [label=<creatinine_phosphokinase &le; -0.955<br/>gini = 0.434<br/>samples = 44<br/>value = [14, 30]<br/>class = 1>, fillcolor="#95cbf1"] ;
30 -> 31 ;
32 [label=<gini = 0.0<br/>samples = 3<br/>value = [3, 0]<br/>class = 0>, fillcolor="#e58139"] ;
31 -> 32 ;
33 [label=<high_blood_pressure &le; 0.312<br/>gini = 0.393<br/>samples = 41<br/>value = [11, 30]<br/>class = 1>, fillcolor="#82c1ef"] ;
31 -> 33 ;
34 [label=<gini = 0.486<br/>samples = 24<br/>value = [10, 14]<br/>class = 1>, fillcolor="#c6e3f8"] ;
33 -> 34 ;
35 [label=<gini = 0.111<br/>samples = 17<br/>value = [1, 16]<br/>class = 1>, fillcolor="#45a3e7"] ;
33 -> 35 ;
36 [label=<gini = 0.0<br/>samples = 6<br/>value = [6, 0]<br/>class = 0>, fillcolor="#e58139"] ;
30 -> 36 ;
}