digraph Tree {
node [shape=box, style="filled, rounded", color="black", fontname=helvetica] ;
edge [fontname=helvetica] ;
0 [label=<X<SUB>282</SUB> &le; 0.5<br/>entropy = 1.0<br/>samples = 11550<br/>value = [5775, 5775]<br/>class = negative>, fillcolor="#ffffff"] ;
1 [label=<X<SUB>431</SUB> &le; 0.5<br/>entropy = 0.955<br/>samples = 8009<br/>value = [4994, 3015]<br/>class = negative>, fillcolor="#f5cdb1"] ;
0 -> 1 [labeldistance=2.5, labelangle=45, headlabel="True"] ;
2 [label=<X<SUB>720</SUB> &le; 0.5<br/>entropy = 0.891<br/>samples = 6295<br/>value = [4353, 1942]<br/>class = negative>, fillcolor="#f1b991"] ;
1 -> 2 ;
3 [label=<X<SUB>765</SUB> &le; 0.5<br/>entropy = 0.935<br/>samples = 5135<br/>value = [3332, 1803]<br/>class = negative>, fillcolor="#f3c5a4"] ;
2 -> 3 ;
4 [label=<X<SUB>553</SUB> &le; 0.5<br/>entropy = 0.914<br/>samples = 4870<br/>value = [3268, 1602]<br/>class = negative>, fillcolor="#f2bf9a"] ;
3 -> 4 ;
5 [label=<X<SUB>876</SUB> &le; 0.5<br/>entropy = 0.874<br/>samples = 4203<br/>value = [2968, 1235]<br/>class = negative>, fillcolor="#f0b58b"] ;
4 -> 5 ;
6 [label=<X<SUB>439</SUB> &le; 0.5<br/>entropy = 0.892<br/>samples = 4001<br/>value = [2766, 1235]<br/>class = negative>, fillcolor="#f1b991"] ;
5 -> 6 ;
7 [label=<X<SUB>63</SUB> &le; 0.5<br/>entropy = 0.871<br/>samples = 3829<br/>value = [2711, 1118]<br/>class = negative>, fillcolor="#f0b58b"] ;
6 -> 7 ;
8 [label=<X<SUB>347</SUB> &le; 0.5<br/>entropy = 0.894<br/>samples = 3572<br/>value = [2461, 1111]<br/>class = negative>, fillcolor="#f1ba92"] ;
7 -> 8 ;
9 [label=<X<SUB>590</SUB> &le; 0.5<br/>entropy = 0.914<br/>samples = 3358<br/>value = [2254, 1104]<br/>class = negative>, fillcolor="#f2bf9a"] ;
8 -> 9 ;
10 [label=<X<SUB>305</SUB> &le; 0.5<br/>entropy = 0.876<br/>samples = 2979<br/>value = [2097, 882]<br/>class = negative>, fillcolor="#f0b68c"] ;
9 -> 10 ;
11 [label=<X<SUB>692</SUB> &le; 0.5<br/>entropy = 0.894<br/>samples = 2842<br/>value = [1960, 882]<br/>class = negative>, fillcolor="#f1ba92"] ;
10 -> 11 ;
12 [label=<X<SUB>657</SUB> &le; 0.5<br/>entropy = 0.867<br/>samples = 2697<br/>value = [1919, 778]<br/>class = negative>, fillcolor="#f0b489"] ;
11 -> 12 ;
13 [label=<X<SUB>155</SUB> &le; 0.5<br/>entropy = 0.944<br/>samples = 1582<br/>value = [1009, 573]<br/>class = negative>, fillcolor="#f4c9a9"] ;
12 -> 13 ;
14 [label=<X<SUB>712</SUB> &le; 0.5<br/>entropy = 0.979<br/>samples = 1319<br/>value = [772, 547]<br/>class = negative>, fillcolor="#f7dac5"] ;
13 -> 14 ;
15 [label=<X<SUB>505</SUB> &le; 0.5<br/>entropy = 0.987<br/>samples = 1261<br/>value = [714, 547]<br/>class = negative>, fillcolor="#f9e2d1"] ;
14 -> 15 ;
16 [label=<X<SUB>805</SUB> &le; 0.5<br/>entropy = 0.993<br/>samples = 1214<br/>value = [667, 547]<br/>class = negative>, fillcolor="#fae8db"] ;
15 -> 16 ;
17 [label=<X<SUB>853</SUB> &le; 0.5<br/>entropy = 0.976<br/>samples = 1048<br/>value = [619, 429]<br/>class = negative>, fillcolor="#f7d8c2"] ;
16 -> 17 ;
18 [label=<X<SUB>753</SUB> &le; 0.5<br/>entropy = 0.956<br/>samples = 965<br/>value = [601, 364]<br/>class = negative>, fillcolor="#f5cdb1"] ;
17 -> 18 ;
19 [label=<X<SUB>77</SUB> &le; 0.5<br/>entropy = 0.923<br/>samples = 870<br/>value = [576, 294]<br/>class = negative>, fillcolor="#f2c19e"] ;
18 -> 19 ;
20 [label=<X<SUB>977</SUB> &le; 0.5<br/>entropy = 0.872<br/>samples = 776<br/>value = [549, 227]<br/>class = negative>, fillcolor="#f0b58b"] ;
19 -> 20 ;
21 [label=<X<SUB>557</SUB> &le; 0.5<br/>entropy = 0.797<br/>samples = 696<br/>value = [528, 168]<br/>class = negative>, fillcolor="#eda978"] ;
20 -> 21 ;
22 [label=<X<SUB>17</SUB> &le; 0.5<br/>entropy = 0.856<br/>samples = 599<br/>value = [431, 168]<br/>class = negative>, fillcolor="#efb286"] ;
21 -> 22 ;
23 [label=<X<SUB>304</SUB> &le; 0.5<br/>entropy = 0.815<br/>samples = 574<br/>value = [429, 145]<br/>class = negative>, fillcolor="#eeac7c"] ;
22 -> 23 ;
24 [label=<X<SUB>620</SUB> &le; 0.5<br/>entropy = 0.741<br/>samples = 520<br/>value = [411, 109]<br/>class = negative>, fillcolor="#eca26e"] ;
23 -> 24 ;
25 [label=<X<SUB>178</SUB> &le; 0.5<br/>entropy = 0.534<br/>samples = 387<br/>value = [340, 47]<br/>class = negative>, fillcolor="#e99254"] ;
24 -> 25 ;
26 [label=<entropy = 0.0<br/>samples = 242<br/>value = [242, 0]<br/>class = negative>, fillcolor="#e58139"] ;
25 -> 26 ;
27 [label=<X<SUB>599</SUB> &le; 0.5<br/>entropy = 0.909<br/>samples = 145<br/>value = [98, 47]<br/>class = negative>, fillcolor="#f1bd98"] ;
25 -> 27 ;
28 [label=<X<SUB>130</SUB> &le; 0.5<br/>entropy = 0.747<br/>samples = 122<br/>value = [96, 26]<br/>class = negative>, fillcolor="#eca36f"] ;
27 -> 28 ;
29 [label=<X<SUB>59</SUB> &le; 0.5<br/>entropy = 0.459<br/>samples = 93<br/>value = [84, 9]<br/>class = negative>, fillcolor="#e88e4e"] ;
28 -> 29 ;
30 [label=<entropy = 0.0<br/>samples = 84<br/>value = [84, 0]<br/>class = negative>, fillcolor="#e58139"] ;
29 -> 30 ;
31 [label=<entropy = 0.0<br/>samples = 9<br/>value = [0, 9]<br/>class = positive>, fillcolor="#399de5"] ;
29 -> 31 ;
32 [label=<X<SUB>194</SUB> &le; 0.5<br/>entropy = 0.978<br/>samples = 29<br/>value = [12, 17]<br/>class = positive>, fillcolor="#c5e2f7"] ;
28 -> 32 ;
33 [label=<X<SUB>981</SUB> &le; 0.5<br/>entropy = 0.985<br/>samples = 21<br/>value = [12, 9]<br/>class = negative>, fillcolor="#f8e0ce"] ;
32 -> 33 ;
34 [label=<entropy = 0.0<br/>samples = 10<br/>value = [10, 0]<br/>class = negative>, fillcolor="#e58139"] ;
33 -> 34 ;
35 [label=<entropy = 0.684<br/>samples = 11<br/>value = [2, 9]<br/>class = positive>, fillcolor="#65b3eb"] ;
33 -> 35 ;
36 [label=<entropy = 0.0<br/>samples = 8<br/>value = [0, 8]<br/>class = positive>, fillcolor="#399de5"] ;
32 -> 36 ;
37 [label=<X<SUB>985</SUB> &le; 0.5<br/>entropy = 0.426<br/>samples = 23<br/>value = [2, 21]<br/>class = positive>, fillcolor="#4ca6e7"] ;
27 -> 37 ;
38 [label=<X<SUB>950</SUB> &le; 0.5<br/>entropy = 0.267<br/>samples = 22<br/>value = [1, 21]<br/>class = positive>, fillcolor="#42a2e6"] ;
37 -> 38 ;
39 [label=<entropy = 0.414<br/>samples = 12<br/>value = [1, 11]<br/>class = positive>, fillcolor="#4ba6e7"] ;
38 -> 39 ;
40 [label=<entropy = 0.0<br/>samples = 10<br/>value = [0, 10]<br/>class = positive>, fillcolor="#399de5"] ;
38 -> 40 ;
41 [label=<entropy = 0.0<br/>samples = 1<br/>value = [1, 0]<br/>class = negative>, fillcolor="#e58139"] ;
37 -> 41 ;
42 [label=<X<SUB>823</SUB> &le; 0.5<br/>entropy = 0.997<br/>samples = 133<br/>value = [71, 62]<br/>class = negative>, fillcolor="#fcefe6"] ;
24 -> 42 ;
43 [label=<entropy = 0.0<br/>samples = 24<br/>value = [0, 24]<br/>class = positive>, fillcolor="#399de5"] ;
42 -> 43 ;
44 [label=<X<SUB>308</SUB> &le; 0.5<br/>entropy = 0.933<br/>samples = 109<br/>value = [71, 38]<br/>class = negative>, fillcolor="#f3c4a3"] ;
42 -> 44 ;
45 [label=<X<SUB>217</SUB> &le; 0.5<br/>entropy = 0.807<br/>samples = 93<br/>value = [70, 23]<br/>class = negative>, fillcolor="#eeaa7a"] ;
44 -> 45 ;
46 [label=<X<SUB>269</SUB> &le; 0.5<br/>entropy = 0.573<br/>samples = 81<br/>value = [70, 11]<br/>class = negative>, fillcolor="#e99558"] ;
45 -> 46 ;
47 [label=<entropy = 0.0<br/>samples = 68<br/>value = [68, 0]<br/>class = negative>, fillcolor="#e58139"] ;
46 -> 47 ;
48 [label=<X<SUB>345</SUB> &le; 0.5<br/>entropy = 0.619<br/>samples = 13<br/>value = [2, 11]<br/>class = positive>, fillcolor="#5dafea"] ;
46 -> 48 ;
49 [label=<entropy = 0.0<br/>samples = 1<br/>value = [1, 0]<br/>class = negative>, fillcolor="#e58139"] ;
48 -> 49 ;
50 [label=<entropy = 0.414<br/>samples = 12<br/>value = [1, 11]<br/>class = positive>, fillcolor="#4ba6e7"] ;
48 -> 50 ;
51 [label=<entropy = 0.0<br/>samples = 12<br/>value = [0, 12]<br/>class = positive>, fillcolor="#399de5"] ;
45 -> 51 ;
52 [label=<X<SUB>587</SUB> &le; 0.5<br/>entropy = 0.337<br/>samples = 16<br/>value = [1, 15]<br/>class = positive>, fillcolor="#46a4e7"] ;
44 -> 52 ;
53 [label=<entropy = 0.0<br/>samples = 15<br/>value = [0, 15]<br/>class = positive>, fillcolor="#399de5"] ;
52 -> 53 ;
54 [label=<entropy = 0.0<br/>samples = 1<br/>value = [1, 0]<br/>class = negative>, fillcolor="#e58139"] ;
52 -> 54 ;
55 [label=<X<SUB>339</SUB> &le; 0.5<br/>entropy = 0.918<br/>samples = 54<br/>value = [18, 36]<br/>class = positive>, fillcolor="#9ccef2"] ;
23 -> 55 ;
56 [label=<X<SUB>639</SUB> &le; 0.5<br/>entropy = 0.641<br/>samples = 43<br/>value = [7, 36]<br/>class = positive>, fillcolor="#5fb0ea"] ;
55 -> 56 ;
57 [label=<X<SUB>584</SUB> &le; 0.5<br/>entropy = 0.297<br/>samples = 38<br/>value = [2, 36]<br/>class = positive>, fillcolor="#44a2e6"] ;
56 -> 57 ;
58 [label=<entropy = 0.0<br/>samples = 36<br/>value = [0, 36]<br/>class = positive>, fillcolor="#399de5"] ;
57 -> 58 ;
59 [label=<entropy = 0.0<br/>samples = 2<br/>value = [2, 0]<br/>class = negative>, fillcolor="#e58139"] ;
57 -> 59 ;
60 [label=<entropy = 0.0<br/>samples = 5<br/>value = [5, 0]<br/>class = negative>, fillcolor="#e58139"] ;
56 -> 60 ;
61 [label=<entropy = 0.0<br/>samples = 11<br/>value = [11, 0]<br/>class = negative>, fillcolor="#e58139"] ;
55 -> 61 ;
62 [label=<X<SUB>218</SUB> &le; 0.5<br/>entropy = 0.402<br/>samples = 25<br/>value = [2, 23]<br/>class = positive>, fillcolor="#4aa6e7"] ;
22 -> 62 ;
63 [label=<entropy = 0.0<br/>samples = 2<br/>value = [2, 0]<br/>class = negative>, fillcolor="#e58139"] ;
62 -> 63 ;
64 [label=<entropy = 0.0<br/>samples = 23<br/>value = [0, 23]<br/>class = positive>, fillcolor="#399de5"] ;
62 -> 64 ;
65 [label=<entropy = 0.0<br/>samples = 97<br/>value = [97, 0]<br/>class = negative>, fillcolor="#e58139"] ;
21 -> 65 ;
66 [label=<X<SUB>915</SUB> &le; 0.5<br/>entropy = 0.83<br/>samples = 80<br/>value = [21, 59]<br/>class = positive>, fillcolor="#7fc0ee"] ;
20 -> 66 ;
67 [label=<X<SUB>489</SUB> &le; 0.5<br/>entropy = 0.444<br/>samples = 65<br/>value = [6, 59]<br/>class = positive>, fillcolor="#4da7e8"] ;
66 -> 67 ;
68 [label=<X<SUB>105</SUB> &le; 0.5<br/>entropy = 0.28<br/>samples = 62<br/>value = [3, 59]<br/>class = positive>, fillcolor="#43a2e6"] ;
67 -> 68 ;
69 [label=<X<SUB>381</SUB> &le; 0.5<br/>entropy = 0.122<br/>samples = 60<br/>value = [1, 59]<br/>class = positive>, fillcolor="#3c9fe5"] ;
68 -> 69 ;
70 [label=<entropy = 0.0<br/>samples = 59<br/>value = [0, 59]<br/>class = positive>, fillcolor="#399de5"] ;
69 -> 70 ;
71 [label=<entropy = 0.0<br/>samples = 1<br/>value = [1, 0]<br/>class = negative>, fillcolor="#e58139"] ;
69 -> 71 ;
72 [label=<entropy = 0.0<br/>samples = 2<br/>value = [2, 0]<br/>class = negative>, fillcolor="#e58139"] ;
68 -> 72 ;
73 [label=<entropy = 0.0<br/>samples = 3<br/>value = [3, 0]<br/>class = negative>, fillcolor="#e58139"] ;
67 -> 73 ;
74 [label=<entropy = 0.0<br/>samples = 15<br/>value = [15, 0]<br/>class = negative>, fillcolor="#e58139"] ;
66 -> 74 ;
75 [label=<X<SUB>202</SUB> &le; 0.5<br/>entropy = 0.865<br/>samples = 94<br/>value = [27, 67]<br/>class = positive>, fillcolor="#89c4ef"] ;
19 -> 75 ;
76 [label=<X<SUB>629</SUB> &le; 0.5<br/>entropy = 0.778<br/>samples = 87<br/>value = [20, 67]<br/>class = positive>, fillcolor="#74baed"] ;
75 -> 76 ;
77 [label=<X<SUB>935</SUB> &le; 0.5<br/>entropy = 0.297<br/>samples = 38<br/>value = [2, 36]<br/>class = positive>, fillcolor="#44a2e6"] ;
76 -> 77 ;
78 [label=<X<SUB>745</SUB> &le; 0.5<br/>entropy = 0.179<br/>samples = 37<br/>value = [1, 36]<br/>class = positive>, fillcolor="#3ea0e6"] ;
77 -> 78 ;
79 [label=<X<SUB>976</SUB> &le; 0.5<br/>entropy = 0.439<br/>samples = 11<br/>value = [1, 10]<br/>class = positive>, fillcolor="#4da7e8"] ;
78 -> 79 ;
80 [label=<entropy = 0.0<br/>samples = 1<br/>value = [1, 0]<br/>class = negative>, fillcolor="#e58139"] ;
79 -> 80 ;
81 [label=<entropy = 0.0<br/>samples = 10<br/>value = [0, 10]<br/>class = positive>, fillcolor="#399de5"] ;
79 -> 81 ;
82 [label=<entropy = 0.0<br/>samples = 26<br/>value = [0, 26]<br/>class = positive>, fillcolor="#399de5"] ;
78 -> 82 ;
83 [label=<entropy = 0.0<br/>samples = 1<br/>value = [1, 0]<br/>class = negative>, fillcolor="#e58139"] ;
77 -> 83 ;
84 [label=<X<SUB>638</SUB> &le; 0.5<br/>entropy = 0.949<br/>samples = 49<br/>value = [18, 31]<br/>class = positive>, fillcolor="#acd6f4"] ;
76 -> 84 ;
85 [label=<X<SUB>486</SUB> &le; 0.5<br/>entropy = 0.918<br/>samples = 27<br/>value = [18, 9]<br/>class = negative>, fillcolor="#f2c09c"] ;
84 -> 85 ;
86 [label=<entropy = 0.0<br/>samples = 18<br/>value = [18, 0]<br/>class = negative>, fillcolor="#e58139"] ;
85 -> 86 ;
87 [label=<entropy = 0.0<br/>samples = 9<br/>value = [0, 9]<br/>class = positive>, fillcolor="#399de5"] ;
85 -> 87 ;
88 [label=<entropy = 0.0<br/>samples = 22<br/>value = [0, 22]<br/>class = positive>, fillcolor="#399de5"] ;
84 -> 88 ;
89 [label=<entropy = 0.0<br/>samples = 7<br/>value = [7, 0]<br/>class = negative>, fillcolor="#e58139"] ;
75 -> 89 ;
90 [label=<X<SUB>424</SUB> &le; 0.5<br/>entropy = 0.831<br/>samples = 95<br/>value = [25, 70]<br/>class = positive>, fillcolor="#80c0ee"] ;
18 -> 90 ;
91 [label=<X<SUB>709</SUB> &le; 0.5<br/>entropy = 0.693<br/>samples = 86<br/>value = [16, 70]<br/>class = positive>, fillcolor="#66b3eb"] ;
90 -> 91 ;
92 [label=<X<SUB>1012</SUB> &le; 0.5<br/>entropy = 0.573<br/>samples = 81<br/>value = [11, 70]<br/>class = positive>, fillcolor="#58ace9"] ;
91 -> 92 ;
93 [label=<X<SUB>633</SUB> &le; 0.5<br/>entropy = 0.439<br/>samples = 77<br/>value = [7, 70]<br/>class = positive>, fillcolor="#4da7e8"] ;
92 -> 93 ;
94 [label=<X<SUB>741</SUB> &le; 0.5<br/>entropy = 0.303<br/>samples = 74<br/>value = [4, 70]<br/>class = positive>, fillcolor="#44a3e6"] ;
93 -> 94 ;
95 [label=<X<SUB>67</SUB> &le; 0.5<br/>entropy = 0.183<br/>samples = 72<br/>value = [2, 70]<br/>class = positive>, fillcolor="#3fa0e6"] ;
94 -> 95 ;
96 [label=<X<SUB>600</SUB> &le; 0.5<br/>entropy = 0.107<br/>samples = 71<br/>value = [1, 70]<br/>class = positive>, fillcolor="#3c9ee5"] ;
95 -> 96 ;
97 [label=<entropy = 0.0<br/>samples = 70<br/>value = [0, 70]<br/>class = positive>, fillcolor="#399de5"] ;
96 -> 97 ;
98 [label=<entropy = 0.0<br/>samples = 1<br/>value = [1, 0]<br/>class = negative>, fillcolor="#e58139"] ;
96 -> 98 ;
99 [label=<entropy = 0.0<br/>samples = 1<br/>value = [1, 0]<br/>class = negative>, fillcolor="#e58139"] ;
95 -> 99 ;
100 [label=<entropy = 0.0<br/>samples = 2<br/>value = [2, 0]<br/>class = negative>, fillcolor="#e58139"] ;
94 -> 100 ;
101 [label=<entropy = 0.0<br/>samples = 3<br/>value = [3, 0]<br/>class = negative>, fillcolor="#e58139"] ;
93 -> 101 ;
102 [label=<entropy = 0.0<br/>samples = 4<br/>value = [4, 0]<br/>class = negative>, fillcolor="#e58139"] ;
92 -> 102 ;
103 [label=<entropy = 0.0<br/>samples = 5<br/>value = [5, 0]<br/>class = negative>, fillcolor="#e58139"] ;
91 -> 103 ;
104 [label=<entropy = 0.0<br/>samples = 9<br/>value = [9, 0]<br/>class = negative>, fillcolor="#e58139"] ;
90 -> 104 ;
105 [label=<X<SUB>630</SUB> &le; 0.5<br/>entropy = 0.754<br/>samples = 83<br/>value = [18, 65]<br/>class = positive>, fillcolor="#70b8ec"] ;
17 -> 105 ;
106 [label=<X<SUB>995</SUB> &le; 0.5<br/>entropy = 0.971<br/>samples = 30<br/>value = [18, 12]<br/>class = negative>, fillcolor="#f6d5bd"] ;
105 -> 106 ;
107 [label=<entropy = 0.0<br/>samples = 12<br/>value = [0, 12]<br/>class = positive>, fillcolor="#399de5"] ;
106 -> 107 ;
108 [label=<entropy = 0.0<br/>samples = 18<br/>value = [18, 0]<br/>class = negative>, fillcolor="#e58139"] ;
106 -> 108 ;
109 [label=<entropy = 0.0<br/>samples = 53<br/>value = [0, 53]<br/>class = positive>, fillcolor="#399de5"] ;
105 -> 109 ;
110 [label=<X<SUB>1004</SUB> &le; 0.5<br/>entropy = 0.868<br/>samples = 166<br/>value = [48, 118]<br/>class = positive>, fillcolor="#8ac5f0"] ;
16 -> 110 ;
111 [label=<X<SUB>0</SUB> &le; 0.5<br/>entropy = 0.776<br/>samples = 153<br/>value = [35, 118]<br/>class = positive>, fillcolor="#74baed"] ;
110 -> 111 ;
112 [label=<X<SUB>567</SUB> &le; 0.5<br/>entropy = 0.705<br/>samples = 146<br/>value = [28, 118]<br/>class = positive>, fillcolor="#68b4eb"] ;
111 -> 112 ;
113 [label=<X<SUB>677</SUB> &le; 0.5<br/>entropy = 0.815<br/>samples = 111<br/>value = [28, 83]<br/>class = positive>, fillcolor="#7cbeee"] ;
112 -> 113 ;
114 [label=<X<SUB>18</SUB> &le; 0.5<br/>entropy = 0.934<br/>samples = 80<br/>value = [28, 52]<br/>class = positive>, fillcolor="#a4d2f3"] ;
113 -> 114 ;
115 [label=<X<SUB>728</SUB> &le; 0.5<br/>entropy = 0.852<br/>samples = 72<br/>value = [20, 52]<br/>class = positive>, fillcolor="#85c3ef"] ;
114 -> 115 ;
116 [label=<X<SUB>332</SUB> &le; 0.5<br/>entropy = 0.767<br/>samples = 67<br/>value = [15, 52]<br/>class = positive>, fillcolor="#72b9ec"] ;
115 -> 116 ;
117 [label=<X<SUB>704</SUB> &le; 0.5<br/>entropy = 0.637<br/>samples = 62<br/>value = [10, 52]<br/>class = positive>, fillcolor="#5fb0ea"] ;
116 -> 117 ;
118 [label=<X<SUB>647</SUB> &le; 0.5<br/>entropy = 0.48<br/>samples = 58<br/>value = [6, 52]<br/>class = positive>, fillcolor="#50a8e8"] ;
117 -> 118 ;
119 [label=<X<SUB>786</SUB> &le; 0.5<br/>entropy = 0.371<br/>samples = 56<br/>value = [4, 52]<br/>class = positive>, fillcolor="#48a5e7"] ;
118 -> 119 ;
120 [label=<X<SUB>593</SUB> &le; 0.5<br/>entropy = 0.229<br/>samples = 54<br/>value = [2, 52]<br/>class = positive>, fillcolor="#41a1e6"] ;
119 -> 120 ;
121 [label=<X<SUB>530</SUB> &le; 0.5<br/>entropy = 0.135<br/>samples = 53<br/>value = [1, 52]<br/>class = positive>, fillcolor="#3d9fe6"] ;
120 -> 121 ;
122 [label=<entropy = 0.0<br/>samples = 52<br/>value = [0, 52]<br/>class = positive>, fillcolor="#399de5"] ;
121 -> 122 ;
123 [label=<entropy = 0.0<br/>samples = 1<br/>value = [1, 0]<br/>class = negative>, fillcolor="#e58139"] ;
121 -> 123 ;
124 [label=<entropy = 0.0<br/>samples = 1<br/>value = [1, 0]<br/>class = negative>, fillcolor="#e58139"] ;
120 -> 124 ;
125 [label=<entropy = 0.0<br/>samples = 2<br/>value = [2, 0]<br/>class = negative>, fillcolor="#e58139"] ;
119 -> 125 ;
126 [label=<entropy = 0.0<br/>samples = 2<br/>value = [2, 0]<br/>class = negative>, fillcolor="#e58139"] ;
118 -> 126 ;
127 [label=<entropy = 0.0<br/>samples = 4<br/>value = [4, 0]<br/>class = negative>, fillcolor="#e58139"] ;
117 -> 127 ;
128 [label=<entropy = 0.0<br/>samples = 5<br/>value = [5, 0]<br/>class = negative>, fillcolor="#e58139"] ;
116 -> 128 ;
129 [label=<entropy = 0.0<br/>samples = 5<br/>value = [5, 0]<br/>class = negative>, fillcolor="#e58139"] ;
115 -> 129 ;
130 [label=<entropy = 0.0<br/>samples = 8<br/>value = [8, 0]<br/>class = negative>, fillcolor="#e58139"] ;
114 -> 130 ;
131 [label=<entropy = 0.0<br/>samples = 31<br/>value = [0, 31]<br/>class = positive>, fillcolor="#399de5"] ;
113 -> 131 ;
132 [label=<entropy = 0.0<br/>samples = 35<br/>value = [0, 35]<br/>class = positive>, fillcolor="#399de5"] ;
112 -> 132 ;
133 [label=<entropy = 0.0<br/>samples = 7<br/>value = [7, 0]<br/>class = negative>, fillcolor="#e58139"] ;
111 -> 133 ;
134 [label=<entropy = 0.0<br/>samples = 13<br/>value = [13, 0]<br/>class = negative>, fillcolor="#e58139"] ;
110 -> 134 ;
135 [label=<entropy = 0.0<br/>samples = 47<br/>value = [47, 0]<br/>class = negative>, fillcolor="#e58139"] ;
15 -> 135 ;
136 [label=<entropy = 0.0<br/>samples = 58<br/>value = [58, 0]<br/>class = negative>, fillcolor="#e58139"] ;
14 -> 136 ;
137 [label=<X<SUB>746</SUB> &le; 0.5<br/>entropy = 0.465<br/>samples = 263<br/>value = [237, 26]<br/>class = negative>, fillcolor="#e88f4f"] ;
13 -> 137 ;
138 [label=<X<SUB>532</SUB> &le; 0.5<br/>entropy = 0.31<br/>samples = 251<br/>value = [237, 14]<br/>class = negative>, fillcolor="#e78845"] ;
137 -> 138 ;
139 [label=<entropy = 0.0<br/>samples = 228<br/>value = [228, 0]<br/>class = negative>, fillcolor="#e58139"] ;
138 -> 139 ;
140 [label=<X<SUB>759</SUB> &le; 0.5<br/>entropy = 0.966<br/>samples = 23<br/>value = [9, 14]<br/>class = positive>, fillcolor="#b8dcf6"] ;
138 -> 140 ;
141 [label=<entropy = 0.0<br/>samples = 14<br/>value = [0, 14]<br/>class = positive>, fillcolor="#399de5"] ;
140 -> 141 ;
142 [label=<entropy = 0.0<br/>samples = 9<br/>value = [9, 0]<br/>class = negative>, fillcolor="#e58139"] ;
140 -> 142 ;
143 [label=<entropy = 0.0<br/>samples = 12<br/>value = [0, 12]<br/>class = positive>, fillcolor="#399de5"] ;
137 -> 143 ;
144 [label=<X<SUB>788</SUB> &le; 0.5<br/>entropy = 0.688<br/>samples = 1115<br/>value = [910, 205]<br/>class = negative>, fillcolor="#eb9d66"] ;
12 -> 144 ;
145 [label=<X<SUB>320</SUB> &le; 0.5<br/>entropy = 0.766<br/>samples = 918<br/>value = [713, 205]<br/>class = negative>, fillcolor="#eca572"] ;
144 -> 145 ;
146 [label=<X<SUB>857</SUB> &le; 0.5<br/>entropy = 0.885<br/>samples = 607<br/>value = [423, 184]<br/>class = negative>, fillcolor="#f0b88f"] ;
145 -> 146 ;
147 [label=<X<SUB>43</SUB> &le; 0.5<br/>entropy = 0.822<br/>samples = 557<br/>value = [414, 143]<br/>class = negative>, fillcolor="#eead7d"] ;
146 -> 147 ;
148 [label=<X<SUB>829</SUB> &le; 0.5<br/>entropy = 0.696<br/>samples = 480<br/>value = [390, 90]<br/>class = negative>, fillcolor="#eb9e67"] ;
147 -> 148 ;
149 [label=<X<SUB>1003</SUB> &le; 0.5<br/>entropy = 0.537<br/>samples = 416<br/>value = [365, 51]<br/>class = negative>, fillcolor="#e99355"] ;
148 -> 149 ;
150 [label=<X<SUB>932</SUB> &le; 0.5<br/>entropy = 0.349<br/>samples = 381<br/>value = [356, 25]<br/>class = negative>, fillcolor="#e78a47"] ;
149 -> 150 ;
151 [label=<entropy = 0.0<br/>samples = 302<br/>value = [302, 0]<br/>class = negative>, fillcolor="#e58139"] ;
150 -> 151 ;
152 [label=<X<SUB>437</SUB> &le; 0.5<br/>entropy = 0.9<br/>samples = 79<br/>value = [54, 25]<br/>class = negative>, fillcolor="#f1bb95"] ;
150 -> 152 ;
153 [label=<X<SUB>918</SUB> &le; 0.5<br/>entropy = 0.909<br/>samples = 37<br/>value = [12, 25]<br/>class = positive>, fillcolor="#98ccf1"] ;
152 -> 153 ;
154 [label=<X<SUB>46</SUB> &le; 0.5<br/>entropy = 0.65<br/>samples = 30<br/>value = [5, 25]<br/>class = positive>, fillcolor="#61b1ea"] ;
153 -> 154 ;
155 [label=<X<SUB>321</SUB> &le; 0.5<br/>entropy = 0.381<br/>samples = 27<br/>value = [2, 25]<br/>class = positive>, fillcolor="#49a5e7"] ;
154 -> 155 ;
156 [label=<X<SUB>101</SUB> &le; 0.5<br/>entropy = 0.235<br/>samples = 26<br/>value = [1, 25]<br/>class = positive>, fillcolor="#41a1e6"] ;
155 -> 156 ;
157 [label=<X<SUB>985</SUB> &le; 0.5<br/>entropy = 0.439<br/>samples = 11<br/>value = [1, 10]<br/>class = positive>, fillcolor="#4da7e8"] ;
156 -> 157 ;
158 [label=<entropy = 0.0<br/>samples = 10<br/>value = [0, 10]<br/>class = positive>, fillcolor="#399de5"] ;
157 -> 158 ;
159 [label=<entropy = 0.0<br/>samples = 1<br/>value = [1, 0]<br/>class = negative>, fillcolor="#e58139"] ;
157 -> 159 ;
160 [label=<entropy = 0.0<br/>samples = 15<br/>value = [0, 15]<br/>class = positive>, fillcolor="#399de5"] ;
156 -> 160 ;
161 [label=<entropy = 0.0<br/>samples = 1<br/>value = [1, 0]<br/>class = negative>, fillcolor="#e58139"] ;
155 -> 161 ;
162 [label=<entropy = 0.0<br/>samples = 3<br/>value = [3, 0]<br/>class = negative>, fillcolor="#e58139"] ;
154 -> 162 ;
163 [label=<entropy = 0.0<br/>samples = 7<br/>value = [7, 0]<br/>class = negative>, fillcolor="#e58139"] ;
153 -> 163 ;
164 [label=<entropy = 0.0<br/>samples = 42<br/>value = [42, 0]<br/>class = negative>, fillcolor="#e58139"] ;
152 -> 164 ;
165 [label=<X<SUB>12</SUB> &le; 0.5<br/>entropy = 0.822<br/>samples = 35<br/>value = [9, 26]<br/>class = positive>, fillcolor="#7ebfee"] ;
149 -> 165 ;
166 [label=<X<SUB>316</SUB> &le; 0.5<br/>entropy = 0.48<br/>samples = 29<br/>value = [3, 26]<br/>class = positive>, fillcolor="#50a8e8"] ;
165 -> 166 ;
167 [label=<X<SUB>614</SUB> &le; 0.5<br/>entropy = 0.229<br/>samples = 27<br/>value = [1, 26]<br/>class = positive>, fillcolor="#41a1e6"] ;
166 -> 167 ;
168 [label=<entropy = 0.0<br/>samples = 26<br/>value = [0, 26]<br/>class = positive>, fillcolor="#399de5"] ;
167 -> 168 ;
169 [label=<entropy = 0.0<br/>samples = 1<br/>value = [1, 0]<br/>class = negative>, fillcolor="#e58139"] ;
167 -> 169 ;
170 [label=<entropy = 0.0<br/>samples = 2<br/>value = [2, 0]<br/>class = negative>, fillcolor="#e58139"] ;
166 -> 170 ;
171 [label=<entropy = 0.0<br/>samples = 6<br/>value = [6, 0]<br/>class = negative>, fillcolor="#e58139"] ;
165 -> 171 ;
172 [label=<X<SUB>168</SUB> &le; 0.5<br/>entropy = 0.965<br/>samples = 64<br/>value = [25, 39]<br/>class = positive>, fillcolor="#b8dcf6"] ;
148 -> 172 ;
173 [label=<X<SUB>990</SUB> &le; 0.5<br/>entropy = 0.371<br/>samples = 42<br/>value = [3, 39]<br/>class = positive>, fillcolor="#48a5e7"] ;
172 -> 173 ;
174 [label=<entropy = 0.0<br/>samples = 39<br/>value = [0, 39]<br/>class = positive>, fillcolor="#399de5"] ;
173 -> 174 ;
175 [label=<entropy = 0.0<br/>samples = 3<br/>value = [3, 0]<br/>class = negative>, fillcolor="#e58139"] ;
173 -> 175 ;
176 [label=<entropy = 0.0<br/>samples = 22<br/>value = [22, 0]<br/>class = negative>, fillcolor="#e58139"] ;
172 -> 176 ;
177 [label=<X<SUB>13</SUB> &le; 0.5<br/>entropy = 0.895<br/>samples = 77<br/>value = [24, 53]<br/>class = positive>, fillcolor="#93c9f1"] ;
147 -> 177 ;
178 [label=<X<SUB>225</SUB> &le; 0.5<br/>entropy = 0.69<br/>samples = 65<br/>value = [12, 53]<br/>class = positive>, fillcolor="#66b3eb"] ;
177 -> 178 ;
179 [label=<X<SUB>451</SUB> &le; 0.5<br/>entropy = 0.474<br/>samples = 59<br/>value = [6, 53]<br/>class = positive>, fillcolor="#4fa8e8"] ;
178 -> 179 ;
180 [label=<X<SUB>591</SUB> &le; 0.5<br/>entropy = 0.225<br/>samples = 55<br/>value = [2, 53]<br/>class = positive>, fillcolor="#40a1e6"] ;
179 -> 180 ;
181 [label=<X<SUB>487</SUB> &le; 0.5<br/>entropy = 0.133<br/>samples = 54<br/>value = [1, 53]<br/>class = positive>, fillcolor="#3d9fe5"] ;
180 -> 181 ;
182 [label=<entropy = 0.0<br/>samples = 53<br/>value = [0, 53]<br/>class = positive>, fillcolor="#399de5"] ;
181 -> 182 ;
183 [label=<entropy = 0.0<br/>samples = 1<br/>value = [1, 0]<br/>class = negative>, fillcolor="#e58139"] ;
181 -> 183 ;
184 [label=<entropy = 0.0<br/>samples = 1<br/>value = [1, 0]<br/>class = negative>, fillcolor="#e58139"] ;
180 -> 184 ;
185 [label=<entropy = 0.0<br/>samples = 4<br/>value = [4, 0]<br/>class = negative>, fillcolor="#e58139"] ;
179 -> 185 ;
186 [label=<entropy = 0.0<br/>samples = 6<br/>value = [6, 0]<br/>class = negative>, fillcolor="#e58139"] ;
178 -> 186 ;
187 [label=<entropy = 0.0<br/>samples = 12<br/>value = [12, 0]<br/>class = negative>, fillcolor="#e58139"] ;
177 -> 187 ;
188 [label=<X<SUB>456</SUB> &le; 0.5<br/>entropy = 0.68<br/>samples = 50<br/>value = [9, 41]<br/>class = positive>, fillcolor="#64b3eb"] ;
146 -> 188 ;
189 [label=<X<SUB>747</SUB> &le; 0.5<br/>entropy = 0.359<br/>samples = 44<br/>value = [3, 41]<br/>class = positive>, fillcolor="#47a4e7"] ;
188 -> 189 ;
190 [label=<X<SUB>307</SUB> &le; 0.5<br/>entropy = 0.162<br/>samples = 42<br/>value = [1, 41]<br/>class = positive>, fillcolor="#3e9fe6"] ;
189 -> 190 ;
191 [label=<entropy = 0.0<br/>samples = 23<br/>value = [0, 23]<br/>class = positive>, fillcolor="#399de5"] ;
190 -> 191 ;
192 [label=<entropy = 0.297<br/>samples = 19<br/>value = [1, 18]<br/>class = positive>, fillcolor="#44a2e6"] ;
190 -> 192 ;
193 [label=<entropy = 0.0<br/>samples = 2<br/>value = [2, 0]<br/>class = negative>, fillcolor="#e58139"] ;
189 -> 193 ;
194 [label=<entropy = 0.0<br/>samples = 6<br/>value = [6, 0]<br/>class = negative>, fillcolor="#e58139"] ;
188 -> 194 ;
195 [label=<X<SUB>496</SUB> &le; 0.5<br/>entropy = 0.357<br/>samples = 311<br/>value = [290, 21]<br/>class = negative>, fillcolor="#e78a47"] ;
145 -> 195 ;
196 [label=<entropy = 0.0<br/>samples = 226<br/>value = [226, 0]<br/>class = negative>, fillcolor="#e58139"] ;
195 -> 196 ;
197 [label=<X<SUB>95</SUB> &le; 0.5<br/>entropy = 0.807<br/>samples = 85<br/>value = [64, 21]<br/>class = negative>, fillcolor="#eeaa7a"] ;
195 -> 197 ;
198 [label=<entropy = 0.0<br/>samples = 53<br/>value = [53, 0]<br/>class = negative>, fillcolor="#e58139"] ;
197 -> 198 ;
199 [label=<X<SUB>437</SUB> &le; 0.5<br/>entropy = 0.928<br/>samples = 32<br/>value = [11, 21]<br/>class = positive>, fillcolor="#a1d0f3"] ;
197 -> 199 ;
200 [label=<entropy = 0.0<br/>samples = 21<br/>value = [0, 21]<br/>class = positive>, fillcolor="#399de5"] ;
199 -> 200 ;
201 [label=<entropy = 0.0<br/>samples = 11<br/>value = [11, 0]<br/>class = negative>, fillcolor="#e58139"] ;
199 -> 201 ;
202 [label=<entropy = 0.0<br/>samples = 197<br/>value = [197, 0]<br/>class = negative>, fillcolor="#e58139"] ;
144 -> 202 ;
203 [label=<X<SUB>249</SUB> &le; 0.5<br/>entropy = 0.859<br/>samples = 145<br/>value = [41, 104]<br/>class = positive>, fillcolor="#87c4ef"] ;
11 -> 203 ;
204 [label=<entropy = 0.0<br/>samples = 22<br/>value = [22, 0]<br/>class = negative>, fillcolor="#e58139"] ;
203 -> 204 ;
205 [label=<X<SUB>975</SUB> &le; 0.5<br/>entropy = 0.621<br/>samples = 123<br/>value = [19, 104]<br/>class = positive>, fillcolor="#5dafea"] ;
203 -> 205 ;
206 [label=<X<SUB>971</SUB> &le; 0.5<br/>entropy = 0.371<br/>samples = 112<br/>value = [8, 104]<br/>class = positive>, fillcolor="#48a5e7"] ;
205 -> 206 ;
207 [label=<X<SUB>787</SUB> &le; 0.5<br/>entropy = 0.959<br/>samples = 21<br/>value = [8, 13]<br/>class = positive>, fillcolor="#b3d9f5"] ;
206 -> 207 ;
208 [label=<entropy = 0.0<br/>samples = 8<br/>value = [8, 0]<br/>class = negative>, fillcolor="#e58139"] ;
207 -> 208 ;
209 [label=<entropy = 0.0<br/>samples = 13<br/>value = [0, 13]<br/>class = positive>, fillcolor="#399de5"] ;
207 -> 209 ;
210 [label=<entropy = 0.0<br/>samples = 91<br/>value = [0, 91]<br/>class = positive>, fillcolor="#399de5"] ;
206 -> 210 ;
211 [label=<entropy = 0.0<br/>samples = 11<br/>value = [11, 0]<br/>class = negative>, fillcolor="#e58139"] ;
205 -> 211 ;
212 [label=<entropy = 0.0<br/>samples = 137<br/>value = [137, 0]<br/>class = negative>, fillcolor="#e58139"] ;
10 -> 212 ;
213 [label=<X<SUB>1007</SUB> &le; 0.5<br/>entropy = 0.979<br/>samples = 379<br/>value = [157, 222]<br/>class = positive>, fillcolor="#c5e2f7"] ;
9 -> 213 ;
214 [label=<X<SUB>759</SUB> &le; 0.5<br/>entropy = 0.912<br/>samples = 330<br/>value = [108, 222]<br/>class = positive>, fillcolor="#99cdf2"] ;
213 -> 214 ;
215 [label=<X<SUB>321</SUB> &le; 0.5<br/>entropy = 0.606<br/>samples = 182<br/>value = [27, 155]<br/>class = positive>, fillcolor="#5baeea"] ;
214 -> 215 ;
216 [label=<X<SUB>781</SUB> &le; 0.5<br/>entropy = 0.465<br/>samples = 172<br/>value = [17, 155]<br/>class = positive>, fillcolor="#4fa8e8"] ;
215 -> 216 ;
217 [label=<X<SUB>339</SUB> &le; 0.5<br/>entropy = 0.393<br/>samples = 168<br/>value = [13, 155]<br/>class = positive>, fillcolor="#4aa5e7"] ;
216 -> 217 ;
218 [label=<X<SUB>298</SUB> &le; 0.5<br/>entropy = 0.307<br/>samples = 164<br/>value = [9, 155]<br/>class = positive>, fillcolor="#44a3e7"] ;
217 -> 218 ;
219 [label=<X<SUB>403</SUB> &le; 0.5<br/>entropy = 0.642<br/>samples = 49<br/>value = [8, 41]<br/>class = positive>, fillcolor="#60b0ea"] ;
218 -> 219 ;
220 [label=<X<SUB>186</SUB> &le; 0.5<br/>entropy = 0.918<br/>samples = 24<br/>value = [8, 16]<br/>class = positive>, fillcolor="#9ccef2"] ;
219 -> 220 ;
221 [label=<entropy = 0.0<br/>samples = 6<br/>value = [6, 0]<br/>class = negative>, fillcolor="#e58139"] ;
220 -> 221 ;
222 [label=<X<SUB>349</SUB> &le; 0.5<br/>entropy = 0.503<br/>samples = 18<br/>value = [2, 16]<br/>class = positive>, fillcolor="#52a9e8"] ;
220 -> 222 ;
223 [label=<entropy = 0.0<br/>samples = 16<br/>value = [0, 16]<br/>class = positive>, fillcolor="#399de5"] ;
222 -> 223 ;
224 [label=<entropy = 0.0<br/>samples = 2<br/>value = [2, 0]<br/>class = negative>, fillcolor="#e58139"] ;
222 -> 224 ;
225 [label=<entropy = 0.0<br/>samples = 25<br/>value = [0, 25]<br/>class = positive>, fillcolor="#399de5"] ;
219 -> 225 ;
226 [label=<X<SUB>141</SUB> &le; 0.5<br/>entropy = 0.072<br/>samples = 115<br/>value = [1, 114]<br/>class = positive>, fillcolor="#3b9ee5"] ;
218 -> 226 ;
227 [label=<entropy = 0.0<br/>samples = 114<br/>value = [0, 114]<br/>class = positive>, fillcolor="#399de5"] ;
226 -> 227 ;
228 [label=<entropy = 0.0<br/>samples = 1<br/>value = [1, 0]<br/>class = negative>, fillcolor="#e58139"] ;
226 -> 228 ;
229 [label=<entropy = 0.0<br/>samples = 4<br/>value = [4, 0]<br/>class = negative>, fillcolor="#e58139"] ;
217 -> 229 ;
230 [label=<entropy = 0.0<br/>samples = 4<br/>value = [4, 0]<br/>class = negative>, fillcolor="#e58139"] ;
216 -> 230 ;
231 [label=<entropy = 0.0<br/>samples = 10<br/>value = [10, 0]<br/>class = negative>, fillcolor="#e58139"] ;
215 -> 231 ;
232 [label=<X<SUB>388</SUB> &le; 0.5<br/>entropy = 0.994<br/>samples = 148<br/>value = [81, 67]<br/>class = negative>, fillcolor="#fbe9dd"] ;
214 -> 232 ;
233 [label=<entropy = 0.0<br/>samples = 47<br/>value = [47, 0]<br/>class = negative>, fillcolor="#e58139"] ;
232 -> 233 ;
234 [label=<X<SUB>131</SUB> &le; 0.5<br/>entropy = 0.922<br/>samples = 101<br/>value = [34, 67]<br/>class = positive>, fillcolor="#9dcff2"] ;
232 -> 234 ;
235 [label=<entropy = 0.0<br/>samples = 20<br/>value = [20, 0]<br/>class = negative>, fillcolor="#e58139"] ;
234 -> 235 ;
236 [label=<X<SUB>336</SUB> &le; 0.5<br/>entropy = 0.664<br/>samples = 81<br/>value = [14, 67]<br/>class = positive>, fillcolor="#62b1ea"] ;
234 -> 236 ;
237 [label=<X<SUB>96</SUB> &le; 0.5<br/>entropy = 0.49<br/>samples = 75<br/>value = [8, 67]<br/>class = positive>, fillcolor="#51a9e8"] ;
236 -> 237 ;
238 [label=<X<SUB>672</SUB> &le; 0.5<br/>entropy = 0.364<br/>samples = 72<br/>value = [5, 67]<br/>class = positive>, fillcolor="#48a4e7"] ;
237 -> 238 ;
239 [label=<X<SUB>370</SUB> &le; 0.5<br/>entropy = 0.255<br/>samples = 70<br/>value = [3, 67]<br/>class = positive>, fillcolor="#42a1e6"] ;
238 -> 239 ;
240 [label=<X<SUB>694</SUB> &le; 0.5<br/>entropy = 0.189<br/>samples = 69<br/>value = [2, 67]<br/>class = positive>, fillcolor="#3fa0e6"] ;
239 -> 240 ;
241 [label=<X<SUB>280</SUB> &le; 0.5<br/>entropy = 0.111<br/>samples = 68<br/>value = [1, 67]<br/>class = positive>, fillcolor="#3c9ee5"] ;
240 -> 241 ;
242 [label=<entropy = 0.0<br/>samples = 59<br/>value = [0, 59]<br/>class = positive>, fillcolor="#399de5"] ;
241 -> 242 ;
243 [label=<X<SUB>723</SUB> &le; 0.5<br/>entropy = 0.503<br/>samples = 9<br/>value = [1, 8]<br/>class = positive>, fillcolor="#52a9e8"] ;
241 -> 243 ;
244 [label=<entropy = 0.0<br/>samples = 1<br/>value = [1, 0]<br/>class = negative>, fillcolor="#e58139"] ;
243 -> 244 ;
245 [label=<entropy = 0.0<br/>samples = 8<br/>value = [0, 8]<br/>class = positive>, fillcolor="#399de5"] ;
243 -> 245 ;
246 [label=<entropy = 0.0<br/>samples = 1<br/>value = [1, 0]<br/>class = negative>, fillcolor="#e58139"] ;
240 -> 246 ;
247 [label=<entropy = 0.0<br/>samples = 1<br/>value = [1, 0]<br/>class = negative>, fillcolor="#e58139"] ;
239 -> 247 ;
248 [label=<entropy = 0.0<br/>samples = 2<br/>value = [2, 0]<br/>class = negative>, fillcolor="#e58139"] ;
238 -> 248 ;
249 [label=<entropy = 0.0<br/>samples = 3<br/>value = [3, 0]<br/>class = negative>, fillcolor="#e58139"] ;
237 -> 249 ;
250 [label=<entropy = 0.0<br/>samples = 6<br/>value = [6, 0]<br/>class = negative>, fillcolor="#e58139"] ;
236 -> 250 ;
251 [label=<entropy = 0.0<br/>samples = 49<br/>value = [49, 0]<br/>class = negative>, fillcolor="#e58139"] ;
213 -> 251 ;
252 [label=<X<SUB>991</SUB> &le; 0.5<br/>entropy = 0.208<br/>samples = 214<br/>value = [207, 7]<br/>class = negative>, fillcolor="#e68540"] ;
8 -> 252 ;
253 [label=<entropy = 0.0<br/>samples = 207<br/>value = [207, 0]<br/>class = negative>, fillcolor="#e58139"] ;
252 -> 253 ;
254 [label=<entropy = 0.0<br/>samples = 7<br/>value = [0, 7]<br/>class = positive>, fillcolor="#399de5"] ;
252 -> 254 ;
255 [label=<X<SUB>1</SUB> &le; 0.5<br/>entropy = 0.18<br/>samples = 257<br/>value = [250, 7]<br/>class = negative>, fillcolor="#e6853f"] ;
7 -> 255 ;
256 [label=<entropy = 0.0<br/>samples = 250<br/>value = [250, 0]<br/>class = negative>, fillcolor="#e58139"] ;
255 -> 256 ;
257 [label=<entropy = 0.0<br/>samples = 7<br/>value = [0, 7]<br/>class = positive>, fillcolor="#399de5"] ;
255 -> 257 ;
258 [label=<X<SUB>375</SUB> &le; 0.5<br/>entropy = 0.904<br/>samples = 172<br/>value = [55, 117]<br/>class = positive>, fillcolor="#96cbf1"] ;
6 -> 258 ;
259 [label=<X<SUB>69</SUB> &le; 0.5<br/>entropy = 0.985<br/>samples = 84<br/>value = [48, 36]<br/>class = negative>, fillcolor="#f8e0ce"] ;
258 -> 259 ;
260 [label=<X<SUB>538</SUB> &le; 0.5<br/>entropy = 0.523<br/>samples = 51<br/>value = [45, 6]<br/>class = negative>, fillcolor="#e89253"] ;
259 -> 260 ;
261 [label=<entropy = 0.0<br/>samples = 45<br/>value = [45, 0]<br/>class = negative>, fillcolor="#e58139"] ;
260 -> 261 ;
262 [label=<entropy = 0.0<br/>samples = 6<br/>value = [0, 6]<br/>class = positive>, fillcolor="#399de5"] ;
260 -> 262 ;
263 [label=<X<SUB>690</SUB> &le; 0.5<br/>entropy = 0.439<br/>samples = 33<br/>value = [3, 30]<br/>class = positive>, fillcolor="#4da7e8"] ;
259 -> 263 ;
264 [label=<entropy = 0.0<br/>samples = 3<br/>value = [3, 0]<br/>class = negative>, fillcolor="#e58139"] ;
263 -> 264 ;
265 [label=<entropy = 0.0<br/>samples = 30<br/>value = [0, 30]<br/>class = positive>, fillcolor="#399de5"] ;
263 -> 265 ;
266 [label=<X<SUB>207</SUB> &le; 0.5<br/>entropy = 0.401<br/>samples = 88<br/>value = [7, 81]<br/>class = positive>, fillcolor="#4aa5e7"] ;
258 -> 266 ;
267 [label=<entropy = 0.0<br/>samples = 3<br/>value = [3, 0]<br/>class = negative>, fillcolor="#e58139"] ;
266 -> 267 ;
268 [label=<X<SUB>464</SUB> &le; 0.5<br/>entropy = 0.274<br/>samples = 85<br/>value = [4, 81]<br/>class = positive>, fillcolor="#43a2e6"] ;
266 -> 268 ;
269 [label=<X<SUB>709</SUB> &le; 0.5<br/>entropy = 0.222<br/>samples = 84<br/>value = [3, 81]<br/>class = positive>, fillcolor="#40a1e6"] ;
268 -> 269 ;
270 [label=<X<SUB>796</SUB> &le; 0.5<br/>entropy = 0.164<br/>samples = 83<br/>value = [2, 81]<br/>class = positive>, fillcolor="#3e9fe6"] ;
269 -> 270 ;
271 [label=<entropy = 0.0<br/>samples = 68<br/>value = [0, 68]<br/>class = positive>, fillcolor="#399de5"] ;
270 -> 271 ;
272 [label=<X<SUB>924</SUB> &le; 0.5<br/>entropy = 0.567<br/>samples = 15<br/>value = [2, 13]<br/>class = positive>, fillcolor="#57ace9"] ;
270 -> 272 ;
273 [label=<entropy = 0.0<br/>samples = 2<br/>value = [2, 0]<br/>class = negative>, fillcolor="#e58139"] ;
272 -> 273 ;
274 [label=<entropy = 0.0<br/>samples = 13<br/>value = [0, 13]<br/>class = positive>, fillcolor="#399de5"] ;
272 -> 274 ;
275 [label=<entropy = 0.0<br/>samples = 1<br/>value = [1, 0]<br/>class = negative>, fillcolor="#e58139"] ;
269 -> 275 ;
276 [label=<entropy = 0.0<br/>samples = 1<br/>value = [1, 0]<br/>class = negative>, fillcolor="#e58139"] ;
268 -> 276 ;
277 [label=<entropy = 0.0<br/>samples = 202<br/>value = [202, 0]<br/>class = negative>, fillcolor="#e58139"] ;
5 -> 277 ;
278 [label=<X<SUB>722</SUB> &le; 0.5<br/>entropy = 0.993<br/>samples = 667<br/>value = [300, 367]<br/>class = positive>, fillcolor="#dbedfa"] ;
4 -> 278 ;
279 [label=<X<SUB>711</SUB> &le; 0.5<br/>entropy = 0.97<br/>samples = 610<br/>value = [243, 367]<br/>class = positive>, fillcolor="#bcdef6"] ;
278 -> 279 ;
280 [label=<X<SUB>909</SUB> &le; 0.5<br/>entropy = 0.953<br/>samples = 585<br/>value = [218, 367]<br/>class = positive>, fillcolor="#afd7f4"] ;
279 -> 280 ;
281 [label=<X<SUB>948</SUB> &le; 0.5<br/>entropy = 0.935<br/>samples = 566<br/>value = [199, 367]<br/>class = positive>, fillcolor="#a4d2f3"] ;
280 -> 281 ;
282 [label=<X<SUB>706</SUB> &le; 0.5<br/>entropy = 0.915<br/>samples = 548<br/>value = [181, 367]<br/>class = positive>, fillcolor="#9bcdf2"] ;
281 -> 282 ;
283 [label=<X<SUB>349</SUB> &le; 0.5<br/>entropy = 0.944<br/>samples = 498<br/>value = [180, 318]<br/>class = positive>, fillcolor="#a9d4f4"] ;
282 -> 283 ;
284 [label=<X<SUB>891</SUB> &le; 0.5<br/>entropy = 0.884<br/>samples = 424<br/>value = [128, 296]<br/>class = positive>, fillcolor="#8fc7f0"] ;
283 -> 284 ;
285 [label=<X<SUB>920</SUB> &le; 0.5<br/>entropy = 0.922<br/>samples = 380<br/>value = [128, 252]<br/>class = positive>, fillcolor="#9ecff2"] ;
284 -> 285 ;
286 [label=<X<SUB>448</SUB> &le; 0.5<br/>entropy = 0.864<br/>samples = 346<br/>value = [99, 247]<br/>class = positive>, fillcolor="#88c4ef"] ;
285 -> 286 ;
287 [label=<X<SUB>40</SUB> &le; 0.5<br/>entropy = 0.914<br/>samples = 301<br/>value = [99, 202]<br/>class = positive>, fillcolor="#9acdf2"] ;
286 -> 287 ;
288 [label=<X<SUB>253</SUB> &le; 0.5<br/>entropy = 0.888<br/>samples = 291<br/>value = [89, 202]<br/>class = positive>, fillcolor="#90c8f0"] ;
287 -> 288 ;
289 [label=<X<SUB>1013</SUB> &le; 0.5<br/>entropy = 0.857<br/>samples = 281<br/>value = [79, 202]<br/>class = positive>, fillcolor="#86c3ef"] ;
288 -> 289 ;
290 [label=<X<SUB>517</SUB> &le; 0.5<br/>entropy = 0.831<br/>samples = 274<br/>value = [72, 202]<br/>class = positive>, fillcolor="#80c0ee"] ;
289 -> 290 ;
291 [label=<X<SUB>636</SUB> &le; 0.5<br/>entropy = 0.805<br/>samples = 268<br/>value = [66, 202]<br/>class = positive>, fillcolor="#7abded"] ;
290 -> 291 ;
292 [label=<X<SUB>164</SUB> &le; 0.5<br/>entropy = 0.862<br/>samples = 228<br/>value = [65, 163]<br/>class = positive>, fillcolor="#88c4ef"] ;
291 -> 292 ;
293 [label=<X<SUB>635</SUB> &le; 0.5<br/>entropy = 0.835<br/>samples = 222<br/>value = [59, 163]<br/>class = positive>, fillcolor="#81c0ee"] ;
292 -> 293 ;
294 [label=<X<SUB>745</SUB> &le; 0.5<br/>entropy = 0.762<br/>samples = 199<br/>value = [44, 155]<br/>class = positive>, fillcolor="#71b9ec"] ;
293 -> 294 ;
295 [label=<X<SUB>370</SUB> &le; 0.5<br/>entropy = 0.716<br/>samples = 193<br/>value = [38, 155]<br/>class = positive>, fillcolor="#6ab5eb"] ;
294 -> 295 ;
296 [label=<X<SUB>21</SUB> &le; 0.5<br/>entropy = 0.68<br/>samples = 189<br/>value = [34, 155]<br/>class = positive>, fillcolor="#64b2eb"] ;
295 -> 296 ;
297 [label=<X<SUB>7</SUB> &le; 0.5<br/>entropy = 0.639<br/>samples = 185<br/>value = [30, 155]<br/>class = positive>, fillcolor="#5fb0ea"] ;
296 -> 297 ;
298 [label=<X<SUB>951</SUB> &le; 0.5<br/>entropy = 0.606<br/>samples = 182<br/>value = [27, 155]<br/>class = positive>, fillcolor="#5baeea"] ;
297 -> 298 ;
299 [label=<X<SUB>555</SUB> &le; 0.5<br/>entropy = 0.569<br/>samples = 179<br/>value = [24, 155]<br/>class = positive>, fillcolor="#58ace9"] ;
298 -> 299 ;
300 [label=<X<SUB>139</SUB> &le; 0.5<br/>entropy = 0.527<br/>samples = 176<br/>value = [21, 155]<br/>class = positive>, fillcolor="#54aae9"] ;
299 -> 300 ;
301 [label=<X<SUB>834</SUB> &le; 0.5<br/>entropy = 0.497<br/>samples = 174<br/>value = [19, 155]<br/>class = positive>, fillcolor="#51a9e8"] ;
300 -> 301 ;
302 [label=<X<SUB>205</SUB> &le; 0.5<br/>entropy = 0.465<br/>samples = 172<br/>value = [17, 155]<br/>class = positive>, fillcolor="#4fa8e8"] ;
301 -> 302 ;
303 [label=<entropy = 0.431<br/>samples = 170<br/>value = [15, 155]<br/>class = positive>, fillcolor="#4ca6e8"] ;
302 -> 303 ;
304 [label=<entropy = 0.0<br/>samples = 2<br/>value = [2, 0]<br/>class = negative>, fillcolor="#e58139"] ;
302 -> 304 ;
305 [label=<entropy = 0.0<br/>samples = 2<br/>value = [2, 0]<br/>class = negative>, fillcolor="#e58139"] ;
301 -> 305 ;
306 [label=<entropy = 0.0<br/>samples = 2<br/>value = [2, 0]<br/>class = negative>, fillcolor="#e58139"] ;
300 -> 306 ;
307 [label=<entropy = 0.0<br/>samples = 3<br/>value = [3, 0]<br/>class = negative>, fillcolor="#e58139"] ;
299 -> 307 ;
308 [label=<entropy = 0.0<br/>samples = 3<br/>value = [3, 0]<br/>class = negative>, fillcolor="#e58139"] ;
298 -> 308 ;
309 [label=<entropy = 0.0<br/>samples = 3<br/>value = [3, 0]<br/>class = negative>, fillcolor="#e58139"] ;
297 -> 309 ;
310 [label=<entropy = 0.0<br/>samples = 4<br/>value = [4, 0]<br/>class = negative>, fillcolor="#e58139"] ;
296 -> 310 ;
311 [label=<entropy = 0.0<br/>samples = 4<br/>value = [4, 0]<br/>class = negative>, fillcolor="#e58139"] ;
295 -> 311 ;
312 [label=<entropy = 0.0<br/>samples = 6<br/>value = [6, 0]<br/>class = negative>, fillcolor="#e58139"] ;
294 -> 312 ;
313 [label=<X<SUB>157</SUB> &le; 0.5<br/>entropy = 0.932<br/>samples = 23<br/>value = [15, 8]<br/>class = negative>, fillcolor="#f3c4a3"] ;
293 -> 313 ;
314 [label=<entropy = 0.0<br/>samples = 15<br/>value = [15, 0]<br/>class = negative>, fillcolor="#e58139"] ;
313 -> 314 ;
315 [label=<entropy = 0.0<br/>samples = 8<br/>value = [0, 8]<br/>class = positive>, fillcolor="#399de5"] ;
313 -> 315 ;
316 [label=<entropy = 0.0<br/>samples = 6<br/>value = [6, 0]<br/>class = negative>, fillcolor="#e58139"] ;
292 -> 316 ;
317 [label=<X<SUB>382</SUB> &le; 0.5<br/>entropy = 0.169<br/>samples = 40<br/>value = [1, 39]<br/>class = positive>, fillcolor="#3ea0e6"] ;
291 -> 317 ;
318 [label=<entropy = 0.0<br/>samples = 1<br/>value = [1, 0]<br/>class = negative>, fillcolor="#e58139"] ;
317 -> 318 ;
319 [label=<entropy = 0.0<br/>samples = 39<br/>value = [0, 39]<br/>class = positive>, fillcolor="#399de5"] ;
317 -> 319 ;
320 [label=<entropy = 0.0<br/>samples = 6<br/>value = [6, 0]<br/>class = negative>, fillcolor="#e58139"] ;
290 -> 320 ;
321 [label=<entropy = 0.0<br/>samples = 7<br/>value = [7, 0]<br/>class = negative>, fillcolor="#e58139"] ;
289 -> 321 ;
322 [label=<entropy = 0.0<br/>samples = 10<br/>value = [10, 0]<br/>class = negative>, fillcolor="#e58139"] ;
288 -> 322 ;
323 [label=<entropy = 0.0<br/>samples = 10<br/>value = [10, 0]<br/>class = negative>, fillcolor="#e58139"] ;
287 -> 323 ;
324 [label=<entropy = 0.0<br/>samples = 45<br/>value = [0, 45]<br/>class = positive>, fillcolor="#399de5"] ;
286 -> 324 ;
325 [label=<X<SUB>898</SUB> &le; 0.5<br/>entropy = 0.602<br/>samples = 34<br/>value = [29, 5]<br/>class = negative>, fillcolor="#e9975b"] ;
285 -> 325 ;
326 [label=<entropy = 0.0<br/>samples = 28<br/>value = [28, 0]<br/>class = negative>, fillcolor="#e58139"] ;
325 -> 326 ;
327 [label=<entropy = 0.65<br/>samples = 6<br/>value = [1, 5]<br/>class = positive>, fillcolor="#61b1ea"] ;
325 -> 327 ;
328 [label=<entropy = 0.0<br/>samples = 44<br/>value = [0, 44]<br/>class = positive>, fillcolor="#399de5"] ;
284 -> 328 ;
329 [label=<X<SUB>463</SUB> &le; 0.5<br/>entropy = 0.878<br/>samples = 74<br/>value = [52, 22]<br/>class = negative>, fillcolor="#f0b68d"] ;
283 -> 329 ;
330 [label=<X<SUB>973</SUB> &le; 0.5<br/>entropy = 0.668<br/>samples = 63<br/>value = [52, 11]<br/>class = negative>, fillcolor="#ea9c63"] ;
329 -> 330 ;
331 [label=<entropy = 0.0<br/>samples = 51<br/>value = [51, 0]<br/>class = negative>, fillcolor="#e58139"] ;
330 -> 331 ;
332 [label=<X<SUB>392</SUB> &le; 0.5<br/>entropy = 0.414<br/>samples = 12<br/>value = [1, 11]<br/>class = positive>, fillcolor="#4ba6e7"] ;
330 -> 332 ;
333 [label=<entropy = 0.0<br/>samples = 11<br/>value = [0, 11]<br/>class = positive>, fillcolor="#399de5"] ;
332 -> 333 ;
334 [label=<entropy = 0.0<br/>samples = 1<br/>value = [1, 0]<br/>class = negative>, fillcolor="#e58139"] ;
332 -> 334 ;
335 [label=<entropy = 0.0<br/>samples = 11<br/>value = [0, 11]<br/>class = positive>, fillcolor="#399de5"] ;
329 -> 335 ;
336 [label=<X<SUB>570</SUB> &le; 0.5<br/>entropy = 0.141<br/>samples = 50<br/>value = [1, 49]<br/>class = positive>, fillcolor="#3d9fe6"] ;
282 -> 336 ;
337 [label=<entropy = 0.0<br/>samples = 49<br/>value = [0, 49]<br/>class = positive>, fillcolor="#399de5"] ;
336 -> 337 ;
338 [label=<entropy = 0.0<br/>samples = 1<br/>value = [1, 0]<br/>class = negative>, fillcolor="#e58139"] ;
336 -> 338 ;
339 [label=<entropy = 0.0<br/>samples = 18<br/>value = [18, 0]<br/>class = negative>, fillcolor="#e58139"] ;
281 -> 339 ;
340 [label=<entropy = 0.0<br/>samples = 19<br/>value = [19, 0]<br/>class = negative>, fillcolor="#e58139"] ;
280 -> 340 ;
341 [label=<entropy = 0.0<br/>samples = 25<br/>value = [25, 0]<br/>class = negative>, fillcolor="#e58139"] ;
279 -> 341 ;
342 [label=<entropy = 0.0<br/>samples = 57<br/>value = [57, 0]<br/>class = negative>, fillcolor="#e58139"] ;
278 -> 342 ;
343 [label=<X<SUB>397</SUB> &le; 0.5<br/>entropy = 0.798<br/>samples = 265<br/>value = [64, 201]<br/>class = positive>, fillcolor="#78bced"] ;
3 -> 343 ;
344 [label=<X<SUB>545</SUB> &le; 0.5<br/>entropy = 0.988<br/>samples = 126<br/>value = [55, 71]<br/>class = positive>, fillcolor="#d2e9f9"] ;
343 -> 344 ;
345 [label=<X<SUB>290</SUB> &le; 0.5<br/>entropy = 0.636<br/>samples = 56<br/>value = [47, 9]<br/>class = negative>, fillcolor="#ea995f"] ;
344 -> 345 ;
346 [label=<entropy = 0.0<br/>samples = 47<br/>value = [47, 0]<br/>class = negative>, fillcolor="#e58139"] ;
345 -> 346 ;
347 [label=<entropy = 0.0<br/>samples = 9<br/>value = [0, 9]<br/>class = positive>, fillcolor="#399de5"] ;
345 -> 347 ;
348 [label=<X<SUB>388</SUB> &le; 0.5<br/>entropy = 0.513<br/>samples = 70<br/>value = [8, 62]<br/>class = positive>, fillcolor="#53aae8"] ;
344 -> 348 ;
349 [label=<X<SUB>600</SUB> &le; 0.5<br/>entropy = 0.27<br/>samples = 65<br/>value = [3, 62]<br/>class = positive>, fillcolor="#43a2e6"] ;
348 -> 349 ;
350 [label=<entropy = 0.0<br/>samples = 62<br/>value = [0, 62]<br/>class = positive>, fillcolor="#399de5"] ;
349 -> 350 ;
351 [label=<entropy = 0.0<br/>samples = 3<br/>value = [3, 0]<br/>class = negative>, fillcolor="#e58139"] ;
349 -> 351 ;
352 [label=<entropy = 0.0<br/>samples = 5<br/>value = [5, 0]<br/>class = negative>, fillcolor="#e58139"] ;
348 -> 352 ;
353 [label=<X<SUB>407</SUB> &le; 0.5<br/>entropy = 0.346<br/>samples = 139<br/>value = [9, 130]<br/>class = positive>, fillcolor="#47a4e7"] ;
343 -> 353 ;
354 [label=<X<SUB>77</SUB> &le; 0.5<br/>entropy = 0.934<br/>samples = 20<br/>value = [7, 13]<br/>class = positive>, fillcolor="#a4d2f3"] ;
353 -> 354 ;
355 [label=<entropy = 0.0<br/>samples = 6<br/>value = [6, 0]<br/>class = negative>, fillcolor="#e58139"] ;
354 -> 355 ;
356 [label=<X<SUB>2</SUB> &le; 0.5<br/>entropy = 0.371<br/>samples = 14<br/>value = [1, 13]<br/>class = positive>, fillcolor="#48a5e7"] ;
354 -> 356 ;
357 [label=<entropy = 0.0<br/>samples = 13<br/>value = [0, 13]<br/>class = positive>, fillcolor="#399de5"] ;
356 -> 357 ;
358 [label=<entropy = 0.0<br/>samples = 1<br/>value = [1, 0]<br/>class = negative>, fillcolor="#e58139"] ;
356 -> 358 ;
359 [label=<X<SUB>245</SUB> &le; 0.5<br/>entropy = 0.123<br/>samples = 119<br/>value = [2, 117]<br/>class = positive>, fillcolor="#3c9fe5"] ;
353 -> 359 ;
360 [label=<X<SUB>520</SUB> &le; 0.5<br/>entropy = 0.071<br/>samples = 118<br/>value = [1, 117]<br/>class = positive>, fillcolor="#3b9ee5"] ;
359 -> 360 ;
361 [label=<entropy = 0.0<br/>samples = 117<br/>value = [0, 117]<br/>class = positive>, fillcolor="#399de5"] ;
360 -> 361 ;
362 [label=<entropy = 0.0<br/>samples = 1<br/>value = [1, 0]<br/>class = negative>, fillcolor="#e58139"] ;
360 -> 362 ;
363 [label=<entropy = 0.0<br/>samples = 1<br/>value = [1, 0]<br/>class = negative>, fillcolor="#e58139"] ;
359 -> 363 ;
364 [label=<X<SUB>890</SUB> &le; 0.5<br/>entropy = 0.529<br/>samples = 1160<br/>value = [1021, 139]<br/>class = negative>, fillcolor="#e99254"] ;
2 -> 364 ;
365 [label=<X<SUB>136</SUB> &le; 0.5<br/>entropy = 0.131<br/>samples = 659<br/>value = [647, 12]<br/>class = negative>, fillcolor="#e5833d"] ;
364 -> 365 ;
366 [label=<entropy = 0.0<br/>samples = 627<br/>value = [627, 0]<br/>class = negative>, fillcolor="#e58139"] ;
365 -> 366 ;
367 [label=<X<SUB>114</SUB> &le; 0.5<br/>entropy = 0.954<br/>samples = 32<br/>value = [20, 12]<br/>class = negative>, fillcolor="#f5cdb0"] ;
365 -> 367 ;
368 [label=<entropy = 0.0<br/>samples = 19<br/>value = [19, 0]<br/>class = negative>, fillcolor="#e58139"] ;
367 -> 368 ;
369 [label=<X<SUB>181</SUB> &le; 0.5<br/>entropy = 0.391<br/>samples = 13<br/>value = [1, 12]<br/>class = positive>, fillcolor="#49a5e7"] ;
367 -> 369 ;
370 [label=<entropy = 0.0<br/>samples = 12<br/>value = [0, 12]<br/>class = positive>, fillcolor="#399de5"] ;
369 -> 370 ;
371 [label=<entropy = 0.0<br/>samples = 1<br/>value = [1, 0]<br/>class = negative>, fillcolor="#e58139"] ;
369 -> 371 ;
372 [label=<X<SUB>64</SUB> &le; 0.5<br/>entropy = 0.817<br/>samples = 501<br/>value = [374, 127]<br/>class = negative>, fillcolor="#eeac7c"] ;
364 -> 372 ;
373 [label=<X<SUB>206</SUB> &le; 0.5<br/>entropy = 0.9<br/>samples = 402<br/>value = [275, 127]<br/>class = negative>, fillcolor="#f1bb94"] ;
372 -> 373 ;
374 [label=<X<SUB>516</SUB> &le; 0.5<br/>entropy = 0.827<br/>samples = 365<br/>value = [270, 95]<br/>class = negative>, fillcolor="#eead7f"] ;
373 -> 374 ;
375 [label=<X<SUB>917</SUB> &le; 0.5<br/>entropy = 0.724<br/>samples = 333<br/>value = [266, 67]<br/>class = negative>, fillcolor="#eca16b"] ;
374 -> 375 ;
376 [label=<X<SUB>702</SUB> &le; 0.5<br/>entropy = 0.53<br/>samples = 291<br/>value = [256, 35]<br/>class = negative>, fillcolor="#e99254"] ;
375 -> 376 ;
377 [label=<X<SUB>632</SUB> &le; 0.5<br/>entropy = 0.814<br/>samples = 139<br/>value = [104, 35]<br/>class = negative>, fillcolor="#eeab7c"] ;
376 -> 377 ;
378 [label=<X<SUB>747</SUB> &le; 0.5<br/>entropy = 0.637<br/>samples = 124<br/>value = [104, 20]<br/>class = negative>, fillcolor="#ea995f"] ;
377 -> 378 ;
379 [label=<entropy = 0.0<br/>samples = 94<br/>value = [94, 0]<br/>class = negative>, fillcolor="#e58139"] ;
378 -> 379 ;
380 [label=<X<SUB>935</SUB> &le; 0.5<br/>entropy = 0.918<br/>samples = 30<br/>value = [10, 20]<br/>class = positive>, fillcolor="#9ccef2"] ;
378 -> 380 ;
381 [label=<X<SUB>1023</SUB> &le; 0.5<br/>entropy = 0.65<br/>samples = 24<br/>value = [4, 20]<br/>class = positive>, fillcolor="#61b1ea"] ;
380 -> 381 ;
382 [label=<X<SUB>414</SUB> &le; 0.5<br/>entropy = 0.439<br/>samples = 22<br/>value = [2, 20]<br/>class = positive>, fillcolor="#4da7e8"] ;
381 -> 382 ;
383 [label=<X<SUB>797</SUB> &le; 0.5<br/>entropy = 0.276<br/>samples = 21<br/>value = [1, 20]<br/>class = positive>, fillcolor="#43a2e6"] ;
382 -> 383 ;
384 [label=<entropy = 0.0<br/>samples = 20<br/>value = [0, 20]<br/>class = positive>, fillcolor="#399de5"] ;
383 -> 384 ;
385 [label=<entropy = 0.0<br/>samples = 1<br/>value = [1, 0]<br/>class = negative>, fillcolor="#e58139"] ;
383 -> 385 ;
386 [label=<entropy = 0.0<br/>samples = 1<br/>value = [1, 0]<br/>class = negative>, fillcolor="#e58139"] ;
382 -> 386 ;
387 [label=<entropy = 0.0<br/>samples = 2<br/>value = [2, 0]<br/>class = negative>, fillcolor="#e58139"] ;
381 -> 387 ;
388 [label=<entropy = 0.0<br/>samples = 6<br/>value = [6, 0]<br/>class = negative>, fillcolor="#e58139"] ;
380 -> 388 ;
389 [label=<entropy = 0.0<br/>samples = 15<br/>value = [0, 15]<br/>class = positive>, fillcolor="#399de5"] ;
377 -> 389 ;
390 [label=<entropy = 0.0<br/>samples = 152<br/>value = [152, 0]<br/>class = negative>, fillcolor="#e58139"] ;
376 -> 390 ;
391 [label=<X<SUB>545</SUB> &le; 0.5<br/>entropy = 0.792<br/>samples = 42<br/>value = [10, 32]<br/>class = positive>, fillcolor="#77bced"] ;
375 -> 391 ;
392 [label=<X<SUB>245</SUB> &le; 0.5<br/>entropy = 0.503<br/>samples = 36<br/>value = [4, 32]<br/>class = positive>, fillcolor="#52a9e8"] ;
391 -> 392 ;
393 [label=<X<SUB>728</SUB> &le; 0.5<br/>entropy = 0.323<br/>samples = 34<br/>value = [2, 32]<br/>class = positive>, fillcolor="#45a3e7"] ;
392 -> 393 ;
394 [label=<entropy = 0.0<br/>samples = 2<br/>value = [2, 0]<br/>class = negative>, fillcolor="#e58139"] ;
393 -> 394 ;
395 [label=<entropy = 0.0<br/>samples = 32<br/>value = [0, 32]<br/>class = positive>, fillcolor="#399de5"] ;
393 -> 395 ;
396 [label=<entropy = 0.0<br/>samples = 2<br/>value = [2, 0]<br/>class = negative>, fillcolor="#e58139"] ;
392 -> 396 ;
397 [label=<entropy = 0.0<br/>samples = 6<br/>value = [6, 0]<br/>class = negative>, fillcolor="#e58139"] ;
391 -> 397 ;
398 [label=<X<SUB>3</SUB> &le; 0.5<br/>entropy = 0.544<br/>samples = 32<br/>value = [4, 28]<br/>class = positive>, fillcolor="#55abe9"] ;
374 -> 398 ;
399 [label=<entropy = 0.0<br/>samples = 4<br/>value = [4, 0]<br/>class = negative>, fillcolor="#e58139"] ;
398 -> 399 ;
400 [label=<entropy = 0.0<br/>samples = 28<br/>value = [0, 28]<br/>class = positive>, fillcolor="#399de5"] ;
398 -> 400 ;
401 [label=<X<SUB>143</SUB> &le; 0.5<br/>entropy = 0.571<br/>samples = 37<br/>value = [5, 32]<br/>class = positive>, fillcolor="#58ace9"] ;
373 -> 401 ;
402 [label=<entropy = 0.0<br/>samples = 4<br/>value = [4, 0]<br/>class = negative>, fillcolor="#e58139"] ;
401 -> 402 ;
403 [label=<X<SUB>944</SUB> &le; 0.5<br/>entropy = 0.196<br/>samples = 33<br/>value = [1, 32]<br/>class = positive>, fillcolor="#3fa0e6"] ;
401 -> 403 ;
404 [label=<entropy = 0.0<br/>samples = 32<br/>value = [0, 32]<br/>class = positive>, fillcolor="#399de5"] ;
403 -> 404 ;
405 [label=<entropy = 0.0<br/>samples = 1<br/>value = [1, 0]<br/>class = negative>, fillcolor="#e58139"] ;
403 -> 405 ;
406 [label=<entropy = 0.0<br/>samples = 99<br/>value = [99, 0]<br/>class = negative>, fillcolor="#e58139"] ;
372 -> 406 ;
407 [label=<X<SUB>706</SUB> &le; 0.5<br/>entropy = 0.954<br/>samples = 1714<br/>value = [641, 1073]<br/>class = positive>, fillcolor="#afd8f5"] ;
1 -> 407 ;
408 [label=<X<SUB>289</SUB> &le; 0.5<br/>entropy = 0.955<br/>samples = 732<br/>value = [457, 275]<br/>class = negative>, fillcolor="#f5cdb0"] ;
407 -> 408 ;
409 [label=<X<SUB>786</SUB> &le; 0.5<br/>entropy = 0.852<br/>samples = 605<br/>value = [437, 168]<br/>class = negative>, fillcolor="#efb185"] ;
408 -> 409 ;
410 [label=<X<SUB>656</SUB> &le; 0.5<br/>entropy = 0.65<br/>samples = 426<br/>value = [355, 71]<br/>class = negative>, fillcolor="#ea9a61"] ;
409 -> 410 ;
411 [label=<X<SUB>467</SUB> &le; 0.5<br/>entropy = 1.0<br/>samples = 121<br/>value = [62, 59]<br/>class = negative>, fillcolor="#fef9f5"] ;
410 -> 411 ;
412 [label=<X<SUB>658</SUB> &le; 0.5<br/>entropy = 0.888<br/>samples = 85<br/>value = [26, 59]<br/>class = positive>, fillcolor="#90c8f0"] ;
411 -> 412 ;
413 [label=<X<SUB>424</SUB> &le; 0.5<br/>entropy = 0.992<br/>samples = 58<br/>value = [26, 32]<br/>class = positive>, fillcolor="#daedfa"] ;
412 -> 413 ;
414 [label=<X<SUB>1018</SUB> &le; 0.5<br/>entropy = 0.845<br/>samples = 44<br/>value = [12, 32]<br/>class = positive>, fillcolor="#83c2ef"] ;
413 -> 414 ;
415 [label=<X<SUB>787</SUB> &le; 0.5<br/>entropy = 0.629<br/>samples = 38<br/>value = [6, 32]<br/>class = positive>, fillcolor="#5eafea"] ;
414 -> 415 ;
416 [label=<entropy = 0.0<br/>samples = 3<br/>value = [3, 0]<br/>class = negative>, fillcolor="#e58139"] ;
415 -> 416 ;
417 [label=<X<SUB>748</SUB> &le; 0.5<br/>entropy = 0.422<br/>samples = 35<br/>value = [3, 32]<br/>class = positive>, fillcolor="#4ca6e7"] ;
415 -> 417 ;
418 [label=<X<SUB>460</SUB> &le; 0.5<br/>entropy = 0.196<br/>samples = 33<br/>value = [1, 32]<br/>class = positive>, fillcolor="#3fa0e6"] ;
417 -> 418 ;
419 [label=<entropy = 0.0<br/>samples = 32<br/>value = [0, 32]<br/>class = positive>, fillcolor="#399de5"] ;
418 -> 419 ;
420 [label=<entropy = 0.0<br/>samples = 1<br/>value = [1, 0]<br/>class = negative>, fillcolor="#e58139"] ;
418 -> 420 ;
421 [label=<entropy = 0.0<br/>samples = 2<br/>value = [2, 0]<br/>class = negative>, fillcolor="#e58139"] ;
417 -> 421 ;
422 [label=<entropy = 0.0<br/>samples = 6<br/>value = [6, 0]<br/>class = negative>, fillcolor="#e58139"] ;
414 -> 422 ;
423 [label=<entropy = 0.0<br/>samples = 14<br/>value = [14, 0]<br/>class = negative>, fillcolor="#e58139"] ;
413 -> 423 ;
424 [label=<entropy = 0.0<br/>samples = 27<br/>value = [0, 27]<br/>class = positive>, fillcolor="#399de5"] ;
412 -> 424 ;
425 [label=<entropy = 0.0<br/>samples = 36<br/>value = [36, 0]<br/>class = negative>, fillcolor="#e58139"] ;
411 -> 425 ;
426 [label=<X<SUB>9</SUB> &le; 0.5<br/>entropy = 0.239<br/>samples = 305<br/>value = [293, 12]<br/>class = negative>, fillcolor="#e68641"] ;
410 -> 426 ;
427 [label=<entropy = 0.0<br/>samples = 291<br/>value = [291, 0]<br/>class = negative>, fillcolor="#e58139"] ;
426 -> 427 ;
428 [label=<X<SUB>47</SUB> &le; 0.5<br/>entropy = 0.592<br/>samples = 14<br/>value = [2, 12]<br/>class = positive>, fillcolor="#5aade9"] ;
426 -> 428 ;
429 [label=<entropy = 0.0<br/>samples = 2<br/>value = [2, 0]<br/>class = negative>, fillcolor="#e58139"] ;
428 -> 429 ;
430 [label=<entropy = 0.0<br/>samples = 12<br/>value = [0, 12]<br/>class = positive>, fillcolor="#399de5"] ;
428 -> 430 ;
431 [label=<X<SUB>267</SUB> &le; 0.5<br/>entropy = 0.995<br/>samples = 179<br/>value = [82, 97]<br/>class = positive>, fillcolor="#e0f0fb"] ;
409 -> 431 ;
432 [label=<X<SUB>885</SUB> &le; 0.5<br/>entropy = 0.834<br/>samples = 132<br/>value = [35, 97]<br/>class = positive>, fillcolor="#80c0ee"] ;
431 -> 432 ;
433 [label=<X<SUB>711</SUB> &le; 0.5<br/>entropy = 0.744<br/>samples = 123<br/>value = [26, 97]<br/>class = positive>, fillcolor="#6eb7ec"] ;
432 -> 433 ;
434 [label=<X<SUB>10</SUB> &le; 0.5<br/>entropy = 0.626<br/>samples = 115<br/>value = [18, 97]<br/>class = positive>, fillcolor="#5eafea"] ;
433 -> 434 ;
435 [label=<X<SUB>841</SUB> &le; 0.5<br/>entropy = 0.524<br/>samples = 110<br/>value = [13, 97]<br/>class = positive>, fillcolor="#54aae8"] ;
434 -> 435 ;
436 [label=<X<SUB>873</SUB> &le; 0.5<br/>entropy = 0.448<br/>samples = 107<br/>value = [10, 97]<br/>class = positive>, fillcolor="#4da7e8"] ;
435 -> 436 ;
437 [label=<X<SUB>344</SUB> &le; 0.5<br/>entropy = 0.389<br/>samples = 105<br/>value = [8, 97]<br/>class = positive>, fillcolor="#49a5e7"] ;
436 -> 437 ;
438 [label=<X<SUB>978</SUB> &le; 0.5<br/>entropy = 0.32<br/>samples = 103<br/>value = [6, 97]<br/>class = positive>, fillcolor="#45a3e7"] ;
437 -> 438 ;
439 [label=<X<SUB>248</SUB> &le; 0.5<br/>entropy = 0.24<br/>samples = 101<br/>value = [4, 97]<br/>class = positive>, fillcolor="#41a1e6"] ;
438 -> 439 ;
440 [label=<X<SUB>1007</SUB> &le; 0.5<br/>entropy = 0.194<br/>samples = 100<br/>value = [3, 97]<br/>class = positive>, fillcolor="#3fa0e6"] ;
439 -> 440 ;
441 [label=<entropy = 0.0<br/>samples = 76<br/>value = [0, 76]<br/>class = positive>, fillcolor="#399de5"] ;
440 -> 441 ;
442 [label=<X<SUB>728</SUB> &le; 0.5<br/>entropy = 0.544<br/>samples = 24<br/>value = [3, 21]<br/>class = positive>, fillcolor="#55abe9"] ;
440 -> 442 ;
443 [label=<entropy = 0.0<br/>samples = 3<br/>value = [3, 0]<br/>class = negative>, fillcolor="#e58139"] ;
442 -> 443 ;
444 [label=<entropy = 0.0<br/>samples = 21<br/>value = [0, 21]<br/>class = positive>, fillcolor="#399de5"] ;
442 -> 444 ;
445 [label=<entropy = 0.0<br/>samples = 1<br/>value = [1, 0]<br/>class = negative>, fillcolor="#e58139"] ;
439 -> 445 ;
446 [label=<entropy = 0.0<br/>samples = 2<br/>value = [2, 0]<br/>class = negative>, fillcolor="#e58139"] ;
438 -> 446 ;
447 [label=<entropy = 0.0<br/>samples = 2<br/>value = [2, 0]<br/>class = negative>, fillcolor="#e58139"] ;
437 -> 447 ;
448 [label=<entropy = 0.0<br/>samples = 2<br/>value = [2, 0]<br/>class = negative>, fillcolor="#e58139"] ;
436 -> 448 ;
449 [label=<entropy = 0.0<br/>samples = 3<br/>value = [3, 0]<br/>class = negative>, fillcolor="#e58139"] ;
435 -> 449 ;
450 [label=<entropy = 0.0<br/>samples = 5<br/>value = [5, 0]<br/>class = negative>, fillcolor="#e58139"] ;
434 -> 450 ;
451 [label=<entropy = 0.0<br/>samples = 8<br/>value = [8, 0]<br/>class = negative>, fillcolor="#e58139"] ;
433 -> 451 ;
452 [label=<entropy = 0.0<br/>samples = 9<br/>value = [9, 0]<br/>class = negative>, fillcolor="#e58139"] ;
432 -> 452 ;
453 [label=<entropy = 0.0<br/>samples = 47<br/>value = [47, 0]<br/>class = negative>, fillcolor="#e58139"] ;
431 -> 453 ;
454 [label=<X<SUB>956</SUB> &le; 0.5<br/>entropy = 0.628<br/>samples = 127<br/>value = [20, 107]<br/>class = positive>, fillcolor="#5eafea"] ;
408 -> 454 ;
455 [label=<X<SUB>912</SUB> &le; 0.5<br/>entropy = 0.997<br/>samples = 32<br/>value = [17, 15]<br/>class = negative>, fillcolor="#fcf0e8"] ;
454 -> 455 ;
456 [label=<entropy = 0.0<br/>samples = 17<br/>value = [17, 0]<br/>class = negative>, fillcolor="#e58139"] ;
455 -> 456 ;
457 [label=<entropy = 0.0<br/>samples = 15<br/>value = [0, 15]<br/>class = positive>, fillcolor="#399de5"] ;
455 -> 457 ;
458 [label=<X<SUB>432</SUB> &le; 0.5<br/>entropy = 0.202<br/>samples = 95<br/>value = [3, 92]<br/>class = positive>, fillcolor="#3fa0e6"] ;
454 -> 458 ;
459 [label=<entropy = 0.0<br/>samples = 3<br/>value = [3, 0]<br/>class = negative>, fillcolor="#e58139"] ;
458 -> 459 ;
460 [label=<entropy = 0.0<br/>samples = 92<br/>value = [0, 92]<br/>class = positive>, fillcolor="#399de5"] ;
458 -> 460 ;
461 [label=<X<SUB>971</SUB> &le; 0.5<br/>entropy = 0.696<br/>samples = 982<br/>value = [184, 798]<br/>class = positive>, fillcolor="#67b4eb"] ;
407 -> 461 ;
462 [label=<X<SUB>242</SUB> &le; 0.5<br/>entropy = 0.947<br/>samples = 307<br/>value = [112, 195]<br/>class = positive>, fillcolor="#abd5f4"] ;
461 -> 462 ;
463 [label=<entropy = 0.0<br/>samples = 29<br/>value = [29, 0]<br/>class = negative>, fillcolor="#e58139"] ;
462 -> 463 ;
464 [label=<X<SUB>797</SUB> &le; 0.5<br/>entropy = 0.88<br/>samples = 278<br/>value = [83, 195]<br/>class = positive>, fillcolor="#8dc7f0"] ;
462 -> 464 ;
465 [label=<X<SUB>134</SUB> &le; 0.5<br/>entropy = 0.792<br/>samples = 256<br/>value = [61, 195]<br/>class = positive>, fillcolor="#77bced"] ;
464 -> 465 ;
466 [label=<X<SUB>901</SUB> &le; 0.5<br/>entropy = 0.717<br/>samples = 243<br/>value = [48, 195]<br/>class = positive>, fillcolor="#6ab5eb"] ;
465 -> 466 ;
467 [label=<X<SUB>698</SUB> &le; 0.5<br/>entropy = 0.633<br/>samples = 232<br/>value = [37, 195]<br/>class = positive>, fillcolor="#5fb0ea"] ;
466 -> 467 ;
468 [label=<X<SUB>770</SUB> &le; 0.5<br/>entropy = 0.783<br/>samples = 159<br/>value = [37, 122]<br/>class = positive>, fillcolor="#75bbed"] ;
467 -> 468 ;
469 [label=<X<SUB>142</SUB> &le; 0.5<br/>entropy = 0.602<br/>samples = 143<br/>value = [21, 122]<br/>class = positive>, fillcolor="#5baee9"] ;
468 -> 469 ;
470 [label=<X<SUB>1010</SUB> &le; 0.5<br/>entropy = 0.435<br/>samples = 134<br/>value = [12, 122]<br/>class = positive>, fillcolor="#4ca7e8"] ;
469 -> 470 ;
471 [label=<X<SUB>349</SUB> &le; 0.5<br/>entropy = 0.334<br/>samples = 130<br/>value = [8, 122]<br/>class = positive>, fillcolor="#46a3e7"] ;
470 -> 471 ;
472 [label=<entropy = 0.0<br/>samples = 3<br/>value = [3, 0]<br/>class = negative>, fillcolor="#e58139"] ;
471 -> 472 ;
473 [label=<X<SUB>515</SUB> &le; 0.5<br/>entropy = 0.239<br/>samples = 127<br/>value = [5, 122]<br/>class = positive>, fillcolor="#41a1e6"] ;
471 -> 473 ;
474 [label=<X<SUB>741</SUB> &le; 0.5<br/>entropy = 0.163<br/>samples = 125<br/>value = [3, 122]<br/>class = positive>, fillcolor="#3e9fe6"] ;
473 -> 474 ;
475 [label=<X<SUB>607</SUB> &le; 0.5<br/>entropy = 0.068<br/>samples = 123<br/>value = [1, 122]<br/>class = positive>, fillcolor="#3b9ee5"] ;
474 -> 475 ;
476 [label=<entropy = 0.0<br/>samples = 122<br/>value = [0, 122]<br/>class = positive>, fillcolor="#399de5"] ;
475 -> 476 ;
477 [label=<entropy = 0.0<br/>samples = 1<br/>value = [1, 0]<br/>class = negative>, fillcolor="#e58139"] ;
475 -> 477 ;
478 [label=<entropy = 0.0<br/>samples = 2<br/>value = [2, 0]<br/>class = negative>, fillcolor="#e58139"] ;
474 -> 478 ;
479 [label=<entropy = 0.0<br/>samples = 2<br/>value = [2, 0]<br/>class = negative>, fillcolor="#e58139"] ;
473 -> 479 ;
480 [label=<entropy = 0.0<br/>samples = 4<br/>value = [4, 0]<br/>class = negative>, fillcolor="#e58139"] ;
470 -> 480 ;
481 [label=<entropy = 0.0<br/>samples = 9<br/>value = [9, 0]<br/>class = negative>, fillcolor="#e58139"] ;
469 -> 481 ;
482 [label=<entropy = 0.0<br/>samples = 16<br/>value = [16, 0]<br/>class = negative>, fillcolor="#e58139"] ;
468 -> 482 ;
483 [label=<entropy = 0.0<br/>samples = 73<br/>value = [0, 73]<br/>class = positive>, fillcolor="#399de5"] ;
467 -> 483 ;
484 [label=<entropy = 0.0<br/>samples = 11<br/>value = [11, 0]<br/>class = negative>, fillcolor="#e58139"] ;
466 -> 484 ;
485 [label=<entropy = 0.0<br/>samples = 13<br/>value = [13, 0]<br/>class = negative>, fillcolor="#e58139"] ;
465 -> 485 ;
486 [label=<entropy = 0.0<br/>samples = 22<br/>value = [22, 0]<br/>class = negative>, fillcolor="#e58139"] ;
464 -> 486 ;
487 [label=<X<SUB>337</SUB> &le; 0.5<br/>entropy = 0.49<br/>samples = 675<br/>value = [72, 603]<br/>class = positive>, fillcolor="#51a9e8"] ;
461 -> 487 ;
488 [label=<X<SUB>899</SUB> &le; 0.5<br/>entropy = 0.405<br/>samples = 643<br/>value = [52, 591]<br/>class = positive>, fillcolor="#4aa6e7"] ;
487 -> 488 ;
489 [label=<X<SUB>456</SUB> &le; 0.5<br/>entropy = 0.346<br/>samples = 632<br/>value = [41, 591]<br/>class = positive>, fillcolor="#47a4e7"] ;
488 -> 489 ;
490 [label=<entropy = 0.0<br/>samples = 7<br/>value = [7, 0]<br/>class = negative>, fillcolor="#e58139"] ;
489 -> 490 ;
491 [label=<X<SUB>352</SUB> &le; 0.5<br/>entropy = 0.305<br/>samples = 625<br/>value = [34, 591]<br/>class = positive>, fillcolor="#44a3e6"] ;
489 -> 491 ;
492 [label=<X<SUB>649</SUB> &le; 0.5<br/>entropy = 0.429<br/>samples = 353<br/>value = [31, 322]<br/>class = positive>, fillcolor="#4ca6e8"] ;
491 -> 492 ;
493 [label=<X<SUB>845</SUB> &le; 0.5<br/>entropy = 0.383<br/>samples = 348<br/>value = [26, 322]<br/>class = positive>, fillcolor="#49a5e7"] ;
492 -> 493 ;
494 [label=<X<SUB>40</SUB> &le; 0.5<br/>entropy = 0.555<br/>samples = 186<br/>value = [24, 162]<br/>class = positive>, fillcolor="#56ace9"] ;
493 -> 494 ;
495 [label=<X<SUB>155</SUB> &le; 0.5<br/>entropy = 0.485<br/>samples = 181<br/>value = [19, 162]<br/>class = positive>, fillcolor="#50a8e8"] ;
494 -> 495 ;
496 [label=<X<SUB>750</SUB> &le; 0.5<br/>entropy = 0.777<br/>samples = 61<br/>value = [14, 47]<br/>class = positive>, fillcolor="#74baed"] ;
495 -> 496 ;
497 [label=<X<SUB>407</SUB> &le; 0.5<br/>entropy = 0.934<br/>samples = 40<br/>value = [14, 26]<br/>class = positive>, fillcolor="#a4d2f3"] ;
496 -> 497 ;
498 [label=<entropy = 0.0<br/>samples = 12<br/>value = [12, 0]<br/>class = negative>, fillcolor="#e58139"] ;
497 -> 498 ;
499 [label=<X<SUB>307</SUB> &le; 0.5<br/>entropy = 0.371<br/>samples = 28<br/>value = [2, 26]<br/>class = positive>, fillcolor="#48a5e7"] ;
497 -> 499 ;
500 [label=<X<SUB>171</SUB> &le; 0.5<br/>entropy = 0.229<br/>samples = 27<br/>value = [1, 26]<br/>class = positive>, fillcolor="#41a1e6"] ;
499 -> 500 ;
501 [label=<entropy = 0.0<br/>samples = 26<br/>value = [0, 26]<br/>class = positive>, fillcolor="#399de5"] ;
500 -> 501 ;
502 [label=<entropy = 0.0<br/>samples = 1<br/>value = [1, 0]<br/>class = negative>, fillcolor="#e58139"] ;
500 -> 502 ;
503 [label=<entropy = 0.0<br/>samples = 1<br/>value = [1, 0]<br/>class = negative>, fillcolor="#e58139"] ;
499 -> 503 ;
504 [label=<entropy = 0.0<br/>samples = 21<br/>value = [0, 21]<br/>class = positive>, fillcolor="#399de5"] ;
496 -> 504 ;
505 [label=<X<SUB>299</SUB> &le; 0.5<br/>entropy = 0.25<br/>samples = 120<br/>value = [5, 115]<br/>class = positive>, fillcolor="#42a1e6"] ;
495 -> 505 ;
506 [label=<X<SUB>141</SUB> &le; 0.5<br/>entropy = 0.125<br/>samples = 117<br/>value = [2, 115]<br/>class = positive>, fillcolor="#3c9fe5"] ;
505 -> 506 ;
507 [label=<X<SUB>629</SUB> &le; 0.5<br/>entropy = 0.072<br/>samples = 116<br/>value = [1, 115]<br/>class = positive>, fillcolor="#3b9ee5"] ;
506 -> 507 ;
508 [label=<entropy = 0.0<br/>samples = 115<br/>value = [0, 115]<br/>class = positive>, fillcolor="#399de5"] ;
507 -> 508 ;
509 [label=<entropy = 0.0<br/>samples = 1<br/>value = [1, 0]<br/>class = negative>, fillcolor="#e58139"] ;
507 -> 509 ;
510 [label=<entropy = 0.0<br/>samples = 1<br/>value = [1, 0]<br/>class = negative>, fillcolor="#e58139"] ;
506 -> 510 ;
511 [label=<entropy = 0.0<br/>samples = 3<br/>value = [3, 0]<br/>class = negative>, fillcolor="#e58139"] ;
505 -> 511 ;
512 [label=<entropy = 0.0<br/>samples = 5<br/>value = [5, 0]<br/>class = negative>, fillcolor="#e58139"] ;
494 -> 512 ;
513 [label=<X<SUB>870</SUB> &le; 0.5<br/>entropy = 0.096<br/>samples = 162<br/>value = [2, 160]<br/>class = positive>, fillcolor="#3b9ee5"] ;
493 -> 513 ;
514 [label=<X<SUB>954</SUB> &le; 0.5<br/>entropy = 0.054<br/>samples = 161<br/>value = [1, 160]<br/>class = positive>, fillcolor="#3a9ee5"] ;
513 -> 514 ;
515 [label=<entropy = 0.0<br/>samples = 160<br/>value = [0, 160]<br/>class = positive>, fillcolor="#399de5"] ;
514 -> 515 ;
516 [label=<entropy = 0.0<br/>samples = 1<br/>value = [1, 0]<br/>class = negative>, fillcolor="#e58139"] ;
514 -> 516 ;
517 [label=<entropy = 0.0<br/>samples = 1<br/>value = [1, 0]<br/>class = negative>, fillcolor="#e58139"] ;
513 -> 517 ;
518 [label=<entropy = 0.0<br/>samples = 5<br/>value = [5, 0]<br/>class = negative>, fillcolor="#e58139"] ;
492 -> 518 ;
519 [label=<X<SUB>469</SUB> &le; 0.5<br/>entropy = 0.088<br/>samples = 272<br/>value = [3, 269]<br/>class = positive>, fillcolor="#3b9ee5"] ;
491 -> 519 ;
520 [label=<X<SUB>49</SUB> &le; 0.5<br/>entropy = 0.063<br/>samples = 271<br/>value = [2, 269]<br/>class = positive>, fillcolor="#3a9ee5"] ;
519 -> 520 ;
521 [label=<X<SUB>293</SUB> &le; 0.5<br/>entropy = 0.035<br/>samples = 270<br/>value = [1, 269]<br/>class = positive>, fillcolor="#3a9de5"] ;
520 -> 521 ;
522 [label=<entropy = 0.0<br/>samples = 269<br/>value = [0, 269]<br/>class = positive>, fillcolor="#399de5"] ;
521 -> 522 ;
523 [label=<entropy = 0.0<br/>samples = 1<br/>value = [1, 0]<br/>class = negative>, fillcolor="#e58139"] ;
521 -> 523 ;
524 [label=<entropy = 0.0<br/>samples = 1<br/>value = [1, 0]<br/>class = negative>, fillcolor="#e58139"] ;
520 -> 524 ;
525 [label=<entropy = 0.0<br/>samples = 1<br/>value = [1, 0]<br/>class = negative>, fillcolor="#e58139"] ;
519 -> 525 ;
526 [label=<entropy = 0.0<br/>samples = 11<br/>value = [11, 0]<br/>class = negative>, fillcolor="#e58139"] ;
488 -> 526 ;
527 [label=<X<SUB>850</SUB> &le; 0.5<br/>entropy = 0.954<br/>samples = 32<br/>value = [20, 12]<br/>class = negative>, fillcolor="#f5cdb0"] ;
487 -> 527 ;
528 [label=<entropy = 0.0<br/>samples = 20<br/>value = [20, 0]<br/>class = negative>, fillcolor="#e58139"] ;
527 -> 528 ;
529 [label=<entropy = 0.0<br/>samples = 12<br/>value = [0, 12]<br/>class = positive>, fillcolor="#399de5"] ;
527 -> 529 ;
530 [label=<X<SUB>975</SUB> &le; 0.5<br/>entropy = 0.761<br/>samples = 3541<br/>value = [781, 2760]<br/>class = positive>, fillcolor="#71b9ec"] ;
0 -> 530 [labeldistance=2.5, labelangle=-45, headlabel="False"] ;
531 [label=<X<SUB>1007</SUB> &le; 0.5<br/>entropy = 0.67<br/>samples = 3209<br/>value = [563, 2646]<br/>class = positive>, fillcolor="#63b2eb"] ;
530 -> 531 ;
532 [label=<X<SUB>100</SUB> &le; 0.5<br/>entropy = 0.577<br/>samples = 2936<br/>value = [403, 2533]<br/>class = positive>, fillcolor="#59ade9"] ;
531 -> 532 ;
533 [label=<X<SUB>37</SUB> &le; 0.5<br/>entropy = 0.665<br/>samples = 2242<br/>value = [388, 1854]<br/>class = positive>, fillcolor="#62b2ea"] ;
532 -> 533 ;
534 [label=<X<SUB>914</SUB> &le; 0.5<br/>entropy = 0.811<br/>samples = 1256<br/>value = [314, 942]<br/>class = positive>, fillcolor="#7bbeee"] ;
533 -> 534 ;
535 [label=<X<SUB>677</SUB> &le; 0.5<br/>entropy = 0.782<br/>samples = 1227<br/>value = [285, 942]<br/>class = positive>, fillcolor="#75bbed"] ;
534 -> 535 ;
536 [label=<X<SUB>830</SUB> &le; 0.5<br/>entropy = 0.73<br/>samples = 1161<br/>value = [237, 924]<br/>class = positive>, fillcolor="#6cb6ec"] ;
535 -> 536 ;
537 [label=<X<SUB>789</SUB> &le; 0.5<br/>entropy = 0.679<br/>samples = 1109<br/>value = [199, 910]<br/>class = positive>, fillcolor="#64b2eb"] ;
536 -> 537 ;
538 [label=<X<SUB>486</SUB> &le; 0.5<br/>entropy = 0.65<br/>samples = 1092<br/>value = [182, 910]<br/>class = positive>, fillcolor="#61b1ea"] ;
537 -> 538 ;
539 [label=<X<SUB>888</SUB> &le; 0.5<br/>entropy = 0.624<br/>samples = 1078<br/>value = [168, 910]<br/>class = positive>, fillcolor="#5eafea"] ;
538 -> 539 ;
540 [label=<X<SUB>673</SUB> &le; 0.5<br/>entropy = 0.589<br/>samples = 1051<br/>value = [149, 902]<br/>class = positive>, fillcolor="#5aade9"] ;
539 -> 540 ;
541 [label=<X<SUB>565</SUB> &le; 0.5<br/>entropy = 0.569<br/>samples = 1042<br/>value = [140, 902]<br/>class = positive>, fillcolor="#58ace9"] ;
540 -> 541 ;
542 [label=<X<SUB>425</SUB> &le; 0.5<br/>entropy = 0.551<br/>samples = 1034<br/>value = [132, 902]<br/>class = positive>, fillcolor="#56abe9"] ;
541 -> 542 ;
543 [label=<X<SUB>483</SUB> &le; 0.5<br/>entropy = 0.532<br/>samples = 1026<br/>value = [124, 902]<br/>class = positive>, fillcolor="#54aae9"] ;
542 -> 543 ;
544 [label=<X<SUB>211</SUB> &le; 0.5<br/>entropy = 0.514<br/>samples = 1019<br/>value = [117, 902]<br/>class = positive>, fillcolor="#53aae8"] ;
543 -> 544 ;
545 [label=<X<SUB>1002</SUB> &le; 0.5<br/>entropy = 0.499<br/>samples = 1013<br/>value = [111, 902]<br/>class = positive>, fillcolor="#51a9e8"] ;
544 -> 545 ;
546 [label=<X<SUB>164</SUB> &le; 0.5<br/>entropy = 0.482<br/>samples = 1007<br/>value = [105, 902]<br/>class = positive>, fillcolor="#50a8e8"] ;
545 -> 546 ;
547 [label=<X<SUB>541</SUB> &le; 0.5<br/>entropy = 0.466<br/>samples = 1001<br/>value = [99, 902]<br/>class = positive>, fillcolor="#4fa8e8"] ;
546 -> 547 ;
548 [label=<X<SUB>703</SUB> &le; 0.5<br/>entropy = 0.451<br/>samples = 996<br/>value = [94, 902]<br/>class = positive>, fillcolor="#4ea7e8"] ;
547 -> 548 ;
549 [label=<X<SUB>464</SUB> &le; 0.5<br/>entropy = 0.436<br/>samples = 991<br/>value = [89, 902]<br/>class = positive>, fillcolor="#4da7e8"] ;
548 -> 549 ;
550 [label=<X<SUB>223</SUB> &le; 0.5<br/>entropy = 0.423<br/>samples = 987<br/>value = [85, 902]<br/>class = positive>, fillcolor="#4ca6e7"] ;
549 -> 550 ;
551 [label=<X<SUB>902</SUB> &le; 0.5<br/>entropy = 0.414<br/>samples = 984<br/>value = [82, 902]<br/>class = positive>, fillcolor="#4ba6e7"] ;
550 -> 551 ;
552 [label=<entropy = 0.0<br/>samples = 3<br/>value = [3, 0]<br/>class = negative>, fillcolor="#e58139"] ;
551 -> 552 ;
553 [label=<X<SUB>235</SUB> &le; 0.5<br/>entropy = 0.404<br/>samples = 981<br/>value = [79, 902]<br/>class = positive>, fillcolor="#4aa6e7"] ;
551 -> 553 ;
554 [label=<X<SUB>619</SUB> &le; 0.5<br/>entropy = 0.394<br/>samples = 978<br/>value = [76, 902]<br/>class = positive>, fillcolor="#4aa5e7"] ;
553 -> 554 ;
555 [label=<X<SUB>616</SUB> &le; 0.5<br/>entropy = 0.384<br/>samples = 975<br/>value = [73, 902]<br/>class = positive>, fillcolor="#49a5e7"] ;
554 -> 555 ;
556 [label=<X<SUB>961</SUB> &le; 0.5<br/>entropy = 0.373<br/>samples = 972<br/>value = [70, 902]<br/>class = positive>, fillcolor="#48a5e7"] ;
555 -> 556 ;
557 [label=<X<SUB>329</SUB> &le; 0.5<br/>entropy = 0.363<br/>samples = 969<br/>value = [67, 902]<br/>class = positive>, fillcolor="#48a4e7"] ;
556 -> 557 ;
558 [label=<X<SUB>956</SUB> &le; 0.5<br/>entropy = 0.352<br/>samples = 966<br/>value = [64, 902]<br/>class = positive>, fillcolor="#47a4e7"] ;
557 -> 558 ;
559 [label=<X<SUB>665</SUB> &le; 0.5<br/>entropy = 0.388<br/>samples = 842<br/>value = [64, 778]<br/>class = positive>, fillcolor="#49a5e7"] ;
558 -> 559 ;
560 [label=<entropy = 0.348<br/>samples = 812<br/>value = [53, 759]<br/>class = positive>, fillcolor="#47a4e7"] ;
559 -> 560 ;
561 [label=<entropy = 0.948<br/>samples = 30<br/>value = [11, 19]<br/>class = positive>, fillcolor="#acd6f4"] ;
559 -> 561 ;
562 [label=<entropy = 0.0<br/>samples = 124<br/>value = [0, 124]<br/>class = positive>, fillcolor="#399de5"] ;
558 -> 562 ;
563 [label=<entropy = 0.0<br/>samples = 3<br/>value = [3, 0]<br/>class = negative>, fillcolor="#e58139"] ;
557 -> 563 ;
564 [label=<entropy = 0.0<br/>samples = 3<br/>value = [3, 0]<br/>class = negative>, fillcolor="#e58139"] ;
556 -> 564 ;
565 [label=<entropy = 0.0<br/>samples = 3<br/>value = [3, 0]<br/>class = negative>, fillcolor="#e58139"] ;
555 -> 565 ;
566 [label=<entropy = 0.0<br/>samples = 3<br/>value = [3, 0]<br/>class = negative>, fillcolor="#e58139"] ;
554 -> 566 ;
567 [label=<entropy = 0.0<br/>samples = 3<br/>value = [3, 0]<br/>class = negative>, fillcolor="#e58139"] ;
553 -> 567 ;
568 [label=<entropy = 0.0<br/>samples = 3<br/>value = [3, 0]<br/>class = negative>, fillcolor="#e58139"] ;
550 -> 568 ;
569 [label=<entropy = 0.0<br/>samples = 4<br/>value = [4, 0]<br/>class = negative>, fillcolor="#e58139"] ;
549 -> 569 ;
570 [label=<entropy = 0.0<br/>samples = 5<br/>value = [5, 0]<br/>class = negative>, fillcolor="#e58139"] ;
548 -> 570 ;
571 [label=<entropy = 0.0<br/>samples = 5<br/>value = [5, 0]<br/>class = negative>, fillcolor="#e58139"] ;
547 -> 571 ;
572 [label=<entropy = 0.0<br/>samples = 6<br/>value = [6, 0]<br/>class = negative>, fillcolor="#e58139"] ;
546 -> 572 ;
573 [label=<entropy = 0.0<br/>samples = 6<br/>value = [6, 0]<br/>class = negative>, fillcolor="#e58139"] ;
545 -> 573 ;
574 [label=<entropy = 0.0<br/>samples = 6<br/>value = [6, 0]<br/>class = negative>, fillcolor="#e58139"] ;
544 -> 574 ;
575 [label=<entropy = 0.0<br/>samples = 7<br/>value = [7, 0]<br/>class = negative>, fillcolor="#e58139"] ;
543 -> 575 ;
576 [label=<entropy = 0.0<br/>samples = 8<br/>value = [8, 0]<br/>class = negative>, fillcolor="#e58139"] ;
542 -> 576 ;
577 [label=<entropy = 0.0<br/>samples = 8<br/>value = [8, 0]<br/>class = negative>, fillcolor="#e58139"] ;
541 -> 577 ;
578 [label=<entropy = 0.0<br/>samples = 9<br/>value = [9, 0]<br/>class = negative>, fillcolor="#e58139"] ;
540 -> 578 ;
579 [label=<X<SUB>127</SUB> &le; 0.5<br/>entropy = 0.877<br/>samples = 27<br/>value = [19, 8]<br/>class = negative>, fillcolor="#f0b68c"] ;
539 -> 579 ;
580 [label=<entropy = 0.0<br/>samples = 19<br/>value = [19, 0]<br/>class = negative>, fillcolor="#e58139"] ;
579 -> 580 ;
581 [label=<entropy = 0.0<br/>samples = 8<br/>value = [0, 8]<br/>class = positive>, fillcolor="#399de5"] ;
579 -> 581 ;
582 [label=<entropy = 0.0<br/>samples = 14<br/>value = [14, 0]<br/>class = negative>, fillcolor="#e58139"] ;
538 -> 582 ;
583 [label=<entropy = 0.0<br/>samples = 17<br/>value = [17, 0]<br/>class = negative>, fillcolor="#e58139"] ;
537 -> 583 ;
584 [label=<X<SUB>573</SUB> &le; 0.5<br/>entropy = 0.84<br/>samples = 52<br/>value = [38, 14]<br/>class = negative>, fillcolor="#efaf82"] ;
536 -> 584 ;
585 [label=<entropy = 0.0<br/>samples = 36<br/>value = [36, 0]<br/>class = negative>, fillcolor="#e58139"] ;
584 -> 585 ;
586 [label=<X<SUB>558</SUB> &le; 0.5<br/>entropy = 0.544<br/>samples = 16<br/>value = [2, 14]<br/>class = positive>, fillcolor="#55abe9"] ;
584 -> 586 ;
587 [label=<X<SUB>66</SUB> &le; 0.5<br/>entropy = 0.353<br/>samples = 15<br/>value = [1, 14]<br/>class = positive>, fillcolor="#47a4e7"] ;
586 -> 587 ;
588 [label=<entropy = 0.0<br/>samples = 14<br/>value = [0, 14]<br/>class = positive>, fillcolor="#399de5"] ;
587 -> 588 ;
589 [label=<entropy = 0.0<br/>samples = 1<br/>value = [1, 0]<br/>class = negative>, fillcolor="#e58139"] ;
587 -> 589 ;
590 [label=<entropy = 0.0<br/>samples = 1<br/>value = [1, 0]<br/>class = negative>, fillcolor="#e58139"] ;
586 -> 590 ;
591 [label=<X<SUB>875</SUB> &le; 0.5<br/>entropy = 0.845<br/>samples = 66<br/>value = [48, 18]<br/>class = negative>, fillcolor="#efb083"] ;
535 -> 591 ;
592 [label=<entropy = 0.0<br/>samples = 48<br/>value = [48, 0]<br/>class = negative>, fillcolor="#e58139"] ;
591 -> 592 ;
593 [label=<entropy = 0.0<br/>samples = 18<br/>value = [0, 18]<br/>class = positive>, fillcolor="#399de5"] ;
591 -> 593 ;
594 [label=<entropy = 0.0<br/>samples = 29<br/>value = [29, 0]<br/>class = negative>, fillcolor="#e58139"] ;
534 -> 594 ;
595 [label=<X<SUB>650</SUB> &le; 0.5<br/>entropy = 0.384<br/>samples = 986<br/>value = [74, 912]<br/>class = positive>, fillcolor="#49a5e7"] ;
533 -> 595 ;
596 [label=<X<SUB>1015</SUB> &le; 0.5<br/>entropy = 0.33<br/>samples = 971<br/>value = [59, 912]<br/>class = positive>, fillcolor="#46a3e7"] ;
595 -> 596 ;
597 [label=<X<SUB>594</SUB> &le; 0.5<br/>entropy = 0.307<br/>samples = 965<br/>value = [53, 912]<br/>class = positive>, fillcolor="#45a3e7"] ;
596 -> 597 ;
598 [label=<X<SUB>11</SUB> &le; 0.5<br/>entropy = 0.282<br/>samples = 959<br/>value = [47, 912]<br/>class = positive>, fillcolor="#43a2e6"] ;
597 -> 598 ;
599 [label=<X<SUB>338</SUB> &le; 0.5<br/>entropy = 0.265<br/>samples = 955<br/>value = [43, 912]<br/>class = positive>, fillcolor="#42a2e6"] ;
598 -> 599 ;
600 [label=<X<SUB>118</SUB> &le; 0.5<br/>entropy = 0.251<br/>samples = 952<br/>value = [40, 912]<br/>class = positive>, fillcolor="#42a1e6"] ;
599 -> 600 ;
601 [label=<X<SUB>56</SUB> &le; 0.5<br/>entropy = 0.238<br/>samples = 949<br/>value = [37, 912]<br/>class = positive>, fillcolor="#41a1e6"] ;
600 -> 601 ;
602 [label=<X<SUB>793</SUB> &le; 0.5<br/>entropy = 0.223<br/>samples = 946<br/>value = [34, 912]<br/>class = positive>, fillcolor="#40a1e6"] ;
601 -> 602 ;
603 [label=<X<SUB>1006</SUB> &le; 0.5<br/>entropy = 0.209<br/>samples = 943<br/>value = [31, 912]<br/>class = positive>, fillcolor="#40a0e6"] ;
602 -> 603 ;
604 [label=<X<SUB>190</SUB> &le; 0.5<br/>entropy = 0.198<br/>samples = 941<br/>value = [29, 912]<br/>class = positive>, fillcolor="#3fa0e6"] ;
603 -> 604 ;
605 [label=<X<SUB>175</SUB> &le; 0.5<br/>entropy = 0.188<br/>samples = 939<br/>value = [27, 912]<br/>class = positive>, fillcolor="#3fa0e6"] ;
604 -> 605 ;
606 [label=<X<SUB>471</SUB> &le; 0.5<br/>entropy = 0.177<br/>samples = 937<br/>value = [25, 912]<br/>class = positive>, fillcolor="#3ea0e6"] ;
605 -> 606 ;
607 [label=<X<SUB>644</SUB> &le; 0.5<br/>entropy = 0.167<br/>samples = 935<br/>value = [23, 912]<br/>class = positive>, fillcolor="#3e9fe6"] ;
606 -> 607 ;
608 [label=<X<SUB>994</SUB> &le; 0.5<br/>entropy = 0.155<br/>samples = 933<br/>value = [21, 912]<br/>class = positive>, fillcolor="#3e9fe6"] ;
607 -> 608 ;
609 [label=<X<SUB>460</SUB> &le; 0.5<br/>entropy = 0.126<br/>samples = 866<br/>value = [15, 851]<br/>class = positive>, fillcolor="#3c9fe5"] ;
608 -> 609 ;
610 [label=<X<SUB>392</SUB> &le; 0.5<br/>entropy = 0.119<br/>samples = 865<br/>value = [14, 851]<br/>class = positive>, fillcolor="#3c9fe5"] ;
609 -> 610 ;
611 [label=<X<SUB>601</SUB> &le; 0.5<br/>entropy = 0.113<br/>samples = 864<br/>value = [13, 851]<br/>class = positive>, fillcolor="#3c9ee5"] ;
610 -> 611 ;
612 [label=<X<SUB>555</SUB> &le; 0.5<br/>entropy = 0.106<br/>samples = 863<br/>value = [12, 851]<br/>class = positive>, fillcolor="#3c9ee5"] ;
611 -> 612 ;
613 [label=<X<SUB>995</SUB> &le; 0.5<br/>entropy = 0.099<br/>samples = 862<br/>value = [11, 851]<br/>class = positive>, fillcolor="#3c9ee5"] ;
612 -> 613 ;
614 [label=<entropy = 0.0<br/>samples = 1<br/>value = [1, 0]<br/>class = negative>, fillcolor="#e58139"] ;
613 -> 614 ;
615 [label=<X<SUB>602</SUB> &le; 0.5<br/>entropy = 0.091<br/>samples = 861<br/>value = [10, 851]<br/>class = positive>, fillcolor="#3b9ee5"] ;
613 -> 615 ;
616 [label=<X<SUB>207</SUB> &le; 0.5<br/>entropy = 0.138<br/>samples = 518<br/>value = [10, 508]<br/>class = positive>, fillcolor="#3d9fe6"] ;
615 -> 616 ;
617 [label=<X<SUB>677</SUB> &le; 0.5<br/>entropy = 0.115<br/>samples = 516<br/>value = [8, 508]<br/>class = positive>, fillcolor="#3c9fe5"] ;
616 -> 617 ;
618 [label=<X<SUB>734</SUB> &le; 0.5<br/>entropy = 0.068<br/>samples = 492<br/>value = [4, 488]<br/>class = positive>, fillcolor="#3b9ee5"] ;
617 -> 618 ;
619 [label=<X<SUB>596</SUB> &le; 0.5<br/>entropy = 0.054<br/>samples = 491<br/>value = [3, 488]<br/>class = positive>, fillcolor="#3a9ee5"] ;
618 -> 619 ;
620 [label=<X<SUB>109</SUB> &le; 0.5<br/>entropy = 0.038<br/>samples = 490<br/>value = [2, 488]<br/>class = positive>, fillcolor="#3a9de5"] ;
619 -> 620 ;
621 [label=<entropy = 0.021<br/>samples = 489<br/>value = [1, 488]<br/>class = positive>, fillcolor="#399de5"] ;
620 -> 621 ;
622 [label=<entropy = 0.0<br/>samples = 1<br/>value = [1, 0]<br/>class = negative>, fillcolor="#e58139"] ;
620 -> 622 ;
623 [label=<entropy = 0.0<br/>samples = 1<br/>value = [1, 0]<br/>class = negative>, fillcolor="#e58139"] ;
619 -> 623 ;
624 [label=<entropy = 0.0<br/>samples = 1<br/>value = [1, 0]<br/>class = negative>, fillcolor="#e58139"] ;
618 -> 624 ;
625 [label=<X<SUB>865</SUB> &le; 0.5<br/>entropy = 0.65<br/>samples = 24<br/>value = [4, 20]<br/>class = positive>, fillcolor="#61b1ea"] ;
617 -> 625 ;
626 [label=<entropy = 0.0<br/>samples = 20<br/>value = [0, 20]<br/>class = positive>, fillcolor="#399de5"] ;
625 -> 626 ;
627 [label=<entropy = 0.0<br/>samples = 4<br/>value = [4, 0]<br/>class = negative>, fillcolor="#e58139"] ;
625 -> 627 ;
628 [label=<entropy = 0.0<br/>samples = 2<br/>value = [2, 0]<br/>class = negative>, fillcolor="#e58139"] ;
616 -> 628 ;
629 [label=<entropy = 0.0<br/>samples = 343<br/>value = [0, 343]<br/>class = positive>, fillcolor="#399de5"] ;
615 -> 629 ;
630 [label=<entropy = 0.0<br/>samples = 1<br/>value = [1, 0]<br/>class = negative>, fillcolor="#e58139"] ;
612 -> 630 ;
631 [label=<entropy = 0.0<br/>samples = 1<br/>value = [1, 0]<br/>class = negative>, fillcolor="#e58139"] ;
611 -> 631 ;
632 [label=<entropy = 0.0<br/>samples = 1<br/>value = [1, 0]<br/>class = negative>, fillcolor="#e58139"] ;
610 -> 632 ;
633 [label=<entropy = 0.0<br/>samples = 1<br/>value = [1, 0]<br/>class = negative>, fillcolor="#e58139"] ;
609 -> 633 ;
634 [label=<X<SUB>27</SUB> &le; 0.5<br/>entropy = 0.435<br/>samples = 67<br/>value = [6, 61]<br/>class = positive>, fillcolor="#4ca7e8"] ;
608 -> 634 ;
635 [label=<X<SUB>152</SUB> &le; 0.5<br/>entropy = 1.0<br/>samples = 12<br/>value = [6, 6]<br/>class = negative>, fillcolor="#ffffff"] ;
634 -> 635 ;
636 [label=<entropy = 0.0<br/>samples = 6<br/>value = [6, 0]<br/>class = negative>, fillcolor="#e58139"] ;
635 -> 636 ;
637 [label=<entropy = 0.0<br/>samples = 6<br/>value = [0, 6]<br/>class = positive>, fillcolor="#399de5"] ;
635 -> 637 ;
638 [label=<entropy = 0.0<br/>samples = 55<br/>value = [0, 55]<br/>class = positive>, fillcolor="#399de5"] ;
634 -> 638 ;
639 [label=<entropy = 0.0<br/>samples = 2<br/>value = [2, 0]<br/>class = negative>, fillcolor="#e58139"] ;
607 -> 639 ;
640 [label=<entropy = 0.0<br/>samples = 2<br/>value = [2, 0]<br/>class = negative>, fillcolor="#e58139"] ;
606 -> 640 ;
641 [label=<entropy = 0.0<br/>samples = 2<br/>value = [2, 0]<br/>class = negative>, fillcolor="#e58139"] ;
605 -> 641 ;
642 [label=<entropy = 0.0<br/>samples = 2<br/>value = [2, 0]<br/>class = negative>, fillcolor="#e58139"] ;
604 -> 642 ;
643 [label=<entropy = 0.0<br/>samples = 2<br/>value = [2, 0]<br/>class = negative>, fillcolor="#e58139"] ;
603 -> 643 ;
644 [label=<entropy = 0.0<br/>samples = 3<br/>value = [3, 0]<br/>class = negative>, fillcolor="#e58139"] ;
602 -> 644 ;
645 [label=<entropy = 0.0<br/>samples = 3<br/>value = [3, 0]<br/>class = negative>, fillcolor="#e58139"] ;
601 -> 645 ;
646 [label=<entropy = 0.0<br/>samples = 3<br/>value = [3, 0]<br/>class = negative>, fillcolor="#e58139"] ;
600 -> 646 ;
647 [label=<entropy = 0.0<br/>samples = 3<br/>value = [3, 0]<br/>class = negative>, fillcolor="#e58139"] ;
599 -> 647 ;
648 [label=<entropy = 0.0<br/>samples = 4<br/>value = [4, 0]<br/>class = negative>, fillcolor="#e58139"] ;
598 -> 648 ;
649 [label=<entropy = 0.0<br/>samples = 6<br/>value = [6, 0]<br/>class = negative>, fillcolor="#e58139"] ;
597 -> 649 ;
650 [label=<entropy = 0.0<br/>samples = 6<br/>value = [6, 0]<br/>class = negative>, fillcolor="#e58139"] ;
596 -> 650 ;
651 [label=<entropy = 0.0<br/>samples = 15<br/>value = [15, 0]<br/>class = negative>, fillcolor="#e58139"] ;
595 -> 651 ;
652 [label=<X<SUB>741</SUB> &le; 0.5<br/>entropy = 0.15<br/>samples = 694<br/>value = [15, 679]<br/>class = positive>, fillcolor="#3d9fe6"] ;
532 -> 652 ;
653 [label=<X<SUB>542</SUB> &le; 0.5<br/>entropy = 0.118<br/>samples = 690<br/>value = [11, 679]<br/>class = positive>, fillcolor="#3c9fe5"] ;
652 -> 653 ;
654 [label=<X<SUB>997</SUB> &le; 0.5<br/>entropy = 0.092<br/>samples = 687<br/>value = [8, 679]<br/>class = positive>, fillcolor="#3b9ee5"] ;
653 -> 654 ;
655 [label=<X<SUB>91</SUB> &le; 0.5<br/>entropy = 0.072<br/>samples = 685<br/>value = [6, 679]<br/>class = positive>, fillcolor="#3b9ee5"] ;
654 -> 655 ;
656 [label=<X<SUB>63</SUB> &le; 0.5<br/>entropy = 0.052<br/>samples = 683<br/>value = [4, 679]<br/>class = positive>, fillcolor="#3a9ee5"] ;
655 -> 656 ;
657 [label=<X<SUB>302</SUB> &le; 0.5<br/>entropy = 0.041<br/>samples = 682<br/>value = [3, 679]<br/>class = positive>, fillcolor="#3a9de5"] ;
656 -> 657 ;
658 [label=<X<SUB>654</SUB> &le; 0.5<br/>entropy = 0.029<br/>samples = 681<br/>value = [2, 679]<br/>class = positive>, fillcolor="#3a9de5"] ;
657 -> 658 ;
659 [label=<X<SUB>40</SUB> &le; 0.5<br/>entropy = 0.016<br/>samples = 680<br/>value = [1, 679]<br/>class = positive>, fillcolor="#399de5"] ;
658 -> 659 ;
660 [label=<entropy = 0.0<br/>samples = 662<br/>value = [0, 662]<br/>class = positive>, fillcolor="#399de5"] ;
659 -> 660 ;
661 [label=<X<SUB>976</SUB> &le; 0.5<br/>entropy = 0.31<br/>samples = 18<br/>value = [1, 17]<br/>class = positive>, fillcolor="#45a3e7"] ;
659 -> 661 ;
662 [label=<entropy = 0.0<br/>samples = 17<br/>value = [0, 17]<br/>class = positive>, fillcolor="#399de5"] ;
661 -> 662 ;
663 [label=<entropy = 0.0<br/>samples = 1<br/>value = [1, 0]<br/>class = negative>, fillcolor="#e58139"] ;
661 -> 663 ;
664 [label=<entropy = 0.0<br/>samples = 1<br/>value = [1, 0]<br/>class = negative>, fillcolor="#e58139"] ;
658 -> 664 ;
665 [label=<entropy = 0.0<br/>samples = 1<br/>value = [1, 0]<br/>class = negative>, fillcolor="#e58139"] ;
657 -> 665 ;
666 [label=<entropy = 0.0<br/>samples = 1<br/>value = [1, 0]<br/>class = negative>, fillcolor="#e58139"] ;
656 -> 666 ;
667 [label=<entropy = 0.0<br/>samples = 2<br/>value = [2, 0]<br/>class = negative>, fillcolor="#e58139"] ;
655 -> 667 ;
668 [label=<entropy = 0.0<br/>samples = 2<br/>value = [2, 0]<br/>class = negative>, fillcolor="#e58139"] ;
654 -> 668 ;
669 [label=<entropy = 0.0<br/>samples = 3<br/>value = [3, 0]<br/>class = negative>, fillcolor="#e58139"] ;
653 -> 669 ;
670 [label=<entropy = 0.0<br/>samples = 4<br/>value = [4, 0]<br/>class = negative>, fillcolor="#e58139"] ;
652 -> 670 ;
671 [label=<X<SUB>401</SUB> &le; 0.5<br/>entropy = 0.979<br/>samples = 273<br/>value = [160, 113]<br/>class = negative>, fillcolor="#f7dac5"] ;
531 -> 671 ;
672 [label=<X<SUB>924</SUB> &le; 0.5<br/>entropy = 0.872<br/>samples = 222<br/>value = [157, 65]<br/>class = negative>, fillcolor="#f0b58b"] ;
671 -> 672 ;
673 [label=<X<SUB>718</SUB> &le; 0.5<br/>entropy = 0.608<br/>samples = 174<br/>value = [148, 26]<br/>class = negative>, fillcolor="#ea975c"] ;
672 -> 673 ;
674 [label=<X<SUB>219</SUB> &le; 0.5<br/>entropy = 0.271<br/>samples = 151<br/>value = [144, 7]<br/>class = negative>, fillcolor="#e68743"] ;
673 -> 674 ;
675 [label=<entropy = 0.0<br/>samples = 144<br/>value = [144, 0]<br/>class = negative>, fillcolor="#e58139"] ;
674 -> 675 ;
676 [label=<entropy = 0.0<br/>samples = 7<br/>value = [0, 7]<br/>class = positive>, fillcolor="#399de5"] ;
674 -> 676 ;
677 [label=<X<SUB>176</SUB> &le; 0.5<br/>entropy = 0.667<br/>samples = 23<br/>value = [4, 19]<br/>class = positive>, fillcolor="#63b2ea"] ;
673 -> 677 ;
678 [label=<entropy = 0.0<br/>samples = 4<br/>value = [4, 0]<br/>class = negative>, fillcolor="#e58139"] ;
677 -> 678 ;
679 [label=<entropy = 0.0<br/>samples = 19<br/>value = [0, 19]<br/>class = positive>, fillcolor="#399de5"] ;
677 -> 679 ;
680 [label=<X<SUB>595</SUB> &le; 0.5<br/>entropy = 0.696<br/>samples = 48<br/>value = [9, 39]<br/>class = positive>, fillcolor="#67b4eb"] ;
672 -> 680 ;
681 [label=<X<SUB>920</SUB> &le; 0.5<br/>entropy = 0.371<br/>samples = 42<br/>value = [3, 39]<br/>class = positive>, fillcolor="#48a5e7"] ;
680 -> 681 ;
682 [label=<entropy = 0.0<br/>samples = 39<br/>value = [0, 39]<br/>class = positive>, fillcolor="#399de5"] ;
681 -> 682 ;
683 [label=<entropy = 0.0<br/>samples = 3<br/>value = [3, 0]<br/>class = negative>, fillcolor="#e58139"] ;
681 -> 683 ;
684 [label=<entropy = 0.0<br/>samples = 6<br/>value = [6, 0]<br/>class = negative>, fillcolor="#e58139"] ;
680 -> 684 ;
685 [label=<X<SUB>809</SUB> &le; 0.5<br/>entropy = 0.323<br/>samples = 51<br/>value = [3, 48]<br/>class = positive>, fillcolor="#45a3e7"] ;
671 -> 685 ;
686 [label=<X<SUB>231</SUB> &le; 0.5<br/>entropy = 0.144<br/>samples = 49<br/>value = [1, 48]<br/>class = positive>, fillcolor="#3d9fe6"] ;
685 -> 686 ;
687 [label=<entropy = 0.0<br/>samples = 1<br/>value = [1, 0]<br/>class = negative>, fillcolor="#e58139"] ;
686 -> 687 ;
688 [label=<entropy = 0.0<br/>samples = 48<br/>value = [0, 48]<br/>class = positive>, fillcolor="#399de5"] ;
686 -> 688 ;
689 [label=<entropy = 0.0<br/>samples = 2<br/>value = [2, 0]<br/>class = negative>, fillcolor="#e58139"] ;
685 -> 689 ;
690 [label=<X<SUB>216</SUB> &le; 0.5<br/>entropy = 0.928<br/>samples = 332<br/>value = [218, 114]<br/>class = negative>, fillcolor="#f3c3a1"] ;
530 -> 690 ;
691 [label=<X<SUB>227</SUB> &le; 0.5<br/>entropy = 0.773<br/>samples = 273<br/>value = [211, 62]<br/>class = negative>, fillcolor="#eda673"] ;
690 -> 691 ;
692 [label=<X<SUB>918</SUB> &le; 0.5<br/>entropy = 0.642<br/>samples = 251<br/>value = [210, 41]<br/>class = negative>, fillcolor="#ea9a60"] ;
691 -> 692 ;
693 [label=<entropy = 0.0<br/>samples = 124<br/>value = [124, 0]<br/>class = negative>, fillcolor="#e58139"] ;
692 -> 693 ;
694 [label=<X<SUB>546</SUB> &le; 0.5<br/>entropy = 0.907<br/>samples = 127<br/>value = [86, 41]<br/>class = negative>, fillcolor="#f1bd97"] ;
692 -> 694 ;
695 [label=<X<SUB>210</SUB> &le; 0.5<br/>entropy = 0.512<br/>samples = 79<br/>value = [70, 9]<br/>class = negative>, fillcolor="#e89152"] ;
694 -> 695 ;
696 [label=<entropy = 0.0<br/>samples = 70<br/>value = [70, 0]<br/>class = negative>, fillcolor="#e58139"] ;
695 -> 696 ;
697 [label=<entropy = 0.0<br/>samples = 9<br/>value = [0, 9]<br/>class = positive>, fillcolor="#399de5"] ;
695 -> 697 ;
698 [label=<X<SUB>727</SUB> &le; 0.5<br/>entropy = 0.918<br/>samples = 48<br/>value = [16, 32]<br/>class = positive>, fillcolor="#9ccef2"] ;
694 -> 698 ;
699 [label=<X<SUB>885</SUB> &le; 0.5<br/>entropy = 0.629<br/>samples = 38<br/>value = [6, 32]<br/>class = positive>, fillcolor="#5eafea"] ;
698 -> 699 ;
700 [label=<entropy = 0.0<br/>samples = 3<br/>value = [3, 0]<br/>class = negative>, fillcolor="#e58139"] ;
699 -> 700 ;
701 [label=<X<SUB>597</SUB> &le; 0.5<br/>entropy = 0.422<br/>samples = 35<br/>value = [3, 32]<br/>class = positive>, fillcolor="#4ca6e7"] ;
699 -> 701 ;
702 [label=<X<SUB>326</SUB> &le; 0.5<br/>entropy = 0.196<br/>samples = 33<br/>value = [1, 32]<br/>class = positive>, fillcolor="#3fa0e6"] ;
701 -> 702 ;
703 [label=<entropy = 0.0<br/>samples = 27<br/>value = [0, 27]<br/>class = positive>, fillcolor="#399de5"] ;
702 -> 703 ;
704 [label=<X<SUB>851</SUB> &le; 0.5<br/>entropy = 0.65<br/>samples = 6<br/>value = [1, 5]<br/>class = positive>, fillcolor="#61b1ea"] ;
702 -> 704 ;
705 [label=<entropy = 0.0<br/>samples = 1<br/>value = [1, 0]<br/>class = negative>, fillcolor="#e58139"] ;
704 -> 705 ;
706 [label=<entropy = 0.0<br/>samples = 5<br/>value = [0, 5]<br/>class = positive>, fillcolor="#399de5"] ;
704 -> 706 ;
707 [label=<entropy = 0.0<br/>samples = 2<br/>value = [2, 0]<br/>class = negative>, fillcolor="#e58139"] ;
701 -> 707 ;
708 [label=<entropy = 0.0<br/>samples = 10<br/>value = [10, 0]<br/>class = negative>, fillcolor="#e58139"] ;
698 -> 708 ;
709 [label=<X<SUB>607</SUB> &le; 0.5<br/>entropy = 0.267<br/>samples = 22<br/>value = [1, 21]<br/>class = positive>, fillcolor="#42a2e6"] ;
691 -> 709 ;
710 [label=<entropy = 0.0<br/>samples = 21<br/>value = [0, 21]<br/>class = positive>, fillcolor="#399de5"] ;
709 -> 710 ;
711 [label=<entropy = 0.0<br/>samples = 1<br/>value = [1, 0]<br/>class = negative>, fillcolor="#e58139"] ;
709 -> 711 ;
712 [label=<X<SUB>452</SUB> &le; 0.5<br/>entropy = 0.525<br/>samples = 59<br/>value = [7, 52]<br/>class = positive>, fillcolor="#54aae8"] ;
690 -> 712 ;
713 [label=<X<SUB>14</SUB> &le; 0.5<br/>entropy = 0.371<br/>samples = 56<br/>value = [4, 52]<br/>class = positive>, fillcolor="#48a5e7"] ;
712 -> 713 ;
714 [label=<X<SUB>711</SUB> &le; 0.5<br/>entropy = 0.229<br/>samples = 54<br/>value = [2, 52]<br/>class = positive>, fillcolor="#41a1e6"] ;
713 -> 714 ;
715 [label=<entropy = 0.0<br/>samples = 52<br/>value = [0, 52]<br/>class = positive>, fillcolor="#399de5"] ;
714 -> 715 ;
716 [label=<entropy = 0.0<br/>samples = 2<br/>value = [2, 0]<br/>class = negative>, fillcolor="#e58139"] ;
714 -> 716 ;
717 [label=<entropy = 0.0<br/>samples = 2<br/>value = [2, 0]<br/>class = negative>, fillcolor="#e58139"] ;
713 -> 717 ;
718 [label=<entropy = 0.0<br/>samples = 3<br/>value = [3, 0]<br/>class = negative>, fillcolor="#e58139"] ;
712 -> 718 ;
}