digraph Tree {
node [shape=box, style="filled, rounded", color="black", fontname=helvetica] ;
edge [fontname=helvetica] ;
0 [label=<X<SUB>282</SUB> &le; 0.5<br/>entropy = 1.0<br/>samples = 11551<br/>value = [5776, 5775]<br/>class = negative>, fillcolor="#ffffff"] ;
1 [label=<X<SUB>745</SUB> &le; 0.5<br/>entropy = 0.967<br/>samples = 8258<br/>value = [5011, 3247]<br/>class = negative>, fillcolor="#f6d3b9"] ;
0 -> 1 [labeldistance=2.5, labelangle=45, headlabel="True"] ;
2 [label=<X<SUB>339</SUB> &le; 0.5<br/>entropy = 0.997<br/>samples = 6336<br/>value = [3373, 2963]<br/>class = negative>, fillcolor="#fcf0e7"] ;
1 -> 2 ;
3 [label=<X<SUB>578</SUB> &le; 0.5<br/>entropy = 0.991<br/>samples = 3745<br/>value = [1667, 2078]<br/>class = positive>, fillcolor="#d8ecfa"] ;
2 -> 3 ;
4 [label=<X<SUB>225</SUB> &le; 0.5<br/>entropy = 0.938<br/>samples = 2762<br/>value = [979, 1783]<br/>class = positive>, fillcolor="#a6d3f3"] ;
3 -> 4 ;
5 [label=<X<SUB>277</SUB> &le; 0.5<br/>entropy = 0.892<br/>samples = 2528<br/>value = [781, 1747]<br/>class = positive>, fillcolor="#92c9f1"] ;
4 -> 5 ;
6 [label=<X<SUB>347</SUB> &le; 0.5<br/>entropy = 0.857<br/>samples = 2418<br/>value = [680, 1738]<br/>class = positive>, fillcolor="#86c3ef"] ;
5 -> 6 ;
7 [label=<X<SUB>662</SUB> &le; 0.5<br/>entropy = 0.833<br/>samples = 2362<br/>value = [624, 1738]<br/>class = positive>, fillcolor="#80c0ee"] ;
6 -> 7 ;
8 [label=<X<SUB>920</SUB> &le; 0.5<br/>entropy = 0.887<br/>samples = 1950<br/>value = [595, 1355]<br/>class = positive>, fillcolor="#90c8f0"] ;
7 -> 8 ;
9 [label=<X<SUB>657</SUB> &le; 0.5<br/>entropy = 0.851<br/>samples = 1842<br/>value = [510, 1332]<br/>class = positive>, fillcolor="#85c3ef"] ;
8 -> 9 ;
10 [label=<X<SUB>109</SUB> &le; 0.5<br/>entropy = 0.753<br/>samples = 1461<br/>value = [316, 1145]<br/>class = positive>, fillcolor="#70b8ec"] ;
9 -> 10 ;
11 [label=<X<SUB>13</SUB> &le; 0.5<br/>entropy = 0.727<br/>samples = 1432<br/>value = [290, 1142]<br/>class = positive>, fillcolor="#6bb6ec"] ;
10 -> 11 ;
12 [label=<X<SUB>245</SUB> &le; 0.5<br/>entropy = 0.652<br/>samples = 1236<br/>value = [207, 1029]<br/>class = positive>, fillcolor="#61b1ea"] ;
11 -> 12 ;
13 [label=<X<SUB>848</SUB> &le; 0.5<br/>entropy = 0.619<br/>samples = 1204<br/>value = [185, 1019]<br/>class = positive>, fillcolor="#5dafea"] ;
12 -> 13 ;
14 [label=<X<SUB>94</SUB> &le; 0.5<br/>entropy = 0.598<br/>samples = 1192<br/>value = [173, 1019]<br/>class = positive>, fillcolor="#5baee9"] ;
13 -> 14 ;
15 [label=<X<SUB>786</SUB> &le; 0.5<br/>entropy = 0.537<br/>samples = 1110<br/>value = [136, 974]<br/>class = positive>, fillcolor="#55abe9"] ;
14 -> 15 ;
16 [label=<X<SUB>350</SUB> &le; 0.5<br/>entropy = 0.463<br/>samples = 988<br/>value = [97, 891]<br/>class = positive>, fillcolor="#4fa8e8"] ;
15 -> 16 ;
17 [label=<X<SUB>336</SUB> &le; 0.5<br/>entropy = 0.442<br/>samples = 981<br/>value = [90, 891]<br/>class = positive>, fillcolor="#4da7e8"] ;
16 -> 17 ;
18 [label=<X<SUB>748</SUB> &le; 0.5<br/>entropy = 0.395<br/>samples = 936<br/>value = [73, 863]<br/>class = positive>, fillcolor="#4aa5e7"] ;
17 -> 18 ;
19 [label=<X<SUB>614</SUB> &le; 0.5<br/>entropy = 0.377<br/>samples = 931<br/>value = [68, 863]<br/>class = positive>, fillcolor="#49a5e7"] ;
18 -> 19 ;
20 [label=<X<SUB>900</SUB> &le; 0.5<br/>entropy = 0.352<br/>samples = 919<br/>value = [61, 858]<br/>class = positive>, fillcolor="#47a4e7"] ;
19 -> 20 ;
21 [label=<X<SUB>40</SUB> &le; 0.5<br/>entropy = 0.336<br/>samples = 915<br/>value = [57, 858]<br/>class = positive>, fillcolor="#46a4e7"] ;
20 -> 21 ;
22 [label=<X<SUB>734</SUB> &le; 0.5<br/>entropy = 0.313<br/>samples = 903<br/>value = [51, 852]<br/>class = positive>, fillcolor="#45a3e7"] ;
21 -> 22 ;
23 [label=<X<SUB>752</SUB> &le; 0.5<br/>entropy = 0.296<br/>samples = 899<br/>value = [47, 852]<br/>class = positive>, fillcolor="#44a2e6"] ;
22 -> 23 ;
24 [label=<X<SUB>754</SUB> &le; 0.5<br/>entropy = 0.274<br/>samples = 890<br/>value = [42, 848]<br/>class = positive>, fillcolor="#43a2e6"] ;
23 -> 24 ;
25 [label=<X<SUB>797</SUB> &le; 0.5<br/>entropy = 0.26<br/>samples = 887<br/>value = [39, 848]<br/>class = positive>, fillcolor="#42a2e6"] ;
24 -> 25 ;
26 [label=<X<SUB>145</SUB> &le; 0.5<br/>entropy = 0.246<br/>samples = 884<br/>value = [36, 848]<br/>class = positive>, fillcolor="#41a1e6"] ;
25 -> 26 ;
27 [label=<X<SUB>61</SUB> &le; 0.5<br/>entropy = 0.231<br/>samples = 881<br/>value = [33, 848]<br/>class = positive>, fillcolor="#41a1e6"] ;
26 -> 27 ;
28 [label=<X<SUB>293</SUB> &le; 0.5<br/>entropy = 0.21<br/>samples = 875<br/>value = [29, 846]<br/>class = positive>, fillcolor="#40a0e6"] ;
27 -> 28 ;
29 [label=<X<SUB>399</SUB> &le; 0.5<br/>entropy = 0.189<br/>samples = 867<br/>value = [25, 842]<br/>class = positive>, fillcolor="#3fa0e6"] ;
28 -> 29 ;
30 [label=<entropy = 0.161<br/>samples = 847<br/>value = [20, 827]<br/>class = positive>, fillcolor="#3e9fe6"] ;
29 -> 30 ;
31 [label=<entropy = 0.811<br/>samples = 20<br/>value = [5, 15]<br/>class = positive>, fillcolor="#7bbeee"] ;
29 -> 31 ;
32 [label=<X<SUB>260</SUB> &le; 0.5<br/>entropy = 1.0<br/>samples = 8<br/>value = [4, 4]<br/>class = negative>, fillcolor="#ffffff"] ;
28 -> 32 ;
33 [label=<entropy = 0.918<br/>samples = 6<br/>value = [2, 4]<br/>class = positive>, fillcolor="#9ccef2"] ;
32 -> 33 ;
34 [label=<entropy = 0.0<br/>samples = 2<br/>value = [2, 0]<br/>class = negative>, fillcolor="#e58139"] ;
32 -> 34 ;
35 [label=<X<SUB>835</SUB> &le; 0.5<br/>entropy = 0.918<br/>samples = 6<br/>value = [4, 2]<br/>class = negative>, fillcolor="#f2c09c"] ;
27 -> 35 ;
36 [label=<entropy = 0.0<br/>samples = 4<br/>value = [4, 0]<br/>class = negative>, fillcolor="#e58139"] ;
35 -> 36 ;
37 [label=<entropy = 0.0<br/>samples = 2<br/>value = [0, 2]<br/>class = positive>, fillcolor="#399de5"] ;
35 -> 37 ;
38 [label=<entropy = 0.0<br/>samples = 3<br/>value = [3, 0]<br/>class = negative>, fillcolor="#e58139"] ;
26 -> 38 ;
39 [label=<entropy = 0.0<br/>samples = 3<br/>value = [3, 0]<br/>class = negative>, fillcolor="#e58139"] ;
25 -> 39 ;
40 [label=<entropy = 0.0<br/>samples = 3<br/>value = [3, 0]<br/>class = negative>, fillcolor="#e58139"] ;
24 -> 40 ;
41 [label=<X<SUB>949</SUB> &le; 0.5<br/>entropy = 0.991<br/>samples = 9<br/>value = [5, 4]<br/>class = negative>, fillcolor="#fae6d7"] ;
23 -> 41 ;
42 [label=<X<SUB>881</SUB> &le; 0.5<br/>entropy = 0.722<br/>samples = 5<br/>value = [1, 4]<br/>class = positive>, fillcolor="#6ab6ec"] ;
41 -> 42 ;
43 [label=<entropy = 0.0<br/>samples = 4<br/>value = [0, 4]<br/>class = positive>, fillcolor="#399de5"] ;
42 -> 43 ;
44 [label=<entropy = 0.0<br/>samples = 1<br/>value = [1, 0]<br/>class = negative>, fillcolor="#e58139"] ;
42 -> 44 ;
45 [label=<entropy = 0.0<br/>samples = 4<br/>value = [4, 0]<br/>class = negative>, fillcolor="#e58139"] ;
41 -> 45 ;
46 [label=<entropy = 0.0<br/>samples = 4<br/>value = [4, 0]<br/>class = negative>, fillcolor="#e58139"] ;
22 -> 46 ;
47 [label=<X<SUB>178</SUB> &le; 0.5<br/>entropy = 1.0<br/>samples = 12<br/>value = [6, 6]<br/>class = negative>, fillcolor="#ffffff"] ;
21 -> 47 ;
48 [label=<entropy = 0.592<br/>samples = 7<br/>value = [6, 1]<br/>class = negative>, fillcolor="#e9965a"] ;
47 -> 48 ;
49 [label=<entropy = 0.0<br/>samples = 5<br/>value = [0, 5]<br/>class = positive>, fillcolor="#399de5"] ;
47 -> 49 ;
50 [label=<entropy = 0.0<br/>samples = 4<br/>value = [4, 0]<br/>class = negative>, fillcolor="#e58139"] ;
20 -> 50 ;
51 [label=<X<SUB>242</SUB> &le; 0.5<br/>entropy = 0.98<br/>samples = 12<br/>value = [7, 5]<br/>class = negative>, fillcolor="#f8dbc6"] ;
19 -> 51 ;
52 [label=<entropy = 0.0<br/>samples = 5<br/>value = [5, 0]<br/>class = negative>, fillcolor="#e58139"] ;
51 -> 52 ;
53 [label=<X<SUB>563</SUB> &le; 0.5<br/>entropy = 0.863<br/>samples = 7<br/>value = [2, 5]<br/>class = positive>, fillcolor="#88c4ef"] ;
51 -> 53 ;
54 [label=<X<SUB>962</SUB> &le; 0.5<br/>entropy = 0.65<br/>samples = 6<br/>value = [1, 5]<br/>class = positive>, fillcolor="#61b1ea"] ;
53 -> 54 ;
55 [label=<entropy = 0.0<br/>samples = 5<br/>value = [0, 5]<br/>class = positive>, fillcolor="#399de5"] ;
54 -> 55 ;
56 [label=<entropy = 0.0<br/>samples = 1<br/>value = [1, 0]<br/>class = negative>, fillcolor="#e58139"] ;
54 -> 56 ;
57 [label=<entropy = 0.0<br/>samples = 1<br/>value = [1, 0]<br/>class = negative>, fillcolor="#e58139"] ;
53 -> 57 ;
58 [label=<entropy = 0.0<br/>samples = 5<br/>value = [5, 0]<br/>class = negative>, fillcolor="#e58139"] ;
18 -> 58 ;
59 [label=<X<SUB>985</SUB> &le; 0.5<br/>entropy = 0.956<br/>samples = 45<br/>value = [17, 28]<br/>class = positive>, fillcolor="#b1d8f5"] ;
17 -> 59 ;
60 [label=<X<SUB>296</SUB> &le; 0.5<br/>entropy = 0.8<br/>samples = 37<br/>value = [9, 28]<br/>class = positive>, fillcolor="#79bced"] ;
59 -> 60 ;
61 [label=<X<SUB>905</SUB> &le; 0.5<br/>entropy = 0.672<br/>samples = 34<br/>value = [6, 28]<br/>class = positive>, fillcolor="#63b2eb"] ;
60 -> 61 ;
62 [label=<entropy = 0.0<br/>samples = 3<br/>value = [3, 0]<br/>class = negative>, fillcolor="#e58139"] ;
61 -> 62 ;
63 [label=<X<SUB>443</SUB> &le; 0.5<br/>entropy = 0.459<br/>samples = 31<br/>value = [3, 28]<br/>class = positive>, fillcolor="#4ea8e8"] ;
61 -> 63 ;
64 [label=<X<SUB>547</SUB> &le; 0.5<br/>entropy = 0.216<br/>samples = 29<br/>value = [1, 28]<br/>class = positive>, fillcolor="#40a0e6"] ;
63 -> 64 ;
65 [label=<entropy = 0.0<br/>samples = 28<br/>value = [0, 28]<br/>class = positive>, fillcolor="#399de5"] ;
64 -> 65 ;
66 [label=<entropy = 0.0<br/>samples = 1<br/>value = [1, 0]<br/>class = negative>, fillcolor="#e58139"] ;
64 -> 66 ;
67 [label=<entropy = 0.0<br/>samples = 2<br/>value = [2, 0]<br/>class = negative>, fillcolor="#e58139"] ;
63 -> 67 ;
68 [label=<entropy = 0.0<br/>samples = 3<br/>value = [3, 0]<br/>class = negative>, fillcolor="#e58139"] ;
60 -> 68 ;
69 [label=<entropy = 0.0<br/>samples = 8<br/>value = [8, 0]<br/>class = negative>, fillcolor="#e58139"] ;
59 -> 69 ;
70 [label=<entropy = 0.0<br/>samples = 7<br/>value = [7, 0]<br/>class = negative>, fillcolor="#e58139"] ;
16 -> 70 ;
71 [label=<X<SUB>214</SUB> &le; 0.5<br/>entropy = 0.904<br/>samples = 122<br/>value = [39, 83]<br/>class = positive>, fillcolor="#96cbf1"] ;
15 -> 71 ;
72 [label=<X<SUB>298</SUB> &le; 0.5<br/>entropy = 0.999<br/>samples = 74<br/>value = [36, 38]<br/>class = positive>, fillcolor="#f5fafe"] ;
71 -> 72 ;
73 [label=<X<SUB>222</SUB> &le; 0.5<br/>entropy = 0.879<br/>samples = 47<br/>value = [14, 33]<br/>class = positive>, fillcolor="#8dc7f0"] ;
72 -> 73 ;
74 [label=<X<SUB>131</SUB> &le; 0.5<br/>entropy = 0.782<br/>samples = 43<br/>value = [10, 33]<br/>class = positive>, fillcolor="#75bbed"] ;
73 -> 74 ;
75 [label=<X<SUB>114</SUB> &le; 0.5<br/>entropy = 0.669<br/>samples = 40<br/>value = [7, 33]<br/>class = positive>, fillcolor="#63b2eb"] ;
74 -> 75 ;
76 [label=<X<SUB>805</SUB> &le; 0.5<br/>entropy = 0.494<br/>samples = 37<br/>value = [4, 33]<br/>class = positive>, fillcolor="#51a9e8"] ;
75 -> 76 ;
77 [label=<X<SUB>209</SUB> &le; 0.5<br/>entropy = 0.316<br/>samples = 35<br/>value = [2, 33]<br/>class = positive>, fillcolor="#45a3e7"] ;
76 -> 77 ;
78 [label=<X<SUB>76</SUB> &le; 0.5<br/>entropy = 0.191<br/>samples = 34<br/>value = [1, 33]<br/>class = positive>, fillcolor="#3fa0e6"] ;
77 -> 78 ;
79 [label=<entropy = 0.0<br/>samples = 33<br/>value = [0, 33]<br/>class = positive>, fillcolor="#399de5"] ;
78 -> 79 ;
80 [label=<entropy = 0.0<br/>samples = 1<br/>value = [1, 0]<br/>class = negative>, fillcolor="#e58139"] ;
78 -> 80 ;
81 [label=<entropy = 0.0<br/>samples = 1<br/>value = [1, 0]<br/>class = negative>, fillcolor="#e58139"] ;
77 -> 81 ;
82 [label=<entropy = 0.0<br/>samples = 2<br/>value = [2, 0]<br/>class = negative>, fillcolor="#e58139"] ;
76 -> 82 ;
83 [label=<entropy = 0.0<br/>samples = 3<br/>value = [3, 0]<br/>class = negative>, fillcolor="#e58139"] ;
75 -> 83 ;
84 [label=<entropy = 0.0<br/>samples = 3<br/>value = [3, 0]<br/>class = negative>, fillcolor="#e58139"] ;
74 -> 84 ;
85 [label=<entropy = 0.0<br/>samples = 4<br/>value = [4, 0]<br/>class = negative>, fillcolor="#e58139"] ;
73 -> 85 ;
86 [label=<X<SUB>178</SUB> &le; 0.5<br/>entropy = 0.691<br/>samples = 27<br/>value = [22, 5]<br/>class = negative>, fillcolor="#eb9e66"] ;
72 -> 86 ;
87 [label=<X<SUB>389</SUB> &le; 0.5<br/>entropy = 0.258<br/>samples = 23<br/>value = [22, 1]<br/>class = negative>, fillcolor="#e68742"] ;
86 -> 87 ;
88 [label=<entropy = 0.0<br/>samples = 22<br/>value = [22, 0]<br/>class = negative>, fillcolor="#e58139"] ;
87 -> 88 ;
89 [label=<entropy = 0.0<br/>samples = 1<br/>value = [0, 1]<br/>class = positive>, fillcolor="#399de5"] ;
87 -> 89 ;
90 [label=<entropy = 0.0<br/>samples = 4<br/>value = [0, 4]<br/>class = positive>, fillcolor="#399de5"] ;
86 -> 90 ;
91 [label=<X<SUB>947</SUB> &le; 0.5<br/>entropy = 0.337<br/>samples = 48<br/>value = [3, 45]<br/>class = positive>, fillcolor="#46a4e7"] ;
71 -> 91 ;
92 [label=<X<SUB>34</SUB> &le; 0.5<br/>entropy = 0.151<br/>samples = 46<br/>value = [1, 45]<br/>class = positive>, fillcolor="#3d9fe6"] ;
91 -> 92 ;
93 [label=<entropy = 0.0<br/>samples = 45<br/>value = [0, 45]<br/>class = positive>, fillcolor="#399de5"] ;
92 -> 93 ;
94 [label=<entropy = 0.0<br/>samples = 1<br/>value = [1, 0]<br/>class = negative>, fillcolor="#e58139"] ;
92 -> 94 ;
95 [label=<entropy = 0.0<br/>samples = 2<br/>value = [2, 0]<br/>class = negative>, fillcolor="#e58139"] ;
91 -> 95 ;
96 [label=<X<SUB>316</SUB> &le; 0.5<br/>entropy = 0.993<br/>samples = 82<br/>value = [37, 45]<br/>class = positive>, fillcolor="#dceefa"] ;
14 -> 96 ;
97 [label=<X<SUB>185</SUB> &le; 0.5<br/>entropy = 0.913<br/>samples = 67<br/>value = [22, 45]<br/>class = positive>, fillcolor="#9acdf2"] ;
96 -> 97 ;
98 [label=<X<SUB>320</SUB> &le; 0.5<br/>entropy = 0.847<br/>samples = 62<br/>value = [17, 45]<br/>class = positive>, fillcolor="#84c2ef"] ;
97 -> 98 ;
99 [label=<X<SUB>209</SUB> &le; 0.5<br/>entropy = 0.791<br/>samples = 59<br/>value = [14, 45]<br/>class = positive>, fillcolor="#77bbed"] ;
98 -> 99 ;
100 [label=<X<SUB>660</SUB> &le; 0.5<br/>entropy = 0.715<br/>samples = 56<br/>value = [11, 45]<br/>class = positive>, fillcolor="#69b5eb"] ;
99 -> 100 ;
101 [label=<X<SUB>324</SUB> &le; 0.5<br/>entropy = 0.65<br/>samples = 54<br/>value = [9, 45]<br/>class = positive>, fillcolor="#61b1ea"] ;
100 -> 101 ;
102 [label=<X<SUB>970</SUB> &le; 0.5<br/>entropy = 0.57<br/>samples = 52<br/>value = [7, 45]<br/>class = positive>, fillcolor="#58ace9"] ;
101 -> 102 ;
103 [label=<X<SUB>123</SUB> &le; 0.5<br/>entropy = 0.475<br/>samples = 49<br/>value = [5, 44]<br/>class = positive>, fillcolor="#50a8e8"] ;
102 -> 103 ;
104 [label=<X<SUB>455</SUB> &le; 0.5<br/>entropy = 0.414<br/>samples = 48<br/>value = [4, 44]<br/>class = positive>, fillcolor="#4ba6e7"] ;
103 -> 104 ;
105 [label=<X<SUB>683</SUB> &le; 0.5<br/>entropy = 0.342<br/>samples = 47<br/>value = [3, 44]<br/>class = positive>, fillcolor="#46a4e7"] ;
104 -> 105 ;
106 [label=<X<SUB>789</SUB> &le; 0.5<br/>entropy = 0.811<br/>samples = 8<br/>value = [2, 6]<br/>class = positive>, fillcolor="#7bbeee"] ;
105 -> 106 ;
107 [label=<entropy = 0.0<br/>samples = 2<br/>value = [2, 0]<br/>class = negative>, fillcolor="#e58139"] ;
106 -> 107 ;
108 [label=<entropy = 0.0<br/>samples = 6<br/>value = [0, 6]<br/>class = positive>, fillcolor="#399de5"] ;
106 -> 108 ;
109 [label=<X<SUB>454</SUB> &le; 0.5<br/>entropy = 0.172<br/>samples = 39<br/>value = [1, 38]<br/>class = positive>, fillcolor="#3ea0e6"] ;
105 -> 109 ;
110 [label=<entropy = 0.0<br/>samples = 33<br/>value = [0, 33]<br/>class = positive>, fillcolor="#399de5"] ;
109 -> 110 ;
111 [label=<X<SUB>985</SUB> &le; 0.5<br/>entropy = 0.65<br/>samples = 6<br/>value = [1, 5]<br/>class = positive>, fillcolor="#61b1ea"] ;
109 -> 111 ;
112 [label=<entropy = 0.0<br/>samples = 5<br/>value = [0, 5]<br/>class = positive>, fillcolor="#399de5"] ;
111 -> 112 ;
113 [label=<entropy = 0.0<br/>samples = 1<br/>value = [1, 0]<br/>class = negative>, fillcolor="#e58139"] ;
111 -> 113 ;
114 [label=<entropy = 0.0<br/>samples = 1<br/>value = [1, 0]<br/>class = negative>, fillcolor="#e58139"] ;
104 -> 114 ;
115 [label=<entropy = 0.0<br/>samples = 1<br/>value = [1, 0]<br/>class = negative>, fillcolor="#e58139"] ;
103 -> 115 ;
116 [label=<X<SUB>73</SUB> &le; 0.5<br/>entropy = 0.918<br/>samples = 3<br/>value = [2, 1]<br/>class = negative>, fillcolor="#f2c09c"] ;
102 -> 116 ;
117 [label=<entropy = 0.0<br/>samples = 2<br/>value = [2, 0]<br/>class = negative>, fillcolor="#e58139"] ;
116 -> 117 ;
118 [label=<entropy = 0.0<br/>samples = 1<br/>value = [0, 1]<br/>class = positive>, fillcolor="#399de5"] ;
116 -> 118 ;
119 [label=<entropy = 0.0<br/>samples = 2<br/>value = [2, 0]<br/>class = negative>, fillcolor="#e58139"] ;
101 -> 119 ;
120 [label=<entropy = 0.0<br/>samples = 2<br/>value = [2, 0]<br/>class = negative>, fillcolor="#e58139"] ;
100 -> 120 ;
121 [label=<entropy = 0.0<br/>samples = 3<br/>value = [3, 0]<br/>class = negative>, fillcolor="#e58139"] ;
99 -> 121 ;
122 [label=<entropy = 0.0<br/>samples = 3<br/>value = [3, 0]<br/>class = negative>, fillcolor="#e58139"] ;
98 -> 122 ;
123 [label=<entropy = 0.0<br/>samples = 5<br/>value = [5, 0]<br/>class = negative>, fillcolor="#e58139"] ;
97 -> 123 ;
124 [label=<entropy = 0.0<br/>samples = 15<br/>value = [15, 0]<br/>class = negative>, fillcolor="#e58139"] ;
96 -> 124 ;
125 [label=<entropy = 0.0<br/>samples = 12<br/>value = [12, 0]<br/>class = negative>, fillcolor="#e58139"] ;
13 -> 125 ;
126 [label=<X<SUB>353</SUB> &le; 0.5<br/>entropy = 0.896<br/>samples = 32<br/>value = [22, 10]<br/>class = negative>, fillcolor="#f1ba93"] ;
12 -> 126 ;
127 [label=<X<SUB>702</SUB> &le; 0.5<br/>entropy = 0.426<br/>samples = 23<br/>value = [21, 2]<br/>class = negative>, fillcolor="#e78d4c"] ;
126 -> 127 ;
128 [label=<X<SUB>209</SUB> &le; 0.5<br/>entropy = 0.267<br/>samples = 22<br/>value = [21, 1]<br/>class = negative>, fillcolor="#e68742"] ;
127 -> 128 ;
129 [label=<entropy = 0.0<br/>samples = 21<br/>value = [21, 0]<br/>class = negative>, fillcolor="#e58139"] ;
128 -> 129 ;
130 [label=<entropy = 0.0<br/>samples = 1<br/>value = [0, 1]<br/>class = positive>, fillcolor="#399de5"] ;
128 -> 130 ;
131 [label=<entropy = 0.0<br/>samples = 1<br/>value = [0, 1]<br/>class = positive>, fillcolor="#399de5"] ;
127 -> 131 ;
132 [label=<X<SUB>885</SUB> &le; 0.5<br/>entropy = 0.503<br/>samples = 9<br/>value = [1, 8]<br/>class = positive>, fillcolor="#52a9e8"] ;
126 -> 132 ;
133 [label=<entropy = 0.0<br/>samples = 8<br/>value = [0, 8]<br/>class = positive>, fillcolor="#399de5"] ;
132 -> 133 ;
134 [label=<entropy = 0.0<br/>samples = 1<br/>value = [1, 0]<br/>class = negative>, fillcolor="#e58139"] ;
132 -> 134 ;
135 [label=<X<SUB>656</SUB> &le; 0.5<br/>entropy = 0.983<br/>samples = 196<br/>value = [83, 113]<br/>class = positive>, fillcolor="#cae5f8"] ;
11 -> 135 ;
136 [label=<X<SUB>456</SUB> &le; 0.5<br/>entropy = 0.933<br/>samples = 106<br/>value = [69, 37]<br/>class = negative>, fillcolor="#f3c5a3"] ;
135 -> 136 ;
137 [label=<entropy = 0.0<br/>samples = 21<br/>value = [21, 0]<br/>class = negative>, fillcolor="#e58139"] ;
136 -> 137 ;
138 [label=<X<SUB>635</SUB> &le; 0.5<br/>entropy = 0.988<br/>samples = 85<br/>value = [48, 37]<br/>class = negative>, fillcolor="#f9e2d2"] ;
136 -> 138 ;
139 [label=<X<SUB>486</SUB> &le; 0.5<br/>entropy = 0.555<br/>samples = 31<br/>value = [4, 27]<br/>class = positive>, fillcolor="#56ace9"] ;
138 -> 139 ;
140 [label=<X<SUB>885</SUB> &le; 0.5<br/>entropy = 0.362<br/>samples = 29<br/>value = [2, 27]<br/>class = positive>, fillcolor="#48a4e7"] ;
139 -> 140 ;
141 [label=<X<SUB>337</SUB> &le; 0.5<br/>entropy = 0.222<br/>samples = 28<br/>value = [1, 27]<br/>class = positive>, fillcolor="#40a1e6"] ;
140 -> 141 ;
142 [label=<entropy = 0.0<br/>samples = 27<br/>value = [0, 27]<br/>class = positive>, fillcolor="#399de5"] ;
141 -> 142 ;
143 [label=<entropy = 0.0<br/>samples = 1<br/>value = [1, 0]<br/>class = negative>, fillcolor="#e58139"] ;
141 -> 143 ;
144 [label=<entropy = 0.0<br/>samples = 1<br/>value = [1, 0]<br/>class = negative>, fillcolor="#e58139"] ;
140 -> 144 ;
145 [label=<entropy = 0.0<br/>samples = 2<br/>value = [2, 0]<br/>class = negative>, fillcolor="#e58139"] ;
139 -> 145 ;
146 [label=<X<SUB>181</SUB> &le; 0.5<br/>entropy = 0.691<br/>samples = 54<br/>value = [44, 10]<br/>class = negative>, fillcolor="#eb9e66"] ;
138 -> 146 ;
147 [label=<X<SUB>302</SUB> &le; 0.5<br/>entropy = 0.951<br/>samples = 27<br/>value = [17, 10]<br/>class = negative>, fillcolor="#f4cbad"] ;
146 -> 147 ;
148 [label=<X<SUB>714</SUB> &le; 0.5<br/>entropy = 0.991<br/>samples = 18<br/>value = [8, 10]<br/>class = positive>, fillcolor="#d7ebfa"] ;
147 -> 148 ;
149 [label=<X<SUB>138</SUB> &le; 0.5<br/>entropy = 0.845<br/>samples = 11<br/>value = [8, 3]<br/>class = negative>, fillcolor="#efb083"] ;
148 -> 149 ;
150 [label=<X<SUB>391</SUB> &le; 0.5<br/>entropy = 0.503<br/>samples = 9<br/>value = [8, 1]<br/>class = negative>, fillcolor="#e89152"] ;
149 -> 150 ;
151 [label=<entropy = 0.0<br/>samples = 8<br/>value = [8, 0]<br/>class = negative>, fillcolor="#e58139"] ;
150 -> 151 ;
152 [label=<entropy = 0.0<br/>samples = 1<br/>value = [0, 1]<br/>class = positive>, fillcolor="#399de5"] ;
150 -> 152 ;
153 [label=<entropy = 0.0<br/>samples = 2<br/>value = [0, 2]<br/>class = positive>, fillcolor="#399de5"] ;
149 -> 153 ;
154 [label=<entropy = 0.0<br/>samples = 7<br/>value = [0, 7]<br/>class = positive>, fillcolor="#399de5"] ;
148 -> 154 ;
155 [label=<entropy = 0.0<br/>samples = 9<br/>value = [9, 0]<br/>class = negative>, fillcolor="#e58139"] ;
147 -> 155 ;
156 [label=<entropy = 0.0<br/>samples = 27<br/>value = [27, 0]<br/>class = negative>, fillcolor="#e58139"] ;
146 -> 156 ;
157 [label=<X<SUB>203</SUB> &le; 0.5<br/>entropy = 0.624<br/>samples = 90<br/>value = [14, 76]<br/>class = positive>, fillcolor="#5dafea"] ;
135 -> 157 ;
158 [label=<X<SUB>765</SUB> &le; 0.5<br/>entropy = 0.963<br/>samples = 31<br/>value = [12, 19]<br/>class = positive>, fillcolor="#b6dbf5"] ;
157 -> 158 ;
159 [label=<entropy = 0.0<br/>samples = 11<br/>value = [11, 0]<br/>class = negative>, fillcolor="#e58139"] ;
158 -> 159 ;
160 [label=<X<SUB>390</SUB> &le; 0.5<br/>entropy = 0.286<br/>samples = 20<br/>value = [1, 19]<br/>class = positive>, fillcolor="#43a2e6"] ;
158 -> 160 ;
161 [label=<entropy = 0.0<br/>samples = 19<br/>value = [0, 19]<br/>class = positive>, fillcolor="#399de5"] ;
160 -> 161 ;
162 [label=<entropy = 0.0<br/>samples = 1<br/>value = [1, 0]<br/>class = negative>, fillcolor="#e58139"] ;
160 -> 162 ;
163 [label=<X<SUB>214</SUB> &le; 0.5<br/>entropy = 0.214<br/>samples = 59<br/>value = [2, 57]<br/>class = positive>, fillcolor="#40a0e6"] ;
157 -> 163 ;
164 [label=<entropy = 0.0<br/>samples = 57<br/>value = [0, 57]<br/>class = positive>, fillcolor="#399de5"] ;
163 -> 164 ;
165 [label=<entropy = 0.0<br/>samples = 2<br/>value = [2, 0]<br/>class = negative>, fillcolor="#e58139"] ;
163 -> 165 ;
166 [label=<X<SUB>986</SUB> &le; 0.5<br/>entropy = 0.48<br/>samples = 29<br/>value = [26, 3]<br/>class = negative>, fillcolor="#e89050"] ;
10 -> 166 ;
167 [label=<X<SUB>995</SUB> &le; 0.5<br/>entropy = 0.371<br/>samples = 28<br/>value = [26, 2]<br/>class = negative>, fillcolor="#e78b48"] ;
166 -> 167 ;
168 [label=<X<SUB>78</SUB> &le; 0.5<br/>entropy = 0.764<br/>samples = 9<br/>value = [7, 2]<br/>class = negative>, fillcolor="#eca572"] ;
167 -> 168 ;
169 [label=<X<SUB>684</SUB> &le; 0.5<br/>entropy = 0.971<br/>samples = 5<br/>value = [3, 2]<br/>class = negative>, fillcolor="#f6d5bd"] ;
168 -> 169 ;
170 [label=<X<SUB>805</SUB> &le; 0.5<br/>entropy = 0.918<br/>samples = 3<br/>value = [1, 2]<br/>class = positive>, fillcolor="#9ccef2"] ;
169 -> 170 ;
171 [label=<entropy = 0.0<br/>samples = 2<br/>value = [0, 2]<br/>class = positive>, fillcolor="#399de5"] ;
170 -> 171 ;
172 [label=<entropy = 0.0<br/>samples = 1<br/>value = [1, 0]<br/>class = negative>, fillcolor="#e58139"] ;
170 -> 172 ;
173 [label=<entropy = 0.0<br/>samples = 2<br/>value = [2, 0]<br/>class = negative>, fillcolor="#e58139"] ;
169 -> 173 ;
174 [label=<entropy = 0.0<br/>samples = 4<br/>value = [4, 0]<br/>class = negative>, fillcolor="#e58139"] ;
168 -> 174 ;
175 [label=<entropy = 0.0<br/>samples = 19<br/>value = [19, 0]<br/>class = negative>, fillcolor="#e58139"] ;
167 -> 175 ;
176 [label=<entropy = 0.0<br/>samples = 1<br/>value = [0, 1]<br/>class = positive>, fillcolor="#399de5"] ;
166 -> 176 ;
177 [label=<X<SUB>985</SUB> &le; 0.5<br/>entropy = 1.0<br/>samples = 381<br/>value = [194, 187]<br/>class = negative>, fillcolor="#fefaf8"] ;
9 -> 177 ;
178 [label=<X<SUB>902</SUB> &le; 0.5<br/>entropy = 0.973<br/>samples = 293<br/>value = [118, 175]<br/>class = positive>, fillcolor="#bfdff7"] ;
177 -> 178 ;
179 [label=<X<SUB>951</SUB> &le; 0.5<br/>entropy = 0.614<br/>samples = 33<br/>value = [28, 5]<br/>class = negative>, fillcolor="#ea985c"] ;
178 -> 179 ;
180 [label=<X<SUB>857</SUB> &le; 0.5<br/>entropy = 0.459<br/>samples = 31<br/>value = [28, 3]<br/>class = negative>, fillcolor="#e88e4e"] ;
179 -> 180 ;
181 [label=<X<SUB>786</SUB> &le; 0.5<br/>entropy = 0.353<br/>samples = 30<br/>value = [28, 2]<br/>class = negative>, fillcolor="#e78a47"] ;
180 -> 181 ;
182 [label=<X<SUB>131</SUB> &le; 0.5<br/>entropy = 0.216<br/>samples = 29<br/>value = [28, 1]<br/>class = negative>, fillcolor="#e68640"] ;
181 -> 182 ;
183 [label=<X<SUB>467</SUB> &le; 0.5<br/>entropy = 0.469<br/>samples = 10<br/>value = [9, 1]<br/>class = negative>, fillcolor="#e88f4f"] ;
182 -> 183 ;
184 [label=<entropy = 1.0<br/>samples = 2<br/>value = [1, 1]<br/>class = negative>, fillcolor="#ffffff"] ;
183 -> 184 ;
185 [label=<entropy = 0.0<br/>samples = 8<br/>value = [8, 0]<br/>class = negative>, fillcolor="#e58139"] ;
183 -> 185 ;
186 [label=<entropy = 0.0<br/>samples = 19<br/>value = [19, 0]<br/>class = negative>, fillcolor="#e58139"] ;
182 -> 186 ;
187 [label=<entropy = 0.0<br/>samples = 1<br/>value = [0, 1]<br/>class = positive>, fillcolor="#399de5"] ;
181 -> 187 ;
188 [label=<entropy = 0.0<br/>samples = 1<br/>value = [0, 1]<br/>class = positive>, fillcolor="#399de5"] ;
180 -> 188 ;
189 [label=<entropy = 0.0<br/>samples = 2<br/>value = [0, 2]<br/>class = positive>, fillcolor="#399de5"] ;
179 -> 189 ;
190 [label=<X<SUB>383</SUB> &le; 0.5<br/>entropy = 0.931<br/>samples = 260<br/>value = [90, 170]<br/>class = positive>, fillcolor="#a2d1f3"] ;
178 -> 190 ;
191 [label=<entropy = 0.0<br/>samples = 12<br/>value = [12, 0]<br/>class = negative>, fillcolor="#e58139"] ;
190 -> 191 ;
192 [label=<X<SUB>269</SUB> &le; 0.5<br/>entropy = 0.898<br/>samples = 248<br/>value = [78, 170]<br/>class = positive>, fillcolor="#94caf1"] ;
190 -> 192 ;
193 [label=<X<SUB>1007</SUB> &le; 0.5<br/>entropy = 0.863<br/>samples = 238<br/>value = [68, 170]<br/>class = positive>, fillcolor="#88c4ef"] ;
192 -> 193 ;
194 [label=<X<SUB>298</SUB> &le; 0.5<br/>entropy = 0.811<br/>samples = 224<br/>value = [56, 168]<br/>class = positive>, fillcolor="#7bbeee"] ;
193 -> 194 ;
195 [label=<X<SUB>841</SUB> &le; 0.5<br/>entropy = 0.771<br/>samples = 217<br/>value = [49, 168]<br/>class = positive>, fillcolor="#73baed"] ;
194 -> 195 ;
196 [label=<X<SUB>630</SUB> &le; 0.5<br/>entropy = 0.729<br/>samples = 211<br/>value = [43, 168]<br/>class = positive>, fillcolor="#6cb6ec"] ;
195 -> 196 ;
197 [label=<X<SUB>164</SUB> &le; 0.5<br/>entropy = 0.69<br/>samples = 206<br/>value = [38, 168]<br/>class = positive>, fillcolor="#66b3eb"] ;
196 -> 197 ;
198 [label=<X<SUB>321</SUB> &le; 0.5<br/>entropy = 0.654<br/>samples = 202<br/>value = [34, 168]<br/>class = positive>, fillcolor="#61b1ea"] ;
197 -> 198 ;
199 [label=<X<SUB>614</SUB> &le; 0.5<br/>entropy = 0.544<br/>samples = 176<br/>value = [22, 154]<br/>class = positive>, fillcolor="#55abe9"] ;
198 -> 199 ;
200 [label=<X<SUB>252</SUB> &le; 0.5<br/>entropy = 0.419<br/>samples = 153<br/>value = [13, 140]<br/>class = positive>, fillcolor="#4ba6e7"] ;
199 -> 200 ;
201 [label=<X<SUB>671</SUB> &le; 0.5<br/>entropy = 0.355<br/>samples = 149<br/>value = [10, 139]<br/>class = positive>, fillcolor="#47a4e7"] ;
200 -> 201 ;
202 [label=<X<SUB>253</SUB> &le; 0.5<br/>entropy = 0.279<br/>samples = 145<br/>value = [7, 138]<br/>class = positive>, fillcolor="#43a2e6"] ;
201 -> 202 ;
203 [label=<X<SUB>861</SUB> &le; 0.5<br/>entropy = 0.154<br/>samples = 135<br/>value = [3, 132]<br/>class = positive>, fillcolor="#3d9fe6"] ;
202 -> 203 ;
204 [label=<X<SUB>327</SUB> &le; 0.5<br/>entropy = 0.112<br/>samples = 134<br/>value = [2, 132]<br/>class = positive>, fillcolor="#3c9ee5"] ;
203 -> 204 ;
205 [label=<X<SUB>883</SUB> &le; 0.5<br/>entropy = 0.064<br/>samples = 133<br/>value = [1, 132]<br/>class = positive>, fillcolor="#3b9ee5"] ;
204 -> 205 ;
206 [label=<entropy = 0.0<br/>samples = 123<br/>value = [0, 123]<br/>class = positive>, fillcolor="#399de5"] ;
205 -> 206 ;
207 [label=<entropy = 0.469<br/>samples = 10<br/>value = [1, 9]<br/>class = positive>, fillcolor="#4fa8e8"] ;
205 -> 207 ;
208 [label=<entropy = 0.0<br/>samples = 1<br/>value = [1, 0]<br/>class = negative>, fillcolor="#e58139"] ;
204 -> 208 ;
209 [label=<entropy = 0.0<br/>samples = 1<br/>value = [1, 0]<br/>class = negative>, fillcolor="#e58139"] ;
203 -> 209 ;
210 [label=<X<SUB>72</SUB> &le; 0.5<br/>entropy = 0.971<br/>samples = 10<br/>value = [4, 6]<br/>class = positive>, fillcolor="#bddef6"] ;
202 -> 210 ;
211 [label=<entropy = 0.0<br/>samples = 4<br/>value = [4, 0]<br/>class = negative>, fillcolor="#e58139"] ;
210 -> 211 ;
212 [label=<entropy = 0.0<br/>samples = 6<br/>value = [0, 6]<br/>class = positive>, fillcolor="#399de5"] ;
210 -> 212 ;
213 [label=<X<SUB>720</SUB> &le; 0.5<br/>entropy = 0.811<br/>samples = 4<br/>value = [3, 1]<br/>class = negative>, fillcolor="#eeab7b"] ;
201 -> 213 ;
214 [label=<entropy = 0.0<br/>samples = 2<br/>value = [2, 0]<br/>class = negative>, fillcolor="#e58139"] ;
213 -> 214 ;
215 [label=<X<SUB>600</SUB> &le; 0.5<br/>entropy = 1.0<br/>samples = 2<br/>value = [1, 1]<br/>class = negative>, fillcolor="#ffffff"] ;
213 -> 215 ;
216 [label=<entropy = 0.0<br/>samples = 1<br/>value = [0, 1]<br/>class = positive>, fillcolor="#399de5"] ;
215 -> 216 ;
217 [label=<entropy = 0.0<br/>samples = 1<br/>value = [1, 0]<br/>class = negative>, fillcolor="#e58139"] ;
215 -> 217 ;
218 [label=<X<SUB>817</SUB> &le; 0.5<br/>entropy = 0.811<br/>samples = 4<br/>value = [3, 1]<br/>class = negative>, fillcolor="#eeab7b"] ;
200 -> 218 ;
219 [label=<entropy = 0.0<br/>samples = 3<br/>value = [3, 0]<br/>class = negative>, fillcolor="#e58139"] ;
218 -> 219 ;
220 [label=<entropy = 0.0<br/>samples = 1<br/>value = [0, 1]<br/>class = positive>, fillcolor="#399de5"] ;
218 -> 220 ;
221 [label=<X<SUB>507</SUB> &le; 0.5<br/>entropy = 0.966<br/>samples = 23<br/>value = [9, 14]<br/>class = positive>, fillcolor="#b8dcf6"] ;
199 -> 221 ;
222 [label=<X<SUB>627</SUB> &le; 0.5<br/>entropy = 0.998<br/>samples = 17<br/>value = [9, 8]<br/>class = negative>, fillcolor="#fcf1e9"] ;
221 -> 222 ;
223 [label=<entropy = 0.503<br/>samples = 9<br/>value = [8, 1]<br/>class = negative>, fillcolor="#e89152"] ;
222 -> 223 ;
224 [label=<X<SUB>73</SUB> &le; 0.5<br/>entropy = 0.544<br/>samples = 8<br/>value = [1, 7]<br/>class = positive>, fillcolor="#55abe9"] ;
222 -> 224 ;
225 [label=<entropy = 0.0<br/>samples = 7<br/>value = [0, 7]<br/>class = positive>, fillcolor="#399de5"] ;
224 -> 225 ;
226 [label=<entropy = 0.0<br/>samples = 1<br/>value = [1, 0]<br/>class = negative>, fillcolor="#e58139"] ;
224 -> 226 ;
227 [label=<entropy = 0.0<br/>samples = 6<br/>value = [0, 6]<br/>class = positive>, fillcolor="#399de5"] ;
221 -> 227 ;
228 [label=<X<SUB>905</SUB> &le; 0.5<br/>entropy = 0.996<br/>samples = 26<br/>value = [12, 14]<br/>class = positive>, fillcolor="#e3f1fb"] ;
198 -> 228 ;
229 [label=<entropy = 0.0<br/>samples = 9<br/>value = [9, 0]<br/>class = negative>, fillcolor="#e58139"] ;
228 -> 229 ;
230 [label=<X<SUB>620</SUB> &le; 0.5<br/>entropy = 0.672<br/>samples = 17<br/>value = [3, 14]<br/>class = positive>, fillcolor="#63b2eb"] ;
228 -> 230 ;
231 [label=<X<SUB>284</SUB> &le; 0.5<br/>entropy = 0.353<br/>samples = 15<br/>value = [1, 14]<br/>class = positive>, fillcolor="#47a4e7"] ;
230 -> 231 ;
232 [label=<entropy = 0.0<br/>samples = 14<br/>value = [0, 14]<br/>class = positive>, fillcolor="#399de5"] ;
231 -> 232 ;
233 [label=<entropy = 0.0<br/>samples = 1<br/>value = [1, 0]<br/>class = negative>, fillcolor="#e58139"] ;
231 -> 233 ;
234 [label=<entropy = 0.0<br/>samples = 2<br/>value = [2, 0]<br/>class = negative>, fillcolor="#e58139"] ;
230 -> 234 ;
235 [label=<entropy = 0.0<br/>samples = 4<br/>value = [4, 0]<br/>class = negative>, fillcolor="#e58139"] ;
197 -> 235 ;
236 [label=<entropy = 0.0<br/>samples = 5<br/>value = [5, 0]<br/>class = negative>, fillcolor="#e58139"] ;
196 -> 236 ;
237 [label=<entropy = 0.0<br/>samples = 6<br/>value = [6, 0]<br/>class = negative>, fillcolor="#e58139"] ;
195 -> 237 ;
238 [label=<entropy = 0.0<br/>samples = 7<br/>value = [7, 0]<br/>class = negative>, fillcolor="#e58139"] ;
194 -> 238 ;
239 [label=<X<SUB>754</SUB> &le; 0.5<br/>entropy = 0.592<br/>samples = 14<br/>value = [12, 2]<br/>class = negative>, fillcolor="#e9965a"] ;
193 -> 239 ;
240 [label=<entropy = 0.0<br/>samples = 10<br/>value = [10, 0]<br/>class = negative>, fillcolor="#e58139"] ;
239 -> 240 ;
241 [label=<X<SUB>487</SUB> &le; 0.5<br/>entropy = 1.0<br/>samples = 4<br/>value = [2, 2]<br/>class = negative>, fillcolor="#ffffff"] ;
239 -> 241 ;
242 [label=<entropy = 0.0<br/>samples = 1<br/>value = [0, 1]<br/>class = positive>, fillcolor="#399de5"] ;
241 -> 242 ;
243 [label=<entropy = 0.918<br/>samples = 3<br/>value = [2, 1]<br/>class = negative>, fillcolor="#f2c09c"] ;
241 -> 243 ;
244 [label=<entropy = 0.0<br/>samples = 10<br/>value = [10, 0]<br/>class = negative>, fillcolor="#e58139"] ;
192 -> 244 ;
245 [label=<X<SUB>835</SUB> &le; 0.5<br/>entropy = 0.575<br/>samples = 88<br/>value = [76, 12]<br/>class = negative>, fillcolor="#e99558"] ;
177 -> 245 ;
246 [label=<X<SUB>969</SUB> &le; 0.5<br/>entropy = 0.417<br/>samples = 83<br/>value = [76, 7]<br/>class = negative>, fillcolor="#e78d4b"] ;
245 -> 246 ;
247 [label=<X<SUB>354</SUB> &le; 0.5<br/>entropy = 0.286<br/>samples = 80<br/>value = [76, 4]<br/>class = negative>, fillcolor="#e68843"] ;
246 -> 247 ;
248 [label=<X<SUB>918</SUB> &le; 0.5<br/>entropy = 0.172<br/>samples = 78<br/>value = [76, 2]<br/>class = negative>, fillcolor="#e6843e"] ;
247 -> 248 ;
249 [label=<entropy = 0.0<br/>samples = 63<br/>value = [63, 0]<br/>class = negative>, fillcolor="#e58139"] ;
248 -> 249 ;
250 [label=<X<SUB>873</SUB> &le; 0.5<br/>entropy = 0.567<br/>samples = 15<br/>value = [13, 2]<br/>class = negative>, fillcolor="#e99457"] ;
248 -> 250 ;
251 [label=<X<SUB>665</SUB> &le; 0.5<br/>entropy = 0.371<br/>samples = 14<br/>value = [13, 1]<br/>class = negative>, fillcolor="#e78b48"] ;
250 -> 251 ;
252 [label=<entropy = 0.0<br/>samples = 12<br/>value = [12, 0]<br/>class = negative>, fillcolor="#e58139"] ;
251 -> 252 ;
253 [label=<X<SUB>115</SUB> &le; 0.5<br/>entropy = 1.0<br/>samples = 2<br/>value = [1, 1]<br/>class = negative>, fillcolor="#ffffff"] ;
251 -> 253 ;
254 [label=<entropy = 0.0<br/>samples = 1<br/>value = [0, 1]<br/>class = positive>, fillcolor="#399de5"] ;
253 -> 254 ;
255 [label=<entropy = 0.0<br/>samples = 1<br/>value = [1, 0]<br/>class = negative>, fillcolor="#e58139"] ;
253 -> 255 ;
256 [label=<entropy = 0.0<br/>samples = 1<br/>value = [0, 1]<br/>class = positive>, fillcolor="#399de5"] ;
250 -> 256 ;
257 [label=<entropy = 0.0<br/>samples = 2<br/>value = [0, 2]<br/>class = positive>, fillcolor="#399de5"] ;
247 -> 257 ;
258 [label=<entropy = 0.0<br/>samples = 3<br/>value = [0, 3]<br/>class = positive>, fillcolor="#399de5"] ;
246 -> 258 ;
259 [label=<entropy = 0.0<br/>samples = 5<br/>value = [0, 5]<br/>class = positive>, fillcolor="#399de5"] ;
245 -> 259 ;
260 [label=<X<SUB>249</SUB> &le; 0.5<br/>entropy = 0.747<br/>samples = 108<br/>value = [85, 23]<br/>class = negative>, fillcolor="#eca36f"] ;
8 -> 260 ;
261 [label=<X<SUB>423</SUB> &le; 0.5<br/>entropy = 0.169<br/>samples = 80<br/>value = [78, 2]<br/>class = negative>, fillcolor="#e6843e"] ;
260 -> 261 ;
262 [label=<entropy = 0.0<br/>samples = 77<br/>value = [77, 0]<br/>class = negative>, fillcolor="#e58139"] ;
261 -> 262 ;
263 [label=<X<SUB>794</SUB> &le; 0.5<br/>entropy = 0.918<br/>samples = 3<br/>value = [1, 2]<br/>class = positive>, fillcolor="#9ccef2"] ;
261 -> 263 ;
264 [label=<entropy = 0.0<br/>samples = 2<br/>value = [0, 2]<br/>class = positive>, fillcolor="#399de5"] ;
263 -> 264 ;
265 [label=<entropy = 0.0<br/>samples = 1<br/>value = [1, 0]<br/>class = negative>, fillcolor="#e58139"] ;
263 -> 265 ;
266 [label=<X<SUB>321</SUB> &le; 0.5<br/>entropy = 0.811<br/>samples = 28<br/>value = [7, 21]<br/>class = positive>, fillcolor="#7bbeee"] ;
260 -> 266 ;
267 [label=<X<SUB>838</SUB> &le; 0.5<br/>entropy = 0.267<br/>samples = 22<br/>value = [1, 21]<br/>class = positive>, fillcolor="#42a2e6"] ;
266 -> 267 ;
268 [label=<entropy = 0.0<br/>samples = 21<br/>value = [0, 21]<br/>class = positive>, fillcolor="#399de5"] ;
267 -> 268 ;
269 [label=<entropy = 0.0<br/>samples = 1<br/>value = [1, 0]<br/>class = negative>, fillcolor="#e58139"] ;
267 -> 269 ;
270 [label=<entropy = 0.0<br/>samples = 6<br/>value = [6, 0]<br/>class = negative>, fillcolor="#e58139"] ;
266 -> 270 ;
271 [label=<X<SUB>600</SUB> &le; 0.5<br/>entropy = 0.367<br/>samples = 412<br/>value = [29, 383]<br/>class = positive>, fillcolor="#48a4e7"] ;
7 -> 271 ;
272 [label=<X<SUB>164</SUB> &le; 0.5<br/>entropy = 0.239<br/>samples = 382<br/>value = [15, 367]<br/>class = positive>, fillcolor="#41a1e6"] ;
271 -> 272 ;
273 [label=<X<SUB>486</SUB> &le; 0.5<br/>entropy = 0.163<br/>samples = 376<br/>value = [9, 367]<br/>class = positive>, fillcolor="#3e9fe6"] ;
272 -> 273 ;
274 [label=<X<SUB>13</SUB> &le; 0.5<br/>entropy = 0.134<br/>samples = 374<br/>value = [7, 367]<br/>class = positive>, fillcolor="#3d9fe5"] ;
273 -> 274 ;
275 [label=<X<SUB>965</SUB> &le; 0.5<br/>entropy = 0.089<br/>samples = 353<br/>value = [4, 349]<br/>class = positive>, fillcolor="#3b9ee5"] ;
274 -> 275 ;
276 [label=<X<SUB>761</SUB> &le; 0.5<br/>entropy = 0.071<br/>samples = 352<br/>value = [3, 349]<br/>class = positive>, fillcolor="#3b9ee5"] ;
275 -> 276 ;
277 [label=<X<SUB>897</SUB> &le; 0.5<br/>entropy = 0.051<br/>samples = 351<br/>value = [2, 349]<br/>class = positive>, fillcolor="#3a9ee5"] ;
276 -> 277 ;
278 [label=<X<SUB>167</SUB> &le; 0.5<br/>entropy = 0.028<br/>samples = 350<br/>value = [1, 349]<br/>class = positive>, fillcolor="#3a9de5"] ;
277 -> 278 ;
279 [label=<entropy = 0.0<br/>samples = 349<br/>value = [0, 349]<br/>class = positive>, fillcolor="#399de5"] ;
278 -> 279 ;
280 [label=<entropy = 0.0<br/>samples = 1<br/>value = [1, 0]<br/>class = negative>, fillcolor="#e58139"] ;
278 -> 280 ;
281 [label=<entropy = 0.0<br/>samples = 1<br/>value = [1, 0]<br/>class = negative>, fillcolor="#e58139"] ;
277 -> 281 ;
282 [label=<entropy = 0.0<br/>samples = 1<br/>value = [1, 0]<br/>class = negative>, fillcolor="#e58139"] ;
276 -> 282 ;
283 [label=<entropy = 0.0<br/>samples = 1<br/>value = [1, 0]<br/>class = negative>, fillcolor="#e58139"] ;
275 -> 283 ;
284 [label=<X<SUB>976</SUB> &le; 0.5<br/>entropy = 0.592<br/>samples = 21<br/>value = [3, 18]<br/>class = positive>, fillcolor="#5aade9"] ;
274 -> 284 ;
285 [label=<entropy = 0.0<br/>samples = 11<br/>value = [0, 11]<br/>class = positive>, fillcolor="#399de5"] ;
284 -> 285 ;
286 [label=<X<SUB>424</SUB> &le; 0.5<br/>entropy = 0.881<br/>samples = 10<br/>value = [3, 7]<br/>class = positive>, fillcolor="#8ec7f0"] ;
284 -> 286 ;
287 [label=<X<SUB>1008</SUB> &le; 0.5<br/>entropy = 0.544<br/>samples = 8<br/>value = [1, 7]<br/>class = positive>, fillcolor="#55abe9"] ;
286 -> 287 ;
288 [label=<entropy = 0.0<br/>samples = 7<br/>value = [0, 7]<br/>class = positive>, fillcolor="#399de5"] ;
287 -> 288 ;
289 [label=<entropy = 0.0<br/>samples = 1<br/>value = [1, 0]<br/>class = negative>, fillcolor="#e58139"] ;
287 -> 289 ;
290 [label=<entropy = 0.0<br/>samples = 2<br/>value = [2, 0]<br/>class = negative>, fillcolor="#e58139"] ;
286 -> 290 ;
291 [label=<entropy = 0.0<br/>samples = 2<br/>value = [2, 0]<br/>class = negative>, fillcolor="#e58139"] ;
273 -> 291 ;
292 [label=<entropy = 0.0<br/>samples = 6<br/>value = [6, 0]<br/>class = negative>, fillcolor="#e58139"] ;
272 -> 292 ;
293 [label=<X<SUB>971</SUB> &le; 0.5<br/>entropy = 0.997<br/>samples = 30<br/>value = [14, 16]<br/>class = positive>, fillcolor="#e6f3fc"] ;
271 -> 293 ;
294 [label=<entropy = 0.0<br/>samples = 8<br/>value = [8, 0]<br/>class = negative>, fillcolor="#e58139"] ;
293 -> 294 ;
295 [label=<X<SUB>306</SUB> &le; 0.5<br/>entropy = 0.845<br/>samples = 22<br/>value = [6, 16]<br/>class = positive>, fillcolor="#83c2ef"] ;
293 -> 295 ;
296 [label=<X<SUB>375</SUB> &le; 0.5<br/>entropy = 0.629<br/>samples = 19<br/>value = [3, 16]<br/>class = positive>, fillcolor="#5eafea"] ;
295 -> 296 ;
297 [label=<X<SUB>841</SUB> &le; 0.5<br/>entropy = 0.323<br/>samples = 17<br/>value = [1, 16]<br/>class = positive>, fillcolor="#45a3e7"] ;
296 -> 297 ;
298 [label=<entropy = 0.0<br/>samples = 16<br/>value = [0, 16]<br/>class = positive>, fillcolor="#399de5"] ;
297 -> 298 ;
299 [label=<entropy = 0.0<br/>samples = 1<br/>value = [1, 0]<br/>class = negative>, fillcolor="#e58139"] ;
297 -> 299 ;
300 [label=<entropy = 0.0<br/>samples = 2<br/>value = [2, 0]<br/>class = negative>, fillcolor="#e58139"] ;
296 -> 300 ;
301 [label=<entropy = 0.0<br/>samples = 3<br/>value = [3, 0]<br/>class = negative>, fillcolor="#e58139"] ;
295 -> 301 ;
302 [label=<entropy = 0.0<br/>samples = 56<br/>value = [56, 0]<br/>class = negative>, fillcolor="#e58139"] ;
6 -> 302 ;
303 [label=<X<SUB>1016</SUB> &le; 0.5<br/>entropy = 0.409<br/>samples = 110<br/>value = [101, 9]<br/>class = negative>, fillcolor="#e78c4b"] ;
5 -> 303 ;
304 [label=<X<SUB>354</SUB> &le; 0.5<br/>entropy = 0.274<br/>samples = 106<br/>value = [101, 5]<br/>class = negative>, fillcolor="#e68743"] ;
303 -> 304 ;
305 [label=<X<SUB>458</SUB> &le; 0.5<br/>entropy = 0.08<br/>samples = 101<br/>value = [100, 1]<br/>class = negative>, fillcolor="#e5823b"] ;
304 -> 305 ;
306 [label=<entropy = 0.0<br/>samples = 100<br/>value = [100, 0]<br/>class = negative>, fillcolor="#e58139"] ;
305 -> 306 ;
307 [label=<entropy = 0.0<br/>samples = 1<br/>value = [0, 1]<br/>class = positive>, fillcolor="#399de5"] ;
305 -> 307 ;
308 [label=<X<SUB>790</SUB> &le; 0.5<br/>entropy = 0.722<br/>samples = 5<br/>value = [1, 4]<br/>class = positive>, fillcolor="#6ab6ec"] ;
304 -> 308 ;
309 [label=<entropy = 0.0<br/>samples = 4<br/>value = [0, 4]<br/>class = positive>, fillcolor="#399de5"] ;
308 -> 309 ;
310 [label=<entropy = 0.0<br/>samples = 1<br/>value = [1, 0]<br/>class = negative>, fillcolor="#e58139"] ;
308 -> 310 ;
311 [label=<entropy = 0.0<br/>samples = 4<br/>value = [0, 4]<br/>class = positive>, fillcolor="#399de5"] ;
303 -> 311 ;
312 [label=<X<SUB>520</SUB> &le; 0.5<br/>entropy = 0.619<br/>samples = 234<br/>value = [198, 36]<br/>class = negative>, fillcolor="#ea985d"] ;
4 -> 312 ;
313 [label=<X<SUB>383</SUB> &le; 0.5<br/>entropy = 0.508<br/>samples = 222<br/>value = [197, 25]<br/>class = negative>, fillcolor="#e89152"] ;
312 -> 313 ;
314 [label=<X<SUB>119</SUB> &le; 0.5<br/>entropy = 0.752<br/>samples = 116<br/>value = [91, 25]<br/>class = negative>, fillcolor="#eca46f"] ;
313 -> 314 ;
315 [label=<X<SUB>397</SUB> &le; 0.5<br/>entropy = 0.632<br/>samples = 107<br/>value = [90, 17]<br/>class = negative>, fillcolor="#ea995e"] ;
314 -> 315 ;
316 [label=<X<SUB>179</SUB> &le; 0.5<br/>entropy = 0.414<br/>samples = 84<br/>value = [77, 7]<br/>class = negative>, fillcolor="#e78c4b"] ;
315 -> 316 ;
317 [label=<X<SUB>456</SUB> &le; 0.5<br/>entropy = 0.615<br/>samples = 46<br/>value = [39, 7]<br/>class = negative>, fillcolor="#ea985d"] ;
316 -> 317 ;
318 [label=<X<SUB>666</SUB> &le; 0.5<br/>entropy = 0.826<br/>samples = 27<br/>value = [20, 7]<br/>class = negative>, fillcolor="#eead7e"] ;
317 -> 318 ;
319 [label=<X<SUB>989</SUB> &le; 0.5<br/>entropy = 0.722<br/>samples = 25<br/>value = [20, 5]<br/>class = negative>, fillcolor="#eca06a"] ;
318 -> 319 ;
320 [label=<X<SUB>595</SUB> &le; 0.5<br/>entropy = 0.94<br/>samples = 14<br/>value = [9, 5]<br/>class = negative>, fillcolor="#f3c7a7"] ;
319 -> 320 ;
321 [label=<X<SUB>839</SUB> &le; 0.5<br/>entropy = 0.811<br/>samples = 12<br/>value = [9, 3]<br/>class = negative>, fillcolor="#eeab7b"] ;
320 -> 321 ;
322 [label=<X<SUB>116</SUB> &le; 0.5<br/>entropy = 0.684<br/>samples = 11<br/>value = [9, 2]<br/>class = negative>, fillcolor="#eb9d65"] ;
321 -> 322 ;
323 [label=<entropy = 0.0<br/>samples = 4<br/>value = [4, 0]<br/>class = negative>, fillcolor="#e58139"] ;
322 -> 323 ;
324 [label=<X<SUB>507</SUB> &le; 0.5<br/>entropy = 0.863<br/>samples = 7<br/>value = [5, 2]<br/>class = negative>, fillcolor="#efb388"] ;
322 -> 324 ;
325 [label=<entropy = 0.0<br/>samples = 1<br/>value = [0, 1]<br/>class = positive>, fillcolor="#399de5"] ;
324 -> 325 ;
326 [label=<X<SUB>524</SUB> &le; 0.5<br/>entropy = 0.65<br/>samples = 6<br/>value = [5, 1]<br/>class = negative>, fillcolor="#ea9a61"] ;
324 -> 326 ;
327 [label=<entropy = 0.0<br/>samples = 4<br/>value = [4, 0]<br/>class = negative>, fillcolor="#e58139"] ;
326 -> 327 ;
328 [label=<X<SUB>296</SUB> &le; 0.5<br/>entropy = 1.0<br/>samples = 2<br/>value = [1, 1]<br/>class = negative>, fillcolor="#ffffff"] ;
326 -> 328 ;
329 [label=<entropy = 0.0<br/>samples = 1<br/>value = [1, 0]<br/>class = negative>, fillcolor="#e58139"] ;
328 -> 329 ;
330 [label=<entropy = 0.0<br/>samples = 1<br/>value = [0, 1]<br/>class = positive>, fillcolor="#399de5"] ;
328 -> 330 ;
331 [label=<entropy = 0.0<br/>samples = 1<br/>value = [0, 1]<br/>class = positive>, fillcolor="#399de5"] ;
321 -> 331 ;
332 [label=<entropy = 0.0<br/>samples = 2<br/>value = [0, 2]<br/>class = positive>, fillcolor="#399de5"] ;
320 -> 332 ;
333 [label=<entropy = 0.0<br/>samples = 11<br/>value = [11, 0]<br/>class = negative>, fillcolor="#e58139"] ;
319 -> 333 ;
334 [label=<entropy = 0.0<br/>samples = 2<br/>value = [0, 2]<br/>class = positive>, fillcolor="#399de5"] ;
318 -> 334 ;
335 [label=<entropy = 0.0<br/>samples = 19<br/>value = [19, 0]<br/>class = negative>, fillcolor="#e58139"] ;
317 -> 335 ;
336 [label=<entropy = 0.0<br/>samples = 38<br/>value = [38, 0]<br/>class = negative>, fillcolor="#e58139"] ;
316 -> 336 ;
337 [label=<X<SUB>902</SUB> &le; 0.5<br/>entropy = 0.988<br/>samples = 23<br/>value = [13, 10]<br/>class = negative>, fillcolor="#f9e2d1"] ;
315 -> 337 ;
338 [label=<entropy = 0.0<br/>samples = 8<br/>value = [0, 8]<br/>class = positive>, fillcolor="#399de5"] ;
337 -> 338 ;
339 [label=<X<SUB>298</SUB> &le; 0.5<br/>entropy = 0.567<br/>samples = 15<br/>value = [13, 2]<br/>class = negative>, fillcolor="#e99457"] ;
337 -> 339 ;
340 [label=<entropy = 0.0<br/>samples = 13<br/>value = [13, 0]<br/>class = negative>, fillcolor="#e58139"] ;
339 -> 340 ;
341 [label=<entropy = 0.0<br/>samples = 2<br/>value = [0, 2]<br/>class = positive>, fillcolor="#399de5"] ;
339 -> 341 ;
342 [label=<X<SUB>260</SUB> &le; 0.5<br/>entropy = 0.503<br/>samples = 9<br/>value = [1, 8]<br/>class = positive>, fillcolor="#52a9e8"] ;
314 -> 342 ;
343 [label=<entropy = 0.0<br/>samples = 8<br/>value = [0, 8]<br/>class = positive>, fillcolor="#399de5"] ;
342 -> 343 ;
344 [label=<entropy = 0.0<br/>samples = 1<br/>value = [1, 0]<br/>class = negative>, fillcolor="#e58139"] ;
342 -> 344 ;
345 [label=<entropy = 0.0<br/>samples = 106<br/>value = [106, 0]<br/>class = negative>, fillcolor="#e58139"] ;
313 -> 345 ;
346 [label=<X<SUB>7</SUB> &le; 0.5<br/>entropy = 0.414<br/>samples = 12<br/>value = [1, 11]<br/>class = positive>, fillcolor="#4ba6e7"] ;
312 -> 346 ;
347 [label=<entropy = 0.0<br/>samples = 11<br/>value = [0, 11]<br/>class = positive>, fillcolor="#399de5"] ;
346 -> 347 ;
348 [label=<entropy = 0.0<br/>samples = 1<br/>value = [1, 0]<br/>class = negative>, fillcolor="#e58139"] ;
346 -> 348 ;
349 [label=<X<SUB>15</SUB> &le; 0.5<br/>entropy = 0.881<br/>samples = 983<br/>value = [688, 295]<br/>class = negative>, fillcolor="#f0b78e"] ;
3 -> 349 ;
350 [label=<X<SUB>985</SUB> &le; 0.5<br/>entropy = 0.789<br/>samples = 893<br/>value = [682, 211]<br/>class = negative>, fillcolor="#eda876"] ;
349 -> 350 ;
351 [label=<X<SUB>13</SUB> &le; 0.5<br/>entropy = 0.957<br/>samples = 359<br/>value = [223, 136]<br/>class = negative>, fillcolor="#f5ceb2"] ;
350 -> 351 ;
352 [label=<X<SUB>249</SUB> &le; 0.5<br/>entropy = 1.0<br/>samples = 261<br/>value = [131, 130]<br/>class = negative>, fillcolor="#fffefd"] ;
351 -> 352 ;
353 [label=<X<SUB>497</SUB> &le; 0.5<br/>entropy = 0.391<br/>samples = 52<br/>value = [48, 4]<br/>class = negative>, fillcolor="#e78c49"] ;
352 -> 353 ;
354 [label=<X<SUB>659</SUB> &le; 0.5<br/>entropy = 0.151<br/>samples = 46<br/>value = [45, 1]<br/>class = negative>, fillcolor="#e6843d"] ;
353 -> 354 ;
355 [label=<entropy = 0.0<br/>samples = 42<br/>value = [42, 0]<br/>class = negative>, fillcolor="#e58139"] ;
354 -> 355 ;
356 [label=<X<SUB>859</SUB> &le; 0.5<br/>entropy = 0.811<br/>samples = 4<br/>value = [3, 1]<br/>class = negative>, fillcolor="#eeab7b"] ;
354 -> 356 ;
357 [label=<entropy = 0.0<br/>samples = 1<br/>value = [0, 1]<br/>class = positive>, fillcolor="#399de5"] ;
356 -> 357 ;
358 [label=<entropy = 0.0<br/>samples = 3<br/>value = [3, 0]<br/>class = negative>, fillcolor="#e58139"] ;
356 -> 358 ;
359 [label=<X<SUB>630</SUB> &le; 0.5<br/>entropy = 1.0<br/>samples = 6<br/>value = [3, 3]<br/>class = negative>, fillcolor="#ffffff"] ;
353 -> 359 ;
360 [label=<entropy = 0.0<br/>samples = 3<br/>value = [3, 0]<br/>class = negative>, fillcolor="#e58139"] ;
359 -> 360 ;
361 [label=<entropy = 0.0<br/>samples = 3<br/>value = [0, 3]<br/>class = positive>, fillcolor="#399de5"] ;
359 -> 361 ;
362 [label=<X<SUB>720</SUB> &le; 0.5<br/>entropy = 0.969<br/>samples = 209<br/>value = [83, 126]<br/>class = positive>, fillcolor="#bbdef6"] ;
352 -> 362 ;
363 [label=<X<SUB>962</SUB> &le; 0.5<br/>entropy = 0.935<br/>samples = 194<br/>value = [68, 126]<br/>class = positive>, fillcolor="#a4d2f3"] ;
362 -> 363 ;
364 [label=<X<SUB>784</SUB> &le; 0.5<br/>entropy = 0.886<br/>samples = 181<br/>value = [55, 126]<br/>class = positive>, fillcolor="#8fc8f0"] ;
363 -> 364 ;
365 [label=<X<SUB>660</SUB> &le; 0.5<br/>entropy = 0.831<br/>samples = 171<br/>value = [45, 126]<br/>class = positive>, fillcolor="#80c0ee"] ;
364 -> 365 ;
366 [label=<X<SUB>890</SUB> &le; 0.5<br/>entropy = 0.781<br/>samples = 164<br/>value = [38, 126]<br/>class = positive>, fillcolor="#75bbed"] ;
365 -> 366 ;
367 [label=<X<SUB>320</SUB> &le; 0.5<br/>entropy = 0.727<br/>samples = 158<br/>value = [32, 126]<br/>class = positive>, fillcolor="#6bb6ec"] ;
366 -> 367 ;
368 [label=<X<SUB>490</SUB> &le; 0.5<br/>entropy = 0.672<br/>samples = 153<br/>value = [27, 126]<br/>class = positive>, fillcolor="#63b2eb"] ;
367 -> 368 ;
369 [label=<X<SUB>245</SUB> &le; 0.5<br/>entropy = 0.621<br/>samples = 149<br/>value = [23, 126]<br/>class = positive>, fillcolor="#5dafea"] ;
368 -> 369 ;
370 [label=<X<SUB>202</SUB> &le; 0.5<br/>entropy = 0.56<br/>samples = 145<br/>value = [19, 126]<br/>class = positive>, fillcolor="#57ace9"] ;
369 -> 370 ;
371 [label=<X<SUB>463</SUB> &le; 0.5<br/>entropy = 0.643<br/>samples = 116<br/>value = [19, 97]<br/>class = positive>, fillcolor="#60b0ea"] ;
370 -> 371 ;
372 [label=<X<SUB>820</SUB> &le; 0.5<br/>entropy = 0.568<br/>samples = 112<br/>value = [15, 97]<br/>class = positive>, fillcolor="#58ace9"] ;
371 -> 372 ;
373 [label=<X<SUB>533</SUB> &le; 0.5<br/>entropy = 0.503<br/>samples = 108<br/>value = [12, 96]<br/>class = positive>, fillcolor="#52a9e8"] ;
372 -> 373 ;
374 [label=<X<SUB>110</SUB> &le; 0.5<br/>entropy = 0.425<br/>samples = 104<br/>value = [9, 95]<br/>class = positive>, fillcolor="#4ca6e7"] ;
373 -> 374 ;
375 [label=<X<SUB>975</SUB> &le; 0.5<br/>entropy = 0.361<br/>samples = 102<br/>value = [7, 95]<br/>class = positive>, fillcolor="#48a4e7"] ;
374 -> 375 ;
376 [label=<entropy = 0.0<br/>samples = 37<br/>value = [0, 37]<br/>class = positive>, fillcolor="#399de5"] ;
375 -> 376 ;
377 [label=<X<SUB>6</SUB> &le; 0.5<br/>entropy = 0.493<br/>samples = 65<br/>value = [7, 58]<br/>class = positive>, fillcolor="#51a9e8"] ;
375 -> 377 ;
378 [label=<X<SUB>563</SUB> &le; 0.5<br/>entropy = 0.4<br/>samples = 63<br/>value = [5, 58]<br/>class = positive>, fillcolor="#4aa5e7"] ;
377 -> 378 ;
379 [label=<X<SUB>129</SUB> &le; 0.5<br/>entropy = 0.345<br/>samples = 62<br/>value = [4, 58]<br/>class = positive>, fillcolor="#47a4e7"] ;
378 -> 379 ;
380 [label=<X<SUB>629</SUB> &le; 0.5<br/>entropy = 0.283<br/>samples = 61<br/>value = [3, 58]<br/>class = positive>, fillcolor="#43a2e6"] ;
379 -> 380 ;
381 [label=<X<SUB>609</SUB> &le; 0.5<br/>entropy = 0.211<br/>samples = 60<br/>value = [2, 58]<br/>class = positive>, fillcolor="#40a0e6"] ;
380 -> 381 ;
382 [label=<X<SUB>180</SUB> &le; 0.5<br/>entropy = 0.124<br/>samples = 59<br/>value = [1, 58]<br/>class = positive>, fillcolor="#3c9fe5"] ;
381 -> 382 ;
383 [label=<entropy = 0.0<br/>samples = 55<br/>value = [0, 55]<br/>class = positive>, fillcolor="#399de5"] ;
382 -> 383 ;
384 [label=<X<SUB>208</SUB> &le; 0.5<br/>entropy = 0.811<br/>samples = 4<br/>value = [1, 3]<br/>class = positive>, fillcolor="#7bbeee"] ;
382 -> 384 ;
385 [label=<entropy = 0.0<br/>samples = 1<br/>value = [1, 0]<br/>class = negative>, fillcolor="#e58139"] ;
384 -> 385 ;
386 [label=<entropy = 0.0<br/>samples = 3<br/>value = [0, 3]<br/>class = positive>, fillcolor="#399de5"] ;
384 -> 386 ;
387 [label=<entropy = 0.0<br/>samples = 1<br/>value = [1, 0]<br/>class = negative>, fillcolor="#e58139"] ;
381 -> 387 ;
388 [label=<entropy = 0.0<br/>samples = 1<br/>value = [1, 0]<br/>class = negative>, fillcolor="#e58139"] ;
380 -> 388 ;
389 [label=<entropy = 0.0<br/>samples = 1<br/>value = [1, 0]<br/>class = negative>, fillcolor="#e58139"] ;
379 -> 389 ;
390 [label=<entropy = 0.0<br/>samples = 1<br/>value = [1, 0]<br/>class = negative>, fillcolor="#e58139"] ;
378 -> 390 ;
391 [label=<entropy = 0.0<br/>samples = 2<br/>value = [2, 0]<br/>class = negative>, fillcolor="#e58139"] ;
377 -> 391 ;
392 [label=<entropy = 0.0<br/>samples = 2<br/>value = [2, 0]<br/>class = negative>, fillcolor="#e58139"] ;
374 -> 392 ;
393 [label=<X<SUB>586</SUB> &le; 0.5<br/>entropy = 0.811<br/>samples = 4<br/>value = [3, 1]<br/>class = negative>, fillcolor="#eeab7b"] ;
373 -> 393 ;
394 [label=<entropy = 0.0<br/>samples = 3<br/>value = [3, 0]<br/>class = negative>, fillcolor="#e58139"] ;
393 -> 394 ;
395 [label=<entropy = 0.0<br/>samples = 1<br/>value = [0, 1]<br/>class = positive>, fillcolor="#399de5"] ;
393 -> 395 ;
396 [label=<entropy = 0.811<br/>samples = 4<br/>value = [3, 1]<br/>class = negative>, fillcolor="#eeab7b"] ;
372 -> 396 ;
397 [label=<entropy = 0.0<br/>samples = 4<br/>value = [4, 0]<br/>class = negative>, fillcolor="#e58139"] ;
371 -> 397 ;
398 [label=<entropy = 0.0<br/>samples = 29<br/>value = [0, 29]<br/>class = positive>, fillcolor="#399de5"] ;
370 -> 398 ;
399 [label=<entropy = 0.0<br/>samples = 4<br/>value = [4, 0]<br/>class = negative>, fillcolor="#e58139"] ;
369 -> 399 ;
400 [label=<entropy = 0.0<br/>samples = 4<br/>value = [4, 0]<br/>class = negative>, fillcolor="#e58139"] ;
368 -> 400 ;
401 [label=<entropy = 0.0<br/>samples = 5<br/>value = [5, 0]<br/>class = negative>, fillcolor="#e58139"] ;
367 -> 401 ;
402 [label=<entropy = 0.0<br/>samples = 6<br/>value = [6, 0]<br/>class = negative>, fillcolor="#e58139"] ;
366 -> 402 ;
403 [label=<entropy = 0.0<br/>samples = 7<br/>value = [7, 0]<br/>class = negative>, fillcolor="#e58139"] ;
365 -> 403 ;
404 [label=<entropy = 0.0<br/>samples = 10<br/>value = [10, 0]<br/>class = negative>, fillcolor="#e58139"] ;
364 -> 404 ;
405 [label=<entropy = 0.0<br/>samples = 13<br/>value = [13, 0]<br/>class = negative>, fillcolor="#e58139"] ;
363 -> 405 ;
406 [label=<entropy = 0.0<br/>samples = 15<br/>value = [15, 0]<br/>class = negative>, fillcolor="#e58139"] ;
362 -> 406 ;
407 [label=<X<SUB>391</SUB> &le; 0.5<br/>entropy = 0.332<br/>samples = 98<br/>value = [92, 6]<br/>class = negative>, fillcolor="#e78946"] ;
351 -> 407 ;
408 [label=<X<SUB>322</SUB> &le; 0.5<br/>entropy = 0.165<br/>samples = 82<br/>value = [80, 2]<br/>class = negative>, fillcolor="#e6843e"] ;
407 -> 408 ;
409 [label=<entropy = 0.0<br/>samples = 71<br/>value = [71, 0]<br/>class = negative>, fillcolor="#e58139"] ;
408 -> 409 ;
410 [label=<X<SUB>172</SUB> &le; 0.5<br/>entropy = 0.684<br/>samples = 11<br/>value = [9, 2]<br/>class = negative>, fillcolor="#eb9d65"] ;
408 -> 410 ;
411 [label=<entropy = 0.0<br/>samples = 9<br/>value = [9, 0]<br/>class = negative>, fillcolor="#e58139"] ;
410 -> 411 ;
412 [label=<entropy = 0.0<br/>samples = 2<br/>value = [0, 2]<br/>class = positive>, fillcolor="#399de5"] ;
410 -> 412 ;
413 [label=<X<SUB>100</SUB> &le; 0.5<br/>entropy = 0.811<br/>samples = 16<br/>value = [12, 4]<br/>class = negative>, fillcolor="#eeab7b"] ;
407 -> 413 ;
414 [label=<entropy = 0.0<br/>samples = 12<br/>value = [12, 0]<br/>class = negative>, fillcolor="#e58139"] ;
413 -> 414 ;
415 [label=<entropy = 0.0<br/>samples = 4<br/>value = [0, 4]<br/>class = positive>, fillcolor="#399de5"] ;
413 -> 415 ;
416 [label=<X<SUB>427</SUB> &le; 0.5<br/>entropy = 0.585<br/>samples = 534<br/>value = [459, 75]<br/>class = negative>, fillcolor="#e99659"] ;
350 -> 416 ;
417 [label=<X<SUB>853</SUB> &le; 0.5<br/>entropy = 0.519<br/>samples = 515<br/>value = [455, 60]<br/>class = negative>, fillcolor="#e89253"] ;
416 -> 417 ;
418 [label=<X<SUB>952</SUB> &le; 0.5<br/>entropy = 0.446<br/>samples = 495<br/>value = [449, 46]<br/>class = negative>, fillcolor="#e88e4d"] ;
417 -> 418 ;
419 [label=<X<SUB>373</SUB> &le; 0.5<br/>entropy = 0.384<br/>samples = 481<br/>value = [445, 36]<br/>class = negative>, fillcolor="#e78b49"] ;
418 -> 419 ;
420 [label=<X<SUB>40</SUB> &le; 0.5<br/>entropy = 0.45<br/>samples = 382<br/>value = [346, 36]<br/>class = negative>, fillcolor="#e88e4e"] ;
419 -> 420 ;
421 [label=<X<SUB>203</SUB> &le; 0.5<br/>entropy = 0.574<br/>samples = 250<br/>value = [216, 34]<br/>class = negative>, fillcolor="#e99558"] ;
420 -> 421 ;
422 [label=<X<SUB>186</SUB> &le; 0.5<br/>entropy = 0.441<br/>samples = 197<br/>value = [179, 18]<br/>class = negative>, fillcolor="#e88e4d"] ;
421 -> 422 ;
423 [label=<X<SUB>178</SUB> &le; 0.5<br/>entropy = 0.409<br/>samples = 195<br/>value = [179, 16]<br/>class = negative>, fillcolor="#e78c4b"] ;
422 -> 423 ;
424 [label=<X<SUB>437</SUB> &le; 0.5<br/>entropy = 0.558<br/>samples = 123<br/>value = [107, 16]<br/>class = negative>, fillcolor="#e99457"] ;
423 -> 424 ;
425 [label=<X<SUB>702</SUB> &le; 0.5<br/>entropy = 0.671<br/>samples = 91<br/>value = [75, 16]<br/>class = negative>, fillcolor="#eb9c63"] ;
424 -> 425 ;
426 [label=<X<SUB>92</SUB> &le; 0.5<br/>entropy = 0.898<br/>samples = 35<br/>value = [24, 11]<br/>class = negative>, fillcolor="#f1bb94"] ;
425 -> 426 ;
427 [label=<X<SUB>78</SUB> &le; 0.5<br/>entropy = 0.619<br/>samples = 26<br/>value = [22, 4]<br/>class = negative>, fillcolor="#ea985d"] ;
426 -> 427 ;
428 [label=<X<SUB>556</SUB> &le; 0.5<br/>entropy = 0.414<br/>samples = 24<br/>value = [22, 2]<br/>class = negative>, fillcolor="#e78c4b"] ;
427 -> 428 ;
429 [label=<X<SUB>934</SUB> &le; 0.5<br/>entropy = 0.258<br/>samples = 23<br/>value = [22, 1]<br/>class = negative>, fillcolor="#e68742"] ;
428 -> 429 ;
430 [label=<entropy = 0.0<br/>samples = 14<br/>value = [14, 0]<br/>class = negative>, fillcolor="#e58139"] ;
429 -> 430 ;
431 [label=<entropy = 0.503<br/>samples = 9<br/>value = [8, 1]<br/>class = negative>, fillcolor="#e89152"] ;
429 -> 431 ;
432 [label=<entropy = 0.0<br/>samples = 1<br/>value = [0, 1]<br/>class = positive>, fillcolor="#399de5"] ;
428 -> 432 ;
433 [label=<entropy = 0.0<br/>samples = 2<br/>value = [0, 2]<br/>class = positive>, fillcolor="#399de5"] ;
427 -> 433 ;
434 [label=<X<SUB>202</SUB> &le; 0.5<br/>entropy = 0.764<br/>samples = 9<br/>value = [2, 7]<br/>class = positive>, fillcolor="#72b9ec"] ;
426 -> 434 ;
435 [label=<entropy = 0.0<br/>samples = 6<br/>value = [0, 6]<br/>class = positive>, fillcolor="#399de5"] ;
434 -> 435 ;
436 [label=<X<SUB>932</SUB> &le; 0.5<br/>entropy = 0.918<br/>samples = 3<br/>value = [2, 1]<br/>class = negative>, fillcolor="#f2c09c"] ;
434 -> 436 ;
437 [label=<entropy = 0.0<br/>samples = 2<br/>value = [2, 0]<br/>class = negative>, fillcolor="#e58139"] ;
436 -> 437 ;
438 [label=<entropy = 0.0<br/>samples = 1<br/>value = [0, 1]<br/>class = positive>, fillcolor="#399de5"] ;
436 -> 438 ;
439 [label=<X<SUB>728</SUB> &le; 0.5<br/>entropy = 0.434<br/>samples = 56<br/>value = [51, 5]<br/>class = negative>, fillcolor="#e88d4c"] ;
425 -> 439 ;
440 [label=<X<SUB>738</SUB> &le; 0.5<br/>entropy = 0.149<br/>samples = 47<br/>value = [46, 1]<br/>class = negative>, fillcolor="#e6843d"] ;
439 -> 440 ;
441 [label=<entropy = 0.0<br/>samples = 34<br/>value = [34, 0]<br/>class = negative>, fillcolor="#e58139"] ;
440 -> 441 ;
442 [label=<X<SUB>142</SUB> &le; 0.5<br/>entropy = 0.391<br/>samples = 13<br/>value = [12, 1]<br/>class = negative>, fillcolor="#e78c49"] ;
440 -> 442 ;
443 [label=<X<SUB>618</SUB> &le; 0.5<br/>entropy = 1.0<br/>samples = 2<br/>value = [1, 1]<br/>class = negative>, fillcolor="#ffffff"] ;
442 -> 443 ;
444 [label=<entropy = 0.0<br/>samples = 1<br/>value = [0, 1]<br/>class = positive>, fillcolor="#399de5"] ;
443 -> 444 ;
445 [label=<entropy = 0.0<br/>samples = 1<br/>value = [1, 0]<br/>class = negative>, fillcolor="#e58139"] ;
443 -> 445 ;
446 [label=<entropy = 0.0<br/>samples = 11<br/>value = [11, 0]<br/>class = negative>, fillcolor="#e58139"] ;
442 -> 446 ;
447 [label=<X<SUB>101</SUB> &le; 0.5<br/>entropy = 0.991<br/>samples = 9<br/>value = [5, 4]<br/>class = negative>, fillcolor="#fae6d7"] ;
439 -> 447 ;
448 [label=<entropy = 0.0<br/>samples = 4<br/>value = [4, 0]<br/>class = negative>, fillcolor="#e58139"] ;
447 -> 448 ;
449 [label=<X<SUB>9</SUB> &le; 0.5<br/>entropy = 0.722<br/>samples = 5<br/>value = [1, 4]<br/>class = positive>, fillcolor="#6ab6ec"] ;
447 -> 449 ;
450 [label=<entropy = 0.0<br/>samples = 4<br/>value = [0, 4]<br/>class = positive>, fillcolor="#399de5"] ;
449 -> 450 ;
451 [label=<entropy = 0.0<br/>samples = 1<br/>value = [1, 0]<br/>class = negative>, fillcolor="#e58139"] ;
449 -> 451 ;
452 [label=<entropy = 0.0<br/>samples = 32<br/>value = [32, 0]<br/>class = negative>, fillcolor="#e58139"] ;
424 -> 452 ;
453 [label=<entropy = 0.0<br/>samples = 72<br/>value = [72, 0]<br/>class = negative>, fillcolor="#e58139"] ;
423 -> 453 ;
454 [label=<entropy = 0.0<br/>samples = 2<br/>value = [0, 2]<br/>class = positive>, fillcolor="#399de5"] ;
422 -> 454 ;
455 [label=<X<SUB>524</SUB> &le; 0.5<br/>entropy = 0.884<br/>samples = 53<br/>value = [37, 16]<br/>class = negative>, fillcolor="#f0b78f"] ;
421 -> 455 ;
456 [label=<X<SUB>918</SUB> &le; 0.5<br/>entropy = 1.0<br/>samples = 32<br/>value = [16, 16]<br/>class = negative>, fillcolor="#ffffff"] ;
455 -> 456 ;
457 [label=<X<SUB>934</SUB> &le; 0.5<br/>entropy = 0.961<br/>samples = 26<br/>value = [10, 16]<br/>class = positive>, fillcolor="#b5daf5"] ;
456 -> 457 ;
458 [label=<X<SUB>569</SUB> &le; 0.5<br/>entropy = 0.544<br/>samples = 8<br/>value = [7, 1]<br/>class = negative>, fillcolor="#e99355"] ;
457 -> 458 ;
459 [label=<entropy = 0.0<br/>samples = 6<br/>value = [6, 0]<br/>class = negative>, fillcolor="#e58139"] ;
458 -> 459 ;
460 [label=<X<SUB>447</SUB> &le; 0.5<br/>entropy = 1.0<br/>samples = 2<br/>value = [1, 1]<br/>class = negative>, fillcolor="#ffffff"] ;
458 -> 460 ;
461 [label=<entropy = 0.0<br/>samples = 1<br/>value = [0, 1]<br/>class = positive>, fillcolor="#399de5"] ;
460 -> 461 ;
462 [label=<entropy = 0.0<br/>samples = 1<br/>value = [1, 0]<br/>class = negative>, fillcolor="#e58139"] ;
460 -> 462 ;
463 [label=<X<SUB>664</SUB> &le; 0.5<br/>entropy = 0.65<br/>samples = 18<br/>value = [3, 15]<br/>class = positive>, fillcolor="#61b1ea"] ;
457 -> 463 ;
464 [label=<entropy = 0.0<br/>samples = 15<br/>value = [0, 15]<br/>class = positive>, fillcolor="#399de5"] ;
463 -> 464 ;
465 [label=<entropy = 0.0<br/>samples = 3<br/>value = [3, 0]<br/>class = negative>, fillcolor="#e58139"] ;
463 -> 465 ;
466 [label=<entropy = 0.0<br/>samples = 6<br/>value = [6, 0]<br/>class = negative>, fillcolor="#e58139"] ;
456 -> 466 ;
467 [label=<entropy = 0.0<br/>samples = 21<br/>value = [21, 0]<br/>class = negative>, fillcolor="#e58139"] ;
455 -> 467 ;
468 [label=<X<SUB>114</SUB> &le; 0.5<br/>entropy = 0.113<br/>samples = 132<br/>value = [130, 2]<br/>class = negative>, fillcolor="#e5833c"] ;
420 -> 468 ;
469 [label=<entropy = 0.0<br/>samples = 125<br/>value = [125, 0]<br/>class = negative>, fillcolor="#e58139"] ;
468 -> 469 ;
470 [label=<X<SUB>958</SUB> &le; 0.5<br/>entropy = 0.863<br/>samples = 7<br/>value = [5, 2]<br/>class = negative>, fillcolor="#efb388"] ;
468 -> 470 ;
471 [label=<entropy = 0.0<br/>samples = 2<br/>value = [0, 2]<br/>class = positive>, fillcolor="#399de5"] ;
470 -> 471 ;
472 [label=<entropy = 0.0<br/>samples = 5<br/>value = [5, 0]<br/>class = negative>, fillcolor="#e58139"] ;
470 -> 472 ;
473 [label=<entropy = 0.0<br/>samples = 99<br/>value = [99, 0]<br/>class = negative>, fillcolor="#e58139"] ;
419 -> 473 ;
474 [label=<X<SUB>631</SUB> &le; 0.5<br/>entropy = 0.863<br/>samples = 14<br/>value = [4, 10]<br/>class = positive>, fillcolor="#88c4ef"] ;
418 -> 474 ;
475 [label=<entropy = 0.0<br/>samples = 4<br/>value = [4, 0]<br/>class = negative>, fillcolor="#e58139"] ;
474 -> 475 ;
476 [label=<entropy = 0.0<br/>samples = 10<br/>value = [0, 10]<br/>class = positive>, fillcolor="#399de5"] ;
474 -> 476 ;
477 [label=<X<SUB>131</SUB> &le; 0.5<br/>entropy = 0.881<br/>samples = 20<br/>value = [6, 14]<br/>class = positive>, fillcolor="#8ec7f0"] ;
417 -> 477 ;
478 [label=<entropy = 0.0<br/>samples = 5<br/>value = [5, 0]<br/>class = negative>, fillcolor="#e58139"] ;
477 -> 478 ;
479 [label=<X<SUB>604</SUB> &le; 0.5<br/>entropy = 0.353<br/>samples = 15<br/>value = [1, 14]<br/>class = positive>, fillcolor="#47a4e7"] ;
477 -> 479 ;
480 [label=<entropy = 0.0<br/>samples = 14<br/>value = [0, 14]<br/>class = positive>, fillcolor="#399de5"] ;
479 -> 480 ;
481 [label=<entropy = 0.0<br/>samples = 1<br/>value = [1, 0]<br/>class = negative>, fillcolor="#e58139"] ;
479 -> 481 ;
482 [label=<X<SUB>971</SUB> &le; 0.5<br/>entropy = 0.742<br/>samples = 19<br/>value = [4, 15]<br/>class = positive>, fillcolor="#6eb7ec"] ;
416 -> 482 ;
483 [label=<entropy = 0.0<br/>samples = 3<br/>value = [3, 0]<br/>class = negative>, fillcolor="#e58139"] ;
482 -> 483 ;
484 [label=<X<SUB>110</SUB> &le; 0.5<br/>entropy = 0.337<br/>samples = 16<br/>value = [1, 15]<br/>class = positive>, fillcolor="#46a4e7"] ;
482 -> 484 ;
485 [label=<entropy = 0.0<br/>samples = 15<br/>value = [0, 15]<br/>class = positive>, fillcolor="#399de5"] ;
484 -> 485 ;
486 [label=<entropy = 0.0<br/>samples = 1<br/>value = [1, 0]<br/>class = negative>, fillcolor="#e58139"] ;
484 -> 486 ;
487 [label=<X<SUB>985</SUB> &le; 0.5<br/>entropy = 0.353<br/>samples = 90<br/>value = [6, 84]<br/>class = positive>, fillcolor="#47a4e7"] ;
349 -> 487 ;
488 [label=<entropy = 0.0<br/>samples = 3<br/>value = [3, 0]<br/>class = negative>, fillcolor="#e58139"] ;
487 -> 488 ;
489 [label=<X<SUB>347</SUB> &le; 0.5<br/>entropy = 0.216<br/>samples = 87<br/>value = [3, 84]<br/>class = positive>, fillcolor="#40a0e6"] ;
487 -> 489 ;
490 [label=<X<SUB>225</SUB> &le; 0.5<br/>entropy = 0.092<br/>samples = 85<br/>value = [1, 84]<br/>class = positive>, fillcolor="#3b9ee5"] ;
489 -> 490 ;
491 [label=<entropy = 0.0<br/>samples = 84<br/>value = [0, 84]<br/>class = positive>, fillcolor="#399de5"] ;
490 -> 491 ;
492 [label=<entropy = 0.0<br/>samples = 1<br/>value = [1, 0]<br/>class = negative>, fillcolor="#e58139"] ;
490 -> 492 ;
493 [label=<entropy = 0.0<br/>samples = 2<br/>value = [2, 0]<br/>class = negative>, fillcolor="#e58139"] ;
489 -> 493 ;
494 [label=<X<SUB>557</SUB> &le; 0.5<br/>entropy = 0.926<br/>samples = 2591<br/>value = [1706, 885]<br/>class = negative>, fillcolor="#f2c2a0"] ;
2 -> 494 ;
495 [label=<X<SUB>728</SUB> &le; 0.5<br/>entropy = 0.976<br/>samples = 2051<br/>value = [1212, 839]<br/>class = negative>, fillcolor="#f7d8c2"] ;
494 -> 495 ;
496 [label=<X<SUB>394</SUB> &le; 0.5<br/>entropy = 0.883<br/>samples = 1215<br/>value = [849, 366]<br/>class = negative>, fillcolor="#f0b78e"] ;
495 -> 496 ;
497 [label=<X<SUB>496</SUB> &le; 0.5<br/>entropy = 0.945<br/>samples = 966<br/>value = [616, 350]<br/>class = negative>, fillcolor="#f4c9aa"] ;
496 -> 497 ;
498 [label=<X<SUB>838</SUB> &le; 0.5<br/>entropy = 0.973<br/>samples = 863<br/>value = [514, 349]<br/>class = negative>, fillcolor="#f7d7bf"] ;
497 -> 498 ;
499 [label=<X<SUB>320</SUB> &le; 0.5<br/>entropy = 0.989<br/>samples = 781<br/>value = [438, 343]<br/>class = negative>, fillcolor="#f9e4d4"] ;
498 -> 499 ;
500 [label=<X<SUB>553</SUB> &le; 0.5<br/>entropy = 0.997<br/>samples = 730<br/>value = [389, 341]<br/>class = negative>, fillcolor="#fcefe7"] ;
499 -> 500 ;
501 [label=<X<SUB>63</SUB> &le; 0.5<br/>entropy = 1.0<br/>samples = 690<br/>value = [350, 340]<br/>class = negative>, fillcolor="#fefbf9"] ;
500 -> 501 ;
502 [label=<X<SUB>60</SUB> &le; 0.5<br/>entropy = 0.999<br/>samples = 654<br/>value = [315, 339]<br/>class = positive>, fillcolor="#f1f8fd"] ;
501 -> 502 ;
503 [label=<X<SUB>505</SUB> &le; 0.5<br/>entropy = 0.993<br/>samples = 611<br/>value = [275, 336]<br/>class = positive>, fillcolor="#dbedfa"] ;
502 -> 503 ;
504 [label=<X<SUB>112</SUB> &le; 0.5<br/>entropy = 0.983<br/>samples = 583<br/>value = [247, 336]<br/>class = positive>, fillcolor="#cbe5f8"] ;
503 -> 504 ;
505 [label=<X<SUB>393</SUB> &le; 0.5<br/>entropy = 0.969<br/>samples = 555<br/>value = [220, 335]<br/>class = positive>, fillcolor="#bbddf6"] ;
504 -> 505 ;
506 [label=<X<SUB>765</SUB> &le; 0.5<br/>entropy = 0.993<br/>samples = 455<br/>value = [205, 250]<br/>class = positive>, fillcolor="#dbedfa"] ;
505 -> 506 ;
507 [label=<X<SUB>549</SUB> &le; 0.5<br/>entropy = 0.999<br/>samples = 425<br/>value = [205, 220]<br/>class = positive>, fillcolor="#f2f8fd"] ;
506 -> 507 ;
508 [label=<X<SUB>560</SUB> &le; 0.5<br/>entropy = 0.992<br/>samples = 397<br/>value = [177, 220]<br/>class = positive>, fillcolor="#d8ecfa"] ;
507 -> 508 ;
509 [label=<X<SUB>376</SUB> &le; 0.5<br/>entropy = 0.942<br/>samples = 317<br/>value = [114, 203]<br/>class = positive>, fillcolor="#a8d4f4"] ;
508 -> 509 ;
510 [label=<X<SUB>914</SUB> &le; 0.5<br/>entropy = 0.793<br/>samples = 201<br/>value = [48, 153]<br/>class = positive>, fillcolor="#77bced"] ;
509 -> 510 ;
511 [label=<X<SUB>486</SUB> &le; 0.5<br/>entropy = 0.713<br/>samples = 189<br/>value = [37, 152]<br/>class = positive>, fillcolor="#69b5eb"] ;
510 -> 511 ;
512 [label=<X<SUB>204</SUB> &le; 0.5<br/>entropy = 0.637<br/>samples = 180<br/>value = [29, 151]<br/>class = positive>, fillcolor="#5fb0ea"] ;
511 -> 512 ;
513 [label=<X<SUB>754</SUB> &le; 0.5<br/>entropy = 0.563<br/>samples = 174<br/>value = [23, 151]<br/>class = positive>, fillcolor="#57ace9"] ;
512 -> 513 ;
514 [label=<X<SUB>950</SUB> &le; 0.5<br/>entropy = 0.755<br/>samples = 106<br/>value = [23, 83]<br/>class = positive>, fillcolor="#70b8ec"] ;
513 -> 514 ;
515 [label=<X<SUB>786</SUB> &le; 0.5<br/>entropy = 0.676<br/>samples = 101<br/>value = [18, 83]<br/>class = positive>, fillcolor="#64b2eb"] ;
514 -> 515 ;
516 [label=<X<SUB>790</SUB> &le; 0.5<br/>entropy = 0.572<br/>samples = 96<br/>value = [13, 83]<br/>class = positive>, fillcolor="#58ace9"] ;
515 -> 516 ;
517 [label=<X<SUB>602</SUB> &le; 0.5<br/>entropy = 0.368<br/>samples = 85<br/>value = [6, 79]<br/>class = positive>, fillcolor="#48a4e7"] ;
516 -> 517 ;
518 [label=<X<SUB>119</SUB> &le; 0.5<br/>entropy = 0.567<br/>samples = 45<br/>value = [6, 39]<br/>class = positive>, fillcolor="#57ace9"] ;
517 -> 518 ;
519 [label=<X<SUB>131</SUB> &le; 0.5<br/>entropy = 0.378<br/>samples = 41<br/>value = [3, 38]<br/>class = positive>, fillcolor="#49a5e7"] ;
518 -> 519 ;
520 [label=<entropy = 0.0<br/>samples = 31<br/>value = [0, 31]<br/>class = positive>, fillcolor="#399de5"] ;
519 -> 520 ;
521 [label=<X<SUB>455</SUB> &le; 0.5<br/>entropy = 0.881<br/>samples = 10<br/>value = [3, 7]<br/>class = positive>, fillcolor="#8ec7f0"] ;
519 -> 521 ;
522 [label=<entropy = 0.544<br/>samples = 8<br/>value = [1, 7]<br/>class = positive>, fillcolor="#55abe9"] ;
521 -> 522 ;
523 [label=<entropy = 0.0<br/>samples = 2<br/>value = [2, 0]<br/>class = negative>, fillcolor="#e58139"] ;
521 -> 523 ;
524 [label=<X<SUB>470</SUB> &le; 0.5<br/>entropy = 0.811<br/>samples = 4<br/>value = [3, 1]<br/>class = negative>, fillcolor="#eeab7b"] ;
518 -> 524 ;
525 [label=<entropy = 0.0<br/>samples = 3<br/>value = [3, 0]<br/>class = negative>, fillcolor="#e58139"] ;
524 -> 525 ;
526 [label=<entropy = 0.0<br/>samples = 1<br/>value = [0, 1]<br/>class = positive>, fillcolor="#399de5"] ;
524 -> 526 ;
527 [label=<entropy = 0.0<br/>samples = 40<br/>value = [0, 40]<br/>class = positive>, fillcolor="#399de5"] ;
517 -> 527 ;
528 [label=<X<SUB>424</SUB> &le; 0.5<br/>entropy = 0.946<br/>samples = 11<br/>value = [7, 4]<br/>class = negative>, fillcolor="#f4c9aa"] ;
516 -> 528 ;
529 [label=<entropy = 0.0<br/>samples = 7<br/>value = [7, 0]<br/>class = negative>, fillcolor="#e58139"] ;
528 -> 529 ;
530 [label=<entropy = 0.0<br/>samples = 4<br/>value = [0, 4]<br/>class = positive>, fillcolor="#399de5"] ;
528 -> 530 ;
531 [label=<entropy = 0.0<br/>samples = 5<br/>value = [5, 0]<br/>class = negative>, fillcolor="#e58139"] ;
515 -> 531 ;
532 [label=<entropy = 0.0<br/>samples = 5<br/>value = [5, 0]<br/>class = negative>, fillcolor="#e58139"] ;
514 -> 532 ;
533 [label=<entropy = 0.0<br/>samples = 68<br/>value = [0, 68]<br/>class = positive>, fillcolor="#399de5"] ;
513 -> 533 ;
534 [label=<entropy = 0.0<br/>samples = 6<br/>value = [6, 0]<br/>class = negative>, fillcolor="#e58139"] ;
512 -> 534 ;
535 [label=<X<SUB>29</SUB> &le; 0.5<br/>entropy = 0.503<br/>samples = 9<br/>value = [8, 1]<br/>class = negative>, fillcolor="#e89152"] ;
511 -> 535 ;
536 [label=<entropy = 0.0<br/>samples = 8<br/>value = [8, 0]<br/>class = negative>, fillcolor="#e58139"] ;
535 -> 536 ;
537 [label=<entropy = 0.0<br/>samples = 1<br/>value = [0, 1]<br/>class = positive>, fillcolor="#399de5"] ;
535 -> 537 ;
538 [label=<X<SUB>974</SUB> &le; 0.5<br/>entropy = 0.414<br/>samples = 12<br/>value = [11, 1]<br/>class = negative>, fillcolor="#e78c4b"] ;
510 -> 538 ;
539 [label=<entropy = 0.0<br/>samples = 11<br/>value = [11, 0]<br/>class = negative>, fillcolor="#e58139"] ;
538 -> 539 ;
540 [label=<entropy = 0.0<br/>samples = 1<br/>value = [0, 1]<br/>class = positive>, fillcolor="#399de5"] ;
538 -> 540 ;
541 [label=<X<SUB>995</SUB> &le; 0.5<br/>entropy = 0.986<br/>samples = 116<br/>value = [66, 50]<br/>class = negative>, fillcolor="#f9e0cf"] ;
509 -> 541 ;
542 [label=<entropy = 0.0<br/>samples = 19<br/>value = [19, 0]<br/>class = negative>, fillcolor="#e58139"] ;
541 -> 542 ;
543 [label=<X<SUB>924</SUB> &le; 0.5<br/>entropy = 0.999<br/>samples = 97<br/>value = [47, 50]<br/>class = positive>, fillcolor="#f3f9fd"] ;
541 -> 543 ;
544 [label=<X<SUB>683</SUB> &le; 0.5<br/>entropy = 0.977<br/>samples = 78<br/>value = [46, 32]<br/>class = negative>, fillcolor="#f7d9c3"] ;
543 -> 544 ;
545 [label=<entropy = 0.0<br/>samples = 11<br/>value = [11, 0]<br/>class = negative>, fillcolor="#e58139"] ;
544 -> 545 ;
546 [label=<X<SUB>164</SUB> &le; 0.5<br/>entropy = 0.999<br/>samples = 67<br/>value = [35, 32]<br/>class = negative>, fillcolor="#fdf4ee"] ;
544 -> 546 ;
547 [label=<X<SUB>997</SUB> &le; 0.5<br/>entropy = 0.992<br/>samples = 58<br/>value = [26, 32]<br/>class = positive>, fillcolor="#daedfa"] ;
546 -> 547 ;
548 [label=<X<SUB>985</SUB> &le; 0.5<br/>entropy = 0.792<br/>samples = 21<br/>value = [16, 5]<br/>class = negative>, fillcolor="#eda877"] ;
547 -> 548 ;
549 [label=<X<SUB>881</SUB> &le; 0.5<br/>entropy = 0.863<br/>samples = 7<br/>value = [2, 5]<br/>class = positive>, fillcolor="#88c4ef"] ;
548 -> 549 ;
550 [label=<entropy = 0.0<br/>samples = 5<br/>value = [0, 5]<br/>class = positive>, fillcolor="#399de5"] ;
549 -> 550 ;
551 [label=<entropy = 0.0<br/>samples = 2<br/>value = [2, 0]<br/>class = negative>, fillcolor="#e58139"] ;
549 -> 551 ;
552 [label=<entropy = 0.0<br/>samples = 14<br/>value = [14, 0]<br/>class = negative>, fillcolor="#e58139"] ;
548 -> 552 ;
553 [label=<X<SUB>918</SUB> &le; 0.5<br/>entropy = 0.842<br/>samples = 37<br/>value = [10, 27]<br/>class = positive>, fillcolor="#82c1ef"] ;
547 -> 553 ;
554 [label=<X<SUB>321</SUB> &le; 0.5<br/>entropy = 0.734<br/>samples = 34<br/>value = [7, 27]<br/>class = positive>, fillcolor="#6cb6ec"] ;
553 -> 554 ;
555 [label=<X<SUB>375</SUB> &le; 0.5<br/>entropy = 0.48<br/>samples = 29<br/>value = [3, 26]<br/>class = positive>, fillcolor="#50a8e8"] ;
554 -> 555 ;
556 [label=<X<SUB>387</SUB> &le; 0.5<br/>entropy = 0.235<br/>samples = 26<br/>value = [1, 25]<br/>class = positive>, fillcolor="#41a1e6"] ;
555 -> 556 ;
557 [label=<entropy = 0.0<br/>samples = 25<br/>value = [0, 25]<br/>class = positive>, fillcolor="#399de5"] ;
556 -> 557 ;
558 [label=<entropy = 0.0<br/>samples = 1<br/>value = [1, 0]<br/>class = negative>, fillcolor="#e58139"] ;
556 -> 558 ;
559 [label=<X<SUB>207</SUB> &le; 0.5<br/>entropy = 0.918<br/>samples = 3<br/>value = [2, 1]<br/>class = negative>, fillcolor="#f2c09c"] ;
555 -> 559 ;
560 [label=<entropy = 0.0<br/>samples = 2<br/>value = [2, 0]<br/>class = negative>, fillcolor="#e58139"] ;
559 -> 560 ;
561 [label=<entropy = 0.0<br/>samples = 1<br/>value = [0, 1]<br/>class = positive>, fillcolor="#399de5"] ;
559 -> 561 ;
562 [label=<X<SUB>40</SUB> &le; 0.5<br/>entropy = 0.722<br/>samples = 5<br/>value = [4, 1]<br/>class = negative>, fillcolor="#eca06a"] ;
554 -> 562 ;
563 [label=<entropy = 0.0<br/>samples = 4<br/>value = [4, 0]<br/>class = negative>, fillcolor="#e58139"] ;
562 -> 563 ;
564 [label=<entropy = 0.0<br/>samples = 1<br/>value = [0, 1]<br/>class = positive>, fillcolor="#399de5"] ;
562 -> 564 ;
565 [label=<entropy = 0.0<br/>samples = 3<br/>value = [3, 0]<br/>class = negative>, fillcolor="#e58139"] ;
553 -> 565 ;
566 [label=<entropy = 0.0<br/>samples = 9<br/>value = [9, 0]<br/>class = negative>, fillcolor="#e58139"] ;
546 -> 566 ;
567 [label=<X<SUB>476</SUB> &le; 0.5<br/>entropy = 0.297<br/>samples = 19<br/>value = [1, 18]<br/>class = positive>, fillcolor="#44a2e6"] ;
543 -> 567 ;
568 [label=<entropy = 0.0<br/>samples = 18<br/>value = [0, 18]<br/>class = positive>, fillcolor="#399de5"] ;
567 -> 568 ;
569 [label=<entropy = 0.0<br/>samples = 1<br/>value = [1, 0]<br/>class = negative>, fillcolor="#e58139"] ;
567 -> 569 ;
570 [label=<X<SUB>685</SUB> &le; 0.5<br/>entropy = 0.746<br/>samples = 80<br/>value = [63, 17]<br/>class = negative>, fillcolor="#eca36e"] ;
508 -> 570 ;
571 [label=<X<SUB>13</SUB> &le; 0.5<br/>entropy = 0.283<br/>samples = 61<br/>value = [58, 3]<br/>class = negative>, fillcolor="#e68843"] ;
570 -> 571 ;
572 [label=<X<SUB>844</SUB> &le; 0.5<br/>entropy = 0.124<br/>samples = 59<br/>value = [58, 1]<br/>class = negative>, fillcolor="#e5833c"] ;
571 -> 572 ;
573 [label=<entropy = 0.0<br/>samples = 58<br/>value = [58, 0]<br/>class = negative>, fillcolor="#e58139"] ;
572 -> 573 ;
574 [label=<entropy = 0.0<br/>samples = 1<br/>value = [0, 1]<br/>class = positive>, fillcolor="#399de5"] ;
572 -> 574 ;
575 [label=<entropy = 0.0<br/>samples = 2<br/>value = [0, 2]<br/>class = positive>, fillcolor="#399de5"] ;
571 -> 575 ;
576 [label=<X<SUB>600</SUB> &le; 0.5<br/>entropy = 0.831<br/>samples = 19<br/>value = [5, 14]<br/>class = positive>, fillcolor="#80c0ee"] ;
570 -> 576 ;
577 [label=<entropy = 0.0<br/>samples = 13<br/>value = [0, 13]<br/>class = positive>, fillcolor="#399de5"] ;
576 -> 577 ;
578 [label=<X<SUB>842</SUB> &le; 0.5<br/>entropy = 0.65<br/>samples = 6<br/>value = [5, 1]<br/>class = negative>, fillcolor="#ea9a61"] ;
576 -> 578 ;
579 [label=<entropy = 0.0<br/>samples = 5<br/>value = [5, 0]<br/>class = negative>, fillcolor="#e58139"] ;
578 -> 579 ;
580 [label=<entropy = 0.0<br/>samples = 1<br/>value = [0, 1]<br/>class = positive>, fillcolor="#399de5"] ;
578 -> 580 ;
581 [label=<entropy = 0.0<br/>samples = 28<br/>value = [28, 0]<br/>class = negative>, fillcolor="#e58139"] ;
507 -> 581 ;
582 [label=<entropy = 0.0<br/>samples = 30<br/>value = [0, 30]<br/>class = positive>, fillcolor="#399de5"] ;
506 -> 582 ;
583 [label=<X<SUB>771</SUB> &le; 0.5<br/>entropy = 0.61<br/>samples = 100<br/>value = [15, 85]<br/>class = positive>, fillcolor="#5caeea"] ;
505 -> 583 ;
584 [label=<X<SUB>622</SUB> &le; 0.5<br/>entropy = 0.353<br/>samples = 90<br/>value = [6, 84]<br/>class = positive>, fillcolor="#47a4e7"] ;
583 -> 584 ;
585 [label=<X<SUB>739</SUB> &le; 0.5<br/>entropy = 0.267<br/>samples = 88<br/>value = [4, 84]<br/>class = positive>, fillcolor="#42a2e6"] ;
584 -> 585 ;
586 [label=<X<SUB>190</SUB> &le; 0.5<br/>entropy = 0.162<br/>samples = 84<br/>value = [2, 82]<br/>class = positive>, fillcolor="#3e9fe6"] ;
585 -> 586 ;
587 [label=<X<SUB>509</SUB> &le; 0.5<br/>entropy = 0.094<br/>samples = 83<br/>value = [1, 82]<br/>class = positive>, fillcolor="#3b9ee5"] ;
586 -> 587 ;
588 [label=<entropy = 0.0<br/>samples = 82<br/>value = [0, 82]<br/>class = positive>, fillcolor="#399de5"] ;
587 -> 588 ;
589 [label=<entropy = 0.0<br/>samples = 1<br/>value = [1, 0]<br/>class = negative>, fillcolor="#e58139"] ;
587 -> 589 ;
590 [label=<entropy = 0.0<br/>samples = 1<br/>value = [1, 0]<br/>class = negative>, fillcolor="#e58139"] ;
586 -> 590 ;
591 [label=<X<SUB>989</SUB> &le; 0.5<br/>entropy = 1.0<br/>samples = 4<br/>value = [2, 2]<br/>class = negative>, fillcolor="#ffffff"] ;
585 -> 591 ;
592 [label=<entropy = 0.0<br/>samples = 2<br/>value = [2, 0]<br/>class = negative>, fillcolor="#e58139"] ;
591 -> 592 ;
593 [label=<entropy = 0.0<br/>samples = 2<br/>value = [0, 2]<br/>class = positive>, fillcolor="#399de5"] ;
591 -> 593 ;
594 [label=<entropy = 0.0<br/>samples = 2<br/>value = [2, 0]<br/>class = negative>, fillcolor="#e58139"] ;
584 -> 594 ;
595 [label=<X<SUB>74</SUB> &le; 0.5<br/>entropy = 0.469<br/>samples = 10<br/>value = [9, 1]<br/>class = negative>, fillcolor="#e88f4f"] ;
583 -> 595 ;
596 [label=<entropy = 0.0<br/>samples = 9<br/>value = [9, 0]<br/>class = negative>, fillcolor="#e58139"] ;
595 -> 596 ;
597 [label=<entropy = 0.0<br/>samples = 1<br/>value = [0, 1]<br/>class = positive>, fillcolor="#399de5"] ;
595 -> 597 ;
598 [label=<X<SUB>619</SUB> &le; 0.5<br/>entropy = 0.222<br/>samples = 28<br/>value = [27, 1]<br/>class = negative>, fillcolor="#e68640"] ;
504 -> 598 ;
599 [label=<entropy = 0.0<br/>samples = 27<br/>value = [27, 0]<br/>class = negative>, fillcolor="#e58139"] ;
598 -> 599 ;
600 [label=<entropy = 0.0<br/>samples = 1<br/>value = [0, 1]<br/>class = positive>, fillcolor="#399de5"] ;
598 -> 600 ;
601 [label=<entropy = 0.0<br/>samples = 28<br/>value = [28, 0]<br/>class = negative>, fillcolor="#e58139"] ;
503 -> 601 ;
602 [label=<X<SUB>216</SUB> &le; 0.5<br/>entropy = 0.365<br/>samples = 43<br/>value = [40, 3]<br/>class = negative>, fillcolor="#e78a48"] ;
502 -> 602 ;
603 [label=<entropy = 0.0<br/>samples = 39<br/>value = [39, 0]<br/>class = negative>, fillcolor="#e58139"] ;
602 -> 603 ;
604 [label=<X<SUB>393</SUB> &le; 0.5<br/>entropy = 0.811<br/>samples = 4<br/>value = [1, 3]<br/>class = positive>, fillcolor="#7bbeee"] ;
602 -> 604 ;
605 [label=<entropy = 0.0<br/>samples = 3<br/>value = [0, 3]<br/>class = positive>, fillcolor="#399de5"] ;
604 -> 605 ;
606 [label=<entropy = 0.0<br/>samples = 1<br/>value = [1, 0]<br/>class = negative>, fillcolor="#e58139"] ;
604 -> 606 ;
607 [label=<X<SUB>402</SUB> &le; 0.5<br/>entropy = 0.183<br/>samples = 36<br/>value = [35, 1]<br/>class = negative>, fillcolor="#e6853f"] ;
501 -> 607 ;
608 [label=<entropy = 0.0<br/>samples = 35<br/>value = [35, 0]<br/>class = negative>, fillcolor="#e58139"] ;
607 -> 608 ;
609 [label=<entropy = 0.0<br/>samples = 1<br/>value = [0, 1]<br/>class = positive>, fillcolor="#399de5"] ;
607 -> 609 ;
610 [label=<X<SUB>454</SUB> &le; 0.5<br/>entropy = 0.169<br/>samples = 40<br/>value = [39, 1]<br/>class = negative>, fillcolor="#e6843e"] ;
500 -> 610 ;
611 [label=<entropy = 0.0<br/>samples = 39<br/>value = [39, 0]<br/>class = negative>, fillcolor="#e58139"] ;
610 -> 611 ;
612 [label=<entropy = 0.0<br/>samples = 1<br/>value = [0, 1]<br/>class = positive>, fillcolor="#399de5"] ;
610 -> 612 ;
613 [label=<X<SUB>200</SUB> &le; 0.5<br/>entropy = 0.239<br/>samples = 51<br/>value = [49, 2]<br/>class = negative>, fillcolor="#e68641"] ;
499 -> 613 ;
614 [label=<entropy = 0.0<br/>samples = 42<br/>value = [42, 0]<br/>class = negative>, fillcolor="#e58139"] ;
613 -> 614 ;
615 [label=<X<SUB>78</SUB> &le; 0.5<br/>entropy = 0.764<br/>samples = 9<br/>value = [7, 2]<br/>class = negative>, fillcolor="#eca572"] ;
613 -> 615 ;
616 [label=<entropy = 0.0<br/>samples = 2<br/>value = [0, 2]<br/>class = positive>, fillcolor="#399de5"] ;
615 -> 616 ;
617 [label=<entropy = 0.0<br/>samples = 7<br/>value = [7, 0]<br/>class = negative>, fillcolor="#e58139"] ;
615 -> 617 ;
618 [label=<X<SUB>787</SUB> &le; 0.5<br/>entropy = 0.378<br/>samples = 82<br/>value = [76, 6]<br/>class = negative>, fillcolor="#e78b49"] ;
498 -> 618 ;
619 [label=<X<SUB>793</SUB> &le; 0.5<br/>entropy = 0.103<br/>samples = 74<br/>value = [73, 1]<br/>class = negative>, fillcolor="#e5833c"] ;
618 -> 619 ;
620 [label=<entropy = 0.0<br/>samples = 73<br/>value = [73, 0]<br/>class = negative>, fillcolor="#e58139"] ;
619 -> 620 ;
621 [label=<entropy = 0.0<br/>samples = 1<br/>value = [0, 1]<br/>class = positive>, fillcolor="#399de5"] ;
619 -> 621 ;
622 [label=<X<SUB>1007</SUB> &le; 0.5<br/>entropy = 0.954<br/>samples = 8<br/>value = [3, 5]<br/>class = positive>, fillcolor="#b0d8f5"] ;
618 -> 622 ;
623 [label=<entropy = 0.0<br/>samples = 5<br/>value = [0, 5]<br/>class = positive>, fillcolor="#399de5"] ;
622 -> 623 ;
624 [label=<entropy = 0.0<br/>samples = 3<br/>value = [3, 0]<br/>class = negative>, fillcolor="#e58139"] ;
622 -> 624 ;
625 [label=<X<SUB>37</SUB> &le; 0.5<br/>entropy = 0.079<br/>samples = 103<br/>value = [102, 1]<br/>class = negative>, fillcolor="#e5823b"] ;
497 -> 625 ;
626 [label=<entropy = 0.0<br/>samples = 102<br/>value = [102, 0]<br/>class = negative>, fillcolor="#e58139"] ;
625 -> 626 ;
627 [label=<entropy = 0.0<br/>samples = 1<br/>value = [0, 1]<br/>class = positive>, fillcolor="#399de5"] ;
625 -> 627 ;
628 [label=<X<SUB>398</SUB> &le; 0.5<br/>entropy = 0.344<br/>samples = 249<br/>value = [233, 16]<br/>class = negative>, fillcolor="#e78a47"] ;
496 -> 628 ;
629 [label=<X<SUB>991</SUB> &le; 0.5<br/>entropy = 0.04<br/>samples = 232<br/>value = [231, 1]<br/>class = negative>, fillcolor="#e5823a"] ;
628 -> 629 ;
630 [label=<entropy = 0.0<br/>samples = 229<br/>value = [229, 0]<br/>class = negative>, fillcolor="#e58139"] ;
629 -> 630 ;
631 [label=<X<SUB>267</SUB> &le; 0.5<br/>entropy = 0.918<br/>samples = 3<br/>value = [2, 1]<br/>class = negative>, fillcolor="#f2c09c"] ;
629 -> 631 ;
632 [label=<entropy = 0.0<br/>samples = 1<br/>value = [0, 1]<br/>class = positive>, fillcolor="#399de5"] ;
631 -> 632 ;
633 [label=<entropy = 0.0<br/>samples = 2<br/>value = [2, 0]<br/>class = negative>, fillcolor="#e58139"] ;
631 -> 633 ;
634 [label=<X<SUB>336</SUB> &le; 0.5<br/>entropy = 0.523<br/>samples = 17<br/>value = [2, 15]<br/>class = positive>, fillcolor="#53aae8"] ;
628 -> 634 ;
635 [label=<entropy = 0.0<br/>samples = 14<br/>value = [0, 14]<br/>class = positive>, fillcolor="#399de5"] ;
634 -> 635 ;
636 [label=<X<SUB>488</SUB> &le; 0.5<br/>entropy = 0.918<br/>samples = 3<br/>value = [2, 1]<br/>class = negative>, fillcolor="#f2c09c"] ;
634 -> 636 ;
637 [label=<entropy = 0.0<br/>samples = 2<br/>value = [2, 0]<br/>class = negative>, fillcolor="#e58139"] ;
636 -> 637 ;
638 [label=<entropy = 0.0<br/>samples = 1<br/>value = [0, 1]<br/>class = positive>, fillcolor="#399de5"] ;
636 -> 638 ;
639 [label=<X<SUB>741</SUB> &le; 0.5<br/>entropy = 0.987<br/>samples = 836<br/>value = [363, 473]<br/>class = positive>, fillcolor="#d1e8f9"] ;
495 -> 639 ;
640 [label=<X<SUB>437</SUB> &le; 0.5<br/>entropy = 0.962<br/>samples = 766<br/>value = [295, 471]<br/>class = positive>, fillcolor="#b5daf5"] ;
639 -> 640 ;
641 [label=<X<SUB>492</SUB> &le; 0.5<br/>entropy = 0.761<br/>samples = 145<br/>value = [113, 32]<br/>class = negative>, fillcolor="#eca571"] ;
640 -> 641 ;
642 [label=<X<SUB>244</SUB> &le; 0.5<br/>entropy = 0.541<br/>samples = 129<br/>value = [113, 16]<br/>class = negative>, fillcolor="#e99355"] ;
641 -> 642 ;
643 [label=<X<SUB>736</SUB> &le; 0.5<br/>entropy = 0.24<br/>samples = 101<br/>value = [97, 4]<br/>class = negative>, fillcolor="#e68641"] ;
642 -> 643 ;
644 [label=<X<SUB>458</SUB> &le; 0.5<br/>entropy = 0.083<br/>samples = 97<br/>value = [96, 1]<br/>class = negative>, fillcolor="#e5823b"] ;
643 -> 644 ;
645 [label=<entropy = 0.0<br/>samples = 93<br/>value = [93, 0]<br/>class = negative>, fillcolor="#e58139"] ;
644 -> 645 ;
646 [label=<X<SUB>919</SUB> &le; 0.5<br/>entropy = 0.811<br/>samples = 4<br/>value = [3, 1]<br/>class = negative>, fillcolor="#eeab7b"] ;
644 -> 646 ;
647 [label=<entropy = 0.0<br/>samples = 1<br/>value = [0, 1]<br/>class = positive>, fillcolor="#399de5"] ;
646 -> 647 ;
648 [label=<entropy = 0.0<br/>samples = 3<br/>value = [3, 0]<br/>class = negative>, fillcolor="#e58139"] ;
646 -> 648 ;
649 [label=<X<SUB>732</SUB> &le; 0.5<br/>entropy = 0.811<br/>samples = 4<br/>value = [1, 3]<br/>class = positive>, fillcolor="#7bbeee"] ;
643 -> 649 ;
650 [label=<entropy = 0.0<br/>samples = 3<br/>value = [0, 3]<br/>class = positive>, fillcolor="#399de5"] ;
649 -> 650 ;
651 [label=<entropy = 0.0<br/>samples = 1<br/>value = [1, 0]<br/>class = negative>, fillcolor="#e58139"] ;
649 -> 651 ;
652 [label=<X<SUB>966</SUB> &le; 0.5<br/>entropy = 0.985<br/>samples = 28<br/>value = [16, 12]<br/>class = negative>, fillcolor="#f8e0ce"] ;
642 -> 652 ;
653 [label=<entropy = 0.0<br/>samples = 14<br/>value = [14, 0]<br/>class = negative>, fillcolor="#e58139"] ;
652 -> 653 ;
654 [label=<X<SUB>919</SUB> &le; 0.5<br/>entropy = 0.592<br/>samples = 14<br/>value = [2, 12]<br/>class = positive>, fillcolor="#5aade9"] ;
652 -> 654 ;
655 [label=<entropy = 0.0<br/>samples = 12<br/>value = [0, 12]<br/>class = positive>, fillcolor="#399de5"] ;
654 -> 655 ;
656 [label=<entropy = 0.0<br/>samples = 2<br/>value = [2, 0]<br/>class = negative>, fillcolor="#e58139"] ;
654 -> 656 ;
657 [label=<entropy = 0.0<br/>samples = 16<br/>value = [0, 16]<br/>class = positive>, fillcolor="#399de5"] ;
641 -> 657 ;
658 [label=<X<SUB>668</SUB> &le; 0.5<br/>entropy = 0.873<br/>samples = 621<br/>value = [182, 439]<br/>class = positive>, fillcolor="#8bc6f0"] ;
640 -> 658 ;
659 [label=<X<SUB>242</SUB> &le; 0.5<br/>entropy = 0.797<br/>samples = 577<br/>value = [139, 438]<br/>class = positive>, fillcolor="#78bced"] ;
658 -> 659 ;
660 [label=<entropy = 0.0<br/>samples = 23<br/>value = [23, 0]<br/>class = negative>, fillcolor="#e58139"] ;
659 -> 660 ;
661 [label=<X<SUB>595</SUB> &le; 0.5<br/>entropy = 0.74<br/>samples = 554<br/>value = [116, 438]<br/>class = positive>, fillcolor="#6db7ec"] ;
659 -> 661 ;
662 [label=<X<SUB>697</SUB> &le; 0.5<br/>entropy = 0.581<br/>samples = 454<br/>value = [63, 391]<br/>class = positive>, fillcolor="#59ade9"] ;
661 -> 662 ;
663 [label=<X<SUB>397</SUB> &le; 0.5<br/>entropy = 0.742<br/>samples = 285<br/>value = [60, 225]<br/>class = positive>, fillcolor="#6eb7ec"] ;
662 -> 663 ;
664 [label=<X<SUB>142</SUB> &le; 0.5<br/>entropy = 0.859<br/>samples = 46<br/>value = [33, 13]<br/>class = negative>, fillcolor="#efb387"] ;
663 -> 664 ;
665 [label=<X<SUB>957</SUB> &le; 0.5<br/>entropy = 0.191<br/>samples = 34<br/>value = [33, 1]<br/>class = negative>, fillcolor="#e6853f"] ;
664 -> 665 ;
666 [label=<entropy = 0.0<br/>samples = 33<br/>value = [33, 0]<br/>class = negative>, fillcolor="#e58139"] ;
665 -> 666 ;
667 [label=<entropy = 0.0<br/>samples = 1<br/>value = [0, 1]<br/>class = positive>, fillcolor="#399de5"] ;
665 -> 667 ;
668 [label=<entropy = 0.0<br/>samples = 12<br/>value = [0, 12]<br/>class = positive>, fillcolor="#399de5"] ;
664 -> 668 ;
669 [label=<X<SUB>125</SUB> &le; 0.5<br/>entropy = 0.509<br/>samples = 239<br/>value = [27, 212]<br/>class = positive>, fillcolor="#52a9e8"] ;
663 -> 669 ;
670 [label=<X<SUB>467</SUB> &le; 0.5<br/>entropy = 0.918<br/>samples = 21<br/>value = [14, 7]<br/>class = negative>, fillcolor="#f2c09c"] ;
669 -> 670 ;
671 [label=<entropy = 0.0<br/>samples = 6<br/>value = [0, 6]<br/>class = positive>, fillcolor="#399de5"] ;
670 -> 671 ;
672 [label=<X<SUB>627</SUB> &le; 0.5<br/>entropy = 0.353<br/>samples = 15<br/>value = [14, 1]<br/>class = negative>, fillcolor="#e78a47"] ;
670 -> 672 ;
673 [label=<entropy = 0.0<br/>samples = 14<br/>value = [14, 0]<br/>class = negative>, fillcolor="#e58139"] ;
672 -> 673 ;
674 [label=<entropy = 0.0<br/>samples = 1<br/>value = [0, 1]<br/>class = positive>, fillcolor="#399de5"] ;
672 -> 674 ;
675 [label=<X<SUB>600</SUB> &le; 0.5<br/>entropy = 0.326<br/>samples = 218<br/>value = [13, 205]<br/>class = positive>, fillcolor="#46a3e7"] ;
669 -> 675 ;
676 [label=<X<SUB>353</SUB> &le; 0.5<br/>entropy = 0.057<br/>samples = 153<br/>value = [1, 152]<br/>class = positive>, fillcolor="#3a9ee5"] ;
675 -> 676 ;
677 [label=<entropy = 0.0<br/>samples = 152<br/>value = [0, 152]<br/>class = positive>, fillcolor="#399de5"] ;
676 -> 677 ;
678 [label=<entropy = 0.0<br/>samples = 1<br/>value = [1, 0]<br/>class = negative>, fillcolor="#e58139"] ;
676 -> 678 ;
679 [label=<X<SUB>389</SUB> &le; 0.5<br/>entropy = 0.69<br/>samples = 65<br/>value = [12, 53]<br/>class = positive>, fillcolor="#66b3eb"] ;
675 -> 679 ;
680 [label=<X<SUB>94</SUB> &le; 0.5<br/>entropy = 0.342<br/>samples = 47<br/>value = [3, 44]<br/>class = positive>, fillcolor="#46a4e7"] ;
679 -> 680 ;
681 [label=<X<SUB>946</SUB> &le; 0.5<br/>entropy = 0.154<br/>samples = 45<br/>value = [1, 44]<br/>class = positive>, fillcolor="#3d9fe6"] ;
680 -> 681 ;
682 [label=<entropy = 0.0<br/>samples = 44<br/>value = [0, 44]<br/>class = positive>, fillcolor="#399de5"] ;
681 -> 682 ;
683 [label=<entropy = 0.0<br/>samples = 1<br/>value = [1, 0]<br/>class = negative>, fillcolor="#e58139"] ;
681 -> 683 ;
684 [label=<entropy = 0.0<br/>samples = 2<br/>value = [2, 0]<br/>class = negative>, fillcolor="#e58139"] ;
680 -> 684 ;
685 [label=<X<SUB>7</SUB> &le; 0.5<br/>entropy = 1.0<br/>samples = 18<br/>value = [9, 9]<br/>class = negative>, fillcolor="#ffffff"] ;
679 -> 685 ;
686 [label=<X<SUB>614</SUB> &le; 0.5<br/>entropy = 0.503<br/>samples = 9<br/>value = [1, 8]<br/>class = positive>, fillcolor="#52a9e8"] ;
685 -> 686 ;
687 [label=<entropy = 0.0<br/>samples = 8<br/>value = [0, 8]<br/>class = positive>, fillcolor="#399de5"] ;
686 -> 687 ;
688 [label=<entropy = 0.0<br/>samples = 1<br/>value = [1, 0]<br/>class = negative>, fillcolor="#e58139"] ;
686 -> 688 ;
689 [label=<X<SUB>26</SUB> &le; 0.5<br/>entropy = 0.503<br/>samples = 9<br/>value = [8, 1]<br/>class = negative>, fillcolor="#e89152"] ;
685 -> 689 ;
690 [label=<entropy = 0.0<br/>samples = 8<br/>value = [8, 0]<br/>class = negative>, fillcolor="#e58139"] ;
689 -> 690 ;
691 [label=<entropy = 0.0<br/>samples = 1<br/>value = [0, 1]<br/>class = positive>, fillcolor="#399de5"] ;
689 -> 691 ;
692 [label=<X<SUB>431</SUB> &le; 0.5<br/>entropy = 0.129<br/>samples = 169<br/>value = [3, 166]<br/>class = positive>, fillcolor="#3d9fe5"] ;
662 -> 692 ;
693 [label=<X<SUB>77</SUB> &le; 0.5<br/>entropy = 0.918<br/>samples = 9<br/>value = [3, 6]<br/>class = positive>, fillcolor="#9ccef2"] ;
692 -> 693 ;
694 [label=<entropy = 0.0<br/>samples = 6<br/>value = [0, 6]<br/>class = positive>, fillcolor="#399de5"] ;
693 -> 694 ;
695 [label=<entropy = 0.0<br/>samples = 3<br/>value = [3, 0]<br/>class = negative>, fillcolor="#e58139"] ;
693 -> 695 ;
696 [label=<entropy = 0.0<br/>samples = 160<br/>value = [0, 160]<br/>class = positive>, fillcolor="#399de5"] ;
692 -> 696 ;
697 [label=<X<SUB>963</SUB> &le; 0.5<br/>entropy = 0.997<br/>samples = 100<br/>value = [53, 47]<br/>class = negative>, fillcolor="#fcf1e9"] ;
661 -> 697 ;
698 [label=<X<SUB>419</SUB> &le; 0.5<br/>entropy = 0.235<br/>samples = 26<br/>value = [25, 1]<br/>class = negative>, fillcolor="#e68641"] ;
697 -> 698 ;
699 [label=<entropy = 0.0<br/>samples = 25<br/>value = [25, 0]<br/>class = negative>, fillcolor="#e58139"] ;
698 -> 699 ;
700 [label=<entropy = 0.0<br/>samples = 1<br/>value = [0, 1]<br/>class = positive>, fillcolor="#399de5"] ;
698 -> 700 ;
701 [label=<X<SUB>152</SUB> &le; 0.5<br/>entropy = 0.957<br/>samples = 74<br/>value = [28, 46]<br/>class = positive>, fillcolor="#b2d9f5"] ;
697 -> 701 ;
702 [label=<X<SUB>253</SUB> &le; 0.5<br/>entropy = 0.872<br/>samples = 65<br/>value = [19, 46]<br/>class = positive>, fillcolor="#8bc5f0"] ;
701 -> 702 ;
703 [label=<X<SUB>420</SUB> &le; 0.5<br/>entropy = 0.761<br/>samples = 59<br/>value = [13, 46]<br/>class = positive>, fillcolor="#71b9ec"] ;
702 -> 703 ;
704 [label=<X<SUB>79</SUB> &le; 0.5<br/>entropy = 0.523<br/>samples = 51<br/>value = [6, 45]<br/>class = positive>, fillcolor="#53aae8"] ;
703 -> 704 ;
705 [label=<X<SUB>277</SUB> &le; 0.5<br/>entropy = 0.337<br/>samples = 48<br/>value = [3, 45]<br/>class = positive>, fillcolor="#46a4e7"] ;
704 -> 705 ;
706 [label=<entropy = 0.0<br/>samples = 2<br/>value = [2, 0]<br/>class = negative>, fillcolor="#e58139"] ;
705 -> 706 ;
707 [label=<X<SUB>128</SUB> &le; 0.5<br/>entropy = 0.151<br/>samples = 46<br/>value = [1, 45]<br/>class = positive>, fillcolor="#3d9fe6"] ;
705 -> 707 ;
708 [label=<entropy = 0.0<br/>samples = 45<br/>value = [0, 45]<br/>class = positive>, fillcolor="#399de5"] ;
707 -> 708 ;
709 [label=<entropy = 0.0<br/>samples = 1<br/>value = [1, 0]<br/>class = negative>, fillcolor="#e58139"] ;
707 -> 709 ;
710 [label=<entropy = 0.0<br/>samples = 3<br/>value = [3, 0]<br/>class = negative>, fillcolor="#e58139"] ;
704 -> 710 ;
711 [label=<X<SUB>885</SUB> &le; 0.5<br/>entropy = 0.544<br/>samples = 8<br/>value = [7, 1]<br/>class = negative>, fillcolor="#e99355"] ;
703 -> 711 ;
712 [label=<entropy = 0.0<br/>samples = 1<br/>value = [0, 1]<br/>class = positive>, fillcolor="#399de5"] ;
711 -> 712 ;
713 [label=<entropy = 0.0<br/>samples = 7<br/>value = [7, 0]<br/>class = negative>, fillcolor="#e58139"] ;
711 -> 713 ;
714 [label=<entropy = 0.0<br/>samples = 6<br/>value = [6, 0]<br/>class = negative>, fillcolor="#e58139"] ;
702 -> 714 ;
715 [label=<entropy = 0.0<br/>samples = 9<br/>value = [9, 0]<br/>class = negative>, fillcolor="#e58139"] ;
701 -> 715 ;
716 [label=<X<SUB>504</SUB> &le; 0.5<br/>entropy = 0.156<br/>samples = 44<br/>value = [43, 1]<br/>class = negative>, fillcolor="#e6843e"] ;
658 -> 716 ;
717 [label=<entropy = 0.0<br/>samples = 43<br/>value = [43, 0]<br/>class = negative>, fillcolor="#e58139"] ;
716 -> 717 ;
718 [label=<entropy = 0.0<br/>samples = 1<br/>value = [0, 1]<br/>class = positive>, fillcolor="#399de5"] ;
716 -> 718 ;
719 [label=<X<SUB>481</SUB> &le; 0.5<br/>entropy = 0.187<br/>samples = 70<br/>value = [68, 2]<br/>class = negative>, fillcolor="#e6853f"] ;
639 -> 719 ;
720 [label=<entropy = 0.0<br/>samples = 64<br/>value = [64, 0]<br/>class = negative>, fillcolor="#e58139"] ;
719 -> 720 ;
721 [label=<X<SUB>584</SUB> &le; 0.5<br/>entropy = 0.918<br/>samples = 6<br/>value = [4, 2]<br/>class = negative>, fillcolor="#f2c09c"] ;
719 -> 721 ;
722 [label=<entropy = 0.0<br/>samples = 4<br/>value = [4, 0]<br/>class = negative>, fillcolor="#e58139"] ;
721 -> 722 ;
723 [label=<entropy = 0.0<br/>samples = 2<br/>value = [0, 2]<br/>class = positive>, fillcolor="#399de5"] ;
721 -> 723 ;
724 [label=<X<SUB>985</SUB> &le; 0.5<br/>entropy = 0.42<br/>samples = 540<br/>value = [494, 46]<br/>class = negative>, fillcolor="#e78d4b"] ;
494 -> 724 ;
725 [label=<X<SUB>587</SUB> &le; 0.5<br/>entropy = 0.095<br/>samples = 326<br/>value = [322, 4]<br/>class = negative>, fillcolor="#e5833b"] ;
724 -> 725 ;
726 [label=<entropy = 0.0<br/>samples = 247<br/>value = [247, 0]<br/>class = negative>, fillcolor="#e58139"] ;
725 -> 726 ;
727 [label=<X<SUB>131</SUB> &le; 0.5<br/>entropy = 0.289<br/>samples = 79<br/>value = [75, 4]<br/>class = negative>, fillcolor="#e68844"] ;
725 -> 727 ;
728 [label=<X<SUB>423</SUB> &le; 0.5<br/>entropy = 0.605<br/>samples = 27<br/>value = [23, 4]<br/>class = negative>, fillcolor="#ea975b"] ;
727 -> 728 ;
