digraph Tree {
node [shape=box, style="filled, rounded", color="black", fontname=helvetica] ;
edge [fontname=helvetica] ;
0 [label=<X<SUB>96</SUB> &le; 0.5<br/>entropy = 1.0<br/>samples = 1038<br/>value = [519, 519]<br/>class = negative>, fillcolor="#ffffff"] ;
1 [label=<X<SUB>138</SUB> &le; 0.5<br/>entropy = 0.953<br/>samples = 728<br/>value = [456, 272]<br/>class = negative>, fillcolor="#f5ccaf"] ;
0 -> 1 [labeldistance=2.5, labelangle=45, headlabel="True"] ;
2 [label=<X<SUB>14</SUB> &le; 0.5<br/>entropy = 0.886<br/>samples = 586<br/>value = [408, 178]<br/>class = negative>, fillcolor="#f0b88f"] ;
1 -> 2 ;
3 [label=<X<SUB>295</SUB> &le; 0.5<br/>entropy = 0.942<br/>samples = 431<br/>value = [276, 155]<br/>class = negative>, fillcolor="#f4c8a8"] ;
2 -> 3 ;
4 [label=<X<SUB>161</SUB> &le; 0.5<br/>entropy = 0.96<br/>samples = 403<br/>value = [249, 154]<br/>class = negative>, fillcolor="#f5cfb3"] ;
3 -> 4 ;
5 [label=<entropy = 0.969<br/>samples = 388<br/>value = [234, 154]<br/>class = negative>, fillcolor="#f6d4bb"] ;
4 -> 5 ;
6 [label=<entropy = 0.0<br/>samples = 15<br/>value = [15, 0]<br/>class = negative>, fillcolor="#e58139"] ;
4 -> 6 ;
7 [label=<entropy = 0.222<br/>samples = 28<br/>value = [27, 1]<br/>class = negative>, fillcolor="#e68640"] ;
3 -> 7 ;
8 [label=<entropy = 0.606<br/>samples = 155<br/>value = [132, 23]<br/>class = negative>, fillcolor="#ea975c"] ;
2 -> 8 ;
9 [label=<X<SUB>113</SUB> &le; 0.5<br/>entropy = 0.923<br/>samples = 142<br/>value = [48, 94]<br/>class = positive>, fillcolor="#9ecff2"] ;
1 -> 9 ;
10 [label=<X<SUB>114</SUB> &le; 0.5<br/>entropy = 0.98<br/>samples = 113<br/>value = [47, 66]<br/>class = positive>, fillcolor="#c6e3f8"] ;
9 -> 10 ;
11 [label=<X<SUB>20</SUB> &le; 0.5<br/>entropy = 1.0<br/>samples = 91<br/>value = [46, 45]<br/>class = negative>, fillcolor="#fefcfb"] ;
10 -> 11 ;
12 [label=<entropy = 0.987<br/>samples = 81<br/>value = [46, 35]<br/>class = negative>, fillcolor="#f9e1d0"] ;
11 -> 12 ;
13 [label=<entropy = 0.0<br/>samples = 10<br/>value = [0, 10]<br/>class = positive>, fillcolor="#399de5"] ;
11 -> 13 ;
14 [label=<entropy = 0.267<br/>samples = 22<br/>value = [1, 21]<br/>class = positive>, fillcolor="#42a2e6"] ;
10 -> 14 ;
15 [label=<entropy = 0.216<br/>samples = 29<br/>value = [1, 28]<br/>class = positive>, fillcolor="#40a0e6"] ;
9 -> 15 ;
16 [label=<X<SUB>336</SUB> &le; 0.5<br/>entropy = 0.728<br/>samples = 310<br/>value = [63, 247]<br/>class = positive>, fillcolor="#6cb6ec"] ;
0 -> 16 [labeldistance=2.5, labelangle=-45, headlabel="False"] ;
17 [label=<X<SUB>159</SUB> &le; 0.5<br/>entropy = 0.635<br/>samples = 281<br/>value = [45, 236]<br/>class = positive>, fillcolor="#5fb0ea"] ;
16 -> 17 ;
18 [label=<X<SUB>238</SUB> &le; 0.5<br/>entropy = 0.527<br/>samples = 252<br/>value = [30, 222]<br/>class = positive>, fillcolor="#54aae9"] ;
17 -> 18 ;
19 [label=<entropy = 0.619<br/>samples = 195<br/>value = [30, 165]<br/>class = positive>, fillcolor="#5dafea"] ;
18 -> 19 ;
20 [label=<entropy = 0.0<br/>samples = 57<br/>value = [0, 57]<br/>class = positive>, fillcolor="#399de5"] ;
18 -> 20 ;
21 [label=<entropy = 0.999<br/>samples = 29<br/>value = [15, 14]<br/>class = negative>, fillcolor="#fdf7f2"] ;
17 -> 21 ;
22 [label=<entropy = 0.958<br/>samples = 29<br/>value = [18, 11]<br/>class = negative>, fillcolor="#f5ceb2"] ;
16 -> 22 ;
}