digraph Tree {
node [shape=box, style="filled, rounded", color="black", fontname=helvetica] ;
edge [fontname=helvetica] ;
0 [label=<time &le; 67.5<br/>gini = 0.436<br/>samples = 240<br/>value = [163, 77]<br/>class = 0>, fillcolor="#f1bd97"] ;
1 [label=<ejection_fraction &le; 72.5<br/>gini = 0.16<br/>samples = 57<br/>value = [5, 52]<br/>class = 1>, fillcolor="#4ca6e8"] ;
0 -> 1 [labeldistance=2.5, labelangle=45, headlabel="True"] ;
2 [label=<gini = 0.133<br/>samples = 56<br/>value = [4, 52]<br/>class = 1>, fillcolor="#48a5e7"] ;
1 -> 2 ;
3 [label=<gini = 0.0<br/>samples = 1<br/>value = [1, 0]<br/>class = 0>, fillcolor="#e58139"] ;
1 -> 3 ;
4 [label=<serum_creatinine &le; 1.65<br/>gini = 0.236<br/>samples = 183<br/>value = [158, 25]<br/>class = 0>, fillcolor="#e99558"] ;
0 -> 4 [labeldistance=2.5, labelangle=-45, headlabel="False"] ;
5 [label=<creatinine_phosphokinase &le; 5545.5<br/>gini = 0.122<br/>samples = 153<br/>value = [143, 10]<br/>class = 0>, fillcolor="#e78a47"] ;
4 -> 5 ;
6 [label=<ejection_fraction &le; 27.5<br/>gini = 0.111<br/>samples = 152<br/>value = [143, 9]<br/>class = 0>, fillcolor="#e78945"] ;
5 -> 6 ;
7 [label=<platelets &le; 128000.0<br/>gini = 0.375<br/>samples = 16<br/>value = [12, 4]<br/>class = 0>, fillcolor="#eeab7b"] ;
6 -> 7 ;
8 [label=<gini = 0.0<br/>samples = 1<br/>value = [0, 1]<br/>class = 1>, fillcolor="#399de5"] ;
7 -> 8 ;
9 [label=<gini = 0.32<br/>samples = 15<br/>value = [12, 3]<br/>class = 0>, fillcolor="#eca06a"] ;
7 -> 9 ;
10 [label=<gini = 0.071<br/>samples = 136<br/>value = [131, 5]<br/>class = 0>, fillcolor="#e68641"] ;
6 -> 10 ;
11 [label=<gini = 0.0<br/>samples = 1<br/>value = [0, 1]<br/>class = 1>, fillcolor="#399de5"] ;
5 -> 11 ;
12 [label=<sex &le; 0.5<br/>gini = 0.5<br/>samples = 30<br/>value = [15, 15]<br/>class = 0>, fillcolor="#ffffff"] ;
4 -> 12 ;
13 [label=<creatinine_phosphokinase &le; 134.0<br/>gini = 0.32<br/>samples = 10<br/>value = [2, 8]<br/>class = 1>, fillcolor="#6ab6ec"] ;
12 -> 13 ;
14 [label=<diabetes &le; 0.5<br/>gini = 0.444<br/>samples = 3<br/>value = [2, 1]<br/>class = 0>, fillcolor="#f2c09c"] ;
13 -> 14 ;
15 [label=<gini = 0.0<br/>samples = 2<br/>value = [2, 0]<br/>class = 0>, fillcolor="#e58139"] ;
14 -> 15 ;
16 [label=<gini = 0.0<br/>samples = 1<br/>value = [0, 1]<br/>class = 1>, fillcolor="#399de5"] ;
14 -> 16 ;
17 [label=<gini = 0.0<br/>samples = 7<br/>value = [0, 7]<br/>class = 1>, fillcolor="#399de5"] ;
13 -> 17 ;
18 [label=<ejection_fraction &le; 22.5<br/>gini = 0.455<br/>samples = 20<br/>value = [13, 7]<br/>class = 0>, fillcolor="#f3c5a4"] ;
12 -> 18 ;
19 [label=<gini = 0.0<br/>samples = 3<br/>value = [0, 3]<br/>class = 1>, fillcolor="#399de5"] ;
18 -> 19 ;
20 [label=<age &le; 71.0<br/>gini = 0.36<br/>samples = 17<br/>value = [13, 4]<br/>class = 0>, fillcolor="#eda876"] ;
18 -> 20 ;
21 [label=<gini = 0.153<br/>samples = 12<br/>value = [11, 1]<br/>class = 0>, fillcolor="#e78c4b"] ;
20 -> 21 ;
22 [label=<gini = 0.48<br/>samples = 5<br/>value = [2, 3]<br/>class = 1>, fillcolor="#bddef6"] ;
20 -> 22 ;
}