digraph Tree {
node [shape=box, style="filled, rounded", color="black", fontname=helvetica] ;
edge [fontname=helvetica] ;
0 [label=<X<SUB>282</SUB> &le; 0.5<br/>gini = 0.151<br/>samples = 6294<br/>value = [5775, 519]<br/>class = negative>, fillcolor="#e78c4b"] ;
1 [label=<X<SUB>662</SUB> &le; 0.5<br/>gini = 0.099<br/>samples = 5309<br/>value = [5031, 278]<br/>class = negative>, fillcolor="#e68844"] ;
0 -> 1 [labeldistance=2.5, labelangle=45, headlabel="True"] ;
2 [label=<X<SUB>1015</SUB> &le; 0.5<br/>gini = 0.081<br/>samples = 4936<br/>value = [4727, 209]<br/>class = negative>, fillcolor="#e68742"] ;
1 -> 2 ;
3 [label=<gini = 0.069<br/>samples = 4630<br/>value = [4465, 165]<br/>class = negative>, fillcolor="#e68640"] ;
2 -> 3 ;
4 [label=<X<SUB>536</SUB> &le; 0.5<br/>gini = 0.246<br/>samples = 306<br/>value = [262, 44]<br/>class = negative>, fillcolor="#e9965a"] ;
2 -> 4 ;
5 [label=<X<SUB>825</SUB> &le; 0.5<br/>gini = 0.183<br/>samples = 265<br/>value = [238, 27]<br/>class = negative>, fillcolor="#e88f4f"] ;
4 -> 5 ;
6 [label=<gini = 0.15<br/>samples = 257<br/>value = [236, 21]<br/>class = negative>, fillcolor="#e78c4b"] ;
5 -> 6 ;
7 [label=<gini = 0.375<br/>samples = 8<br/>value = [2, 6]<br/>class = positive>, fillcolor="#7bbeee"] ;
5 -> 7 ;
8 [label=<gini = 0.485<br/>samples = 41<br/>value = [24, 17]<br/>class = negative>, fillcolor="#f7dac5"] ;
4 -> 8 ;
9 [label=<X<SUB>439</SUB> &le; 0.5<br/>gini = 0.302<br/>samples = 373<br/>value = [304, 69]<br/>class = negative>, fillcolor="#eb9e66"] ;
1 -> 9 ;
10 [label=<X<SUB>617</SUB> &le; 0.5<br/>gini = 0.243<br/>samples = 346<br/>value = [297, 49]<br/>class = negative>, fillcolor="#e9965a"] ;
9 -> 10 ;
11 [label=<gini = 0.166<br/>samples = 306<br/>value = [278, 28]<br/>class = negative>, fillcolor="#e88e4d"] ;
10 -> 11 ;
12 [label=<X<SUB>15</SUB> &le; 0.5<br/>gini = 0.499<br/>samples = 40<br/>value = [19, 21]<br/>class = positive>, fillcolor="#ecf6fd"] ;
10 -> 12 ;
13 [label=<gini = 0.231<br/>samples = 15<br/>value = [13, 2]<br/>class = negative>, fillcolor="#e99457"] ;
12 -> 13 ;
14 [label=<gini = 0.365<br/>samples = 25<br/>value = [6, 19]<br/>class = positive>, fillcolor="#78bced"] ;
12 -> 14 ;
15 [label=<X<SUB>640</SUB> &le; 0.5<br/>gini = 0.384<br/>samples = 27<br/>value = [7, 20]<br/>class = positive>, fillcolor="#7ebfee"] ;
9 -> 15 ;
16 [label=<gini = 0.165<br/>samples = 22<br/>value = [2, 20]<br/>class = positive>, fillcolor="#4da7e8"] ;
15 -> 16 ;
17 [label=<gini = 0.0<br/>samples = 5<br/>value = [5, 0]<br/>class = negative>, fillcolor="#e58139"] ;
15 -> 17 ;
18 [label=<X<SUB>449</SUB> &le; 0.5<br/>gini = 0.37<br/>samples = 985<br/>value = [744, 241]<br/>class = negative>, fillcolor="#edaa79"] ;
0 -> 18 [labeldistance=2.5, labelangle=-45, headlabel="False"] ;
19 [label=<X<SUB>37</SUB> &le; 0.5<br/>gini = 0.325<br/>samples = 898<br/>value = [715, 183]<br/>class = negative>, fillcolor="#eca16c"] ;
18 -> 19 ;
20 [label=<X<SUB>939</SUB> &le; 0.5<br/>gini = 0.22<br/>samples = 706<br/>value = [617, 89]<br/>class = negative>, fillcolor="#e99356"] ;
19 -> 20 ;
21 [label=<gini = 0.159<br/>samples = 607<br/>value = [554, 53]<br/>class = negative>, fillcolor="#e78d4c"] ;
20 -> 21 ;
22 [label=<gini = 0.463<br/>samples = 99<br/>value = [63, 36]<br/>class = negative>, fillcolor="#f4c9aa"] ;
20 -> 22 ;
23 [label=<X<SUB>650</SUB> &le; 0.5<br/>gini = 0.5<br/>samples = 192<br/>value = [98, 94]<br/>class = negative>, fillcolor="#fefaf7"] ;
19 -> 23 ;
24 [label=<X<SUB>15</SUB> &le; 0.5<br/>gini = 0.496<br/>samples = 171<br/>value = [78, 93]<br/>class = positive>, fillcolor="#dfeffb"] ;
23 -> 24 ;
25 [label=<gini = 0.482<br/>samples = 153<br/>value = [62, 91]<br/>class = positive>, fillcolor="#c0e0f7"] ;
24 -> 25 ;
26 [label=<gini = 0.198<br/>samples = 18<br/>value = [16, 2]<br/>class = negative>, fillcolor="#e89152"] ;
24 -> 26 ;
27 [label=<gini = 0.091<br/>samples = 21<br/>value = [20, 1]<br/>class = negative>, fillcolor="#e68743"] ;
23 -> 27 ;
28 [label=<X<SUB>379</SUB> &le; 0.5<br/>gini = 0.444<br/>samples = 87<br/>value = [29, 58]<br/>class = positive>, fillcolor="#9ccef2"] ;
18 -> 28 ;
29 [label=<gini = 0.356<br/>samples = 69<br/>value = [16, 53]<br/>class = positive>, fillcolor="#75bbed"] ;
28 -> 29 ;
30 [label=<gini = 0.401<br/>samples = 18<br/>value = [13, 5]<br/>class = negative>, fillcolor="#efb185"] ;
28 -> 30 ;
}