digraph Tree {
node [shape=box, style="filled, rounded", color="black", fontname=helvetica] ;
edge [fontname=helvetica] ;
0 [label=<time &le; 67.0<br/>entropy = 1.0<br/>samples = 325<br/>value = [162, 163]<br/>class = 1>, fillcolor="#fefeff"] ;
1 [label=<creatinine_phosphokinase &le; 78.0<br/>entropy = 0.394<br/>samples = 103<br/>value = [8, 95]<br/>class = 1>, fillcolor="#4aa5e7"] ;
0 -> 1 [labeldistance=2.5, labelangle=45, headlabel="True"] ;
2 [label=<platelets &le; 213500.0<br/>entropy = 1.0<br/>samples = 6<br/>value = [3, 3]<br/>class = 0>, fillcolor="#ffffff"] ;
1 -> 2 ;
3 [label=<entropy = 0.0<br/>samples = 3<br/>value = [0, 3]<br/>class = 1>, fillcolor="#399de5"] ;
2 -> 3 ;
4 [label=<entropy = 0.0<br/>samples = 3<br/>value = [3, 0]<br/>class = 0>, fillcolor="#e58139"] ;
2 -> 4 ;
5 [label=<time &le; 29.5<br/>entropy = 0.293<br/>samples = 97<br/>value = [5, 92]<br/>class = 1>, fillcolor="#44a2e6"] ;
1 -> 5 ;
6 [label=<entropy = 0.0<br/>samples = 42<br/>value = [0, 42]<br/>class = 1>, fillcolor="#399de5"] ;
5 -> 6 ;
7 [label=<platelets &le; 307500.0<br/>entropy = 0.439<br/>samples = 55<br/>value = [5, 50]<br/>class = 1>, fillcolor="#4da7e8"] ;
5 -> 7 ;
8 [label=<serum_creatinine &le; 1.19<br/>entropy = 0.637<br/>samples = 31<br/>value = [5, 26]<br/>class = 1>, fillcolor="#5fb0ea"] ;
7 -> 8 ;
9 [label=<ejection_fraction &le; 30.0<br/>entropy = 0.971<br/>samples = 10<br/>value = [4, 6]<br/>class = 1>, fillcolor="#bddef6"] ;
8 -> 9 ;
10 [label=<entropy = 0.0<br/>samples = 6<br/>value = [0, 6]<br/>class = 1>, fillcolor="#399de5"] ;
9 -> 10 ;
11 [label=<entropy = 0.0<br/>samples = 4<br/>value = [4, 0]<br/>class = 0>, fillcolor="#e58139"] ;
9 -> 11 ;
12 [label=<platelets &le; 284179.016<br/>entropy = 0.276<br/>samples = 21<br/>value = [1, 20]<br/>class = 1>, fillcolor="#43a2e6"] ;
8 -> 12 ;
13 [label=<entropy = 0.0<br/>samples = 20<br/>value = [0, 20]<br/>class = 1>, fillcolor="#399de5"] ;
12 -> 13 ;
14 [label=<entropy = 0.0<br/>samples = 1<br/>value = [1, 0]<br/>class = 0>, fillcolor="#e58139"] ;
12 -> 14 ;
15 [label=<entropy = 0.0<br/>samples = 24<br/>value = [0, 24]<br/>class = 1>, fillcolor="#399de5"] ;
7 -> 15 ;
16 [label=<serum_creatinine &le; 1.45<br/>entropy = 0.889<br/>samples = 222<br/>value = [154, 68]<br/>class = 0>, fillcolor="#f0b990"] ;
0 -> 16 [labeldistance=2.5, labelangle=-45, headlabel="False"] ;
17 [label=<ejection_fraction &le; 27.5<br/>entropy = 0.617<br/>samples = 157<br/>value = [133, 24]<br/>class = 0>, fillcolor="#ea985d"] ;
16 -> 17 ;
18 [label=<platelets &le; 193500.0<br/>entropy = 0.996<br/>samples = 26<br/>value = [12, 14]<br/>class = 1>, fillcolor="#e3f1fb"] ;
17 -> 18 ;
19 [label=<entropy = 0.0<br/>samples = 5<br/>value = [5, 0]<br/>class = 0>, fillcolor="#e58139"] ;
18 -> 19 ;
20 [label=<platelets &le; 237500.0<br/>entropy = 0.918<br/>samples = 21<br/>value = [7, 14]<br/>class = 1>, fillcolor="#9ccef2"] ;
18 -> 20 ;
21 [label=<entropy = 0.0<br/>samples = 8<br/>value = [0, 8]<br/>class = 1>, fillcolor="#399de5"] ;
20 -> 21 ;
22 [label=<time &le; 80.5<br/>entropy = 0.996<br/>samples = 13<br/>value = [7, 6]<br/>class = 0>, fillcolor="#fbede3"] ;
20 -> 22 ;
23 [label=<entropy = 0.0<br/>samples = 3<br/>value = [0, 3]<br/>class = 1>, fillcolor="#399de5"] ;
22 -> 23 ;
24 [label=<creatinine_phosphokinase &le; 350.0<br/>entropy = 0.881<br/>samples = 10<br/>value = [7, 3]<br/>class = 0>, fillcolor="#f0b78e"] ;
22 -> 24 ;
25 [label=<entropy = 0.0<br/>samples = 4<br/>value = [4, 0]<br/>class = 0>, fillcolor="#e58139"] ;
24 -> 25 ;
26 [label=<serum_sodium &le; 135.0<br/>entropy = 1.0<br/>samples = 6<br/>value = [3, 3]<br/>class = 0>, fillcolor="#ffffff"] ;
24 -> 26 ;
27 [label=<entropy = 0.0<br/>samples = 2<br/>value = [2, 0]<br/>class = 0>, fillcolor="#e58139"] ;
26 -> 27 ;
28 [label=<platelets &le; 370500.0<br/>entropy = 0.811<br/>samples = 4<br/>value = [1, 3]<br/>class = 1>, fillcolor="#7bbeee"] ;
26 -> 28 ;
29 [label=<entropy = 0.0<br/>samples = 3<br/>value = [0, 3]<br/>class = 1>, fillcolor="#399de5"] ;
28 -> 29 ;
30 [label=<entropy = 0.0<br/>samples = 1<br/>value = [1, 0]<br/>class = 0>, fillcolor="#e58139"] ;
28 -> 30 ;
31 [label=<time &le; 173.0<br/>entropy = 0.389<br/>samples = 131<br/>value = [121, 10]<br/>class = 0>, fillcolor="#e78b49"] ;
17 -> 31 ;
32 [label=<creatinine_phosphokinase &le; 532.0<br/>entropy = 0.614<br/>samples = 66<br/>value = [56, 10]<br/>class = 0>, fillcolor="#ea985c"] ;
31 -> 32 ;
33 [label=<platelets &le; 344000.0<br/>entropy = 0.176<br/>samples = 38<br/>value = [37, 1]<br/>class = 0>, fillcolor="#e6843e"] ;
32 -> 33 ;
34 [label=<entropy = 0.0<br/>samples = 33<br/>value = [33, 0]<br/>class = 0>, fillcolor="#e58139"] ;
33 -> 34 ;
35 [label=<age &le; 64.5<br/>entropy = 0.722<br/>samples = 5<br/>value = [4, 1]<br/>class = 0>, fillcolor="#eca06a"] ;
33 -> 35 ;
36 [label=<entropy = 0.0<br/>samples = 4<br/>value = [4, 0]<br/>class = 0>, fillcolor="#e58139"] ;
35 -> 36 ;
37 [label=<entropy = 0.0<br/>samples = 1<br/>value = [0, 1]<br/>class = 1>, fillcolor="#399de5"] ;
35 -> 37 ;
38 [label=<time &le; 123.5<br/>entropy = 0.906<br/>samples = 28<br/>value = [19, 9]<br/>class = 0>, fillcolor="#f1bd97"] ;
32 -> 38 ;
39 [label=<age &le; 73.5<br/>entropy = 0.523<br/>samples = 17<br/>value = [15, 2]<br/>class = 0>, fillcolor="#e89253"] ;
38 -> 39 ;
40 [label=<entropy = 0.0<br/>samples = 13<br/>value = [13, 0]<br/>class = 0>, fillcolor="#e58139"] ;
39 -> 40 ;
41 [label=<serum_creatinine &le; 1.14<br/>entropy = 1.0<br/>samples = 4<br/>value = [2, 2]<br/>class = 0>, fillcolor="#ffffff"] ;
39 -> 41 ;
42 [label=<entropy = 0.0<br/>samples = 2<br/>value = [0, 2]<br/>class = 1>, fillcolor="#399de5"] ;
41 -> 42 ;
43 [label=<entropy = 0.0<br/>samples = 2<br/>value = [2, 0]<br/>class = 0>, fillcolor="#e58139"] ;
41 -> 43 ;
44 [label=<age &le; 51.0<br/>entropy = 0.946<br/>samples = 11<br/>value = [4, 7]<br/>class = 1>, fillcolor="#aad5f4"] ;
38 -> 44 ;
45 [label=<entropy = 0.0<br/>samples = 7<br/>value = [0, 7]<br/>class = 1>, fillcolor="#399de5"] ;
44 -> 45 ;
46 [label=<entropy = 0.0<br/>samples = 4<br/>value = [4, 0]<br/>class = 0>, fillcolor="#e58139"] ;
44 -> 46 ;
47 [label=<entropy = 0.0<br/>samples = 65<br/>value = [65, 0]<br/>class = 0>, fillcolor="#e58139"] ;
31 -> 47 ;
48 [label=<creatinine_phosphokinase &le; 65.0<br/>entropy = 0.908<br/>samples = 65<br/>value = [21, 44]<br/>class = 1>, fillcolor="#98ccf1"] ;
16 -> 48 ;
49 [label=<entropy = 0.0<br/>samples = 5<br/>value = [5, 0]<br/>class = 0>, fillcolor="#e58139"] ;
48 -> 49 ;
50 [label=<time &le; 242.5<br/>entropy = 0.837<br/>samples = 60<br/>value = [16, 44]<br/>class = 1>, fillcolor="#81c1ee"] ;
48 -> 50 ;
51 [label=<platelets &le; 172500.0<br/>entropy = 0.75<br/>samples = 56<br/>value = [12, 44]<br/>class = 1>, fillcolor="#6fb8ec"] ;
50 -> 51 ;
52 [label=<entropy = 0.0<br/>samples = 12<br/>value = [0, 12]<br/>class = 1>, fillcolor="#399de5"] ;
51 -> 52 ;
53 [label=<ejection_fraction &le; 52.5<br/>entropy = 0.845<br/>samples = 44<br/>value = [12, 32]<br/>class = 1>, fillcolor="#83c2ef"] ;
51 -> 53 ;
54 [label=<age &le; 71.0<br/>entropy = 0.792<br/>samples = 42<br/>value = [10, 32]<br/>class = 1>, fillcolor="#77bced"] ;
53 -> 54 ;
55 [label=<age &le; 62.333<br/>entropy = 0.943<br/>samples = 25<br/>value = [9, 16]<br/>class = 1>, fillcolor="#a8d4f4"] ;
54 -> 55 ;
56 [label=<sex &le; 0.5<br/>entropy = 0.792<br/>samples = 21<br/>value = [5, 16]<br/>class = 1>, fillcolor="#77bced"] ;
55 -> 56 ;
57 [label=<entropy = 0.0<br/>samples = 8<br/>value = [0, 8]<br/>class = 1>, fillcolor="#399de5"] ;
56 -> 57 ;
58 [label=<diabetes &le; 0.5<br/>entropy = 0.961<br/>samples = 13<br/>value = [5, 8]<br/>class = 1>, fillcolor="#b5daf5"] ;
56 -> 58 ;
59 [label=<entropy = 0.0<br/>samples = 6<br/>value = [0, 6]<br/>class = 1>, fillcolor="#399de5"] ;
58 -> 59 ;
60 [label=<platelets &le; 326179.016<br/>entropy = 0.863<br/>samples = 7<br/>value = [5, 2]<br/>class = 0>, fillcolor="#efb388"] ;
58 -> 60 ;
61 [label=<entropy = 0.0<br/>samples = 5<br/>value = [5, 0]<br/>class = 0>, fillcolor="#e58139"] ;
60 -> 61 ;
62 [label=<entropy = 0.0<br/>samples = 2<br/>value = [0, 2]<br/>class = 1>, fillcolor="#399de5"] ;
60 -> 62 ;
63 [label=<entropy = 0.0<br/>samples = 4<br/>value = [4, 0]<br/>class = 0>, fillcolor="#e58139"] ;
55 -> 63 ;
64 [label=<diabetes &le; 0.5<br/>entropy = 0.323<br/>samples = 17<br/>value = [1, 16]<br/>class = 1>, fillcolor="#45a3e7"] ;
54 -> 64 ;
65 [label=<entropy = 0.0<br/>samples = 16<br/>value = [0, 16]<br/>class = 1>, fillcolor="#399de5"] ;
64 -> 65 ;
66 [label=<entropy = 0.0<br/>samples = 1<br/>value = [1, 0]<br/>class = 0>, fillcolor="#e58139"] ;
64 -> 66 ;
67 [label=<entropy = 0.0<br/>samples = 2<br/>value = [2, 0]<br/>class = 0>, fillcolor="#e58139"] ;
53 -> 67 ;
68 [label=<entropy = 0.0<br/>samples = 4<br/>value = [4, 0]<br/>class = 0>, fillcolor="#e58139"] ;
50 -> 68 ;
}