digraph Tree {
node [shape=box, style="filled, rounded", color="black", fontname=helvetica] ;
edge [fontname=helvetica] ;
0 [label=<time &le; 73.5<br/>gini = 0.5<br/>samples = 326<br/>value = [163, 163]<br/>class = 0>, fillcolor="#ffffff"] ;
1 [label=<serum_creatinine &le; 0.85<br/>gini = 0.156<br/>samples = 117<br/>value = [10, 107]<br/>class = 1>, fillcolor="#4ca6e7"] ;
0 -> 1 [labeldistance=2.5, labelangle=45, headlabel="True"] ;
2 [label=<ejection_fraction &le; 39.0<br/>gini = 0.5<br/>samples = 4<br/>value = [2, 2]<br/>class = 0>, fillcolor="#ffffff"] ;
1 -> 2 ;
3 [label=<gini = 0.0<br/>samples = 2<br/>value = [0, 2]<br/>class = 1>, fillcolor="#399de5"] ;
2 -> 3 ;
4 [label=<gini = 0.0<br/>samples = 2<br/>value = [2, 0]<br/>class = 0>, fillcolor="#e58139"] ;
2 -> 4 ;
5 [label=<gini = 0.132<br/>samples = 113<br/>value = [8, 105]<br/>class = 1>, fillcolor="#48a4e7"] ;
1 -> 5 ;
6 [label=<serum_creatinine &le; 1.55<br/>gini = 0.392<br/>samples = 209<br/>value = [153, 56]<br/>class = 0>, fillcolor="#efaf81"] ;
0 -> 6 [labeldistance=2.5, labelangle=-45, headlabel="False"] ;
7 [label=<ejection_fraction &le; 27.5<br/>gini = 0.224<br/>samples = 156<br/>value = [136, 20]<br/>class = 0>, fillcolor="#e99456"] ;
6 -> 7 ;
8 [label=<serum_creatinine &le; 1.15<br/>gini = 0.5<br/>samples = 22<br/>value = [11, 11]<br/>class = 0>, fillcolor="#ffffff"] ;
7 -> 8 ;
9 [label=<gini = 0.219<br/>samples = 8<br/>value = [7, 1]<br/>class = 0>, fillcolor="#e99355"] ;
8 -> 9 ;
10 [label=<age &le; 64.0<br/>gini = 0.408<br/>samples = 14<br/>value = [4, 10]<br/>class = 1>, fillcolor="#88c4ef"] ;
8 -> 10 ;
11 [label=<gini = 0.375<br/>samples = 4<br/>value = [3, 1]<br/>class = 0>, fillcolor="#eeab7b"] ;
10 -> 11 ;
12 [label=<age &le; 68.5<br/>gini = 0.18<br/>samples = 10<br/>value = [1, 9]<br/>class = 1>, fillcolor="#4fa8e8"] ;
10 -> 12 ;
13 [label=<gini = 0.0<br/>samples = 9<br/>value = [0, 9]<br/>class = 1>, fillcolor="#399de5"] ;
12 -> 13 ;
14 [label=<gini = 0.0<br/>samples = 1<br/>value = [1, 0]<br/>class = 0>, fillcolor="#e58139"] ;
12 -> 14 ;
15 [label=<age &le; 79.0<br/>gini = 0.125<br/>samples = 134<br/>value = [125, 9]<br/>class = 0>, fillcolor="#e78a47"] ;
7 -> 15 ;
16 [label=<serum_creatinine &le; 0.65<br/>gini = 0.061<br/>samples = 126<br/>value = [122, 4]<br/>class = 0>, fillcolor="#e6853f"] ;
15 -> 16 ;
17 [label=<ejection_fraction &le; 40.0<br/>gini = 0.444<br/>samples = 3<br/>value = [1, 2]<br/>class = 1>, fillcolor="#9ccef2"] ;
16 -> 17 ;
18 [label=<gini = 0.0<br/>samples = 1<br/>value = [1, 0]<br/>class = 0>, fillcolor="#e58139"] ;
17 -> 18 ;
19 [label=<gini = 0.0<br/>samples = 2<br/>value = [0, 2]<br/>class = 1>, fillcolor="#399de5"] ;
17 -> 19 ;
20 [label=<platelets &le; 90000.0<br/>gini = 0.032<br/>samples = 123<br/>value = [121, 2]<br/>class = 0>, fillcolor="#e5833c"] ;
16 -> 20 ;
21 [label=<sex &le; 0.5<br/>gini = 0.444<br/>samples = 3<br/>value = [1, 2]<br/>class = 1>, fillcolor="#9ccef2"] ;
20 -> 21 ;
22 [label=<gini = 0.0<br/>samples = 2<br/>value = [0, 2]<br/>class = 1>, fillcolor="#399de5"] ;
21 -> 22 ;
23 [label=<gini = 0.0<br/>samples = 1<br/>value = [1, 0]<br/>class = 0>, fillcolor="#e58139"] ;
21 -> 23 ;
24 [label=<gini = 0.0<br/>samples = 120<br/>value = [120, 0]<br/>class = 0>, fillcolor="#e58139"] ;
20 -> 24 ;
25 [label=<age &le; 82.5<br/>gini = 0.469<br/>samples = 8<br/>value = [3, 5]<br/>class = 1>, fillcolor="#b0d8f5"] ;
15 -> 25 ;
26 [label=<gini = 0.0<br/>samples = 5<br/>value = [0, 5]<br/>class = 1>, fillcolor="#399de5"] ;
25 -> 26 ;
27 [label=<gini = 0.0<br/>samples = 3<br/>value = [3, 0]<br/>class = 0>, fillcolor="#e58139"] ;
25 -> 27 ;
28 [label=<creatinine_phosphokinase &le; 116.5<br/>gini = 0.436<br/>samples = 53<br/>value = [17, 36]<br/>class = 1>, fillcolor="#96cbf1"] ;
6 -> 28 ;
29 [label=<gini = 0.0<br/>samples = 6<br/>value = [6, 0]<br/>class = 0>, fillcolor="#e58139"] ;
28 -> 29 ;
30 [label=<time &le; 242.5<br/>gini = 0.359<br/>samples = 47<br/>value = [11, 36]<br/>class = 1>, fillcolor="#76bbed"] ;
28 -> 30 ;
31 [label=<diabetes &le; 0.5<br/>gini = 0.273<br/>samples = 43<br/>value = [7, 36]<br/>class = 1>, fillcolor="#5fb0ea"] ;
30 -> 31 ;
32 [label=<creatinine_phosphokinase &le; 148.5<br/>gini = 0.117<br/>samples = 32<br/>value = [2, 30]<br/>class = 1>, fillcolor="#46a4e7"] ;
31 -> 32 ;
33 [label=<gini = 0.0<br/>samples = 1<br/>value = [1, 0]<br/>class = 0>, fillcolor="#e58139"] ;
32 -> 33 ;
34 [label=<serum_sodium &le; 132.0<br/>gini = 0.062<br/>samples = 31<br/>value = [1, 30]<br/>class = 1>, fillcolor="#40a0e6"] ;
32 -> 34 ;
35 [label=<gini = 0.0<br/>samples = 1<br/>value = [1, 0]<br/>class = 0>, fillcolor="#e58139"] ;
34 -> 35 ;
36 [label=<gini = 0.0<br/>samples = 30<br/>value = [0, 30]<br/>class = 1>, fillcolor="#399de5"] ;
34 -> 36 ;
37 [label=<sex &le; 0.5<br/>gini = 0.496<br/>samples = 11<br/>value = [5, 6]<br/>class = 1>, fillcolor="#deeffb"] ;
31 -> 37 ;
38 [label=<gini = 0.0<br/>samples = 6<br/>value = [0, 6]<br/>class = 1>, fillcolor="#399de5"] ;
37 -> 38 ;
39 [label=<gini = 0.0<br/>samples = 5<br/>value = [5, 0]<br/>class = 0>, fillcolor="#e58139"] ;
37 -> 39 ;
40 [label=<gini = 0.0<br/>samples = 4<br/>value = [4, 0]<br/>class = 0>, fillcolor="#e58139"] ;
30 -> 40 ;
}