digraph Tree {
node [shape=box, style="filled, rounded", color="black", fontname=helvetica] ;
edge [fontname=helvetica] ;
0 [label=<time &le; 73.5<br/>entropy = 1.0<br/>samples = 325<br/>value = [162, 163]<br/>class = 1>, fillcolor="#fefeff"] ;
1 [label=<serum_sodium &le; 136.5<br/>entropy = 0.389<br/>samples = 118<br/>value = [9, 109]<br/>class = 1>, fillcolor="#49a5e7"] ;
0 -> 1 [labeldistance=2.5, labelangle=45, headlabel="True"] ;
2 [label=<ejection_fraction &le; 47.5<br/>entropy = 0.121<br/>samples = 61<br/>value = [1, 60]<br/>class = 1>, fillcolor="#3c9fe5"] ;
1 -> 2 ;
3 [label=<entropy = 0.0<br/>samples = 50<br/>value = [0, 50]<br/>class = 1>, fillcolor="#399de5"] ;
2 -> 3 ;
4 [label=<anaemia &le; 0.5<br/>entropy = 0.439<br/>samples = 11<br/>value = [1, 10]<br/>class = 1>, fillcolor="#4da7e8"] ;
2 -> 4 ;
5 [label=<entropy = 0.0<br/>samples = 1<br/>value = [1, 0]<br/>class = 0>, fillcolor="#e58139"] ;
4 -> 5 ;
6 [label=<entropy = 0.0<br/>samples = 10<br/>value = [0, 10]<br/>class = 1>, fillcolor="#399de5"] ;
4 -> 6 ;
7 [label=<serum_sodium &le; 139.5<br/>entropy = 0.585<br/>samples = 57<br/>value = [8, 49]<br/>class = 1>, fillcolor="#59ade9"] ;
1 -> 7 ;
8 [label=<platelets &le; 213000.0<br/>entropy = 0.837<br/>samples = 30<br/>value = [8, 22]<br/>class = 1>, fillcolor="#81c1ee"] ;
7 -> 8 ;
9 [label=<platelets &le; 124500.0<br/>entropy = 0.337<br/>samples = 16<br/>value = [1, 15]<br/>class = 1>, fillcolor="#46a4e7"] ;
8 -> 9 ;
10 [label=<entropy = 0.0<br/>samples = 1<br/>value = [1, 0]<br/>class = 0>, fillcolor="#e58139"] ;
9 -> 10 ;
11 [label=<entropy = 0.0<br/>samples = 15<br/>value = [0, 15]<br/>class = 1>, fillcolor="#399de5"] ;
9 -> 11 ;
12 [label=<platelets &le; 347500.0<br/>entropy = 1.0<br/>samples = 14<br/>value = [7, 7]<br/>class = 0>, fillcolor="#ffffff"] ;
8 -> 12 ;
13 [label=<time &le; 13.0<br/>entropy = 0.592<br/>samples = 7<br/>value = [6, 1]<br/>class = 0>, fillcolor="#e9965a"] ;
12 -> 13 ;
14 [label=<entropy = 0.0<br/>samples = 1<br/>value = [0, 1]<br/>class = 1>, fillcolor="#399de5"] ;
13 -> 14 ;
15 [label=<entropy = 0.0<br/>samples = 6<br/>value = [6, 0]<br/>class = 0>, fillcolor="#e58139"] ;
13 -> 15 ;
16 [label=<creatinine_phosphokinase &le; 85.5<br/>entropy = 0.592<br/>samples = 7<br/>value = [1, 6]<br/>class = 1>, fillcolor="#5aade9"] ;
12 -> 16 ;
17 [label=<entropy = 0.0<br/>samples = 1<br/>value = [1, 0]<br/>class = 0>, fillcolor="#e58139"] ;
16 -> 17 ;
18 [label=<entropy = 0.0<br/>samples = 6<br/>value = [0, 6]<br/>class = 1>, fillcolor="#399de5"] ;
16 -> 18 ;
19 [label=<entropy = 0.0<br/>samples = 27<br/>value = [0, 27]<br/>class = 1>, fillcolor="#399de5"] ;
7 -> 19 ;
20 [label=<serum_creatinine &le; 1.45<br/>entropy = 0.828<br/>samples = 207<br/>value = [153, 54]<br/>class = 0>, fillcolor="#eead7f"] ;
0 -> 20 [labeldistance=2.5, labelangle=-45, headlabel="False"] ;
21 [label=<ejection_fraction &le; 27.5<br/>entropy = 0.454<br/>samples = 147<br/>value = [133, 14]<br/>class = 0>, fillcolor="#e88e4e"] ;
20 -> 21 ;
22 [label=<platelets &le; 193500.0<br/>entropy = 0.991<br/>samples = 18<br/>value = [10, 8]<br/>class = 0>, fillcolor="#fae6d7"] ;
21 -> 22 ;
23 [label=<entropy = 0.0<br/>samples = 4<br/>value = [4, 0]<br/>class = 0>, fillcolor="#e58139"] ;
22 -> 23 ;
24 [label=<platelets &le; 227000.0<br/>entropy = 0.985<br/>samples = 14<br/>value = [6, 8]<br/>class = 1>, fillcolor="#cee6f8"] ;
22 -> 24 ;
25 [label=<entropy = 0.0<br/>samples = 5<br/>value = [0, 5]<br/>class = 1>, fillcolor="#399de5"] ;
24 -> 25 ;
26 [label=<creatinine_phosphokinase &le; 265.0<br/>entropy = 0.918<br/>samples = 9<br/>value = [6, 3]<br/>class = 0>, fillcolor="#f2c09c"] ;
24 -> 26 ;
27 [label=<entropy = 0.0<br/>samples = 4<br/>value = [4, 0]<br/>class = 0>, fillcolor="#e58139"] ;
26 -> 27 ;
28 [label=<creatinine_phosphokinase &le; 488.5<br/>entropy = 0.971<br/>samples = 5<br/>value = [2, 3]<br/>class = 1>, fillcolor="#bddef6"] ;
26 -> 28 ;
29 [label=<entropy = 0.0<br/>samples = 2<br/>value = [0, 2]<br/>class = 1>, fillcolor="#399de5"] ;
28 -> 29 ;
30 [label=<time &le; 209.5<br/>entropy = 0.918<br/>samples = 3<br/>value = [2, 1]<br/>class = 0>, fillcolor="#f2c09c"] ;
28 -> 30 ;
31 [label=<entropy = 0.0<br/>samples = 2<br/>value = [2, 0]<br/>class = 0>, fillcolor="#e58139"] ;
30 -> 31 ;
32 [label=<entropy = 0.0<br/>samples = 1<br/>value = [0, 1]<br/>class = 1>, fillcolor="#399de5"] ;
30 -> 32 ;
33 [label=<age &le; 79.0<br/>entropy = 0.271<br/>samples = 129<br/>value = [123, 6]<br/>class = 0>, fillcolor="#e68743"] ;
21 -> 33 ;
34 [label=<platelets &le; 332000.0<br/>entropy = 0.121<br/>samples = 121<br/>value = [119, 2]<br/>class = 0>, fillcolor="#e5833c"] ;
33 -> 34 ;
35 [label=<entropy = 0.0<br/>samples = 103<br/>value = [103, 0]<br/>class = 0>, fillcolor="#e58139"] ;
34 -> 35 ;
36 [label=<platelets &le; 354500.0<br/>entropy = 0.503<br/>samples = 18<br/>value = [16, 2]<br/>class = 0>, fillcolor="#e89152"] ;
34 -> 36 ;
37 [label=<serum_creatinine &le; 1.05<br/>entropy = 0.971<br/>samples = 5<br/>value = [3, 2]<br/>class = 0>, fillcolor="#f6d5bd"] ;
36 -> 37 ;
38 [label=<entropy = 0.0<br/>samples = 3<br/>value = [3, 0]<br/>class = 0>, fillcolor="#e58139"] ;
37 -> 38 ;
39 [label=<entropy = 0.0<br/>samples = 2<br/>value = [0, 2]<br/>class = 1>, fillcolor="#399de5"] ;
37 -> 39 ;
40 [label=<entropy = 0.0<br/>samples = 13<br/>value = [13, 0]<br/>class = 0>, fillcolor="#e58139"] ;
36 -> 40 ;
41 [label=<serum_sodium &le; 135.5<br/>entropy = 1.0<br/>samples = 8<br/>value = [4, 4]<br/>class = 0>, fillcolor="#ffffff"] ;
33 -> 41 ;
42 [label=<anaemia &le; 0.5<br/>entropy = 0.722<br/>samples = 5<br/>value = [1, 4]<br/>class = 1>, fillcolor="#6ab6ec"] ;
41 -> 42 ;
43 [label=<entropy = 0.0<br/>samples = 4<br/>value = [0, 4]<br/>class = 1>, fillcolor="#399de5"] ;
42 -> 43 ;
44 [label=<entropy = 0.0<br/>samples = 1<br/>value = [1, 0]<br/>class = 0>, fillcolor="#e58139"] ;
42 -> 44 ;
45 [label=<entropy = 0.0<br/>samples = 3<br/>value = [3, 0]<br/>class = 0>, fillcolor="#e58139"] ;
41 -> 45 ;
46 [label=<time &le; 242.5<br/>entropy = 0.918<br/>samples = 60<br/>value = [20, 40]<br/>class = 1>, fillcolor="#9ccef2"] ;
20 -> 46 ;
47 [label=<ejection_fraction &le; 32.5<br/>entropy = 0.845<br/>samples = 55<br/>value = [15, 40]<br/>class = 1>, fillcolor="#83c2ef"] ;
46 -> 47 ;
48 [label=<sex &le; 0.5<br/>entropy = 0.581<br/>samples = 36<br/>value = [5, 31]<br/>class = 1>, fillcolor="#59ade9"] ;
47 -> 48 ;
49 [label=<entropy = 0.0<br/>samples = 14<br/>value = [0, 14]<br/>class = 1>, fillcolor="#399de5"] ;
48 -> 49 ;
50 [label=<ejection_fraction &le; 22.5<br/>entropy = 0.773<br/>samples = 22<br/>value = [5, 17]<br/>class = 1>, fillcolor="#73baed"] ;
48 -> 50 ;
51 [label=<entropy = 0.0<br/>samples = 8<br/>value = [0, 8]<br/>class = 1>, fillcolor="#399de5"] ;
50 -> 51 ;
52 [label=<serum_creatinine &le; 1.965<br/>entropy = 0.94<br/>samples = 14<br/>value = [5, 9]<br/>class = 1>, fillcolor="#a7d3f3"] ;
50 -> 52 ;
53 [label=<creatinine_phosphokinase &le; 192.5<br/>entropy = 0.684<br/>samples = 11<br/>value = [2, 9]<br/>class = 1>, fillcolor="#65b3eb"] ;
52 -> 53 ;
54 [label=<entropy = 0.0<br/>samples = 8<br/>value = [0, 8]<br/>class = 1>, fillcolor="#399de5"] ;
53 -> 54 ;
55 [label=<age &le; 67.5<br/>entropy = 0.918<br/>samples = 3<br/>value = [2, 1]<br/>class = 0>, fillcolor="#f2c09c"] ;
53 -> 55 ;
56 [label=<entropy = 0.0<br/>samples = 2<br/>value = [2, 0]<br/>class = 0>, fillcolor="#e58139"] ;
55 -> 56 ;
57 [label=<entropy = 0.0<br/>samples = 1<br/>value = [0, 1]<br/>class = 1>, fillcolor="#399de5"] ;
55 -> 57 ;
58 [label=<entropy = 0.0<br/>samples = 3<br/>value = [3, 0]<br/>class = 0>, fillcolor="#e58139"] ;
52 -> 58 ;
59 [label=<platelets &le; 263679.016<br/>entropy = 0.998<br/>samples = 19<br/>value = [10, 9]<br/>class = 0>, fillcolor="#fcf2eb"] ;
47 -> 59 ;
60 [label=<diabetes &le; 0.5<br/>entropy = 0.89<br/>samples = 13<br/>value = [4, 9]<br/>class = 1>, fillcolor="#91c9f1"] ;
59 -> 60 ;
61 [label=<smoking &le; 0.5<br/>entropy = 0.469<br/>samples = 10<br/>value = [1, 9]<br/>class = 1>, fillcolor="#4fa8e8"] ;
60 -> 61 ;
62 [label=<entropy = 0.0<br/>samples = 9<br/>value = [0, 9]<br/>class = 1>, fillcolor="#399de5"] ;
61 -> 62 ;
63 [label=<entropy = 0.0<br/>samples = 1<br/>value = [1, 0]<br/>class = 0>, fillcolor="#e58139"] ;
61 -> 63 ;
64 [label=<entropy = 0.0<br/>samples = 3<br/>value = [3, 0]<br/>class = 0>, fillcolor="#e58139"] ;
60 -> 64 ;
65 [label=<entropy = 0.0<br/>samples = 6<br/>value = [6, 0]<br/>class = 0>, fillcolor="#e58139"] ;
59 -> 65 ;
66 [label=<entropy = 0.0<br/>samples = 5<br/>value = [5, 0]<br/>class = 0>, fillcolor="#e58139"] ;
46 -> 66 ;
}