digraph Tree {
node [shape=box, style="filled, rounded", color="black", fontname=helvetica] ;
edge [fontname=helvetica] ;
0 [label=<time &le; -0.733<br/>gini = 0.436<br/>samples = 240<br/>value = [163, 77]<br/>class = 0>, fillcolor="#f1bd97"] ;
1 [label=<gini = 0.274<br/>samples = 61<br/>value = [10, 51]<br/>class = 1>, fillcolor="#60b0ea"] ;
0 -> 1 [labeldistance=2.5, labelangle=45, headlabel="True"] ;
2 [label=<serum_creatinine &le; 0.746<br/>gini = 0.248<br/>samples = 179<br/>value = [153, 26]<br/>class = 0>, fillcolor="#e9965b"] ;
0 -> 2 [labeldistance=2.5, labelangle=-45, headlabel="False"] ;
3 [label=<gini = 0.134<br/>samples = 152<br/>value = [141, 11]<br/>class = 0>, fillcolor="#e78b48"] ;
2 -> 3 ;
4 [label=<time &le; 0.919<br/>gini = 0.494<br/>samples = 27<br/>value = [12, 15]<br/>class = 1>, fillcolor="#d7ebfa"] ;
2 -> 4 ;
5 [label=<ejection_fraction &le; -0.475<br/>gini = 0.42<br/>samples = 20<br/>value = [6, 14]<br/>class = 1>, fillcolor="#8ec7f0"] ;
4 -> 5 ;
6 [label=<gini = 0.0<br/>samples = 8<br/>value = [0, 8]<br/>class = 1>, fillcolor="#399de5"] ;
5 -> 6 ;
7 [label=<gini = 0.5<br/>samples = 12<br/>value = [6, 6]<br/>class = 0>, fillcolor="#ffffff"] ;
5 -> 7 ;
8 [label=<gini = 0.245<br/>samples = 7<br/>value = [6, 1]<br/>class = 0>, fillcolor="#e9965a"] ;
4 -> 8 ;
}