digraph Tree {
node [shape=box, style="filled, rounded", color="black", fontname=helvetica] ;
edge [fontname=helvetica] ;
0 [label=<X<SUB>4</SUB> &le; 0.5<br/>entropy = 0.411<br/>samples = 6294<br/>value = [5775, 519]<br/>class = negative>, fillcolor="#e78c4b"] ;
1 [label=<X<SUB>87</SUB> &le; 0.5<br/>entropy = 0.361<br/>samples = 5992<br/>value = [5580, 412]<br/>class = negative>, fillcolor="#e78a48"] ;
0 -> 1 [labeldistance=2.5, labelangle=45, headlabel="True"] ;
2 [label=<X<SUB>97</SUB> &le; 0.5<br/>entropy = 0.318<br/>samples = 5592<br/>value = [5270, 322]<br/>class = negative>, fillcolor="#e78945"] ;
1 -> 2 ;
3 [label=<X<SUB>93</SUB> &le; 0.5<br/>entropy = 0.272<br/>samples = 4618<br/>value = [4403, 215]<br/>class = negative>, fillcolor="#e68743"] ;
2 -> 3 ;
4 [label=<X<SUB>102</SUB> &le; 0.5<br/>entropy = 0.252<br/>samples = 4491<br/>value = [4302, 189]<br/>class = negative>, fillcolor="#e68742"] ;
3 -> 4 ;
5 [label=<entropy = 0.229<br/>samples = 4197<br/>value = [4041, 156]<br/>class = negative>, fillcolor="#e68641"] ;
4 -> 5 ;
6 [label=<entropy = 0.507<br/>samples = 294<br/>value = [261, 33]<br/>class = negative>, fillcolor="#e89152"] ;
4 -> 6 ;
7 [label=<X<SUB>89</SUB> &le; 0.5<br/>entropy = 0.731<br/>samples = 127<br/>value = [101, 26]<br/>class = negative>, fillcolor="#eca16c"] ;
3 -> 7 ;
8 [label=<entropy = 0.909<br/>samples = 71<br/>value = [48, 23]<br/>class = negative>, fillcolor="#f1bd98"] ;
7 -> 8 ;
9 [label=<entropy = 0.301<br/>samples = 56<br/>value = [53, 3]<br/>class = negative>, fillcolor="#e68844"] ;
7 -> 9 ;
10 [label=<X<SUB>59</SUB> &le; 0.5<br/>entropy = 0.499<br/>samples = 974<br/>value = [867, 107]<br/>class = negative>, fillcolor="#e89151"] ;
2 -> 10 ;
11 [label=<X<SUB>73</SUB> &le; 0.5<br/>entropy = 0.415<br/>samples = 909<br/>value = [833, 76]<br/>class = negative>, fillcolor="#e78c4b"] ;
10 -> 11 ;
12 [label=<entropy = 0.313<br/>samples = 832<br/>value = [785, 47]<br/>class = negative>, fillcolor="#e78945"] ;
11 -> 12 ;
13 [label=<entropy = 0.956<br/>samples = 77<br/>value = [48, 29]<br/>class = negative>, fillcolor="#f5cdb1"] ;
11 -> 13 ;
14 [label=<X<SUB>38</SUB> &le; 0.5<br/>entropy = 0.998<br/>samples = 65<br/>value = [34, 31]<br/>class = negative>, fillcolor="#fdf4ee"] ;
10 -> 14 ;
15 [label=<entropy = 0.839<br/>samples = 41<br/>value = [30, 11]<br/>class = negative>, fillcolor="#efaf82"] ;
14 -> 15 ;
16 [label=<entropy = 0.65<br/>samples = 24<br/>value = [4, 20]<br/>class = positive>, fillcolor="#61b1ea"] ;
14 -> 16 ;
17 [label=<X<SUB>11</SUB> &le; 0.5<br/>entropy = 0.769<br/>samples = 400<br/>value = [310, 90]<br/>class = negative>, fillcolor="#eda672"] ;
1 -> 17 ;
18 [label=<X<SUB>50</SUB> &le; 0.5<br/>entropy = 0.519<br/>samples = 318<br/>value = [281, 37]<br/>class = negative>, fillcolor="#e89253"] ;
17 -> 18 ;
19 [label=<X<SUB>76</SUB> &le; 0.5<br/>entropy = 0.454<br/>samples = 294<br/>value = [266, 28]<br/>class = negative>, fillcolor="#e88e4e"] ;
18 -> 19 ;
20 [label=<entropy = 0.424<br/>samples = 290<br/>value = [265, 25]<br/>class = negative>, fillcolor="#e78d4c"] ;
19 -> 20 ;
21 [label=<entropy = 0.811<br/>samples = 4<br/>value = [1, 3]<br/>class = positive>, fillcolor="#7bbeee"] ;
19 -> 21 ;
22 [label=<X<SUB>44</SUB> &le; 0.5<br/>entropy = 0.954<br/>samples = 24<br/>value = [15, 9]<br/>class = negative>, fillcolor="#f5cdb0"] ;
18 -> 22 ;
23 [label=<entropy = 0.764<br/>samples = 18<br/>value = [14, 4]<br/>class = negative>, fillcolor="#eca572"] ;
22 -> 23 ;
24 [label=<entropy = 0.65<br/>samples = 6<br/>value = [1, 5]<br/>class = positive>, fillcolor="#61b1ea"] ;
22 -> 24 ;
25 [label=<X<SUB>98</SUB> &le; 0.5<br/>entropy = 0.937<br/>samples = 82<br/>value = [29, 53]<br/>class = positive>, fillcolor="#a5d3f3"] ;
17 -> 25 ;
26 [label=<entropy = 0.0<br/>samples = 15<br/>value = [15, 0]<br/>class = negative>, fillcolor="#e58139"] ;
25 -> 26 ;
27 [label=<X<SUB>12</SUB> &le; 0.5<br/>entropy = 0.739<br/>samples = 67<br/>value = [14, 53]<br/>class = positive>, fillcolor="#6db7ec"] ;
25 -> 27 ;
28 [label=<entropy = 0.631<br/>samples = 63<br/>value = [10, 53]<br/>class = positive>, fillcolor="#5eafea"] ;
27 -> 28 ;
29 [label=<entropy = 0.0<br/>samples = 4<br/>value = [4, 0]<br/>class = negative>, fillcolor="#e58139"] ;
27 -> 29 ;
30 [label=<X<SUB>52</SUB> &le; 0.5<br/>entropy = 0.938<br/>samples = 302<br/>value = [195, 107]<br/>class = negative>, fillcolor="#f3c6a6"] ;
0 -> 30 [labeldistance=2.5, labelangle=-45, headlabel="False"] ;
31 [label=<X<SUB>79</SUB> &le; 0.5<br/>entropy = 0.76<br/>samples = 182<br/>value = [142, 40]<br/>class = negative>, fillcolor="#eca471"] ;
30 -> 31 ;
32 [label=<X<SUB>87</SUB> &le; 0.5<br/>entropy = 0.819<br/>samples = 157<br/>value = [117, 40]<br/>class = negative>, fillcolor="#eeac7d"] ;
31 -> 32 ;
33 [label=<X<SUB>100</SUB> &le; 0.5<br/>entropy = 0.706<br/>samples = 125<br/>value = [101, 24]<br/>class = negative>, fillcolor="#eb9f68"] ;
32 -> 33 ;
34 [label=<entropy = 0.663<br/>samples = 122<br/>value = [101, 21]<br/>class = negative>, fillcolor="#ea9b62"] ;
33 -> 34 ;
35 [label=<entropy = 0.0<br/>samples = 3<br/>value = [0, 3]<br/>class = positive>, fillcolor="#399de5"] ;
33 -> 35 ;
36 [label=<X<SUB>6</SUB> &le; 0.5<br/>entropy = 1.0<br/>samples = 32<br/>value = [16, 16]<br/>class = negative>, fillcolor="#ffffff"] ;
32 -> 36 ;
37 [label=<entropy = 0.811<br/>samples = 20<br/>value = [5, 15]<br/>class = positive>, fillcolor="#7bbeee"] ;
36 -> 37 ;
38 [label=<entropy = 0.414<br/>samples = 12<br/>value = [11, 1]<br/>class = negative>, fillcolor="#e78c4b"] ;
36 -> 38 ;
39 [label=<entropy = 0.0<br/>samples = 25<br/>value = [25, 0]<br/>class = negative>, fillcolor="#e58139"] ;
31 -> 39 ;
40 [label=<X<SUB>71</SUB> &le; 0.5<br/>entropy = 0.99<br/>samples = 120<br/>value = [53, 67]<br/>class = positive>, fillcolor="#d6ebfa"] ;
30 -> 40 ;
41 [label=<X<SUB>78</SUB> &le; 0.5<br/>entropy = 0.978<br/>samples = 114<br/>value = [47, 67]<br/>class = positive>, fillcolor="#c4e2f7"] ;
40 -> 41 ;
42 [label=<X<SUB>102</SUB> &le; 0.5<br/>entropy = 0.965<br/>samples = 110<br/>value = [43, 67]<br/>class = positive>, fillcolor="#b8dcf6"] ;
41 -> 42 ;
43 [label=<entropy = 0.949<br/>samples = 106<br/>value = [39, 67]<br/>class = positive>, fillcolor="#acd6f4"] ;
42 -> 43 ;
44 [label=<entropy = 0.0<br/>samples = 4<br/>value = [4, 0]<br/>class = negative>, fillcolor="#e58139"] ;
42 -> 44 ;
45 [label=<entropy = 0.0<br/>samples = 4<br/>value = [4, 0]<br/>class = negative>, fillcolor="#e58139"] ;
41 -> 45 ;
46 [label=<entropy = 0.0<br/>samples = 6<br/>value = [6, 0]<br/>class = negative>, fillcolor="#e58139"] ;
40 -> 46 ;
}