digraph Tree {
node [shape=box, style="filled, rounded", color="black", fontname=helvetica] ;
edge [fontname=helvetica] ;
0 [label=<time &le; 69.0<br/>gini = 0.5<br/>samples = 154<br/>value = [77, 77]<br/>class = 0>, fillcolor="#ffffff"] ;
1 [label=<serum_creatinine &le; 0.7<br/>gini = 0.168<br/>samples = 54<br/>value = [5, 49]<br/>class = 1>, fillcolor="#4da7e8"] ;
0 -> 1 [labeldistance=2.5, labelangle=45, headlabel="True"] ;
2 [label=<gini = 0.0<br/>samples = 1<br/>value = [1, 0]<br/>class = 0>, fillcolor="#e58139"] ;
1 -> 2 ;
3 [label=<gini = 0.14<br/>samples = 53<br/>value = [4, 49]<br/>class = 1>, fillcolor="#49a5e7"] ;
1 -> 3 ;
4 [label=<serum_creatinine &le; 1.19<br/>gini = 0.403<br/>samples = 100<br/>value = [72, 28]<br/>class = 0>, fillcolor="#efb286"] ;
0 -> 4 [labeldistance=2.5, labelangle=-45, headlabel="False"] ;
5 [label=<ejection_fraction &le; 27.5<br/>gini = 0.188<br/>samples = 57<br/>value = [51, 6]<br/>class = 0>, fillcolor="#e89050"] ;
4 -> 5 ;
6 [label=<age &le; 52.5<br/>gini = 0.49<br/>samples = 7<br/>value = [4, 3]<br/>class = 0>, fillcolor="#f8e0ce"] ;
5 -> 6 ;
7 [label=<gini = 0.0<br/>samples = 3<br/>value = [3, 0]<br/>class = 0>, fillcolor="#e58139"] ;
6 -> 7 ;
8 [label=<gini = 0.375<br/>samples = 4<br/>value = [1, 3]<br/>class = 1>, fillcolor="#7bbeee"] ;
6 -> 8 ;
9 [label=<platelets &le; 96000.0<br/>gini = 0.113<br/>samples = 50<br/>value = [47, 3]<br/>class = 0>, fillcolor="#e78946"] ;
5 -> 9 ;
10 [label=<gini = 0.0<br/>samples = 1<br/>value = [0, 1]<br/>class = 1>, fillcolor="#399de5"] ;
9 -> 10 ;
11 [label=<gini = 0.078<br/>samples = 49<br/>value = [47, 2]<br/>class = 0>, fillcolor="#e68641"] ;
9 -> 11 ;
12 [label=<time &le; 202.5<br/>gini = 0.5<br/>samples = 43<br/>value = [21, 22]<br/>class = 1>, fillcolor="#f6fbfe"] ;
4 -> 12 ;
13 [label=<creatinine_phosphokinase &le; 64.0<br/>gini = 0.437<br/>samples = 31<br/>value = [10, 21]<br/>class = 1>, fillcolor="#97ccf1"] ;
12 -> 13 ;
14 [label=<gini = 0.0<br/>samples = 4<br/>value = [4, 0]<br/>class = 0>, fillcolor="#e58139"] ;
13 -> 14 ;
15 [label=<time &le; 125.0<br/>gini = 0.346<br/>samples = 27<br/>value = [6, 21]<br/>class = 1>, fillcolor="#72b9ec"] ;
13 -> 15 ;
16 [label=<age &le; 68.5<br/>gini = 0.48<br/>samples = 15<br/>value = [6, 9]<br/>class = 1>, fillcolor="#bddef6"] ;
15 -> 16 ;
17 [label=<creatinine_phosphokinase &le; 196.0<br/>gini = 0.444<br/>samples = 9<br/>value = [6, 3]<br/>class = 0>, fillcolor="#f2c09c"] ;
16 -> 17 ;
18 [label=<gini = 0.0<br/>samples = 3<br/>value = [0, 3]<br/>class = 1>, fillcolor="#399de5"] ;
17 -> 18 ;
19 [label=<gini = 0.0<br/>samples = 6<br/>value = [6, 0]<br/>class = 0>, fillcolor="#e58139"] ;
17 -> 19 ;
20 [label=<gini = 0.0<br/>samples = 6<br/>value = [0, 6]<br/>class = 1>, fillcolor="#399de5"] ;
16 -> 20 ;
21 [label=<gini = 0.0<br/>samples = 12<br/>value = [0, 12]<br/>class = 1>, fillcolor="#399de5"] ;
15 -> 21 ;
22 [label=<gini = 0.153<br/>samples = 12<br/>value = [11, 1]<br/>class = 0>, fillcolor="#e78c4b"] ;
12 -> 22 ;
}