digraph Tree {
node [shape=box, style="filled, rounded", color="black", fontname=helvetica] ;
edge [fontname=helvetica] ;
0 [label=<time &le; -0.81<br/>entropy = 1.0<br/>samples = 325<br/>value = [162, 163]<br/>class = 1>, fillcolor="#fefeff"] ;
1 [label=<creatinine_phosphokinase &le; -0.897<br/>entropy = 0.362<br/>samples = 116<br/>value = [8, 108]<br/>class = 1>, fillcolor="#48a4e7"] ;
0 -> 1 [labeldistance=2.5, labelangle=45, headlabel="True"] ;
2 [label=<serum_sodium &le; -0.544<br/>entropy = 0.837<br/>samples = 15<br/>value = [4, 11]<br/>class = 1>, fillcolor="#81c1ee"] ;
1 -> 2 ;
3 [label=<entropy = 0.0<br/>samples = 11<br/>value = [0, 11]<br/>class = 1>, fillcolor="#399de5"] ;
2 -> 3 ;
4 [label=<entropy = 0.0<br/>samples = 4<br/>value = [4, 0]<br/>class = 0>, fillcolor="#e58139"] ;
2 -> 4 ;
5 [label=<time &le; -1.313<br/>entropy = 0.24<br/>samples = 101<br/>value = [4, 97]<br/>class = 1>, fillcolor="#41a1e6"] ;
1 -> 5 ;
6 [label=<entropy = 0.0<br/>samples = 41<br/>value = [0, 41]<br/>class = 1>, fillcolor="#399de5"] ;
5 -> 6 ;
7 [label=<serum_sodium &le; 0.439<br/>entropy = 0.353<br/>samples = 60<br/>value = [4, 56]<br/>class = 1>, fillcolor="#47a4e7"] ;
5 -> 7 ;
8 [label=<serum_sodium &le; -0.052<br/>entropy = 0.513<br/>samples = 35<br/>value = [4, 31]<br/>class = 1>, fillcolor="#53aae8"] ;
7 -> 8 ;
9 [label=<ejection_fraction &le; 0.601<br/>entropy = 0.222<br/>samples = 28<br/>value = [1, 27]<br/>class = 1>, fillcolor="#40a1e6"] ;
8 -> 9 ;
10 [label=<entropy = 0.0<br/>samples = 27<br/>value = [0, 27]<br/>class = 1>, fillcolor="#399de5"] ;
9 -> 10 ;
11 [label=<entropy = 0.0<br/>samples = 1<br/>value = [1, 0]<br/>class = 0>, fillcolor="#e58139"] ;
9 -> 11 ;
12 [label=<high_blood_pressure &le; 0.312<br/>entropy = 0.985<br/>samples = 7<br/>value = [3, 4]<br/>class = 1>, fillcolor="#cee6f8"] ;
8 -> 12 ;
13 [label=<entropy = 0.0<br/>samples = 3<br/>value = [3, 0]<br/>class = 0>, fillcolor="#e58139"] ;
12 -> 13 ;
14 [label=<entropy = 0.0<br/>samples = 4<br/>value = [0, 4]<br/>class = 1>, fillcolor="#399de5"] ;
12 -> 14 ;
15 [label=<entropy = 0.0<br/>samples = 25<br/>value = [0, 25]<br/>class = 1>, fillcolor="#399de5"] ;
7 -> 15 ;
16 [label=<ejection_fraction &le; -0.905<br/>entropy = 0.831<br/>samples = 209<br/>value = [154, 55]<br/>class = 0>, fillcolor="#eeae80"] ;
0 -> 16 [labeldistance=2.5, labelangle=-45, headlabel="False"] ;
17 [label=<creatinine_phosphokinase &le; 1.359<br/>entropy = 0.918<br/>samples = 48<br/>value = [16, 32]<br/>class = 1>, fillcolor="#9ccef2"] ;
16 -> 17 ;
18 [label=<serum_creatinine &le; 0.28<br/>entropy = 0.971<br/>samples = 40<br/>value = [16, 24]<br/>class = 1>, fillcolor="#bddef6"] ;
17 -> 18 ;
19 [label=<age &le; -0.281<br/>entropy = 0.971<br/>samples = 20<br/>value = [12, 8]<br/>class = 0>, fillcolor="#f6d5bd"] ;
18 -> 19 ;
20 [label=<entropy = 0.0<br/>samples = 6<br/>value = [6, 0]<br/>class = 0>, fillcolor="#e58139"] ;
19 -> 20 ;
21 [label=<age &le; 0.561<br/>entropy = 0.985<br/>samples = 14<br/>value = [6, 8]<br/>class = 1>, fillcolor="#cee6f8"] ;
19 -> 21 ;
22 [label=<serum_creatinine &le; 0.047<br/>entropy = 0.845<br/>samples = 11<br/>value = [3, 8]<br/>class = 1>, fillcolor="#83c2ef"] ;
21 -> 22 ;
23 [label=<smoking &le; 0.383<br/>entropy = 0.503<br/>samples = 9<br/>value = [1, 8]<br/>class = 1>, fillcolor="#52a9e8"] ;
22 -> 23 ;
24 [label=<time &le; -0.629<br/>entropy = 0.918<br/>samples = 3<br/>value = [1, 2]<br/>class = 1>, fillcolor="#9ccef2"] ;
23 -> 24 ;
25 [label=<entropy = 0.0<br/>samples = 2<br/>value = [0, 2]<br/>class = 1>, fillcolor="#399de5"] ;
24 -> 25 ;
26 [label=<entropy = 0.0<br/>samples = 1<br/>value = [1, 0]<br/>class = 0>, fillcolor="#e58139"] ;
24 -> 26 ;
27 [label=<entropy = 0.0<br/>samples = 6<br/>value = [0, 6]<br/>class = 1>, fillcolor="#399de5"] ;
23 -> 27 ;
28 [label=<entropy = 0.0<br/>samples = 2<br/>value = [2, 0]<br/>class = 0>, fillcolor="#e58139"] ;
22 -> 28 ;
29 [label=<entropy = 0.0<br/>samples = 3<br/>value = [3, 0]<br/>class = 0>, fillcolor="#e58139"] ;
21 -> 29 ;
30 [label=<serum_sodium &le; -0.298<br/>entropy = 0.722<br/>samples = 20<br/>value = [4, 16]<br/>class = 1>, fillcolor="#6ab6ec"] ;
18 -> 30 ;
31 [label=<age &le; 0.098<br/>entropy = 0.503<br/>samples = 18<br/>value = [2, 16]<br/>class = 1>, fillcolor="#52a9e8"] ;
30 -> 31 ;
32 [label=<entropy = 0.0<br/>samples = 13<br/>value = [0, 13]<br/>class = 1>, fillcolor="#399de5"] ;
31 -> 32 ;
33 [label=<serum_creatinine &le; 1.712<br/>entropy = 0.971<br/>samples = 5<br/>value = [2, 3]<br/>class = 1>, fillcolor="#bddef6"] ;
31 -> 33 ;
34 [label=<entropy = 0.0<br/>samples = 3<br/>value = [0, 3]<br/>class = 1>, fillcolor="#399de5"] ;
33 -> 34 ;
35 [label=<entropy = 0.0<br/>samples = 2<br/>value = [2, 0]<br/>class = 0>, fillcolor="#e58139"] ;
33 -> 35 ;
36 [label=<entropy = 0.0<br/>samples = 2<br/>value = [2, 0]<br/>class = 0>, fillcolor="#e58139"] ;
30 -> 36 ;
37 [label=<entropy = 0.0<br/>samples = 8<br/>value = [0, 8]<br/>class = 1>, fillcolor="#399de5"] ;
17 -> 37 ;
38 [label=<age &le; 0.856<br/>entropy = 0.592<br/>samples = 161<br/>value = [138, 23]<br/>class = 0>, fillcolor="#e9965a"] ;
16 -> 38 ;
39 [label=<sex &le; -0.312<br/>entropy = 0.304<br/>samples = 129<br/>value = [122, 7]<br/>class = 0>, fillcolor="#e68844"] ;
38 -> 39 ;
40 [label=<serum_sodium &le; -2.018<br/>entropy = 0.55<br/>samples = 55<br/>value = [48, 7]<br/>class = 0>, fillcolor="#e99356"] ;
39 -> 40 ;
41 [label=<entropy = 0.0<br/>samples = 2<br/>value = [0, 2]<br/>class = 1>, fillcolor="#399de5"] ;
40 -> 41 ;
42 [label=<serum_creatinine &le; -1.35<br/>entropy = 0.451<br/>samples = 53<br/>value = [48, 5]<br/>class = 0>, fillcolor="#e88e4e"] ;
40 -> 42 ;
43 [label=<ejection_fraction &le; 0.171<br/>entropy = 0.918<br/>samples = 3<br/>value = [1, 2]<br/>class = 1>, fillcolor="#9ccef2"] ;
42 -> 43 ;
44 [label=<entropy = 0.0<br/>samples = 1<br/>value = [1, 0]<br/>class = 0>, fillcolor="#e58139"] ;
43 -> 44 ;
45 [label=<entropy = 0.0<br/>samples = 2<br/>value = [0, 2]<br/>class = 1>, fillcolor="#399de5"] ;
43 -> 45 ;
46 [label=<creatinine_phosphokinase &le; 2.132<br/>entropy = 0.327<br/>samples = 50<br/>value = [47, 3]<br/>class = 0>, fillcolor="#e78946"] ;
42 -> 46 ;
47 [label=<age &le; 0.688<br/>entropy = 0.151<br/>samples = 46<br/>value = [45, 1]<br/>class = 0>, fillcolor="#e6843d"] ;
46 -> 47 ;
48 [label=<entropy = 0.0<br/>samples = 40<br/>value = [40, 0]<br/>class = 0>, fillcolor="#e58139"] ;
47 -> 48 ;
49 [label=<anaemia &le; 0.138<br/>entropy = 0.65<br/>samples = 6<br/>value = [5, 1]<br/>class = 0>, fillcolor="#ea9a61"] ;
47 -> 49 ;
50 [label=<entropy = 0.0<br/>samples = 5<br/>value = [5, 0]<br/>class = 0>, fillcolor="#e58139"] ;
49 -> 50 ;
51 [label=<entropy = 0.0<br/>samples = 1<br/>value = [0, 1]<br/>class = 1>, fillcolor="#399de5"] ;
49 -> 51 ;
52 [label=<serum_sodium &le; 1.176<br/>entropy = 1.0<br/>samples = 4<br/>value = [2, 2]<br/>class = 0>, fillcolor="#ffffff"] ;
46 -> 52 ;
53 [label=<entropy = 0.0<br/>samples = 2<br/>value = [2, 0]<br/>class = 0>, fillcolor="#e58139"] ;
52 -> 53 ;
54 [label=<entropy = 0.0<br/>samples = 2<br/>value = [0, 2]<br/>class = 1>, fillcolor="#399de5"] ;
52 -> 54 ;
55 [label=<entropy = 0.0<br/>samples = 74<br/>value = [74, 0]<br/>class = 0>, fillcolor="#e58139"] ;
39 -> 55 ;
56 [label=<time &le; 0.687<br/>entropy = 1.0<br/>samples = 32<br/>value = [16, 16]<br/>class = 0>, fillcolor="#ffffff"] ;
38 -> 56 ;
57 [label=<serum_sodium &le; -0.175<br/>entropy = 0.943<br/>samples = 25<br/>value = [9, 16]<br/>class = 1>, fillcolor="#a8d4f4"] ;
56 -> 57 ;
58 [label=<anaemia &le; 0.138<br/>entropy = 0.764<br/>samples = 18<br/>value = [4, 14]<br/>class = 1>, fillcolor="#72b9ec"] ;
57 -> 58 ;
59 [label=<time &le; 0.281<br/>entropy = 0.414<br/>samples = 12<br/>value = [1, 11]<br/>class = 1>, fillcolor="#4ba6e7"] ;
58 -> 59 ;
60 [label=<entropy = 0.0<br/>samples = 11<br/>value = [0, 11]<br/>class = 1>, fillcolor="#399de5"] ;
59 -> 60 ;
61 [label=<entropy = 0.0<br/>samples = 1<br/>value = [1, 0]<br/>class = 0>, fillcolor="#e58139"] ;
59 -> 61 ;
62 [label=<ejection_fraction &le; -0.346<br/>entropy = 1.0<br/>samples = 6<br/>value = [3, 3]<br/>class = 0>, fillcolor="#ffffff"] ;
58 -> 62 ;
63 [label=<entropy = 0.0<br/>samples = 3<br/>value = [0, 3]<br/>class = 1>, fillcolor="#399de5"] ;
62 -> 63 ;
64 [label=<entropy = 0.0<br/>samples = 3<br/>value = [3, 0]<br/>class = 0>, fillcolor="#e58139"] ;
62 -> 64 ;
65 [label=<serum_creatinine &le; 0.49<br/>entropy = 0.863<br/>samples = 7<br/>value = [5, 2]<br/>class = 0>, fillcolor="#efb388"] ;
57 -> 65 ;
66 [label=<entropy = 0.0<br/>samples = 4<br/>value = [4, 0]<br/>class = 0>, fillcolor="#e58139"] ;
65 -> 66 ;
67 [label=<age &le; 1.698<br/>entropy = 0.918<br/>samples = 3<br/>value = [1, 2]<br/>class = 1>, fillcolor="#9ccef2"] ;
65 -> 67 ;
68 [label=<entropy = 0.0<br/>samples = 2<br/>value = [0, 2]<br/>class = 1>, fillcolor="#399de5"] ;
67 -> 68 ;
69 [label=<entropy = 0.0<br/>samples = 1<br/>value = [1, 0]<br/>class = 0>, fillcolor="#e58139"] ;
67 -> 69 ;
70 [label=<entropy = 0.0<br/>samples = 7<br/>value = [7, 0]<br/>class = 0>, fillcolor="#e58139"] ;
56 -> 70 ;
}