digraph Tree {
node [shape=box, style="filled, rounded", color="black", fontname=helvetica] ;
edge [fontname=helvetica] ;
0 [label=<X<SUB>235</SUB> &le; 0.5<br/>entropy = 1.0<br/>samples = 11550<br/>value = [5775, 5775]<br/>class = negative>, fillcolor="#ffffff"] ;
1 [label=<X<SUB>351</SUB> &le; 0.5<br/>entropy = 0.955<br/>samples = 8009<br/>value = [4994, 3015]<br/>class = negative>, fillcolor="#f5cdb1"] ;
0 -> 1 [labeldistance=2.5, labelangle=45, headlabel="True"] ;
2 [label=<X<SUB>283</SUB> &le; 0.5<br/>entropy = 0.891<br/>samples = 6295<br/>value = [4353, 1942]<br/>class = negative>, fillcolor="#f1b991"] ;
1 -> 2 ;
3 [label=<X<SUB>37</SUB> &le; 0.5<br/>entropy = 0.943<br/>samples = 4523<br/>value = [2892, 1631]<br/>class = negative>, fillcolor="#f4c8a9"] ;
2 -> 3 ;
4 [label=<X<SUB>620</SUB> &le; 0.5<br/>entropy = 0.973<br/>samples = 3761<br/>value = [2246, 1515]<br/>class = negative>, fillcolor="#f7d6bf"] ;
3 -> 4 ;
5 [label=<X<SUB>451</SUB> &le; 0.5<br/>entropy = 0.955<br/>samples = 3533<br/>value = [2205, 1328]<br/>class = negative>, fillcolor="#f5cdb0"] ;
4 -> 5 ;
6 [label=<X<SUB>713</SUB> &le; 0.5<br/>entropy = 0.922<br/>samples = 3007<br/>value = [1994, 1013]<br/>class = negative>, fillcolor="#f2c19e"] ;
5 -> 6 ;
7 [label=<X<SUB>255</SUB> &le; 0.5<br/>entropy = 0.936<br/>samples = 2877<br/>value = [1864, 1013]<br/>class = negative>, fillcolor="#f3c5a5"] ;
6 -> 7 ;
8 [label=<X<SUB>194</SUB> &le; 0.5<br/>entropy = 0.898<br/>samples = 2462<br/>value = [1689, 773]<br/>class = negative>, fillcolor="#f1bb94"] ;
7 -> 8 ;
9 [label=<X<SUB>503</SUB> &le; 0.5<br/>entropy = 0.856<br/>samples = 2233<br/>value = [1607, 626]<br/>class = negative>, fillcolor="#efb286"] ;
8 -> 9 ;
10 [label=<X<SUB>396</SUB> &le; 0.5<br/>entropy = 0.964<br/>samples = 894<br/>value = [546, 348]<br/>class = negative>, fillcolor="#f6d1b7"] ;
9 -> 10 ;
11 [label=<X<SUB>444</SUB> &le; 0.5<br/>entropy = 0.98<br/>samples = 836<br/>value = [488, 348]<br/>class = negative>, fillcolor="#f8dbc6"] ;
10 -> 11 ;
12 [label=<X<SUB>115</SUB> &le; 0.5<br/>entropy = 0.989<br/>samples = 793<br/>value = [445, 348]<br/>class = negative>, fillcolor="#f9e4d4"] ;
11 -> 12 ;
13 [label=<X<SUB>799</SUB> &le; 0.5<br/>entropy = 0.98<br/>samples = 758<br/>value = [442, 316]<br/>class = negative>, fillcolor="#f8dbc7"] ;
12 -> 13 ;
14 [label=<X<SUB>761</SUB> &le; 0.5<br/>entropy = 0.964<br/>samples = 714<br/>value = [436, 278]<br/>class = negative>, fillcolor="#f6d1b7"] ;
13 -> 14 ;
15 [label=<X<SUB>693</SUB> &le; 0.5<br/>entropy = 0.936<br/>samples = 647<br/>value = [419, 228]<br/>class = negative>, fillcolor="#f3c6a5"] ;
14 -> 15 ;
16 [label=<X<SUB>461</SUB> &le; 0.5<br/>entropy = 0.961<br/>samples = 593<br/>value = [365, 228]<br/>class = negative>, fillcolor="#f5d0b5"] ;
15 -> 16 ;
17 [label=<X<SUB>837</SUB> &le; 0.5<br/>entropy = 0.934<br/>samples = 552<br/>value = [359, 193]<br/>class = negative>, fillcolor="#f3c5a3"] ;
16 -> 17 ;
18 [label=<X<SUB>645</SUB> &le; 0.5<br/>entropy = 0.839<br/>samples = 417<br/>value = [305, 112]<br/>class = negative>, fillcolor="#efaf82"] ;
17 -> 18 ;
19 [label=<X<SUB>275</SUB> &le; 0.5<br/>entropy = 0.768<br/>samples = 392<br/>value = [304, 88]<br/>class = negative>, fillcolor="#eda572"] ;
18 -> 19 ;
20 [label=<X<SUB>301</SUB> &le; 0.5<br/>entropy = 0.627<br/>samples = 350<br/>value = [295, 55]<br/>class = negative>, fillcolor="#ea985e"] ;
19 -> 20 ;
21 [label=<X<SUB>6</SUB> &le; 0.5<br/>entropy = 0.52<br/>samples = 334<br/>value = [295, 39]<br/>class = negative>, fillcolor="#e89253"] ;
20 -> 21 ;
22 [label=<X<SUB>478</SUB> &le; 0.5<br/>entropy = 0.435<br/>samples = 324<br/>value = [295, 29]<br/>class = negative>, fillcolor="#e88d4c"] ;
21 -> 22 ;
23 [label=<X<SUB>691</SUB> &le; 0.5<br/>entropy = 0.174<br/>samples = 270<br/>value = [263, 7]<br/>class = negative>, fillcolor="#e6843e"] ;
22 -> 23 ;
24 [label=<entropy = 0.0<br/>samples = 262<br/>value = [262, 0]<br/>class = negative>, fillcolor="#e58139"] ;
23 -> 24 ;
25 [label=<X<SUB>491</SUB> &le; 0.5<br/>entropy = 0.544<br/>samples = 8<br/>value = [1, 7]<br/>class = positive>, fillcolor="#55abe9"] ;
23 -> 25 ;
26 [label=<entropy = 0.0<br/>samples = 1<br/>value = [1, 0]<br/>class = negative>, fillcolor="#e58139"] ;
25 -> 26 ;
27 [label=<entropy = 0.0<br/>samples = 7<br/>value = [0, 7]<br/>class = positive>, fillcolor="#399de5"] ;
25 -> 27 ;
28 [label=<X<SUB>62</SUB> &le; 0.5<br/>entropy = 0.975<br/>samples = 54<br/>value = [32, 22]<br/>class = negative>, fillcolor="#f7d8c1"] ;
22 -> 28 ;
29 [label=<entropy = 0.0<br/>samples = 23<br/>value = [23, 0]<br/>class = negative>, fillcolor="#e58139"] ;
28 -> 29 ;
30 [label=<X<SUB>522</SUB> &le; 0.5<br/>entropy = 0.869<br/>samples = 31<br/>value = [9, 22]<br/>class = positive>, fillcolor="#8ac5f0"] ;
28 -> 30 ;
31 [label=<X<SUB>641</SUB> &le; 0.5<br/>entropy = 0.619<br/>samples = 26<br/>value = [4, 22]<br/>class = positive>, fillcolor="#5dafea"] ;
30 -> 31 ;
32 [label=<entropy = 0.0<br/>samples = 22<br/>value = [0, 22]<br/>class = positive>, fillcolor="#399de5"] ;
31 -> 32 ;
33 [label=<entropy = 0.0<br/>samples = 4<br/>value = [4, 0]<br/>class = negative>, fillcolor="#e58139"] ;
31 -> 33 ;
34 [label=<entropy = 0.0<br/>samples = 5<br/>value = [5, 0]<br/>class = negative>, fillcolor="#e58139"] ;
30 -> 34 ;
35 [label=<entropy = 0.0<br/>samples = 10<br/>value = [0, 10]<br/>class = positive>, fillcolor="#399de5"] ;
21 -> 35 ;
36 [label=<entropy = 0.0<br/>samples = 16<br/>value = [0, 16]<br/>class = positive>, fillcolor="#399de5"] ;
20 -> 36 ;
37 [label=<X<SUB>787</SUB> &le; 0.5<br/>entropy = 0.75<br/>samples = 42<br/>value = [9, 33]<br/>class = positive>, fillcolor="#6fb8ec"] ;
19 -> 37 ;
38 [label=<X<SUB>158</SUB> &le; 0.5<br/>entropy = 0.562<br/>samples = 38<br/>value = [5, 33]<br/>class = positive>, fillcolor="#57ace9"] ;
37 -> 38 ;
39 [label=<X<SUB>810</SUB> &le; 0.5<br/>entropy = 0.414<br/>samples = 36<br/>value = [3, 33]<br/>class = positive>, fillcolor="#4ba6e7"] ;
38 -> 39 ;
40 [label=<X<SUB>659</SUB> &le; 0.5<br/>entropy = 0.316<br/>samples = 35<br/>value = [2, 33]<br/>class = positive>, fillcolor="#45a3e7"] ;
39 -> 40 ;
41 [label=<X<SUB>273</SUB> &le; 0.5<br/>entropy = 0.191<br/>samples = 34<br/>value = [1, 33]<br/>class = positive>, fillcolor="#3fa0e6"] ;
40 -> 41 ;
42 [label=<entropy = 0.0<br/>samples = 33<br/>value = [0, 33]<br/>class = positive>, fillcolor="#399de5"] ;
41 -> 42 ;
43 [label=<entropy = 0.0<br/>samples = 1<br/>value = [1, 0]<br/>class = negative>, fillcolor="#e58139"] ;
41 -> 43 ;
44 [label=<entropy = 0.0<br/>samples = 1<br/>value = [1, 0]<br/>class = negative>, fillcolor="#e58139"] ;
40 -> 44 ;
45 [label=<entropy = 0.0<br/>samples = 1<br/>value = [1, 0]<br/>class = negative>, fillcolor="#e58139"] ;
39 -> 45 ;
46 [label=<entropy = 0.0<br/>samples = 2<br/>value = [2, 0]<br/>class = negative>, fillcolor="#e58139"] ;
38 -> 46 ;
47 [label=<entropy = 0.0<br/>samples = 4<br/>value = [4, 0]<br/>class = negative>, fillcolor="#e58139"] ;
37 -> 47 ;
48 [label=<X<SUB>783</SUB> &le; 0.5<br/>entropy = 0.242<br/>samples = 25<br/>value = [1, 24]<br/>class = positive>, fillcolor="#41a1e6"] ;
18 -> 48 ;
49 [label=<entropy = 0.0<br/>samples = 24<br/>value = [0, 24]<br/>class = positive>, fillcolor="#399de5"] ;
48 -> 49 ;
50 [label=<entropy = 0.0<br/>samples = 1<br/>value = [1, 0]<br/>class = negative>, fillcolor="#e58139"] ;
48 -> 50 ;
51 [label=<X<SUB>213</SUB> &le; 0.5<br/>entropy = 0.971<br/>samples = 135<br/>value = [54, 81]<br/>class = positive>, fillcolor="#bddef6"] ;
17 -> 51 ;
52 [label=<X<SUB>643</SUB> &le; 0.5<br/>entropy = 0.936<br/>samples = 125<br/>value = [44, 81]<br/>class = positive>, fillcolor="#a5d2f3"] ;
51 -> 52 ;
53 [label=<X<SUB>782</SUB> &le; 0.5<br/>entropy = 0.89<br/>samples = 117<br/>value = [36, 81]<br/>class = positive>, fillcolor="#91c9f1"] ;
52 -> 53 ;
54 [label=<X<SUB>726</SUB> &le; 0.5<br/>entropy = 0.842<br/>samples = 111<br/>value = [30, 81]<br/>class = positive>, fillcolor="#82c1ef"] ;
53 -> 54 ;
55 [label=<X<SUB>463</SUB> &le; 0.5<br/>entropy = 0.73<br/>samples = 93<br/>value = [19, 74]<br/>class = positive>, fillcolor="#6cb6ec"] ;
54 -> 55 ;
56 [label=<X<SUB>668</SUB> &le; 0.5<br/>entropy = 0.872<br/>samples = 65<br/>value = [19, 46]<br/>class = positive>, fillcolor="#8bc5f0"] ;
55 -> 56 ;
57 [label=<entropy = 0.0<br/>samples = 7<br/>value = [7, 0]<br/>class = negative>, fillcolor="#e58139"] ;
56 -> 57 ;
58 [label=<X<SUB>638</SUB> &le; 0.5<br/>entropy = 0.736<br/>samples = 58<br/>value = [12, 46]<br/>class = positive>, fillcolor="#6db7ec"] ;
56 -> 58 ;
59 [label=<X<SUB>356</SUB> &le; 0.5<br/>entropy = 0.643<br/>samples = 55<br/>value = [9, 46]<br/>class = positive>, fillcolor="#60b0ea"] ;
58 -> 59 ;
60 [label=<X<SUB>320</SUB> &le; 0.5<br/>entropy = 0.516<br/>samples = 52<br/>value = [6, 46]<br/>class = positive>, fillcolor="#53aae8"] ;
59 -> 60 ;
61 [label=<X<SUB>456</SUB> &le; 0.5<br/>entropy = 0.402<br/>samples = 50<br/>value = [4, 46]<br/>class = positive>, fillcolor="#4aa6e7"] ;
60 -> 61 ;
62 [label=<X<SUB>393</SUB> &le; 0.5<br/>entropy = 0.332<br/>samples = 49<br/>value = [3, 46]<br/>class = positive>, fillcolor="#46a3e7"] ;
61 -> 62 ;
63 [label=<X<SUB>154</SUB> &le; 0.5<br/>entropy = 0.25<br/>samples = 48<br/>value = [2, 46]<br/>class = positive>, fillcolor="#42a1e6"] ;
62 -> 63 ;
64 [label=<entropy = 0.439<br/>samples = 22<br/>value = [2, 20]<br/>class = positive>, fillcolor="#4da7e8"] ;
63 -> 64 ;
65 [label=<entropy = 0.0<br/>samples = 26<br/>value = [0, 26]<br/>class = positive>, fillcolor="#399de5"] ;
63 -> 65 ;
66 [label=<entropy = 0.0<br/>samples = 1<br/>value = [1, 0]<br/>class = negative>, fillcolor="#e58139"] ;
62 -> 66 ;
67 [label=<entropy = 0.0<br/>samples = 1<br/>value = [1, 0]<br/>class = negative>, fillcolor="#e58139"] ;
61 -> 67 ;
68 [label=<entropy = 0.0<br/>samples = 2<br/>value = [2, 0]<br/>class = negative>, fillcolor="#e58139"] ;
60 -> 68 ;
69 [label=<entropy = 0.0<br/>samples = 3<br/>value = [3, 0]<br/>class = negative>, fillcolor="#e58139"] ;
59 -> 69 ;
70 [label=<entropy = 0.0<br/>samples = 3<br/>value = [3, 0]<br/>class = negative>, fillcolor="#e58139"] ;
58 -> 70 ;
71 [label=<entropy = 0.0<br/>samples = 28<br/>value = [0, 28]<br/>class = positive>, fillcolor="#399de5"] ;
55 -> 71 ;
72 [label=<X<SUB>70</SUB> &le; 0.5<br/>entropy = 0.964<br/>samples = 18<br/>value = [11, 7]<br/>class = negative>, fillcolor="#f6d1b7"] ;
54 -> 72 ;
73 [label=<entropy = 0.0<br/>samples = 11<br/>value = [11, 0]<br/>class = negative>, fillcolor="#e58139"] ;
72 -> 73 ;
74 [label=<entropy = 0.0<br/>samples = 7<br/>value = [0, 7]<br/>class = positive>, fillcolor="#399de5"] ;
72 -> 74 ;
75 [label=<entropy = 0.0<br/>samples = 6<br/>value = [6, 0]<br/>class = negative>, fillcolor="#e58139"] ;
53 -> 75 ;
76 [label=<entropy = 0.0<br/>samples = 8<br/>value = [8, 0]<br/>class = negative>, fillcolor="#e58139"] ;
52 -> 76 ;
77 [label=<entropy = 0.0<br/>samples = 10<br/>value = [10, 0]<br/>class = negative>, fillcolor="#e58139"] ;
51 -> 77 ;
78 [label=<X<SUB>278</SUB> &le; 0.5<br/>entropy = 0.601<br/>samples = 41<br/>value = [6, 35]<br/>class = positive>, fillcolor="#5baee9"] ;
16 -> 78 ;
79 [label=<entropy = 0.0<br/>samples = 35<br/>value = [0, 35]<br/>class = positive>, fillcolor="#399de5"] ;
78 -> 79 ;
80 [label=<entropy = 0.0<br/>samples = 6<br/>value = [6, 0]<br/>class = negative>, fillcolor="#e58139"] ;
78 -> 80 ;
81 [label=<entropy = 0.0<br/>samples = 54<br/>value = [54, 0]<br/>class = negative>, fillcolor="#e58139"] ;
15 -> 81 ;
82 [label=<X<SUB>50</SUB> &le; 0.5<br/>entropy = 0.817<br/>samples = 67<br/>value = [17, 50]<br/>class = positive>, fillcolor="#7cbeee"] ;
14 -> 82 ;
83 [label=<X<SUB>326</SUB> &le; 0.5<br/>entropy = 0.709<br/>samples = 62<br/>value = [12, 50]<br/>class = positive>, fillcolor="#69b5eb"] ;
82 -> 83 ;
84 [label=<X<SUB>750</SUB> &le; 0.5<br/>entropy = 0.616<br/>samples = 59<br/>value = [9, 50]<br/>class = positive>, fillcolor="#5dafea"] ;
83 -> 84 ;
85 [label=<X<SUB>747</SUB> &le; 0.5<br/>entropy = 0.537<br/>samples = 57<br/>value = [7, 50]<br/>class = positive>, fillcolor="#55abe9"] ;
84 -> 85 ;
86 [label=<X<SUB>2</SUB> &le; 0.5<br/>entropy = 0.439<br/>samples = 55<br/>value = [5, 50]<br/>class = positive>, fillcolor="#4da7e8"] ;
85 -> 86 ;
87 [label=<X<SUB>641</SUB> &le; 0.5<br/>entropy = 0.381<br/>samples = 54<br/>value = [4, 50]<br/>class = positive>, fillcolor="#49a5e7"] ;
86 -> 87 ;
88 [label=<entropy = 0.0<br/>samples = 35<br/>value = [0, 35]<br/>class = positive>, fillcolor="#399de5"] ;
87 -> 88 ;
89 [label=<X<SUB>146</SUB> &le; 0.5<br/>entropy = 0.742<br/>samples = 19<br/>value = [4, 15]<br/>class = positive>, fillcolor="#6eb7ec"] ;
87 -> 89 ;
90 [label=<entropy = 0.0<br/>samples = 4<br/>value = [4, 0]<br/>class = negative>, fillcolor="#e58139"] ;
89 -> 90 ;
91 [label=<entropy = 0.0<br/>samples = 15<br/>value = [0, 15]<br/>class = positive>, fillcolor="#399de5"] ;
89 -> 91 ;
92 [label=<entropy = 0.0<br/>samples = 1<br/>value = [1, 0]<br/>class = negative>, fillcolor="#e58139"] ;
86 -> 92 ;
93 [label=<entropy = 0.0<br/>samples = 2<br/>value = [2, 0]<br/>class = negative>, fillcolor="#e58139"] ;
85 -> 93 ;
94 [label=<entropy = 0.0<br/>samples = 2<br/>value = [2, 0]<br/>class = negative>, fillcolor="#e58139"] ;
84 -> 94 ;
95 [label=<entropy = 0.0<br/>samples = 3<br/>value = [3, 0]<br/>class = negative>, fillcolor="#e58139"] ;
83 -> 95 ;
96 [label=<entropy = 0.0<br/>samples = 5<br/>value = [5, 0]<br/>class = negative>, fillcolor="#e58139"] ;
82 -> 96 ;
97 [label=<X<SUB>417</SUB> &le; 0.5<br/>entropy = 0.575<br/>samples = 44<br/>value = [6, 38]<br/>class = positive>, fillcolor="#58ace9"] ;
13 -> 97 ;
98 [label=<X<SUB>401</SUB> &le; 0.5<br/>entropy = 0.172<br/>samples = 39<br/>value = [1, 38]<br/>class = positive>, fillcolor="#3ea0e6"] ;
97 -> 98 ;
99 [label=<entropy = 0.0<br/>samples = 38<br/>value = [0, 38]<br/>class = positive>, fillcolor="#399de5"] ;
98 -> 99 ;
100 [label=<entropy = 0.0<br/>samples = 1<br/>value = [1, 0]<br/>class = negative>, fillcolor="#e58139"] ;
98 -> 100 ;
101 [label=<entropy = 0.0<br/>samples = 5<br/>value = [5, 0]<br/>class = negative>, fillcolor="#e58139"] ;
97 -> 101 ;
102 [label=<X<SUB>379</SUB> &le; 0.5<br/>entropy = 0.422<br/>samples = 35<br/>value = [3, 32]<br/>class = positive>, fillcolor="#4ca6e7"] ;
12 -> 102 ;
103 [label=<entropy = 0.0<br/>samples = 32<br/>value = [0, 32]<br/>class = positive>, fillcolor="#399de5"] ;
102 -> 103 ;
104 [label=<entropy = 0.0<br/>samples = 3<br/>value = [3, 0]<br/>class = negative>, fillcolor="#e58139"] ;
102 -> 104 ;
105 [label=<entropy = 0.0<br/>samples = 43<br/>value = [43, 0]<br/>class = negative>, fillcolor="#e58139"] ;
11 -> 105 ;
106 [label=<entropy = 0.0<br/>samples = 58<br/>value = [58, 0]<br/>class = negative>, fillcolor="#e58139"] ;
10 -> 106 ;
107 [label=<X<SUB>324</SUB> &le; 0.5<br/>entropy = 0.737<br/>samples = 1339<br/>value = [1061, 278]<br/>class = negative>, fillcolor="#eca26d"] ;
9 -> 107 ;
108 [label=<X<SUB>513</SUB> &le; 0.5<br/>entropy = 0.532<br/>samples = 819<br/>value = [720, 99]<br/>class = negative>, fillcolor="#e99254"] ;
107 -> 108 ;
109 [label=<X<SUB>803</SUB> &le; 0.5<br/>entropy = 0.443<br/>samples = 784<br/>value = [712, 72]<br/>class = negative>, fillcolor="#e88e4d"] ;
108 -> 109 ;
110 [label=<X<SUB>54</SUB> &le; 0.5<br/>entropy = 0.286<br/>samples = 721<br/>value = [685, 36]<br/>class = negative>, fillcolor="#e68843"] ;
109 -> 110 ;
111 [label=<X<SUB>270</SUB> &le; 0.5<br/>entropy = 0.201<br/>samples = 701<br/>value = [679, 22]<br/>class = negative>, fillcolor="#e6853f"] ;
110 -> 111 ;
112 [label=<X<SUB>84</SUB> &le; 0.5<br/>entropy = 0.085<br/>samples = 662<br/>value = [655, 7]<br/>class = negative>, fillcolor="#e5823b"] ;
111 -> 112 ;
113 [label=<entropy = 0.0<br/>samples = 647<br/>value = [647, 0]<br/>class = negative>, fillcolor="#e58139"] ;
112 -> 113 ;
114 [label=<X<SUB>328</SUB> &le; 0.5<br/>entropy = 0.997<br/>samples = 15<br/>value = [8, 7]<br/>class = negative>, fillcolor="#fcefe6"] ;
112 -> 114 ;
115 [label=<entropy = 0.0<br/>samples = 8<br/>value = [8, 0]<br/>class = negative>, fillcolor="#e58139"] ;
114 -> 115 ;
116 [label=<entropy = 0.0<br/>samples = 7<br/>value = [0, 7]<br/>class = positive>, fillcolor="#399de5"] ;
114 -> 116 ;
117 [label=<X<SUB>373</SUB> &le; 0.5<br/>entropy = 0.961<br/>samples = 39<br/>value = [24, 15]<br/>class = negative>, fillcolor="#f5d0b5"] ;
111 -> 117 ;
118 [label=<entropy = 0.0<br/>samples = 23<br/>value = [23, 0]<br/>class = negative>, fillcolor="#e58139"] ;
117 -> 118 ;
119 [label=<X<SUB>571</SUB> &le; 0.5<br/>entropy = 0.337<br/>samples = 16<br/>value = [1, 15]<br/>class = positive>, fillcolor="#46a4e7"] ;
117 -> 119 ;
120 [label=<entropy = 0.0<br/>samples = 1<br/>value = [1, 0]<br/>class = negative>, fillcolor="#e58139"] ;
119 -> 120 ;
121 [label=<entropy = 0.0<br/>samples = 15<br/>value = [0, 15]<br/>class = positive>, fillcolor="#399de5"] ;
119 -> 121 ;
122 [label=<X<SUB>686</SUB> &le; 0.5<br/>entropy = 0.881<br/>samples = 20<br/>value = [6, 14]<br/>class = positive>, fillcolor="#8ec7f0"] ;
110 -> 122 ;
123 [label=<entropy = 0.0<br/>samples = 6<br/>value = [6, 0]<br/>class = negative>, fillcolor="#e58139"] ;
122 -> 123 ;
124 [label=<entropy = 0.0<br/>samples = 14<br/>value = [0, 14]<br/>class = positive>, fillcolor="#399de5"] ;
122 -> 124 ;
125 [label=<X<SUB>173</SUB> &le; 0.5<br/>entropy = 0.985<br/>samples = 63<br/>value = [27, 36]<br/>class = positive>, fillcolor="#cee6f8"] ;
109 -> 125 ;
126 [label=<X<SUB>182</SUB> &le; 0.5<br/>entropy = 0.834<br/>samples = 34<br/>value = [25, 9]<br/>class = negative>, fillcolor="#eeae80"] ;
125 -> 126 ;
127 [label=<entropy = 0.0<br/>samples = 25<br/>value = [25, 0]<br/>class = negative>, fillcolor="#e58139"] ;
126 -> 127 ;
128 [label=<entropy = 0.0<br/>samples = 9<br/>value = [0, 9]<br/>class = positive>, fillcolor="#399de5"] ;
126 -> 128 ;
129 [label=<X<SUB>519</SUB> &le; 0.5<br/>entropy = 0.362<br/>samples = 29<br/>value = [2, 27]<br/>class = positive>, fillcolor="#48a4e7"] ;
125 -> 129 ;
130 [label=<entropy = 0.0<br/>samples = 27<br/>value = [0, 27]<br/>class = positive>, fillcolor="#399de5"] ;
129 -> 130 ;
131 [label=<entropy = 0.0<br/>samples = 2<br/>value = [2, 0]<br/>class = negative>, fillcolor="#e58139"] ;
129 -> 131 ;
132 [label=<X<SUB>217</SUB> &le; 0.5<br/>entropy = 0.776<br/>samples = 35<br/>value = [8, 27]<br/>class = positive>, fillcolor="#74baed"] ;
108 -> 132 ;
133 [label=<entropy = 0.0<br/>samples = 6<br/>value = [6, 0]<br/>class = negative>, fillcolor="#e58139"] ;
132 -> 133 ;
134 [label=<X<SUB>467</SUB> &le; 0.5<br/>entropy = 0.362<br/>samples = 29<br/>value = [2, 27]<br/>class = positive>, fillcolor="#48a4e7"] ;
132 -> 134 ;
135 [label=<entropy = 0.0<br/>samples = 27<br/>value = [0, 27]<br/>class = positive>, fillcolor="#399de5"] ;
134 -> 135 ;
136 [label=<entropy = 0.0<br/>samples = 2<br/>value = [2, 0]<br/>class = negative>, fillcolor="#e58139"] ;
134 -> 136 ;
137 [label=<X<SUB>638</SUB> &le; 0.5<br/>entropy = 0.929<br/>samples = 520<br/>value = [341, 179]<br/>class = negative>, fillcolor="#f3c3a1"] ;
107 -> 137 ;
138 [label=<X<SUB>320</SUB> &le; 0.5<br/>entropy = 0.806<br/>samples = 434<br/>value = [327, 107]<br/>class = negative>, fillcolor="#eeaa7a"] ;
137 -> 138 ;
139 [label=<X<SUB>358</SUB> &le; 0.5<br/>entropy = 0.626<br/>samples = 364<br/>value = [307, 57]<br/>class = negative>, fillcolor="#ea985e"] ;
138 -> 139 ;
140 [label=<X<SUB>749</SUB> &le; 0.5<br/>entropy = 0.44<br/>samples = 329<br/>value = [299, 30]<br/>class = negative>, fillcolor="#e88e4d"] ;
139 -> 140 ;
141 [label=<X<SUB>252</SUB> &le; 0.5<br/>entropy = 0.224<br/>samples = 305<br/>value = [294, 11]<br/>class = negative>, fillcolor="#e68640"] ;
140 -> 141 ;
142 [label=<entropy = 0.0<br/>samples = 266<br/>value = [266, 0]<br/>class = negative>, fillcolor="#e58139"] ;
141 -> 142 ;
143 [label=<X<SUB>53</SUB> &le; 0.5<br/>entropy = 0.858<br/>samples = 39<br/>value = [28, 11]<br/>class = negative>, fillcolor="#efb287"] ;
141 -> 143 ;
144 [label=<entropy = 0.0<br/>samples = 26<br/>value = [26, 0]<br/>class = negative>, fillcolor="#e58139"] ;
143 -> 144 ;
145 [label=<X<SUB>240</SUB> &le; 0.5<br/>entropy = 0.619<br/>samples = 13<br/>value = [2, 11]<br/>class = positive>, fillcolor="#5dafea"] ;
143 -> 145 ;
146 [label=<entropy = 0.0<br/>samples = 11<br/>value = [0, 11]<br/>class = positive>, fillcolor="#399de5"] ;
145 -> 146 ;
147 [label=<entropy = 0.0<br/>samples = 2<br/>value = [2, 0]<br/>class = negative>, fillcolor="#e58139"] ;
145 -> 147 ;
148 [label=<X<SUB>379</SUB> &le; 0.5<br/>entropy = 0.738<br/>samples = 24<br/>value = [5, 19]<br/>class = positive>, fillcolor="#6db7ec"] ;
140 -> 148 ;
149 [label=<entropy = 0.0<br/>samples = 19<br/>value = [0, 19]<br/>class = positive>, fillcolor="#399de5"] ;
148 -> 149 ;
150 [label=<entropy = 0.0<br/>samples = 5<br/>value = [5, 0]<br/>class = negative>, fillcolor="#e58139"] ;
148 -> 150 ;
151 [label=<X<SUB>710</SUB> &le; 0.5<br/>entropy = 0.776<br/>samples = 35<br/>value = [8, 27]<br/>class = positive>, fillcolor="#74baed"] ;
139 -> 151 ;
152 [label=<entropy = 0.0<br/>samples = 27<br/>value = [0, 27]<br/>class = positive>, fillcolor="#399de5"] ;
151 -> 152 ;
153 [label=<entropy = 0.0<br/>samples = 8<br/>value = [8, 0]<br/>class = negative>, fillcolor="#e58139"] ;
151 -> 153 ;
154 [label=<X<SUB>248</SUB> &le; 0.5<br/>entropy = 0.863<br/>samples = 70<br/>value = [20, 50]<br/>class = positive>, fillcolor="#88c4ef"] ;
138 -> 154 ;
155 [label=<X<SUB>317</SUB> &le; 0.5<br/>entropy = 0.475<br/>samples = 49<br/>value = [5, 44]<br/>class = positive>, fillcolor="#50a8e8"] ;
154 -> 155 ;
156 [label=<X<SUB>514</SUB> &le; 0.5<br/>entropy = 0.258<br/>samples = 46<br/>value = [2, 44]<br/>class = positive>, fillcolor="#42a1e6"] ;
155 -> 156 ;
157 [label=<entropy = 0.0<br/>samples = 44<br/>value = [0, 44]<br/>class = positive>, fillcolor="#399de5"] ;
156 -> 157 ;
158 [label=<entropy = 0.0<br/>samples = 2<br/>value = [2, 0]<br/>class = negative>, fillcolor="#e58139"] ;
156 -> 158 ;
159 [label=<entropy = 0.0<br/>samples = 3<br/>value = [3, 0]<br/>class = negative>, fillcolor="#e58139"] ;
155 -> 159 ;
160 [label=<X<SUB>817</SUB> &le; 0.5<br/>entropy = 0.863<br/>samples = 21<br/>value = [15, 6]<br/>class = negative>, fillcolor="#efb388"] ;
154 -> 160 ;
161 [label=<entropy = 0.0<br/>samples = 15<br/>value = [15, 0]<br/>class = negative>, fillcolor="#e58139"] ;
160 -> 161 ;
162 [label=<entropy = 0.0<br/>samples = 6<br/>value = [0, 6]<br/>class = positive>, fillcolor="#399de5"] ;
160 -> 162 ;
163 [label=<X<SUB>205</SUB> &le; 0.5<br/>entropy = 0.641<br/>samples = 86<br/>value = [14, 72]<br/>class = positive>, fillcolor="#5fb0ea"] ;
137 -> 163 ;
164 [label=<X<SUB>378</SUB> &le; 0.5<br/>entropy = 0.347<br/>samples = 77<br/>value = [5, 72]<br/>class = positive>, fillcolor="#47a4e7"] ;
163 -> 164 ;
165 [label=<X<SUB>566</SUB> &le; 0.5<br/>entropy = 0.179<br/>samples = 74<br/>value = [2, 72]<br/>class = positive>, fillcolor="#3ea0e6"] ;
164 -> 165 ;
166 [label=<X<SUB>757</SUB> &le; 0.5<br/>entropy = 0.104<br/>samples = 73<br/>value = [1, 72]<br/>class = positive>, fillcolor="#3c9ee5"] ;
165 -> 166 ;
167 [label=<entropy = 0.0<br/>samples = 72<br/>value = [0, 72]<br/>class = positive>, fillcolor="#399de5"] ;
166 -> 167 ;
168 [label=<entropy = 0.0<br/>samples = 1<br/>value = [1, 0]<br/>class = negative>, fillcolor="#e58139"] ;
166 -> 168 ;
169 [label=<entropy = 0.0<br/>samples = 1<br/>value = [1, 0]<br/>class = negative>, fillcolor="#e58139"] ;
165 -> 169 ;
170 [label=<entropy = 0.0<br/>samples = 3<br/>value = [3, 0]<br/>class = negative>, fillcolor="#e58139"] ;
164 -> 170 ;
171 [label=<entropy = 0.0<br/>samples = 9<br/>value = [9, 0]<br/>class = negative>, fillcolor="#e58139"] ;
163 -> 171 ;
172 [label=<X<SUB>819</SUB> &le; 0.5<br/>entropy = 0.941<br/>samples = 229<br/>value = [82, 147]<br/>class = positive>, fillcolor="#a7d4f4"] ;
8 -> 172 ;
173 [label=<X<SUB>717</SUB> &le; 0.5<br/>entropy = 0.845<br/>samples = 202<br/>value = [55, 147]<br/>class = positive>, fillcolor="#83c2ef"] ;
172 -> 173 ;
174 [label=<X<SUB>109</SUB> &le; 0.5<br/>entropy = 0.733<br/>samples = 185<br/>value = [38, 147]<br/>class = positive>, fillcolor="#6cb6ec"] ;
173 -> 174 ;
175 [label=<X<SUB>75</SUB> &le; 0.5<br/>entropy = 0.99<br/>samples = 34<br/>value = [19, 15]<br/>class = negative>, fillcolor="#fae4d5"] ;
174 -> 175 ;
176 [label=<X<SUB>205</SUB> &le; 0.5<br/>entropy = 0.523<br/>samples = 17<br/>value = [2, 15]<br/>class = positive>, fillcolor="#53aae8"] ;
175 -> 176 ;
177 [label=<entropy = 0.0<br/>samples = 15<br/>value = [0, 15]<br/>class = positive>, fillcolor="#399de5"] ;
176 -> 177 ;
178 [label=<entropy = 0.0<br/>samples = 2<br/>value = [2, 0]<br/>class = negative>, fillcolor="#e58139"] ;
176 -> 178 ;
179 [label=<entropy = 0.0<br/>samples = 17<br/>value = [17, 0]<br/>class = negative>, fillcolor="#e58139"] ;
175 -> 179 ;
180 [label=<X<SUB>370</SUB> &le; 0.5<br/>entropy = 0.546<br/>samples = 151<br/>value = [19, 132]<br/>class = positive>, fillcolor="#56abe9"] ;
174 -> 180 ;
181 [label=<X<SUB>441</SUB> &le; 0.5<br/>entropy = 0.456<br/>samples = 146<br/>value = [14, 132]<br/>class = positive>, fillcolor="#4ea7e8"] ;
180 -> 181 ;
182 [label=<X<SUB>212</SUB> &le; 0.5<br/>entropy = 0.367<br/>samples = 142<br/>value = [10, 132]<br/>class = positive>, fillcolor="#48a4e7"] ;
181 -> 182 ;
183 [label=<X<SUB>132</SUB> &le; 0.5<br/>entropy = 0.316<br/>samples = 140<br/>value = [8, 132]<br/>class = positive>, fillcolor="#45a3e7"] ;
182 -> 183 ;
184 [label=<X<SUB>162</SUB> &le; 0.5<br/>entropy = 0.258<br/>samples = 138<br/>value = [6, 132]<br/>class = positive>, fillcolor="#42a1e6"] ;
183 -> 184 ;
185 [label=<X<SUB>714</SUB> &le; 0.5<br/>entropy = 0.191<br/>samples = 136<br/>value = [4, 132]<br/>class = positive>, fillcolor="#3fa0e6"] ;
184 -> 185 ;
186 [label=<X<SUB>320</SUB> &le; 0.5<br/>entropy = 0.154<br/>samples = 135<br/>value = [3, 132]<br/>class = positive>, fillcolor="#3d9fe6"] ;
185 -> 186 ;
187 [label=<X<SUB>474</SUB> &le; 0.5<br/>entropy = 0.112<br/>samples = 134<br/>value = [2, 132]<br/>class = positive>, fillcolor="#3c9ee5"] ;
186 -> 187 ;
188 [label=<X<SUB>126</SUB> &le; 0.5<br/>entropy = 0.064<br/>samples = 133<br/>value = [1, 132]<br/>class = positive>, fillcolor="#3b9ee5"] ;
187 -> 188 ;
189 [label=<entropy = 0.0<br/>samples = 120<br/>value = [0, 120]<br/>class = positive>, fillcolor="#399de5"] ;
188 -> 189 ;
190 [label=<X<SUB>649</SUB> &le; 0.5<br/>entropy = 0.391<br/>samples = 13<br/>value = [1, 12]<br/>class = positive>, fillcolor="#49a5e7"] ;
188 -> 190 ;
191 [label=<entropy = 0.0<br/>samples = 1<br/>value = [1, 0]<br/>class = negative>, fillcolor="#e58139"] ;
190 -> 191 ;
192 [label=<entropy = 0.0<br/>samples = 12<br/>value = [0, 12]<br/>class = positive>, fillcolor="#399de5"] ;
190 -> 192 ;
193 [label=<entropy = 0.0<br/>samples = 1<br/>value = [1, 0]<br/>class = negative>, fillcolor="#e58139"] ;
187 -> 193 ;
194 [label=<entropy = 0.0<br/>samples = 1<br/>value = [1, 0]<br/>class = negative>, fillcolor="#e58139"] ;
186 -> 194 ;
195 [label=<entropy = 0.0<br/>samples = 1<br/>value = [1, 0]<br/>class = negative>, fillcolor="#e58139"] ;
185 -> 195 ;
196 [label=<entropy = 0.0<br/>samples = 2<br/>value = [2, 0]<br/>class = negative>, fillcolor="#e58139"] ;
184 -> 196 ;
197 [label=<entropy = 0.0<br/>samples = 2<br/>value = [2, 0]<br/>class = negative>, fillcolor="#e58139"] ;
183 -> 197 ;
198 [label=<entropy = 0.0<br/>samples = 2<br/>value = [2, 0]<br/>class = negative>, fillcolor="#e58139"] ;
182 -> 198 ;
199 [label=<entropy = 0.0<br/>samples = 4<br/>value = [4, 0]<br/>class = negative>, fillcolor="#e58139"] ;
181 -> 199 ;
200 [label=<entropy = 0.0<br/>samples = 5<br/>value = [5, 0]<br/>class = negative>, fillcolor="#e58139"] ;
180 -> 200 ;
201 [label=<entropy = 0.0<br/>samples = 17<br/>value = [17, 0]<br/>class = negative>, fillcolor="#e58139"] ;
173 -> 201 ;
202 [label=<entropy = 0.0<br/>samples = 27<br/>value = [27, 0]<br/>class = negative>, fillcolor="#e58139"] ;
172 -> 202 ;
203 [label=<X<SUB>680</SUB> &le; 0.5<br/>entropy = 0.982<br/>samples = 415<br/>value = [175, 240]<br/>class = positive>, fillcolor="#c9e4f8"] ;
7 -> 203 ;
204 [label=<X<SUB>838</SUB> &le; 0.5<br/>entropy = 0.998<br/>samples = 320<br/>value = [169, 151]<br/>class = negative>, fillcolor="#fcf2ea"] ;
203 -> 204 ;
205 [label=<X<SUB>763</SUB> &le; 0.5<br/>entropy = 0.997<br/>samples = 283<br/>value = [132, 151]<br/>class = positive>, fillcolor="#e6f3fc"] ;
204 -> 205 ;
206 [label=<X<SUB>668</SUB> &le; 0.5<br/>entropy = 0.981<br/>samples = 198<br/>value = [115, 83]<br/>class = negative>, fillcolor="#f8dcc8"] ;
205 -> 206 ;
207 [label=<X<SUB>786</SUB> &le; 0.5<br/>entropy = 0.973<br/>samples = 139<br/>value = [56, 83]<br/>class = positive>, fillcolor="#bfdff7"] ;
206 -> 207 ;
208 [label=<X<SUB>712</SUB> &le; 0.5<br/>entropy = 0.921<br/>samples = 125<br/>value = [42, 83]<br/>class = positive>, fillcolor="#9dcff2"] ;
207 -> 208 ;
209 [label=<X<SUB>296</SUB> &le; 0.5<br/>entropy = 0.861<br/>samples = 116<br/>value = [33, 83]<br/>class = positive>, fillcolor="#88c4ef"] ;
208 -> 209 ;
210 [label=<X<SUB>166</SUB> &le; 0.5<br/>entropy = 0.962<br/>samples = 83<br/>value = [32, 51]<br/>class = positive>, fillcolor="#b5daf5"] ;
209 -> 210 ;
211 [label=<X<SUB>796</SUB> &le; 0.5<br/>entropy = 0.998<br/>samples = 61<br/>value = [32, 29]<br/>class = negative>, fillcolor="#fdf3ec"] ;
210 -> 211 ;
212 [label=<X<SUB>752</SUB> &le; 0.5<br/>entropy = 0.83<br/>samples = 42<br/>value = [31, 11]<br/>class = negative>, fillcolor="#eeae7f"] ;
211 -> 212 ;
213 [label=<entropy = 0.0<br/>samples = 31<br/>value = [31, 0]<br/>class = negative>, fillcolor="#e58139"] ;
212 -> 213 ;
214 [label=<entropy = 0.0<br/>samples = 11<br/>value = [0, 11]<br/>class = positive>, fillcolor="#399de5"] ;
212 -> 214 ;
215 [label=<entropy = 0.297<br/>samples = 19<br/>value = [1, 18]<br/>class = positive>, fillcolor="#44a2e6"] ;
211 -> 215 ;
216 [label=<entropy = 0.0<br/>samples = 22<br/>value = [0, 22]<br/>class = positive>, fillcolor="#399de5"] ;
210 -> 216 ;
217 [label=<X<SUB>537</SUB> &le; 0.5<br/>entropy = 0.196<br/>samples = 33<br/>value = [1, 32]<br/>class = positive>, fillcolor="#3fa0e6"] ;
209 -> 217 ;
218 [label=<entropy = 0.0<br/>samples = 32<br/>value = [0, 32]<br/>class = positive>, fillcolor="#399de5"] ;
217 -> 218 ;
219 [label=<entropy = 0.0<br/>samples = 1<br/>value = [1, 0]<br/>class = negative>, fillcolor="#e58139"] ;
217 -> 219 ;
220 [label=<entropy = 0.0<br/>samples = 9<br/>value = [9, 0]<br/>class = negative>, fillcolor="#e58139"] ;
208 -> 220 ;
221 [label=<entropy = 0.0<br/>samples = 14<br/>value = [14, 0]<br/>class = negative>, fillcolor="#e58139"] ;
207 -> 221 ;
222 [label=<entropy = 0.0<br/>samples = 59<br/>value = [59, 0]<br/>class = negative>, fillcolor="#e58139"] ;
206 -> 222 ;
223 [label=<X<SUB>721</SUB> &le; 0.5<br/>entropy = 0.722<br/>samples = 85<br/>value = [17, 68]<br/>class = positive>, fillcolor="#6ab6ec"] ;
205 -> 223 ;
224 [label=<X<SUB>27</SUB> &le; 0.5<br/>entropy = 0.552<br/>samples = 78<br/>value = [10, 68]<br/>class = positive>, fillcolor="#56abe9"] ;
223 -> 224 ;
225 [label=<X<SUB>519</SUB> &le; 0.5<br/>entropy = 0.406<br/>samples = 74<br/>value = [6, 68]<br/>class = positive>, fillcolor="#4aa6e7"] ;
224 -> 225 ;
226 [label=<entropy = 0.0<br/>samples = 3<br/>value = [3, 0]<br/>class = negative>, fillcolor="#e58139"] ;
225 -> 226 ;
227 [label=<X<SUB>263</SUB> &le; 0.5<br/>entropy = 0.253<br/>samples = 71<br/>value = [3, 68]<br/>class = positive>, fillcolor="#42a1e6"] ;
225 -> 227 ;
228 [label=<X<SUB>85</SUB> &le; 0.5<br/>entropy = 0.109<br/>samples = 69<br/>value = [1, 68]<br/>class = positive>, fillcolor="#3c9ee5"] ;
227 -> 228 ;
229 [label=<entropy = 0.0<br/>samples = 68<br/>value = [0, 68]<br/>class = positive>, fillcolor="#399de5"] ;
228 -> 229 ;
230 [label=<entropy = 0.0<br/>samples = 1<br/>value = [1, 0]<br/>class = negative>, fillcolor="#e58139"] ;
228 -> 230 ;
231 [label=<entropy = 0.0<br/>samples = 2<br/>value = [2, 0]<br/>class = negative>, fillcolor="#e58139"] ;
227 -> 231 ;
232 [label=<entropy = 0.0<br/>samples = 4<br/>value = [4, 0]<br/>class = negative>, fillcolor="#e58139"] ;
224 -> 232 ;
233 [label=<entropy = 0.0<br/>samples = 7<br/>value = [7, 0]<br/>class = negative>, fillcolor="#e58139"] ;
223 -> 233 ;
234 [label=<entropy = 0.0<br/>samples = 37<br/>value = [37, 0]<br/>class = negative>, fillcolor="#e58139"] ;
204 -> 234 ;
235 [label=<X<SUB>751</SUB> &le; 0.5<br/>entropy = 0.34<br/>samples = 95<br/>value = [6, 89]<br/>class = positive>, fillcolor="#46a4e7"] ;
203 -> 235 ;
236 [label=<X<SUB>366</SUB> &le; 0.5<br/>entropy = 0.088<br/>samples = 90<br/>value = [1, 89]<br/>class = positive>, fillcolor="#3b9ee5"] ;
235 -> 236 ;
237 [label=<entropy = 0.0<br/>samples = 89<br/>value = [0, 89]<br/>class = positive>, fillcolor="#399de5"] ;
236 -> 237 ;
238 [label=<entropy = 0.0<br/>samples = 1<br/>value = [1, 0]<br/>class = negative>, fillcolor="#e58139"] ;
236 -> 238 ;
239 [label=<entropy = 0.0<br/>samples = 5<br/>value = [5, 0]<br/>class = negative>, fillcolor="#e58139"] ;
235 -> 239 ;
240 [label=<entropy = 0.0<br/>samples = 130<br/>value = [130, 0]<br/>class = negative>, fillcolor="#e58139"] ;
6 -> 240 ;
241 [label=<X<SUB>420</SUB> &le; 0.5<br/>entropy = 0.972<br/>samples = 526<br/>value = [211, 315]<br/>class = positive>, fillcolor="#bedff6"] ;
5 -> 241 ;
242 [label=<X<SUB>352</SUB> &le; 0.5<br/>entropy = 0.951<br/>samples = 500<br/>value = [185, 315]<br/>class = positive>, fillcolor="#add7f4"] ;
241 -> 242 ;
243 [label=<X<SUB>727</SUB> &le; 0.5<br/>entropy = 0.927<br/>samples = 479<br/>value = [164, 315]<br/>class = positive>, fillcolor="#a0d0f3"] ;
242 -> 243 ;
244 [label=<X<SUB>751</SUB> &le; 0.5<br/>entropy = 0.956<br/>samples = 435<br/>value = [164, 271]<br/>class = positive>, fillcolor="#b1d8f5"] ;
243 -> 244 ;
245 [label=<X<SUB>65</SUB> &le; 0.5<br/>entropy = 0.908<br/>samples = 393<br/>value = [127, 266]<br/>class = positive>, fillcolor="#98ccf1"] ;
244 -> 245 ;
246 [label=<X<SUB>710</SUB> &le; 0.5<br/>entropy = 0.879<br/>samples = 379<br/>value = [113, 266]<br/>class = positive>, fillcolor="#8dc7f0"] ;
245 -> 246 ;
247 [label=<X<SUB>785</SUB> &le; 0.5<br/>entropy = 0.852<br/>samples = 368<br/>value = [102, 266]<br/>class = positive>, fillcolor="#85c3ef"] ;
246 -> 247 ;
248 [label=<X<SUB>364</SUB> &le; 0.5<br/>entropy = 0.825<br/>samples = 359<br/>value = [93, 266]<br/>class = positive>, fillcolor="#7ebfee"] ;
247 -> 248 ;
249 [label=<X<SUB>663</SUB> &le; 0.5<br/>entropy = 0.887<br/>samples = 302<br/>value = [92, 210]<br/>class = positive>, fillcolor="#90c8f0"] ;
248 -> 249 ;
250 [label=<X<SUB>362</SUB> &le; 0.5<br/>entropy = 0.798<br/>samples = 252<br/>value = [61, 191]<br/>class = positive>, fillcolor="#78bced"] ;
249 -> 250 ;
251 [label=<X<SUB>294</SUB> &le; 0.5<br/>entropy = 0.749<br/>samples = 243<br/>value = [52, 191]<br/>class = positive>, fillcolor="#6fb8ec"] ;
250 -> 251 ;
252 [label=<X<SUB>833</SUB> &le; 0.5<br/>entropy = 0.71<br/>samples = 237<br/>value = [46, 191]<br/>class = positive>, fillcolor="#69b5eb"] ;
251 -> 252 ;
253 [label=<X<SUB>677</SUB> &le; 0.5<br/>entropy = 0.673<br/>samples = 232<br/>value = [41, 191]<br/>class = positive>, fillcolor="#64b2eb"] ;
252 -> 253 ;
254 [label=<X<SUB>379</SUB> &le; 0.5<br/>entropy = 0.64<br/>samples = 228<br/>value = [37, 191]<br/>class = positive>, fillcolor="#5fb0ea"] ;
253 -> 254 ;
255 [label=<X<SUB>739</SUB> &le; 0.5<br/>entropy = 0.811<br/>samples = 128<br/>value = [32, 96]<br/>class = positive>, fillcolor="#7bbeee"] ;
254 -> 255 ;
256 [label=<X<SUB>89</SUB> &le; 0.5<br/>entropy = 0.606<br/>samples = 101<br/>value = [15, 86]<br/>class = positive>, fillcolor="#5caeea"] ;
255 -> 256 ;
257 [label=<X<SUB>724</SUB> &le; 0.5<br/>entropy = 0.482<br/>samples = 96<br/>value = [10, 86]<br/>class = positive>, fillcolor="#50a8e8"] ;
256 -> 257 ;
258 [label=<X<SUB>152</SUB> &le; 0.5<br/>entropy = 0.42<br/>samples = 94<br/>value = [8, 86]<br/>class = positive>, fillcolor="#4ba6e7"] ;
257 -> 258 ;
259 [label=<X<SUB>258</SUB> &le; 0.5<br/>entropy = 0.348<br/>samples = 92<br/>value = [6, 86]<br/>class = positive>, fillcolor="#47a4e7"] ;
258 -> 259 ;
260 [label=<X<SUB>0</SUB> &le; 0.5<br/>entropy = 0.48<br/>samples = 58<br/>value = [6, 52]<br/>class = positive>, fillcolor="#50a8e8"] ;
259 -> 260 ;
261 [label=<X<SUB>120</SUB> &le; 0.5<br/>entropy = 0.672<br/>samples = 34<br/>value = [6, 28]<br/>class = positive>, fillcolor="#63b2eb"] ;
260 -> 261 ;
262 [label=<X<SUB>464</SUB> &le; 0.5<br/>entropy = 0.353<br/>samples = 30<br/>value = [2, 28]<br/>class = positive>, fillcolor="#47a4e7"] ;
261 -> 262 ;
263 [label=<X<SUB>326</SUB> &le; 0.5<br/>entropy = 0.216<br/>samples = 29<br/>value = [1, 28]<br/>class = positive>, fillcolor="#40a0e6"] ;
262 -> 263 ;
264 [label=<entropy = 0.592<br/>samples = 7<br/>value = [1, 6]<br/>class = positive>, fillcolor="#5aade9"] ;
263 -> 264 ;
265 [label=<entropy = 0.0<br/>samples = 22<br/>value = [0, 22]<br/>class = positive>, fillcolor="#399de5"] ;
263 -> 265 ;
266 [label=<entropy = 0.0<br/>samples = 1<br/>value = [1, 0]<br/>class = negative>, fillcolor="#e58139"] ;
262 -> 266 ;
267 [label=<entropy = 0.0<br/>samples = 4<br/>value = [4, 0]<br/>class = negative>, fillcolor="#e58139"] ;
261 -> 267 ;
268 [label=<entropy = 0.0<br/>samples = 24<br/>value = [0, 24]<br/>class = positive>, fillcolor="#399de5"] ;
260 -> 268 ;
269 [label=<entropy = 0.0<br/>samples = 34<br/>value = [0, 34]<br/>class = positive>, fillcolor="#399de5"] ;
259 -> 269 ;
270 [label=<entropy = 0.0<br/>samples = 2<br/>value = [2, 0]<br/>class = negative>, fillcolor="#e58139"] ;
258 -> 270 ;
271 [label=<entropy = 0.0<br/>samples = 2<br/>value = [2, 0]<br/>class = negative>, fillcolor="#e58139"] ;
257 -> 271 ;
272 [label=<entropy = 0.0<br/>samples = 5<br/>value = [5, 0]<br/>class = negative>, fillcolor="#e58139"] ;
256 -> 272 ;
273 [label=<X<SUB>642</SUB> &le; 0.5<br/>entropy = 0.951<br/>samples = 27<br/>value = [17, 10]<br/>class = negative>, fillcolor="#f4cbad"] ;
255 -> 273 ;
274 [label=<entropy = 0.0<br/>samples = 17<br/>value = [17, 0]<br/>class = negative>, fillcolor="#e58139"] ;
273 -> 274 ;
275 [label=<entropy = 0.0<br/>samples = 10<br/>value = [0, 10]<br/>class = positive>, fillcolor="#399de5"] ;
273 -> 275 ;
276 [label=<X<SUB>224</SUB> &le; 0.5<br/>entropy = 0.286<br/>samples = 100<br/>value = [5, 95]<br/>class = positive>, fillcolor="#43a2e6"] ;
254 -> 276 ;
277 [label=<X<SUB>645</SUB> &le; 0.5<br/>entropy = 0.084<br/>samples = 96<br/>value = [1, 95]<br/>class = positive>, fillcolor="#3b9ee5"] ;
276 -> 277 ;
278 [label=<entropy = 0.0<br/>samples = 95<br/>value = [0, 95]<br/>class = positive>, fillcolor="#399de5"] ;
277 -> 278 ;
279 [label=<entropy = 0.0<br/>samples = 1<br/>value = [1, 0]<br/>class = negative>, fillcolor="#e58139"] ;
277 -> 279 ;
280 [label=<entropy = 0.0<br/>samples = 4<br/>value = [4, 0]<br/>class = negative>, fillcolor="#e58139"] ;
276 -> 280 ;
281 [label=<entropy = 0.0<br/>samples = 4<br/>value = [4, 0]<br/>class = negative>, fillcolor="#e58139"] ;
253 -> 281 ;
282 [label=<entropy = 0.0<br/>samples = 5<br/>value = [5, 0]<br/>class = negative>, fillcolor="#e58139"] ;
252 -> 282 ;
283 [label=<entropy = 0.0<br/>samples = 6<br/>value = [6, 0]<br/>class = negative>, fillcolor="#e58139"] ;
251 -> 283 ;
284 [label=<entropy = 0.0<br/>samples = 9<br/>value = [9, 0]<br/>class = negative>, fillcolor="#e58139"] ;
250 -> 284 ;
285 [label=<X<SUB>474</SUB> &le; 0.5<br/>entropy = 0.958<br/>samples = 50<br/>value = [31, 19]<br/>class = negative>, fillcolor="#f5ceb2"] ;
249 -> 285 ;
286 [label=<entropy = 0.0<br/>samples = 31<br/>value = [31, 0]<br/>class = negative>, fillcolor="#e58139"] ;
285 -> 286 ;
287 [label=<entropy = 0.0<br/>samples = 19<br/>value = [0, 19]<br/>class = positive>, fillcolor="#399de5"] ;
285 -> 287 ;
288 [label=<X<SUB>258</SUB> &le; 0.5<br/>entropy = 0.127<br/>samples = 57<br/>value = [1, 56]<br/>class = positive>, fillcolor="#3d9fe5"] ;
248 -> 288 ;
289 [label=<entropy = 0.0<br/>samples = 56<br/>value = [0, 56]<br/>class = positive>, fillcolor="#399de5"] ;
288 -> 289 ;
290 [label=<entropy = 0.0<br/>samples = 1<br/>value = [1, 0]<br/>class = negative>, fillcolor="#e58139"] ;
288 -> 290 ;
291 [label=<entropy = 0.0<br/>samples = 9<br/>value = [9, 0]<br/>class = negative>, fillcolor="#e58139"] ;
247 -> 291 ;
292 [label=<entropy = 0.0<br/>samples = 11<br/>value = [11, 0]<br/>class = negative>, fillcolor="#e58139"] ;
246 -> 292 ;
293 [label=<entropy = 0.0<br/>samples = 14<br/>value = [14, 0]<br/>class = negative>, fillcolor="#e58139"] ;
245 -> 293 ;
294 [label=<X<SUB>385</SUB> &le; 0.5<br/>entropy = 0.527<br/>samples = 42<br/>value = [37, 5]<br/>class = negative>, fillcolor="#e99254"] ;
244 -> 294 ;
295 [label=<entropy = 0.0<br/>samples = 36<br/>value = [36, 0]<br/>class = negative>, fillcolor="#e58139"] ;
294 -> 295 ;
296 [label=<entropy = 0.65<br/>samples = 6<br/>value = [1, 5]<br/>class = positive>, fillcolor="#61b1ea"] ;
294 -> 296 ;
297 [label=<entropy = 0.0<br/>samples = 44<br/>value = [0, 44]<br/>class = positive>, fillcolor="#399de5"] ;
243 -> 297 ;
298 [label=<entropy = 0.0<br/>samples = 21<br/>value = [21, 0]<br/>class = negative>, fillcolor="#e58139"] ;
242 -> 298 ;
299 [label=<entropy = 0.0<br/>samples = 26<br/>value = [26, 0]<br/>class = negative>, fillcolor="#e58139"] ;
241 -> 299 ;
300 [label=<X<SUB>637</SUB> &le; 0.5<br/>entropy = 0.68<br/>samples = 228<br/>value = [41, 187]<br/>class = positive>, fillcolor="#64b2eb"] ;
4 -> 300 ;
301 [label=<entropy = 0.0<br/>samples = 16<br/>value = [16, 0]<br/>class = negative>, fillcolor="#e58139"] ;
300 -> 301 ;
302 [label=<X<SUB>281</SUB> &le; 0.5<br/>entropy = 0.523<br/>samples = 212<br/>value = [25, 187]<br/>class = positive>, fillcolor="#53aae8"] ;
300 -> 302 ;
303 [label=<X<SUB>305</SUB> &le; 0.5<br/>entropy = 0.429<br/>samples = 205<br/>value = [18, 187]<br/>class = positive>, fillcolor="#4ca6e8"] ;
302 -> 303 ;
304 [label=<X<SUB>839</SUB> &le; 0.5<br/>entropy = 0.61<br/>samples = 120<br/>value = [18, 102]<br/>class = positive>, fillcolor="#5caeea"] ;
303 -> 304 ;
305 [label=<entropy = 0.0<br/>samples = 13<br/>value = [13, 0]<br/>class = negative>, fillcolor="#e58139"] ;
304 -> 305 ;
306 [label=<X<SUB>211</SUB> &le; 0.5<br/>entropy = 0.272<br/>samples = 107<br/>value = [5, 102]<br/>class = positive>, fillcolor="#43a2e6"] ;
304 -> 306 ;
307 [label=<X<SUB>346</SUB> &le; 0.5<br/>entropy = 0.89<br/>samples = 13<br/>value = [4, 9]<br/>class = positive>, fillcolor="#91c9f1"] ;
306 -> 307 ;
308 [label=<entropy = 0.0<br/>samples = 4<br/>value = [4, 0]<br/>class = negative>, fillcolor="#e58139"] ;
307 -> 308 ;
309 [label=<entropy = 0.0<br/>samples = 9<br/>value = [0, 9]<br/>class = positive>, fillcolor="#399de5"] ;
307 -> 309 ;
310 [label=<X<SUB>169</SUB> &le; 0.5<br/>entropy = 0.085<br/>samples = 94<br/>value = [1, 93]<br/>class = positive>, fillcolor="#3b9ee5"] ;
306 -> 310 ;
311 [label=<entropy = 0.0<br/>samples = 93<br/>value = [0, 93]<br/>class = positive>, fillcolor="#399de5"] ;
310 -> 311 ;
312 [label=<entropy = 0.0<br/>samples = 1<br/>value = [1, 0]<br/>class = negative>, fillcolor="#e58139"] ;
310 -> 312 ;
313 [label=<entropy = 0.0<br/>samples = 85<br/>value = [0, 85]<br/>class = positive>, fillcolor="#399de5"] ;
303 -> 313 ;
314 [label=<entropy = 0.0<br/>samples = 7<br/>value = [7, 0]<br/>class = negative>, fillcolor="#e58139"] ;
302 -> 314 ;
315 [label=<X<SUB>307</SUB> &le; 0.5<br/>entropy = 0.615<br/>samples = 762<br/>value = [646, 116]<br/>class = negative>, fillcolor="#ea985d"] ;
3 -> 315 ;
316 [label=<X<SUB>288</SUB> &le; 0.5<br/>entropy = 0.461<br/>samples = 697<br/>value = [629, 68]<br/>class = negative>, fillcolor="#e88f4e"] ;
315 -> 316 ;
317 [label=<X<SUB>829</SUB> &le; 0.5<br/>entropy = 0.234<br/>samples = 628<br/>value = [604, 24]<br/>class = negative>, fillcolor="#e68641"] ;
316 -> 317 ;
318 [label=<entropy = 0.0<br/>samples = 598<br/>value = [598, 0]<br/>class = negative>, fillcolor="#e58139"] ;
317 -> 318 ;
319 [label=<X<SUB>246</SUB> &le; 0.5<br/>entropy = 0.722<br/>samples = 30<br/>value = [6, 24]<br/>class = positive>, fillcolor="#6ab6ec"] ;
317 -> 319 ;
320 [label=<entropy = 0.0<br/>samples = 6<br/>value = [6, 0]<br/>class = negative>, fillcolor="#e58139"] ;
319 -> 320 ;
321 [label=<entropy = 0.0<br/>samples = 24<br/>value = [0, 24]<br/>class = positive>, fillcolor="#399de5"] ;
319 -> 321 ;
322 [label=<X<SUB>278</SUB> &le; 0.5<br/>entropy = 0.945<br/>samples = 69<br/>value = [25, 44]<br/>class = positive>, fillcolor="#aad5f4"] ;
316 -> 322 ;
323 [label=<X<SUB>152</SUB> &le; 0.5<br/>entropy = 0.691<br/>samples = 54<br/>value = [10, 44]<br/>class = positive>, fillcolor="#66b3eb"] ;
322 -> 323 ;
324 [label=<entropy = 0.0<br/>samples = 7<br/>value = [7, 0]<br/>class = negative>, fillcolor="#e58139"] ;
323 -> 324 ;
325 [label=<X<SUB>146</SUB> &le; 0.5<br/>entropy = 0.342<br/>samples = 47<br/>value = [3, 44]<br/>class = positive>, fillcolor="#46a4e7"] ;
323 -> 325 ;
326 [label=<X<SUB>310</SUB> &le; 0.5<br/>entropy = 0.154<br/>samples = 45<br/>value = [1, 44]<br/>class = positive>, fillcolor="#3d9fe6"] ;
325 -> 326 ;
327 [label=<entropy = 0.0<br/>samples = 44<br/>value = [0, 44]<br/>class = positive>, fillcolor="#399de5"] ;
326 -> 327 ;
328 [label=<entropy = 0.0<br/>samples = 1<br/>value = [1, 0]<br/>class = negative>, fillcolor="#e58139"] ;
326 -> 328 ;
329 [label=<entropy = 0.0<br/>samples = 2<br/>value = [2, 0]<br/>class = negative>, fillcolor="#e58139"] ;
325 -> 329 ;
330 [label=<entropy = 0.0<br/>samples = 15<br/>value = [15, 0]<br/>class = negative>, fillcolor="#e58139"] ;
322 -> 330 ;
331 [label=<X<SUB>262</SUB> &le; 0.5<br/>entropy = 0.829<br/>samples = 65<br/>value = [17, 48]<br/>class = positive>, fillcolor="#7fc0ee"] ;
315 -> 331 ;
332 [label=<X<SUB>324</SUB> &le; 0.5<br/>entropy = 0.592<br/>samples = 56<br/>value = [8, 48]<br/>class = positive>, fillcolor="#5aade9"] ;
331 -> 332 ;
333 [label=<X<SUB>717</SUB> &le; 0.5<br/>entropy = 0.391<br/>samples = 52<br/>value = [4, 48]<br/>class = positive>, fillcolor="#49a5e7"] ;
332 -> 333 ;
334 [label=<X<SUB>539</SUB> &le; 0.5<br/>entropy = 0.144<br/>samples = 49<br/>value = [1, 48]<br/>class = positive>, fillcolor="#3d9fe6"] ;
333 -> 334 ;
335 [label=<entropy = 0.0<br/>samples = 48<br/>value = [0, 48]<br/>class = positive>, fillcolor="#399de5"] ;
334 -> 335 ;
336 [label=<entropy = 0.0<br/>samples = 1<br/>value = [1, 0]<br/>class = negative>, fillcolor="#e58139"] ;
334 -> 336 ;
337 [label=<entropy = 0.0<br/>samples = 3<br/>value = [3, 0]<br/>class = negative>, fillcolor="#e58139"] ;
333 -> 337 ;
338 [label=<entropy = 0.0<br/>samples = 4<br/>value = [4, 0]<br/>class = negative>, fillcolor="#e58139"] ;
332 -> 338 ;
339 [label=<entropy = 0.0<br/>samples = 9<br/>value = [9, 0]<br/>class = negative>, fillcolor="#e58139"] ;
331 -> 339 ;
340 [label=<X<SUB>174</SUB> &le; 0.5<br/>entropy = 0.67<br/>samples = 1772<br/>value = [1461, 311]<br/>class = negative>, fillcolor="#eb9c63"] ;
2 -> 340 ;
341 [label=<X<SUB>265</SUB> &le; 0.5<br/>entropy = 0.452<br/>samples = 1057<br/>value = [957, 100]<br/>class = negative>, fillcolor="#e88e4e"] ;
340 -> 341 ;
342 [label=<X<SUB>356</SUB> &le; 0.5<br/>entropy = 0.353<br/>samples = 946<br/>value = [883, 63]<br/>class = negative>, fillcolor="#e78a47"] ;
341 -> 342 ;
343 [label=<X<SUB>3</SUB> &le; 0.5<br/>entropy = 0.549<br/>samples = 496<br/>value = [433, 63]<br/>class = negative>, fillcolor="#e99356"] ;
342 -> 343 ;
344 [label=<X<SUB>454</SUB> &le; 0.5<br/>entropy = 0.434<br/>samples = 470<br/>value = [428, 42]<br/>class = negative>, fillcolor="#e88d4c"] ;
343 -> 344 ;
345 [label=<X<SUB>290</SUB> &le; 0.5<br/>entropy = 0.342<br/>samples = 455<br/>value = [426, 29]<br/>class = negative>, fillcolor="#e78a46"] ;
344 -> 345 ;
346 [label=<X<SUB>800</SUB> &le; 0.5<br/>entropy = 0.191<br/>samples = 410<br/>value = [398, 12]<br/>class = negative>, fillcolor="#e6853f"] ;
345 -> 346 ;
347 [label=<entropy = 0.0<br/>samples = 388<br/>value = [388, 0]<br/>class = negative>, fillcolor="#e58139"] ;
346 -> 347 ;
348 [label=<X<SUB>753</SUB> &le; 0.5<br/>entropy = 0.994<br/>samples = 22<br/>value = [10, 12]<br/>class = positive>, fillcolor="#deeffb"] ;
346 -> 348 ;
349 [label=<entropy = 0.0<br/>samples = 10<br/>value = [10, 0]<br/>class = negative>, fillcolor="#e58139"] ;
348 -> 349 ;
350 [label=<entropy = 0.0<br/>samples = 12<br/>value = [0, 12]<br/>class = positive>, fillcolor="#399de5"] ;
348 -> 350 ;
351 [label=<X<SUB>451</SUB> &le; 0.5<br/>entropy = 0.956<br/>samples = 45<br/>value = [28, 17]<br/>class = negative>, fillcolor="#f5ceb1"] ;
345 -> 351 ;
352 [label=<entropy = 0.0<br/>samples = 24<br/>value = [24, 0]<br/>class = negative>, fillcolor="#e58139"] ;
351 -> 352 ;
353 [label=<X<SUB>211</SUB> &le; 0.5<br/>entropy = 0.702<br/>samples = 21<br/>value = [4, 17]<br/>class = positive>, fillcolor="#68b4eb"] ;
351 -> 353 ;
354 [label=<X<SUB>633</SUB> &le; 0.5<br/>entropy = 0.31<br/>samples = 18<br/>value = [1, 17]<br/>class = positive>, fillcolor="#45a3e7"] ;
353 -> 354 ;
355 [label=<entropy = 0.0<br/>samples = 17<br/>value = [0, 17]<br/>class = positive>, fillcolor="#399de5"] ;
354 -> 355 ;
356 [label=<entropy = 0.0<br/>samples = 1<br/>value = [1, 0]<br/>class = negative>, fillcolor="#e58139"] ;
354 -> 356 ;
357 [label=<entropy = 0.0<br/>samples = 3<br/>value = [3, 0]<br/>class = negative>, fillcolor="#e58139"] ;
353 -> 357 ;
358 [label=<X<SUB>105</SUB> &le; 0.5<br/>entropy = 0.567<br/>samples = 15<br/>value = [2, 13]<br/>class = positive>, fillcolor="#57ace9"] ;
344 -> 358 ;
359 [label=<entropy = 0.0<br/>samples = 2<br/>value = [2, 0]<br/>class = negative>, fillcolor="#e58139"] ;
358 -> 359 ;
360 [label=<entropy = 0.0<br/>samples = 13<br/>value = [0, 13]<br/>class = positive>, fillcolor="#399de5"] ;
358 -> 360 ;
361 [label=<X<SUB>0</SUB> &le; 0.5<br/>entropy = 0.706<br/>samples = 26<br/>value = [5, 21]<br/>class = positive>, fillcolor="#68b4eb"] ;
343 -> 361 ;
362 [label=<X<SUB>640</SUB> &le; 0.5<br/>entropy = 0.267<br/>samples = 22<br/>value = [1, 21]<br/>class = positive>, fillcolor="#42a2e6"] ;
361 -> 362 ;
363 [label=<entropy = 0.0<br/>samples = 21<br/>value = [0, 21]<br/>class = positive>, fillcolor="#399de5"] ;
362 -> 363 ;
364 [label=<entropy = 0.0<br/>samples = 1<br/>value = [1, 0]<br/>class = negative>, fillcolor="#e58139"] ;
362 -> 364 ;
365 [label=<entropy = 0.0<br/>samples = 4<br/>value = [4, 0]<br/>class = negative>, fillcolor="#e58139"] ;
361 -> 365 ;
366 [label=<entropy = 0.0<br/>samples = 450<br/>value = [450, 0]<br/>class = negative>, fillcolor="#e58139"] ;
342 -> 366 ;
367 [label=<X<SUB>639</SUB> &le; 0.5<br/>entropy = 0.918<br/>samples = 111<br/>value = [74, 37]<br/>class = negative>, fillcolor="#f2c09c"] ;
341 -> 367 ;
368 [label=<X<SUB>549</SUB> &le; 0.5<br/>entropy = 1.0<br/>samples = 75<br/>value = [38, 37]<br/>class = negative>, fillcolor="#fefcfa"] ;
367 -> 368 ;
369 [label=<X<SUB>623</SUB> &le; 0.5<br/>entropy = 0.811<br/>samples = 48<br/>value = [36, 12]<br/>class = negative>, fillcolor="#eeab7b"] ;
368 -> 369 ;
370 [label=<entropy = 0.0<br/>samples = 36<br/>value = [36, 0]<br/>class = negative>, fillcolor="#e58139"] ;
369 -> 370 ;
371 [label=<entropy = 0.0<br/>samples = 12<br/>value = [0, 12]<br/>class = positive>, fillcolor="#399de5"] ;
369 -> 371 ;
372 [label=<X<SUB>802</SUB> &le; 0.5<br/>entropy = 0.381<br/>samples = 27<br/>value = [2, 25]<br/>class = positive>, fillcolor="#49a5e7"] ;
368 -> 372 ;
373 [label=<entropy = 0.0<br/>samples = 2<br/>value = [2, 0]<br/>class = negative>, fillcolor="#e58139"] ;
372 -> 373 ;
374 [label=<entropy = 0.0<br/>samples = 25<br/>value = [0, 25]<br/>class = positive>, fillcolor="#399de5"] ;
372 -> 374 ;
375 [label=<entropy = 0.0<br/>samples = 36<br/>value = [36, 0]<br/>class = negative>, fillcolor="#e58139"] ;
367 -> 375 ;
376 [label=<X<SUB>706</SUB> &le; 0.5<br/>entropy = 0.875<br/>samples = 715<br/>value = [504, 211]<br/>class = negative>, fillcolor="#f0b68c"] ;
340 -> 376 ;
377 [label=<X<SUB>802</SUB> &le; 0.5<br/>entropy = 0.936<br/>samples = 600<br/>value = [389, 211]<br/>class = negative>, fillcolor="#f3c5a4"] ;
376 -> 377 ;
378 [label=<X<SUB>626</SUB> &le; 0.5<br/>entropy = 0.973<br/>samples = 522<br/>value = [311, 211]<br/>class = negative>, fillcolor="#f7d6bf"] ;
377 -> 378 ;
379 [label=<X<SUB>31</SUB> &le; 0.5<br/>entropy = 0.934<br/>samples = 474<br/>value = [308, 166]<br/>class = negative>, fillcolor="#f3c5a4"] ;
378 -> 379 ;
380 [label=<X<SUB>35</SUB> &le; 0.5<br/>entropy = 0.988<br/>samples = 380<br/>value = [214, 166]<br/>class = negative>, fillcolor="#f9e3d3"] ;
379 -> 380 ;
381 [label=<X<SUB>749</SUB> &le; 0.5<br/>entropy = 1.0<br/>samples = 327<br/>value = [161, 166]<br/>class = positive>, fillcolor="#f9fcfe"] ;
380 -> 381 ;
382 [label=<X<SUB>828</SUB> &le; 0.5<br/>entropy = 0.975<br/>samples = 253<br/>value = [150, 103]<br/>class = negative>, fillcolor="#f7d8c1"] ;
381 -> 382 ;
383 [label=<X<SUB>563</SUB> &le; 0.5<br/>entropy = 0.997<br/>samples = 194<br/>value = [91, 103]<br/>class = positive>, fillcolor="#e8f4fc"] ;
382 -> 383 ;
384 [label=<X<SUB>591</SUB> &le; 0.5<br/>entropy = 0.984<br/>samples = 153<br/>value = [88, 65]<br/>class = negative>, fillcolor="#f8decb"] ;
383 -> 384 ;
385 [label=<X<SUB>772</SUB> &le; 0.5<br/>entropy = 0.994<br/>samples = 119<br/>value = [54, 65]<br/>class = positive>, fillcolor="#ddeefb"] ;
384 -> 385 ;
386 [label=<X<SUB>451</SUB> &le; 0.5<br/>entropy = 0.989<br/>samples = 96<br/>value = [54, 42]<br/>class = negative>, fillcolor="#f9e3d3"] ;
385 -> 386 ;
387 [label=<X<SUB>224</SUB> &le; 0.5<br/>entropy = 0.687<br/>samples = 60<br/>value = [49, 11]<br/>class = negative>, fillcolor="#eb9d65"] ;
386 -> 387 ;
388 [label=<entropy = 0.0<br/>samples = 44<br/>value = [44, 0]<br/>class = negative>, fillcolor="#e58139"] ;
387 -> 388 ;
389 [label=<X<SUB>420</SUB> &le; 0.5<br/>entropy = 0.896<br/>samples = 16<br/>value = [5, 11]<br/>class = positive>, fillcolor="#93caf1"] ;
387 -> 389 ;
390 [label=<entropy = 0.414<br/>samples = 12<br/>value = [1, 11]<br/>class = positive>, fillcolor="#4ba6e7"] ;
389 -> 390 ;
391 [label=<entropy = 0.0<br/>samples = 4<br/>value = [4, 0]<br/>class = negative>, fillcolor="#e58139"] ;
389 -> 391 ;
392 [label=<X<SUB>785</SUB> &le; 0.5<br/>entropy = 0.581<br/>samples = 36<br/>value = [5, 31]<br/>class = positive>, fillcolor="#59ade9"] ;
386 -> 392 ;
393 [label=<X<SUB>139</SUB> &le; 0.5<br/>entropy = 0.33<br/>samples = 33<br/>value = [2, 31]<br/>class = positive>, fillcolor="#46a3e7"] ;
392 -> 393 ;
394 [label=<entropy = 0.0<br/>samples = 31<br/>value = [0, 31]<br/>class = positive>, fillcolor="#399de5"] ;
393 -> 394 ;
395 [label=<entropy = 0.0<br/>samples = 2<br/>value = [2, 0]<br/>class = negative>, fillcolor="#e58139"] ;
393 -> 395 ;
396 [label=<entropy = 0.0<br/>samples = 3<br/>value = [3, 0]<br/>class = negative>, fillcolor="#e58139"] ;
392 -> 396 ;
397 [label=<entropy = 0.0<br/>samples = 23<br/>value = [0, 23]<br/>class = positive>, fillcolor="#399de5"] ;
385 -> 397 ;
398 [label=<entropy = 0.0<br/>samples = 34<br/>value = [34, 0]<br/>class = negative>, fillcolor="#e58139"] ;
384 -> 398 ;
399 [label=<X<SUB>693</SUB> &le; 0.5<br/>entropy = 0.378<br/>samples = 41<br/>value = [3, 38]<br/>class = positive>, fillcolor="#49a5e7"] ;
383 -> 399 ;
400 [label=<entropy = 0.0<br/>samples = 3<br/>value = [3, 0]<br/>class = negative>, fillcolor="#e58139"] ;
399 -> 400 ;
401 [label=<entropy = 0.0<br/>samples = 38<br/>value = [0, 38]<br/>class = positive>, fillcolor="#399de5"] ;
399 -> 401 ;
402 [label=<entropy = 0.0<br/>samples = 59<br/>value = [59, 0]<br/>class = negative>, fillcolor="#e58139"] ;
382 -> 402 ;
403 [label=<X<SUB>171</SUB> &le; 0.5<br/>entropy = 0.606<br/>samples = 74<br/>value = [11, 63]<br/>class = positive>, fillcolor="#5caeea"] ;
381 -> 403 ;
404 [label=<X<SUB>576</SUB> &le; 0.5<br/>entropy = 0.426<br/>samples = 69<br/>value = [6, 63]<br/>class = positive>, fillcolor="#4ca6e7"] ;
403 -> 404 ;
405 [label=<X<SUB>294</SUB> &le; 0.5<br/>entropy = 0.267<br/>samples = 66<br/>value = [3, 63]<br/>class = positive>, fillcolor="#42a2e6"] ;
404 -> 405 ;
406 [label=<X<SUB>357</SUB> &le; 0.5<br/>entropy = 0.116<br/>samples = 64<br/>value = [1, 63]<br/>class = positive>, fillcolor="#3c9fe5"] ;
405 -> 406 ;
407 [label=<entropy = 0.0<br/>samples = 63<br/>value = [0, 63]<br/>class = positive>, fillcolor="#399de5"] ;
406 -> 407 ;
408 [label=<entropy = 0.0<br/>samples = 1<br/>value = [1, 0]<br/>class = negative>, fillcolor="#e58139"] ;
406 -> 408 ;
409 [label=<entropy = 0.0<br/>samples = 2<br/>value = [2, 0]<br/>class = negative>, fillcolor="#e58139"] ;
405 -> 409 ;
410 [label=<entropy = 0.0<br/>samples = 3<br/>value = [3, 0]<br/>class = negative>, fillcolor="#e58139"] ;
404 -> 410 ;
411 [label=<entropy = 0.0<br/>samples = 5<br/>value = [5, 0]<br/>class = negative>, fillcolor="#e58139"] ;
403 -> 411 ;
412 [label=<entropy = 0.0<br/>samples = 53<br/>value = [53, 0]<br/>class = negative>, fillcolor="#e58139"] ;
380 -> 412 ;
413 [label=<entropy = 0.0<br/>samples = 94<br/>value = [94, 0]<br/>class = negative>, fillcolor="#e58139"] ;
379 -> 413 ;
414 [label=<X<SUB>671</SUB> &le; 0.5<br/>entropy = 0.337<br/>samples = 48<br/>value = [3, 45]<br/>class = positive>, fillcolor="#46a4e7"] ;
378 -> 414 ;
415 [label=<entropy = 0.0<br/>samples = 2<br/>value = [2, 0]<br/>class = negative>, fillcolor="#e58139"] ;
414 -> 415 ;
416 [label=<X<SUB>540</SUB> &le; 0.5<br/>entropy = 0.151<br/>samples = 46<br/>value = [1, 45]<br/>class = positive>, fillcolor="#3d9fe6"] ;
414 -> 416 ;
417 [label=<entropy = 0.0<br/>samples = 45<br/>value = [0, 45]<br/>class = positive>, fillcolor="#399de5"] ;
416 -> 417 ;
418 [label=<entropy = 0.0<br/>samples = 1<br/>value = [1, 0]<br/>class = negative>, fillcolor="#e58139"] ;
416 -> 418 ;
419 [label=<entropy = 0.0<br/>samples = 78<br/>value = [78, 0]<br/>class = negative>, fillcolor="#e58139"] ;
377 -> 419 ;
420 [label=<entropy = 0.0<br/>samples = 115<br/>value = [115, 0]<br/>class = negative>, fillcolor="#e58139"] ;
376 -> 420 ;
421 [label=<X<SUB>574</SUB> &le; 0.5<br/>entropy = 0.954<br/>samples = 1714<br/>value = [641, 1073]<br/>class = positive>, fillcolor="#afd8f5"] ;
1 -> 421 ;
422 [label=<X<SUB>239</SUB> &le; 0.5<br/>entropy = 0.955<br/>samples = 732<br/>value = [457, 275]<br/>class = negative>, fillcolor="#f5cdb0"] ;
421 -> 422 ;
423 [label=<X<SUB>637</SUB> &le; 0.5<br/>entropy = 0.852<br/>samples = 605<br/>value = [437, 168]<br/>class = negative>, fillcolor="#efb185"] ;
422 -> 423 ;
424 [label=<X<SUB>535</SUB> &le; 0.5<br/>entropy = 0.65<br/>samples = 426<br/>value = [355, 71]<br/>class = negative>, fillcolor="#ea9a61"] ;
423 -> 424 ;
425 [label=<X<SUB>381</SUB> &le; 0.5<br/>entropy = 1.0<br/>samples = 121<br/>value = [62, 59]<br/>class = negative>, fillcolor="#fef9f5"] ;
424 -> 425 ;
426 [label=<X<SUB>38</SUB> &le; 0.5<br/>entropy = 0.888<br/>samples = 85<br/>value = [26, 59]<br/>class = positive>, fillcolor="#90c8f0"] ;
425 -> 426 ;
427 [label=<X<SUB>287</SUB> &le; 0.5<br/>entropy = 0.992<br/>samples = 58<br/>value = [26, 32]<br/>class = positive>, fillcolor="#daedfa"] ;
426 -> 427 ;
428 [label=<X<SUB>838</SUB> &le; 0.5<br/>entropy = 0.845<br/>samples = 44<br/>value = [12, 32]<br/>class = positive>, fillcolor="#83c2ef"] ;
427 -> 428 ;
429 [label=<X<SUB>638</SUB> &le; 0.5<br/>entropy = 0.629<br/>samples = 38<br/>value = [6, 32]<br/>class = positive>, fillcolor="#5eafea"] ;
428 -> 429 ;
430 [label=<entropy = 0.0<br/>samples = 3<br/>value = [3, 0]<br/>class = negative>, fillcolor="#e58139"] ;
429 -> 430 ;
431 [label=<X<SUB>255</SUB> &le; 0.5<br/>entropy = 0.422<br/>samples = 35<br/>value = [3, 32]<br/>class = positive>, fillcolor="#4ca6e7"] ;
429 -> 431 ;
432 [label=<X<SUB>611</SUB> &le; 0.5<br/>entropy = 0.196<br/>samples = 33<br/>value = [1, 32]<br/>class = positive>, fillcolor="#3fa0e6"] ;
431 -> 432 ;
433 [label=<entropy = 0.0<br/>samples = 32<br/>value = [0, 32]<br/>class = positive>, fillcolor="#399de5"] ;
432 -> 433 ;
434 [label=<entropy = 0.0<br/>samples = 1<br/>value = [1, 0]<br/>class = negative>, fillcolor="#e58139"] ;
432 -> 434 ;
435 [label=<entropy = 0.0<br/>samples = 2<br/>value = [2, 0]<br/>class = negative>, fillcolor="#e58139"] ;
431 -> 435 ;
436 [label=<entropy = 0.0<br/>samples = 6<br/>value = [6, 0]<br/>class = negative>, fillcolor="#e58139"] ;
428 -> 436 ;
437 [label=<entropy = 0.0<br/>samples = 14<br/>value = [14, 0]<br/>class = negative>, fillcolor="#e58139"] ;
427 -> 437 ;
438 [label=<entropy = 0.0<br/>samples = 27<br/>value = [0, 27]<br/>class = positive>, fillcolor="#399de5"] ;
426 -> 438 ;
439 [label=<entropy = 0.0<br/>samples = 36<br/>value = [36, 0]<br/>class = negative>, fillcolor="#e58139"] ;
425 -> 439 ;
440 [label=<X<SUB>7</SUB> &le; 0.5<br/>entropy = 0.239<br/>samples = 305<br/>value = [293, 12]<br/>class = negative>, fillcolor="#e68641"] ;
424 -> 440 ;
441 [label=<entropy = 0.0<br/>samples = 291<br/>value = [291, 0]<br/>class = negative>, fillcolor="#e58139"] ;
440 -> 441 ;
442 [label=<X<SUB>764</SUB> &le; 0.5<br/>entropy = 0.592<br/>samples = 14<br/>value = [2, 12]<br/>class = positive>, fillcolor="#5aade9"] ;
440 -> 442 ;
443 [label=<entropy = 0.0<br/>samples = 2<br/>value = [2, 0]<br/>class = negative>, fillcolor="#e58139"] ;
442 -> 443 ;
444 [label=<entropy = 0.0<br/>samples = 12<br/>value = [0, 12]<br/>class = positive>, fillcolor="#399de5"] ;
442 -> 444 ;
445 [label=<X<SUB>222</SUB> &le; 0.5<br/>entropy = 0.995<br/>samples = 179<br/>value = [82, 97]<br/>class = positive>, fillcolor="#e0f0fb"] ;
423 -> 445 ;
446 [label=<X<SUB>721</SUB> &le; 0.5<br/>entropy = 0.834<br/>samples = 132<br/>value = [35, 97]<br/>class = positive>, fillcolor="#80c0ee"] ;
445 -> 446 ;
447 [label=<X<SUB>456</SUB> &le; 0.5<br/>entropy = 0.744<br/>samples = 123<br/>value = [26, 97]<br/>class = positive>, fillcolor="#6eb7ec"] ;
446 -> 447 ;
448 [label=<X<SUB>440</SUB> &le; 0.5<br/>entropy = 0.923<br/>samples = 74<br/>value = [25, 49]<br/>class = positive>, fillcolor="#9ecff2"] ;
447 -> 448 ;
449 [label=<entropy = 0.0<br/>samples = 11<br/>value = [11, 0]<br/>class = negative>, fillcolor="#e58139"] ;
448 -> 449 ;
450 [label=<X<SUB>837</SUB> &le; 0.5<br/>entropy = 0.764<br/>samples = 63<br/>value = [14, 49]<br/>class = positive>, fillcolor="#72b9ec"] ;
448 -> 450 ;
451 [label=<X<SUB>35</SUB> &le; 0.5<br/>entropy = 0.623<br/>samples = 58<br/>value = [9, 49]<br/>class = positive>, fillcolor="#5dafea"] ;
450 -> 451 ;
452 [label=<X<SUB>352</SUB> &le; 0.5<br/>entropy = 0.445<br/>samples = 54<br/>value = [5, 49]<br/>class = positive>, fillcolor="#4da7e8"] ;
451 -> 452 ;
453 [label=<X<SUB>374</SUB> &le; 0.5<br/>entropy = 0.318<br/>samples = 52<br/>value = [3, 49]<br/>class = positive>, fillcolor="#45a3e7"] ;
452 -> 453 ;
454 [label=<X<SUB>620</SUB> &le; 0.5<br/>entropy = 0.141<br/>samples = 50<br/>value = [1, 49]<br/>class = positive>, fillcolor="#3d9fe6"] ;
453 -> 454 ;
455 [label=<entropy = 0.0<br/>samples = 49<br/>value = [0, 49]<br/>class = positive>, fillcolor="#399de5"] ;
454 -> 455 ;
456 [label=<entropy = 0.0<br/>samples = 1<br/>value = [1, 0]<br/>class = negative>, fillcolor="#e58139"] ;
454 -> 456 ;
457 [label=<entropy = 0.0<br/>samples = 2<br/>value = [2, 0]<br/>class = negative>, fillcolor="#e58139"] ;
453 -> 457 ;
458 [label=<entropy = 0.0<br/>samples = 2<br/>value = [2, 0]<br/>class = negative>, fillcolor="#e58139"] ;
452 -> 458 ;
459 [label=<entropy = 0.0<br/>samples = 4<br/>value = [4, 0]<br/>class = negative>, fillcolor="#e58139"] ;
451 -> 459 ;
460 [label=<entropy = 0.0<br/>samples = 5<br/>value = [5, 0]<br/>class = negative>, fillcolor="#e58139"] ;
450 -> 460 ;
461 [label=<X<SUB>99</SUB> &le; 0.5<br/>entropy = 0.144<br/>samples = 49<br/>value = [1, 48]<br/>class = positive>, fillcolor="#3d9fe6"] ;
447 -> 461 ;
462 [label=<entropy = 0.0<br/>samples = 48<br/>value = [0, 48]<br/>class = positive>, fillcolor="#399de5"] ;
461 -> 462 ;
463 [label=<entropy = 0.0<br/>samples = 1<br/>value = [1, 0]<br/>class = negative>, fillcolor="#e58139"] ;
461 -> 463 ;
464 [label=<entropy = 0.0<br/>samples = 9<br/>value = [9, 0]<br/>class = negative>, fillcolor="#e58139"] ;
446 -> 464 ;
465 [label=<entropy = 0.0<br/>samples = 47<br/>value = [47, 0]<br/>class = negative>, fillcolor="#e58139"] ;
445 -> 465 ;
466 [label=<X<SUB>783</SUB> &le; 0.5<br/>entropy = 0.628<br/>samples = 127<br/>value = [20, 107]<br/>class = positive>, fillcolor="#5eafea"] ;
422 -> 466 ;
467 [label=<X<SUB>116</SUB> &le; 0.5<br/>entropy = 0.997<br/>samples = 32<br/>value = [17, 15]<br/>class = negative>, fillcolor="#fcf0e8"] ;
466 -> 467 ;
468 [label=<entropy = 0.0<br/>samples = 17<br/>value = [17, 0]<br/>class = negative>, fillcolor="#e58139"] ;
467 -> 468 ;
469 [label=<entropy = 0.0<br/>samples = 15<br/>value = [0, 15]<br/>class = positive>, fillcolor="#399de5"] ;
467 -> 469 ;
470 [label=<X<SUB>352</SUB> &le; 0.5<br/>entropy = 0.202<br/>samples = 95<br/>value = [3, 92]<br/>class = positive>, fillcolor="#3fa0e6"] ;
466 -> 470 ;
471 [label=<entropy = 0.0<br/>samples = 3<br/>value = [3, 0]<br/>class = negative>, fillcolor="#e58139"] ;
470 -> 471 ;
472 [label=<entropy = 0.0<br/>samples = 92<br/>value = [0, 92]<br/>class = positive>, fillcolor="#399de5"] ;
470 -> 472 ;
473 [label=<X<SUB>794</SUB> &le; 0.5<br/>entropy = 0.696<br/>samples = 982<br/>value = [184, 798]<br/>class = positive>, fillcolor="#67b4eb"] ;
421 -> 473 ;
474 [label=<X<SUB>205</SUB> &le; 0.5<br/>entropy = 0.947<br/>samples = 307<br/>value = [112, 195]<br/>class = positive>, fillcolor="#abd5f4"] ;
473 -> 474 ;
475 [label=<entropy = 0.0<br/>samples = 29<br/>value = [29, 0]<br/>class = negative>, fillcolor="#e58139"] ;
474 -> 475 ;
476 [label=<X<SUB>647</SUB> &le; 0.5<br/>entropy = 0.88<br/>samples = 278<br/>value = [83, 195]<br/>class = positive>, fillcolor="#8dc7f0"] ;
474 -> 476 ;
477 [label=<X<SUB>112</SUB> &le; 0.5<br/>entropy = 0.792<br/>samples = 256<br/>value = [61, 195]<br/>class = positive>, fillcolor="#77bced"] ;
476 -> 477 ;
478 [label=<X<SUB>735</SUB> &le; 0.5<br/>entropy = 0.717<br/>samples = 243<br/>value = [48, 195]<br/>class = positive>, fillcolor="#6ab5eb"] ;
477 -> 478 ;
479 [label=<X<SUB>569</SUB> &le; 0.5<br/>entropy = 0.633<br/>samples = 232<br/>value = [37, 195]<br/>class = positive>, fillcolor="#5fb0ea"] ;
478 -> 479 ;
480 [label=<X<SUB>623</SUB> &le; 0.5<br/>entropy = 0.783<br/>samples = 159<br/>value = [37, 122]<br/>class = positive>, fillcolor="#75bbed"] ;
479 -> 480 ;
481 [label=<X<SUB>119</SUB> &le; 0.5<br/>entropy = 0.602<br/>samples = 143<br/>value = [21, 122]<br/>class = positive>, fillcolor="#5baee9"] ;
480 -> 481 ;
482 [label=<X<SUB>830</SUB> &le; 0.5<br/>entropy = 0.435<br/>samples = 134<br/>value = [12, 122]<br/>class = positive>, fillcolor="#4ca7e8"] ;
481 -> 482 ;
483 [label=<X<SUB>293</SUB> &le; 0.5<br/>entropy = 0.334<br/>samples = 130<br/>value = [8, 122]<br/>class = positive>, fillcolor="#46a3e7"] ;
482 -> 483 ;
484 [label=<X<SUB>424</SUB> &le; 0.5<br/>entropy = 0.239<br/>samples = 127<br/>value = [5, 122]<br/>class = positive>, fillcolor="#41a1e6"] ;
483 -> 484 ;
485 [label=<X<SUB>287</SUB> &le; 0.5<br/>entropy = 0.163<br/>samples = 125<br/>value = [3, 122]<br/>class = positive>, fillcolor="#3e9fe6"] ;
484 -> 485 ;
486 [label=<entropy = 0.0<br/>samples = 2<br/>value = [2, 0]<br/>class = negative>, fillcolor="#e58139"] ;
485 -> 486 ;
487 [label=<X<SUB>494</SUB> &le; 0.5<br/>entropy = 0.068<br/>samples = 123<br/>value = [1, 122]<br/>class = positive>, fillcolor="#3b9ee5"] ;
485 -> 487 ;
488 [label=<entropy = 0.0<br/>samples = 122<br/>value = [0, 122]<br/>class = positive>, fillcolor="#399de5"] ;
487 -> 488 ;
489 [label=<entropy = 0.0<br/>samples = 1<br/>value = [1, 0]<br/>class = negative>, fillcolor="#e58139"] ;
487 -> 489 ;
490 [label=<entropy = 0.0<br/>samples = 2<br/>value = [2, 0]<br/>class = negative>, fillcolor="#e58139"] ;
484 -> 490 ;
491 [label=<entropy = 0.0<br/>samples = 3<br/>value = [3, 0]<br/>class = negative>, fillcolor="#e58139"] ;
483 -> 491 ;
492 [label=<entropy = 0.0<br/>samples = 4<br/>value = [4, 0]<br/>class = negative>, fillcolor="#e58139"] ;
482 -> 492 ;
493 [label=<entropy = 0.0<br/>samples = 9<br/>value = [9, 0]<br/>class = negative>, fillcolor="#e58139"] ;
481 -> 493 ;
494 [label=<entropy = 0.0<br/>samples = 16<br/>value = [16, 0]<br/>class = negative>, fillcolor="#e58139"] ;
480 -> 494 ;
495 [label=<entropy = 0.0<br/>samples = 73<br/>value = [0, 73]<br/>class = positive>, fillcolor="#399de5"] ;
479 -> 495 ;
496 [label=<entropy = 0.0<br/>samples = 11<br/>value = [11, 0]<br/>class = negative>, fillcolor="#e58139"] ;
478 -> 496 ;
497 [label=<entropy = 0.0<br/>samples = 13<br/>value = [13, 0]<br/>class = negative>, fillcolor="#e58139"] ;
477 -> 497 ;
498 [label=<entropy = 0.0<br/>samples = 22<br/>value = [22, 0]<br/>class = negative>, fillcolor="#e58139"] ;
476 -> 498 ;
499 [label=<X<SUB>668</SUB> &le; 0.5<br/>entropy = 0.49<br/>samples = 675<br/>value = [72, 603]<br/>class = positive>, fillcolor="#51a9e8"] ;
473 -> 499 ;
500 [label=<entropy = 0.0<br/>samples = 11<br/>value = [11, 0]<br/>class = negative>, fillcolor="#e58139"] ;
499 -> 500 ;
501 [label=<X<SUB>261</SUB> &le; 0.5<br/>entropy = 0.443<br/>samples = 664<br/>value = [61, 603]<br/>class = positive>, fillcolor="#4da7e8"] ;
499 -> 501 ;
502 [label=<X<SUB>638</SUB> &le; 0.5<br/>entropy = 0.39<br/>samples = 653<br/>value = [50, 603]<br/>class = positive>, fillcolor="#49a5e7"] ;
501 -> 502 ;
503 [label=<X<SUB>493</SUB> &le; 0.5<br/>entropy = 0.353<br/>samples = 646<br/>value = [43, 603]<br/>class = positive>, fillcolor="#47a4e7"] ;
502 -> 503 ;
504 [label=<X<SUB>708</SUB> &le; 0.5<br/>entropy = 0.485<br/>samples = 371<br/>value = [39, 332]<br/>class = positive>, fillcolor="#50a9e8"] ;
503 -> 504 ;
505 [label=<entropy = 0.0<br/>samples = 9<br/>value = [9, 0]<br/>class = negative>, fillcolor="#e58139"] ;
504 -> 505 ;
506 [label=<X<SUB>688</SUB> &le; 0.5<br/>entropy = 0.412<br/>samples = 362<br/>value = [30, 332]<br/>class = positive>, fillcolor="#4ba6e7"] ;
504 -> 506 ;
507 [label=<X<SUB>81</SUB> &le; 0.5<br/>entropy = 0.603<br/>samples = 190<br/>value = [28, 162]<br/>class = positive>, fillcolor="#5baee9"] ;
506 -> 507 ;
508 [label=<X<SUB>476</SUB> &le; 0.5<br/>entropy = 0.528<br/>samples = 184<br/>value = [22, 162]<br/>class = positive>, fillcolor="#54aae9"] ;
507 -> 508 ;
509 [label=<X<SUB>515</SUB> &le; 0.5<br/>entropy = 0.485<br/>samples = 181<br/>value = [19, 162]<br/>class = positive>, fillcolor="#50a8e8"] ;
508 -> 509 ;
510 [label=<X<SUB>677</SUB> &le; 0.5<br/>entropy = 0.436<br/>samples = 178<br/>value = [16, 162]<br/>class = positive>, fillcolor="#4da7e8"] ;
509 -> 510 ;
511 [label=<X<SUB>596</SUB> &le; 0.5<br/>entropy = 0.401<br/>samples = 176<br/>value = [14, 162]<br/>class = positive>, fillcolor="#4aa5e7"] ;
510 -> 511 ;
512 [label=<X<SUB>191</SUB> &le; 0.5<br/>entropy = 0.362<br/>samples = 174<br/>value = [12, 162]<br/>class = positive>, fillcolor="#48a4e7"] ;
511 -> 512 ;
513 [label=<X<SUB>145</SUB> &le; 0.5<br/>entropy = 0.32<br/>samples = 172<br/>value = [10, 162]<br/>class = positive>, fillcolor="#45a3e7"] ;
512 -> 513 ;
514 [label=<X<SUB>552</SUB> &le; 0.5<br/>entropy = 0.274<br/>samples = 170<br/>value = [8, 162]<br/>class = positive>, fillcolor="#43a2e6"] ;
513 -> 514 ;
515 [label=<X<SUB>91</SUB> &le; 0.5<br/>entropy = 0.249<br/>samples = 169<br/>value = [7, 162]<br/>class = positive>, fillcolor="#42a1e6"] ;
514 -> 515 ;
516 [label=<X<SUB>758</SUB> &le; 0.5<br/>entropy = 0.222<br/>samples = 168<br/>value = [6, 162]<br/>class = positive>, fillcolor="#40a1e6"] ;
515 -> 516 ;
517 [label=<X<SUB>170</SUB> &le; 0.5<br/>entropy = 0.194<br/>samples = 167<br/>value = [5, 162]<br/>class = positive>, fillcolor="#3fa0e6"] ;
516 -> 517 ;
518 [label=<X<SUB>400</SUB> &le; 0.5<br/>entropy = 0.164<br/>samples = 166<br/>value = [4, 162]<br/>class = positive>, fillcolor="#3e9fe6"] ;
517 -> 518 ;
519 [label=<X<SUB>258</SUB> &le; 0.5<br/>entropy = 0.131<br/>samples = 165<br/>value = [3, 162]<br/>class = positive>, fillcolor="#3d9fe5"] ;
518 -> 519 ;
520 [label=<X<SUB>724</SUB> &le; 0.5<br/>entropy = 0.095<br/>samples = 164<br/>value = [2, 162]<br/>class = positive>, fillcolor="#3b9ee5"] ;
519 -> 520 ;
521 [label=<X<SUB>696</SUB> &le; 0.5<br/>entropy = 0.054<br/>samples = 163<br/>value = [1, 162]<br/>class = positive>, fillcolor="#3a9ee5"] ;
520 -> 521 ;
522 [label=<entropy = 0.0<br/>samples = 147<br/>value = [0, 147]<br/>class = positive>, fillcolor="#399de5"] ;
521 -> 522 ;
523 [label=<X<SUB>614</SUB> &le; 0.5<br/>entropy = 0.337<br/>samples = 16<br/>value = [1, 15]<br/>class = positive>, fillcolor="#46a4e7"] ;
521 -> 523 ;
524 [label=<entropy = 0.0<br/>samples = 15<br/>value = [0, 15]<br/>class = positive>, fillcolor="#399de5"] ;
523 -> 524 ;
525 [label=<entropy = 0.0<br/>samples = 1<br/>value = [1, 0]<br/>class = negative>, fillcolor="#e58139"] ;
523 -> 525 ;
526 [label=<entropy = 0.0<br/>samples = 1<br/>value = [1, 0]<br/>class = negative>, fillcolor="#e58139"] ;
520 -> 526 ;
527 [label=<entropy = 0.0<br/>samples = 1<br/>value = [1, 0]<br/>class = negative>, fillcolor="#e58139"] ;
519 -> 527 ;
528 [label=<entropy = 0.0<br/>samples = 1<br/>value = [1, 0]<br/>class = negative>, fillcolor="#e58139"] ;
518 -> 528 ;
529 [label=<entropy = 0.0<br/>samples = 1<br/>value = [1, 0]<br/>class = negative>, fillcolor="#e58139"] ;
517 -> 529 ;
530 [label=<entropy = 0.0<br/>samples = 1<br/>value = [1, 0]<br/>class = negative>, fillcolor="#e58139"] ;
516 -> 530 ;
531 [label=<entropy = 0.0<br/>samples = 1<br/>value = [1, 0]<br/>class = negative>, fillcolor="#e58139"] ;
515 -> 531 ;
532 [label=<entropy = 0.0<br/>samples = 1<br/>value = [1, 0]<br/>class = negative>, fillcolor="#e58139"] ;
514 -> 532 ;
533 [label=<entropy = 0.0<br/>samples = 2<br/>value = [2, 0]<br/>class = negative>, fillcolor="#e58139"] ;
513 -> 533 ;
534 [label=<entropy = 0.0<br/>samples = 2<br/>value = [2, 0]<br/>class = negative>, fillcolor="#e58139"] ;
512 -> 534 ;
535 [label=<entropy = 0.0<br/>samples = 2<br/>value = [2, 0]<br/>class = negative>, fillcolor="#e58139"] ;
511 -> 535 ;
536 [label=<entropy = 0.0<br/>samples = 2<br/>value = [2, 0]<br/>class = negative>, fillcolor="#e58139"] ;
510 -> 536 ;
537 [label=<entropy = 0.0<br/>samples = 3<br/>value = [3, 0]<br/>class = negative>, fillcolor="#e58139"] ;
509 -> 537 ;
538 [label=<entropy = 0.0<br/>samples = 3<br/>value = [3, 0]<br/>class = negative>, fillcolor="#e58139"] ;
508 -> 538 ;
539 [label=<entropy = 0.0<br/>samples = 6<br/>value = [6, 0]<br/>class = negative>, fillcolor="#e58139"] ;
507 -> 539 ;
540 [label=<X<SUB>707</SUB> &le; 0.5<br/>entropy = 0.091<br/>samples = 172<br/>value = [2, 170]<br/>class = positive>, fillcolor="#3b9ee5"] ;
506 -> 540 ;
541 [label=<X<SUB>724</SUB> &le; 0.5<br/>entropy = 0.052<br/>samples = 171<br/>value = [1, 170]<br/>class = positive>, fillcolor="#3a9ee5"] ;
540 -> 541 ;
542 [label=<entropy = 0.0<br/>samples = 170<br/>value = [0, 170]<br/>class = positive>, fillcolor="#399de5"] ;
541 -> 542 ;
543 [label=<entropy = 0.0<br/>samples = 1<br/>value = [1, 0]<br/>class = negative>, fillcolor="#e58139"] ;
541 -> 543 ;
544 [label=<entropy = 0.0<br/>samples = 1<br/>value = [1, 0]<br/>class = negative>, fillcolor="#e58139"] ;
540 -> 544 ;
545 [label=<X<SUB>87</SUB> &le; 0.5<br/>entropy = 0.11<br/>samples = 275<br/>value = [4, 271]<br/>class = positive>, fillcolor="#3c9ee5"] ;
503 -> 545 ;
546 [label=<X<SUB>738</SUB> &le; 0.5<br/>entropy = 0.062<br/>samples = 273<br/>value = [2, 271]<br/>class = positive>, fillcolor="#3a9ee5"] ;
545 -> 546 ;
547 [label=<X<SUB>616</SUB> &le; 0.5<br/>entropy = 0.035<br/>samples = 272<br/>value = [1, 271]<br/>class = positive>, fillcolor="#3a9de5"] ;
546 -> 547 ;
548 [label=<entropy = 0.0<br/>samples = 259<br/>value = [0, 259]<br/>class = positive>, fillcolor="#399de5"] ;
547 -> 548 ;
549 [label=<X<SUB>118</SUB> &le; 0.5<br/>entropy = 0.391<br/>samples = 13<br/>value = [1, 12]<br/>class = positive>, fillcolor="#49a5e7"] ;
547 -> 549 ;
550 [label=<entropy = 0.0<br/>samples = 1<br/>value = [1, 0]<br/>class = negative>, fillcolor="#e58139"] ;
549 -> 550 ;
551 [label=<entropy = 0.0<br/>samples = 12<br/>value = [0, 12]<br/>class = positive>, fillcolor="#399de5"] ;
549 -> 551 ;
552 [label=<entropy = 0.0<br/>samples = 1<br/>value = [1, 0]<br/>class = negative>, fillcolor="#e58139"] ;
546 -> 552 ;
553 [label=<entropy = 0.0<br/>samples = 2<br/>value = [2, 0]<br/>class = negative>, fillcolor="#e58139"] ;
545 -> 553 ;
554 [label=<entropy = 0.0<br/>samples = 7<br/>value = [7, 0]<br/>class = negative>, fillcolor="#e58139"] ;
502 -> 554 ;
555 [label=<entropy = 0.0<br/>samples = 11<br/>value = [11, 0]<br/>class = negative>, fillcolor="#e58139"] ;
501 -> 555 ;
556 [label=<X<SUB>797</SUB> &le; 0.5<br/>entropy = 0.761<br/>samples = 3541<br/>value = [781, 2760]<br/>class = positive>, fillcolor="#71b9ec"] ;
0 -> 556 [labeldistance=2.5, labelangle=-45, headlabel="False"] ;
557 [label=<X<SUB>827</SUB> &le; 0.5<br/>entropy = 0.67<br/>samples = 3209<br/>value = [563, 2646]<br/>class = positive>, fillcolor="#63b2eb"] ;
556 -> 557 ;
558 [label=<X<SUB>80</SUB> &le; 0.5<br/>entropy = 0.577<br/>samples = 2936<br/>value = [403, 2533]<br/>class = positive>, fillcolor="#59ade9"] ;
557 -> 558 ;
559 [label=<X<SUB>28</SUB> &le; 0.5<br/>entropy = 0.665<br/>samples = 2242<br/>value = [388, 1854]<br/>class = positive>, fillcolor="#62b2ea"] ;
558 -> 559 ;
560 [label=<X<SUB>746</SUB> &le; 0.5<br/>entropy = 0.811<br/>samples = 1256<br/>value = [314, 942]<br/>class = positive>, fillcolor="#7bbeee"] ;
559 -> 560 ;
561 [label=<X<SUB>549</SUB> &le; 0.5<br/>entropy = 0.782<br/>samples = 1227<br/>value = [285, 942]<br/>class = positive>, fillcolor="#75bbed"] ;
560 -> 561 ;
562 [label=<X<SUB>677</SUB> &le; 0.5<br/>entropy = 0.73<br/>samples = 1161<br/>value = [237, 924]<br/>class = positive>, fillcolor="#6cb6ec"] ;
561 -> 562 ;
563 [label=<X<SUB>640</SUB> &le; 0.5<br/>entropy = 0.679<br/>samples = 1109<br/>value = [199, 910]<br/>class = positive>, fillcolor="#64b2eb"] ;
562 -> 563 ;
564 [label=<X<SUB>400</SUB> &le; 0.5<br/>entropy = 0.65<br/>samples = 1092<br/>value = [182, 910]<br/>class = positive>, fillcolor="#61b1ea"] ;
563 -> 564 ;
565 [label=<X<SUB>724</SUB> &le; 0.5<br/>entropy = 0.624<br/>samples = 1078<br/>value = [168, 910]<br/>class = positive>, fillcolor="#5eafea"] ;
564 -> 565 ;
566 [label=<X<SUB>546</SUB> &le; 0.5<br/>entropy = 0.589<br/>samples = 1051<br/>value = [149, 902]<br/>class = positive>, fillcolor="#5aade9"] ;
565 -> 566 ;
567 [label=<X<SUB>817</SUB> &le; 0.5<br/>entropy = 0.569<br/>samples = 1042<br/>value = [140, 902]<br/>class = positive>, fillcolor="#58ace9"] ;
566 -> 567 ;
568 [label=<X<SUB>397</SUB> &le; 0.5<br/>entropy = 0.551<br/>samples = 1034<br/>value = [132, 902]<br/>class = positive>, fillcolor="#56abe9"] ;
567 -> 568 ;
569 [label=<X<SUB>736</SUB> &le; 0.5<br/>entropy = 0.532<br/>samples = 1026<br/>value = [124, 902]<br/>class = positive>, fillcolor="#54aae9"] ;
568 -> 569 ;
570 [label=<entropy = 0.0<br/>samples = 8<br/>value = [8, 0]<br/>class = negative>, fillcolor="#e58139"] ;
569 -> 570 ;
571 [label=<X<SUB>74</SUB> &le; 0.5<br/>entropy = 0.512<br/>samples = 1018<br/>value = [116, 902]<br/>class = positive>, fillcolor="#52aae8"] ;
569 -> 571 ;
572 [label=<X<SUB>822</SUB> &le; 0.5<br/>entropy = 0.493<br/>samples = 1011<br/>value = [109, 902]<br/>class = positive>, fillcolor="#51a9e8"] ;
571 -> 572 ;
573 [label=<X<SUB>623</SUB> &le; 0.5<br/>entropy = 0.477<br/>samples = 1005<br/>value = [103, 902]<br/>class = positive>, fillcolor="#50a8e8"] ;
572 -> 573 ;
574 [label=<X<SUB>717</SUB> &le; 0.5<br/>entropy = 0.463<br/>samples = 1000<br/>value = [98, 902]<br/>class = positive>, fillcolor="#4fa8e8"] ;
573 -> 574 ;
575 [label=<X<SUB>329</SUB> &le; 0.5<br/>entropy = 0.451<br/>samples = 996<br/>value = [94, 902]<br/>class = positive>, fillcolor="#4ea7e8"] ;
574 -> 575 ;
576 [label=<X<SUB>678</SUB> &le; 0.5<br/>entropy = 0.439<br/>samples = 992<br/>value = [90, 902]<br/>class = positive>, fillcolor="#4da7e8"] ;
575 -> 576 ;
577 [label=<X<SUB>823</SUB> &le; 0.5<br/>entropy = 0.483<br/>samples = 833<br/>value = [87, 746]<br/>class = positive>, fillcolor="#50a8e8"] ;
576 -> 577 ;
578 [label=<X<SUB>181</SUB> &le; 0.5<br/>entropy = 0.455<br/>samples = 825<br/>value = [79, 746]<br/>class = positive>, fillcolor="#4ea7e8"] ;
577 -> 578 ;
579 [label=<X<SUB>376</SUB> &le; 0.5<br/>entropy = 0.503<br/>samples = 693<br/>value = [77, 616]<br/>class = positive>, fillcolor="#52a9e8"] ;
578 -> 579 ;
580 [label=<X<SUB>65</SUB> &le; 0.5<br/>entropy = 0.488<br/>samples = 689<br/>value = [73, 616]<br/>class = positive>, fillcolor="#50a9e8"] ;
579 -> 580 ;
581 [label=<X<SUB>204</SUB> &le; 0.5<br/>entropy = 0.454<br/>samples = 671<br/>value = [64, 607]<br/>class = positive>, fillcolor="#4ea7e8"] ;
580 -> 581 ;
582 [label=<X<SUB>190</SUB> &le; 0.5<br/>entropy = 0.436<br/>samples = 667<br/>value = [60, 607]<br/>class = positive>, fillcolor="#4da7e8"] ;
581 -> 582 ;
583 [label=<X<SUB>139</SUB> &le; 0.5<br/>entropy = 0.422<br/>samples = 664<br/>value = [57, 607]<br/>class = positive>, fillcolor="#4ca6e7"] ;
582 -> 583 ;
584 [label=<X<SUB>501</SUB> &le; 0.5<br/>entropy = 0.408<br/>samples = 661<br/>value = [54, 607]<br/>class = positive>, fillcolor="#4ba6e7"] ;
583 -> 584 ;
585 [label=<X<SUB>288</SUB> &le; 0.5<br/>entropy = 0.393<br/>samples = 658<br/>value = [51, 607]<br/>class = positive>, fillcolor="#4aa5e7"] ;
584 -> 585 ;
586 [label=<entropy = 0.378<br/>samples = 655<br/>value = [48, 607]<br/>class = positive>, fillcolor="#49a5e7"] ;
585 -> 586 ;
587 [label=<entropy = 0.0<br/>samples = 3<br/>value = [3, 0]<br/>class = negative>, fillcolor="#e58139"] ;
585 -> 587 ;
588 [label=<entropy = 0.0<br/>samples = 3<br/>value = [3, 0]<br/>class = negative>, fillcolor="#e58139"] ;
584 -> 588 ;
589 [label=<entropy = 0.0<br/>samples = 3<br/>value = [3, 0]<br/>class = negative>, fillcolor="#e58139"] ;
583 -> 589 ;
590 [label=<entropy = 0.0<br/>samples = 3<br/>value = [3, 0]<br/>class = negative>, fillcolor="#e58139"] ;
582 -> 590 ;
591 [label=<entropy = 0.0<br/>samples = 4<br/>value = [4, 0]<br/>class = negative>, fillcolor="#e58139"] ;
581 -> 591 ;
592 [label=<X<SUB>50</SUB> &le; 0.5<br/>entropy = 1.0<br/>samples = 18<br/>value = [9, 9]<br/>class = negative>, fillcolor="#ffffff"] ;
580 -> 592 ;
593 [label=<entropy = 0.0<br/>samples = 9<br/>value = [9, 0]<br/>class = negative>, fillcolor="#e58139"] ;
592 -> 593 ;
594 [label=<entropy = 0.0<br/>samples = 9<br/>value = [0, 9]<br/>class = positive>, fillcolor="#399de5"] ;
592 -> 594 ;
595 [label=<entropy = 0.0<br/>samples = 4<br/>value = [4, 0]<br/>class = negative>, fillcolor="#e58139"] ;
579 -> 595 ;
596 [label=<X<SUB>106</SUB> &le; 0.5<br/>entropy = 0.113<br/>samples = 132<br/>value = [2, 130]<br/>class = positive>, fillcolor="#3c9fe5"] ;
578 -> 596 ;
597 [label=<X<SUB>378</SUB> &le; 0.5<br/>entropy = 0.065<br/>samples = 131<br/>value = [1, 130]<br/>class = positive>, fillcolor="#3b9ee5"] ;
596 -> 597 ;
598 [label=<entropy = 0.0<br/>samples = 130<br/>value = [0, 130]<br/>class = positive>, fillcolor="#399de5"] ;
597 -> 598 ;
599 [label=<entropy = 0.0<br/>samples = 1<br/>value = [1, 0]<br/>class = negative>, fillcolor="#e58139"] ;
597 -> 599 ;
600 [label=<entropy = 0.0<br/>samples = 1<br/>value = [1, 0]<br/>class = negative>, fillcolor="#e58139"] ;
596 -> 600 ;
601 [label=<entropy = 0.0<br/>samples = 8<br/>value = [8, 0]<br/>class = negative>, fillcolor="#e58139"] ;
577 -> 601 ;
602 [label=<X<SUB>739</SUB> &le; 0.5<br/>entropy = 0.135<br/>samples = 159<br/>value = [3, 156]<br/>class = positive>, fillcolor="#3d9fe6"] ;
576 -> 602 ;
603 [label=<entropy = 0.0<br/>samples = 2<br/>value = [2, 0]<br/>class = negative>, fillcolor="#e58139"] ;
602 -> 603 ;
604 [label=<X<SUB>413</SUB> &le; 0.5<br/>entropy = 0.056<br/>samples = 157<br/>value = [1, 156]<br/>class = positive>, fillcolor="#3a9ee5"] ;
602 -> 604 ;
605 [label=<entropy = 0.0<br/>samples = 156<br/>value = [0, 156]<br/>class = positive>, fillcolor="#399de5"] ;
604 -> 605 ;
606 [label=<entropy = 0.0<br/>samples = 1<br/>value = [1, 0]<br/>class = negative>, fillcolor="#e58139"] ;
604 -> 606 ;
607 [label=<entropy = 0.0<br/>samples = 4<br/>value = [4, 0]<br/>class = negative>, fillcolor="#e58139"] ;
575 -> 607 ;
608 [label=<entropy = 0.0<br/>samples = 4<br/>value = [4, 0]<br/>class = negative>, fillcolor="#e58139"] ;
574 -> 608 ;
609 [label=<entropy = 0.0<br/>samples = 5<br/>value = [5, 0]<br/>class = negative>, fillcolor="#e58139"] ;
573 -> 609 ;
610 [label=<entropy = 0.0<br/>samples = 6<br/>value = [6, 0]<br/>class = negative>, fillcolor="#e58139"] ;
572 -> 610 ;
611 [label=<entropy = 0.0<br/>samples = 7<br/>value = [7, 0]<br/>class = negative>, fillcolor="#e58139"] ;
571 -> 611 ;
612 [label=<entropy = 0.0<br/>samples = 8<br/>value = [8, 0]<br/>class = negative>, fillcolor="#e58139"] ;
568 -> 612 ;
613 [label=<entropy = 0.0<br/>samples = 8<br/>value = [8, 0]<br/>class = negative>, fillcolor="#e58139"] ;
567 -> 613 ;
614 [label=<entropy = 0.0<br/>samples = 9<br/>value = [9, 0]<br/>class = negative>, fillcolor="#e58139"] ;
566 -> 614 ;
615 [label=<X<SUB>471</SUB> &le; 0.5<br/>entropy = 0.877<br/>samples = 27<br/>value = [19, 8]<br/>class = negative>, fillcolor="#f0b68c"] ;
565 -> 615 ;
616 [label=<entropy = 0.0<br/>samples = 19<br/>value = [19, 0]<br/>class = negative>, fillcolor="#e58139"] ;
615 -> 616 ;
617 [label=<entropy = 0.0<br/>samples = 8<br/>value = [0, 8]<br/>class = positive>, fillcolor="#399de5"] ;
615 -> 617 ;
618 [label=<entropy = 0.0<br/>samples = 14<br/>value = [14, 0]<br/>class = negative>, fillcolor="#e58139"] ;
564 -> 618 ;
619 [label=<entropy = 0.0<br/>samples = 17<br/>value = [17, 0]<br/>class = negative>, fillcolor="#e58139"] ;
563 -> 619 ;
620 [label=<X<SUB>839</SUB> &le; 0.5<br/>entropy = 0.84<br/>samples = 52<br/>value = [38, 14]<br/>class = negative>, fillcolor="#efaf82"] ;
562 -> 620 ;
621 [label=<entropy = 0.0<br/>samples = 36<br/>value = [36, 0]<br/>class = negative>, fillcolor="#e58139"] ;
620 -> 621 ;
622 [label=<X<SUB>403</SUB> &le; 0.5<br/>entropy = 0.544<br/>samples = 16<br/>value = [2, 14]<br/>class = positive>, fillcolor="#55abe9"] ;
620 -> 622 ;
623 [label=<entropy = 0.0<br/>samples = 14<br/>value = [0, 14]<br/>class = positive>, fillcolor="#399de5"] ;
622 -> 623 ;
624 [label=<entropy = 0.0<br/>samples = 2<br/>value = [2, 0]<br/>class = negative>, fillcolor="#e58139"] ;
622 -> 624 ;
625 [label=<X<SUB>712</SUB> &le; 0.5<br/>entropy = 0.845<br/>samples = 66<br/>value = [48, 18]<br/>class = negative>, fillcolor="#efb083"] ;
561 -> 625 ;
626 [label=<entropy = 0.0<br/>samples = 48<br/>value = [48, 0]<br/>class = negative>, fillcolor="#e58139"] ;
625 -> 626 ;
627 [label=<entropy = 0.0<br/>samples = 18<br/>value = [0, 18]<br/>class = positive>, fillcolor="#399de5"] ;
625 -> 627 ;
628 [label=<entropy = 0.0<br/>samples = 29<br/>value = [29, 0]<br/>class = negative>, fillcolor="#e58139"] ;
560 -> 628 ;
629 [label=<X<SUB>531</SUB> &le; 0.5<br/>entropy = 0.384<br/>samples = 986<br/>value = [74, 912]<br/>class = positive>, fillcolor="#49a5e7"] ;
559 -> 629 ;
630 [label=<X<SUB>482</SUB> &le; 0.5<br/>entropy = 0.33<br/>samples = 971<br/>value = [59, 912]<br/>class = positive>, fillcolor="#46a3e7"] ;
629 -> 630 ;
631 [label=<X<SUB>835</SUB> &le; 0.5<br/>entropy = 0.307<br/>samples = 965<br/>value = [53, 912]<br/>class = positive>, fillcolor="#45a3e7"] ;
630 -> 631 ;
632 [label=<X<SUB>9</SUB> &le; 0.5<br/>entropy = 0.282<br/>samples = 959<br/>value = [47, 912]<br/>class = positive>, fillcolor="#43a2e6"] ;
631 -> 632 ;
633 [label=<X<SUB>99</SUB> &le; 0.5<br/>entropy = 0.265<br/>samples = 955<br/>value = [43, 912]<br/>class = positive>, fillcolor="#42a2e6"] ;
632 -> 633 ;
634 [label=<X<SUB>277</SUB> &le; 0.5<br/>entropy = 0.251<br/>samples = 952<br/>value = [40, 912]<br/>class = positive>, fillcolor="#42a1e6"] ;
633 -> 634 ;
635 [label=<X<SUB>45</SUB> &le; 0.5<br/>entropy = 0.238<br/>samples = 949<br/>value = [37, 912]<br/>class = positive>, fillcolor="#41a1e6"] ;
634 -> 635 ;
636 [label=<X<SUB>643</SUB> &le; 0.5<br/>entropy = 0.223<br/>samples = 946<br/>value = [34, 912]<br/>class = positive>, fillcolor="#40a1e6"] ;
635 -> 636 ;
637 [label=<X<SUB>149</SUB> &le; 0.5<br/>entropy = 0.209<br/>samples = 943<br/>value = [31, 912]<br/>class = positive>, fillcolor="#40a0e6"] ;
636 -> 637 ;
638 [label=<X<SUB>163</SUB> &le; 0.5<br/>entropy = 0.198<br/>samples = 941<br/>value = [29, 912]<br/>class = positive>, fillcolor="#3fa0e6"] ;
637 -> 638 ;
639 [label=<X<SUB>385</SUB> &le; 0.5<br/>entropy = 0.188<br/>samples = 939<br/>value = [27, 912]<br/>class = positive>, fillcolor="#3fa0e6"] ;
638 -> 639 ;
640 [label=<X<SUB>526</SUB> &le; 0.5<br/>entropy = 0.177<br/>samples = 937<br/>value = [25, 912]<br/>class = positive>, fillcolor="#3ea0e6"] ;
639 -> 640 ;
641 [label=<X<SUB>826</SUB> &le; 0.5<br/>entropy = 0.167<br/>samples = 935<br/>value = [23, 912]<br/>class = positive>, fillcolor="#3e9fe6"] ;
640 -> 641 ;
642 [label=<X<SUB>814</SUB> &le; 0.5<br/>entropy = 0.155<br/>samples = 933<br/>value = [21, 912]<br/>class = positive>, fillcolor="#3e9fe6"] ;
641 -> 642 ;
643 [label=<X<SUB>546</SUB> &le; 0.5<br/>entropy = 0.126<br/>samples = 866<br/>value = [15, 851]<br/>class = positive>, fillcolor="#3c9fe5"] ;
642 -> 643 ;
644 [label=<X<SUB>245</SUB> &le; 0.5<br/>entropy = 0.086<br/>samples = 741<br/>value = [8, 733]<br/>class = positive>, fillcolor="#3b9ee5"] ;
643 -> 644 ;
645 [label=<X<SUB>815</SUB> &le; 0.5<br/>entropy = 0.068<br/>samples = 739<br/>value = [6, 733]<br/>class = positive>, fillcolor="#3b9ee5"] ;
644 -> 645 ;
646 [label=<entropy = 0.0<br/>samples = 1<br/>value = [1, 0]<br/>class = negative>, fillcolor="#e58139"] ;
645 -> 646 ;
647 [label=<X<SUB>315</SUB> &le; 0.5<br/>entropy = 0.059<br/>samples = 738<br/>value = [5, 733]<br/>class = positive>, fillcolor="#3a9ee5"] ;
645 -> 647 ;
648 [label=<X<SUB>638</SUB> &le; 0.5<br/>entropy = 0.049<br/>samples = 737<br/>value = [4, 733]<br/>class = positive>, fillcolor="#3a9ee5"] ;
647 -> 648 ;
649 [label=<X<SUB>754</SUB> &le; 0.5<br/>entropy = 0.038<br/>samples = 736<br/>value = [3, 733]<br/>class = positive>, fillcolor="#3a9de5"] ;
648 -> 649 ;
650 [label=<X<SUB>544</SUB> &le; 0.5<br/>entropy = 0.017<br/>samples = 653<br/>value = [1, 652]<br/>class = positive>, fillcolor="#399de5"] ;
649 -> 650 ;
651 [label=<entropy = 0.0<br/>samples = 614<br/>value = [0, 614]<br/>class = positive>, fillcolor="#399de5"] ;
650 -> 651 ;
652 [label=<X<SUB>763</SUB> &le; 0.5<br/>entropy = 0.172<br/>samples = 39<br/>value = [1, 38]<br/>class = positive>, fillcolor="#3ea0e6"] ;
650 -> 652 ;
653 [label=<entropy = 0.0<br/>samples = 38<br/>value = [0, 38]<br/>class = positive>, fillcolor="#399de5"] ;
652 -> 653 ;
654 [label=<entropy = 0.0<br/>samples = 1<br/>value = [1, 0]<br/>class = negative>, fillcolor="#e58139"] ;
652 -> 654 ;
655 [label=<X<SUB>449</SUB> &le; 0.5<br/>entropy = 0.164<br/>samples = 83<br/>value = [2, 81]<br/>class = positive>, fillcolor="#3e9fe6"] ;
649 -> 655 ;
656 [label=<X<SUB>549</SUB> &le; 0.5<br/>entropy = 0.095<br/>samples = 82<br/>value = [1, 81]<br/>class = positive>, fillcolor="#3b9ee5"] ;
655 -> 656 ;
657 [label=<entropy = 0.0<br/>samples = 77<br/>value = [0, 77]<br/>class = positive>, fillcolor="#399de5"] ;
656 -> 657 ;
658 [label=<X<SUB>779</SUB> &le; 0.5<br/>entropy = 0.722<br/>samples = 5<br/>value = [1, 4]<br/>class = positive>, fillcolor="#6ab6ec"] ;
656 -> 658 ;
659 [label=<entropy = 0.0<br/>samples = 1<br/>value = [1, 0]<br/>class = negative>, fillcolor="#e58139"] ;
658 -> 659 ;
660 [label=<entropy = 0.0<br/>samples = 4<br/>value = [0, 4]<br/>class = positive>, fillcolor="#399de5"] ;
658 -> 660 ;
661 [label=<entropy = 0.0<br/>samples = 1<br/>value = [1, 0]<br/>class = negative>, fillcolor="#e58139"] ;
655 -> 661 ;
662 [label=<entropy = 0.0<br/>samples = 1<br/>value = [1, 0]<br/>class = negative>, fillcolor="#e58139"] ;
648 -> 662 ;
663 [label=<entropy = 0.0<br/>samples = 1<br/>value = [1, 0]<br/>class = negative>, fillcolor="#e58139"] ;
647 -> 663 ;
664 [label=<entropy = 0.0<br/>samples = 2<br/>value = [2, 0]<br/>class = negative>, fillcolor="#e58139"] ;
644 -> 664 ;
665 [label=<X<SUB>456</SUB> &le; 0.5<br/>entropy = 0.311<br/>samples = 125<br/>value = [7, 118]<br/>class = positive>, fillcolor="#45a3e7"] ;
643 -> 665 ;
666 [label=<X<SUB>204</SUB> &le; 0.5<br/>entropy = 0.245<br/>samples = 123<br/>value = [5, 118]<br/>class = positive>, fillcolor="#41a1e6"] ;
665 -> 666 ;
667 [label=<X<SUB>731</SUB> &le; 0.5<br/>entropy = 0.208<br/>samples = 122<br/>value = [4, 118]<br/>class = positive>, fillcolor="#40a0e6"] ;
666 -> 667 ;
668 [label=<X<SUB>633</SUB> &le; 0.5<br/>entropy = 0.426<br/>samples = 46<br/>value = [4, 42]<br/>class = positive>, fillcolor="#4ca6e7"] ;
667 -> 668 ;
669 [label=<X<SUB>706</SUB> &le; 0.5<br/>entropy = 0.65<br/>samples = 24<br/>value = [4, 20]<br/>class = positive>, fillcolor="#61b1ea"] ;
668 -> 669 ;
670 [label=<entropy = 0.0<br/>samples = 3<br/>value = [3, 0]<br/>class = negative>, fillcolor="#e58139"] ;
669 -> 670 ;
671 [label=<X<SUB>489</SUB> &le; 0.5<br/>entropy = 0.276<br/>samples = 21<br/>value = [1, 20]<br/>class = positive>, fillcolor="#43a2e6"] ;
669 -> 671 ;
672 [label=<entropy = 0.0<br/>samples = 1<br/>value = [1, 0]<br/>class = negative>, fillcolor="#e58139"] ;
671 -> 672 ;
673 [label=<entropy = 0.0<br/>samples = 20<br/>value = [0, 20]<br/>class = positive>, fillcolor="#399de5"] ;
671 -> 673 ;
674 [label=<entropy = 0.0<br/>samples = 22<br/>value = [0, 22]<br/>class = positive>, fillcolor="#399de5"] ;
668 -> 674 ;
675 [label=<entropy = 0.0<br/>samples = 76<br/>value = [0, 76]<br/>class = positive>, fillcolor="#399de5"] ;
667 -> 675 ;
676 [label=<entropy = 0.0<br/>samples = 1<br/>value = [1, 0]<br/>class = negative>, fillcolor="#e58139"] ;
666 -> 676 ;
677 [label=<entropy = 0.0<br/>samples = 2<br/>value = [2, 0]<br/>class = negative>, fillcolor="#e58139"] ;
665 -> 677 ;
678 [label=<X<SUB>583</SUB> &le; 0.5<br/>entropy = 0.435<br/>samples = 67<br/>value = [6, 61]<br/>class = positive>, fillcolor="#4ca7e8"] ;
642 -> 678 ;
679 [label=<X<SUB>37</SUB> &le; 0.5<br/>entropy = 0.828<br/>samples = 23<br/>value = [6, 17]<br/>class = positive>, fillcolor="#7fc0ee"] ;
678 -> 679 ;
680 [label=<entropy = 0.0<br/>samples = 5<br/>value = [5, 0]<br/>class = negative>, fillcolor="#e58139"] ;
679 -> 680 ;
681 [label=<X<SUB>487</SUB> &le; 0.5<br/>entropy = 0.31<br/>samples = 18<br/>value = [1, 17]<br/>class = positive>, fillcolor="#45a3e7"] ;
679 -> 681 ;
682 [label=<entropy = 0.0<br/>samples = 17<br/>value = [0, 17]<br/>class = positive>, fillcolor="#399de5"] ;
681 -> 682 ;
683 [label=<entropy = 0.0<br/>samples = 1<br/>value = [1, 0]<br/>class = negative>, fillcolor="#e58139"] ;
681 -> 683 ;
684 [label=<entropy = 0.0<br/>samples = 44<br/>value = [0, 44]<br/>class = positive>, fillcolor="#399de5"] ;
678 -> 684 ;
685 [label=<entropy = 0.0<br/>samples = 2<br/>value = [2, 0]<br/>class = negative>, fillcolor="#e58139"] ;
641 -> 685 ;
686 [label=<entropy = 0.0<br/>samples = 2<br/>value = [2, 0]<br/>class = negative>, fillcolor="#e58139"] ;
640 -> 686 ;
687 [label=<entropy = 0.0<br/>samples = 2<br/>value = [2, 0]<br/>class = negative>, fillcolor="#e58139"] ;
639 -> 687 ;
688 [label=<entropy = 0.0<br/>samples = 2<br/>value = [2, 0]<br/>class = negative>, fillcolor="#e58139"] ;
638 -> 688 ;
689 [label=<entropy = 0.0<br/>samples = 2<br/>value = [2, 0]<br/>class = negative>, fillcolor="#e58139"] ;
637 -> 689 ;
690 [label=<entropy = 0.0<br/>samples = 3<br/>value = [3, 0]<br/>class = negative>, fillcolor="#e58139"] ;
636 -> 690 ;
691 [label=<entropy = 0.0<br/>samples = 3<br/>value = [3, 0]<br/>class = negative>, fillcolor="#e58139"] ;
635 -> 691 ;
692 [label=<entropy = 0.0<br/>samples = 3<br/>value = [3, 0]<br/>class = negative>, fillcolor="#e58139"] ;
634 -> 692 ;
693 [label=<entropy = 0.0<br/>samples = 3<br/>value = [3, 0]<br/>class = negative>, fillcolor="#e58139"] ;
633 -> 693 ;
694 [label=<entropy = 0.0<br/>samples = 4<br/>value = [4, 0]<br/>class = negative>, fillcolor="#e58139"] ;
632 -> 694 ;
695 [label=<entropy = 0.0<br/>samples = 6<br/>value = [6, 0]<br/>class = negative>, fillcolor="#e58139"] ;
631 -> 695 ;
696 [label=<entropy = 0.0<br/>samples = 6<br/>value = [6, 0]<br/>class = negative>, fillcolor="#e58139"] ;
630 -> 696 ;
697 [label=<entropy = 0.0<br/>samples = 15<br/>value = [15, 0]<br/>class = negative>, fillcolor="#e58139"] ;
629 -> 697 ;
698 [label=<X<SUB>603</SUB> &le; 0.5<br/>entropy = 0.15<br/>samples = 694<br/>value = [15, 679]<br/>class = positive>, fillcolor="#3d9fe6"] ;
558 -> 698 ;
699 [label=<X<SUB>817</SUB> &le; 0.5<br/>entropy = 0.118<br/>samples = 690<br/>value = [11, 679]<br/>class = positive>, fillcolor="#3c9fe5"] ;
698 -> 699 ;
700 [label=<X<SUB>74</SUB> &le; 0.5<br/>entropy = 0.101<br/>samples = 688<br/>value = [9, 679]<br/>class = positive>, fillcolor="#3c9ee5"] ;
699 -> 700 ;
701 [label=<X<SUB>510</SUB> &le; 0.5<br/>entropy = 0.082<br/>samples = 686<br/>value = [7, 679]<br/>class = positive>, fillcolor="#3b9ee5"] ;
700 -> 701 ;
702 [label=<X<SUB>55</SUB> &le; 0.5<br/>entropy = 0.072<br/>samples = 685<br/>value = [6, 679]<br/>class = positive>, fillcolor="#3b9ee5"] ;
701 -> 702 ;
703 [label=<X<SUB>241</SUB> &le; 0.5<br/>entropy = 0.062<br/>samples = 684<br/>value = [5, 679]<br/>class = positive>, fillcolor="#3a9ee5"] ;
702 -> 703 ;
704 [label=<X<SUB>564</SUB> &le; 0.5<br/>entropy = 0.052<br/>samples = 683<br/>value = [4, 679]<br/>class = positive>, fillcolor="#3a9ee5"] ;
703 -> 704 ;
705 [label=<X<SUB>324</SUB> &le; 0.5<br/>entropy = 0.041<br/>samples = 682<br/>value = [3, 679]<br/>class = positive>, fillcolor="#3a9de5"] ;
704 -> 705 ;
706 [label=<entropy = 0.0<br/>samples = 601<br/>value = [0, 601]<br/>class = positive>, fillcolor="#399de5"] ;
705 -> 706 ;
707 [label=<X<SUB>681</SUB> &le; 0.5<br/>entropy = 0.229<br/>samples = 81<br/>value = [3, 78]<br/>class = positive>, fillcolor="#41a1e6"] ;
705 -> 707 ;
708 [label=<X<SUB>355</SUB> &le; 0.5<br/>entropy = 0.169<br/>samples = 80<br/>value = [2, 78]<br/>class = positive>, fillcolor="#3ea0e6"] ;
707 -> 708 ;
709 [label=<X<SUB>166</SUB> &le; 0.5<br/>entropy = 0.098<br/>samples = 79<br/>value = [1, 78]<br/>class = positive>, fillcolor="#3c9ee5"] ;
708 -> 709 ;
710 [label=<entropy = 0.0<br/>samples = 71<br/>value = [0, 71]<br/>class = positive>, fillcolor="#399de5"] ;
709 -> 710 ;
711 [label=<X<SUB>142</SUB> &le; 0.5<br/>entropy = 0.544<br/>samples = 8<br/>value = [1, 7]<br/>class = positive>, fillcolor="#55abe9"] ;
709 -> 711 ;
712 [label=<entropy = 0.0<br/>samples = 1<br/>value = [1, 0]<br/>class = negative>, fillcolor="#e58139"] ;
711 -> 712 ;
713 [label=<entropy = 0.0<br/>samples = 7<br/>value = [0, 7]<br/>class = positive>, fillcolor="#399de5"] ;
711 -> 713 ;
714 [label=<entropy = 0.0<br/>samples = 1<br/>value = [1, 0]<br/>class = negative>, fillcolor="#e58139"] ;
708 -> 714 ;
715 [label=<entropy = 0.0<br/>samples = 1<br/>value = [1, 0]<br/>class = negative>, fillcolor="#e58139"] ;
707 -> 715 ;
716 [label=<entropy = 0.0<br/>samples = 1<br/>value = [1, 0]<br/>class = negative>, fillcolor="#e58139"] ;
704 -> 716 ;
717 [label=<entropy = 0.0<br/>samples = 1<br/>value = [1, 0]<br/>class = negative>, fillcolor="#e58139"] ;
703 -> 717 ;
718 [label=<entropy = 0.0<br/>samples = 1<br/>value = [1, 0]<br/>class = negative>, fillcolor="#e58139"] ;
702 -> 718 ;
719 [label=<entropy = 0.0<br/>samples = 1<br/>value = [1, 0]<br/>class = negative>, fillcolor="#e58139"] ;
701 -> 719 ;
720 [label=<entropy = 0.0<br/>samples = 2<br/>value = [2, 0]<br/>class = negative>, fillcolor="#e58139"] ;
700 -> 720 ;
721 [label=<entropy = 0.0<br/>samples = 2<br/>value = [2, 0]<br/>class = negative>, fillcolor="#e58139"] ;
699 -> 721 ;
722 [label=<entropy = 0.0<br/>samples = 4<br/>value = [4, 0]<br/>class = negative>, fillcolor="#e58139"] ;
698 -> 722 ;
723 [label=<X<SUB>327</SUB> &le; 0.5<br/>entropy = 0.979<br/>samples = 273<br/>value = [160, 113]<br/>class = negative>, fillcolor="#f7dac5"] ;
557 -> 723 ;
724 [label=<X<SUB>755</SUB> &le; 0.5<br/>entropy = 0.872<br/>samples = 222<br/>value = [157, 65]<br/>class = negative>, fillcolor="#f0b58b"] ;
723 -> 724 ;
