digraph Tree {
node [shape=box, style="filled, rounded", color="black", fontname=helvetica] ;
edge [fontname=helvetica] ;
0 [label=<time &le; 73.5<br/>entropy = 1.0<br/>samples = 154<br/>value = [77, 77]<br/>class = 0>, fillcolor="#ffffff"] ;
1 [label=<serum_sodium &le; 134.5<br/>entropy = 0.592<br/>samples = 56<br/>value = [8, 48]<br/>class = 1>, fillcolor="#5aade9"] ;
0 -> 1 [labeldistance=2.5, labelangle=45, headlabel="True"] ;
2 [label=<entropy = 0.0<br/>samples = 20<br/>value = [0, 20]<br/>class = 1>, fillcolor="#399de5"] ;
1 -> 2 ;
3 [label=<creatinine_phosphokinase &le; 85.5<br/>entropy = 0.764<br/>samples = 36<br/>value = [8, 28]<br/>class = 1>, fillcolor="#72b9ec"] ;
1 -> 3 ;
4 [label=<entropy = 0.0<br/>samples = 4<br/>value = [4, 0]<br/>class = 0>, fillcolor="#e58139"] ;
3 -> 4 ;
5 [label=<time &le; 48.5<br/>entropy = 0.544<br/>samples = 32<br/>value = [4, 28]<br/>class = 1>, fillcolor="#55abe9"] ;
3 -> 5 ;
6 [label=<entropy = 0.0<br/>samples = 21<br/>value = [0, 21]<br/>class = 1>, fillcolor="#399de5"] ;
5 -> 6 ;
7 [label=<ejection_fraction &le; 30.0<br/>entropy = 0.946<br/>samples = 11<br/>value = [4, 7]<br/>class = 1>, fillcolor="#aad5f4"] ;
5 -> 7 ;
8 [label=<entropy = 0.0<br/>samples = 6<br/>value = [0, 6]<br/>class = 1>, fillcolor="#399de5"] ;
7 -> 8 ;
9 [label=<entropy = 0.722<br/>samples = 5<br/>value = [4, 1]<br/>class = 0>, fillcolor="#eca06a"] ;
7 -> 9 ;
10 [label=<serum_creatinine &le; 1.45<br/>entropy = 0.876<br/>samples = 98<br/>value = [69, 29]<br/>class = 0>, fillcolor="#f0b68c"] ;
0 -> 10 [labeldistance=2.5, labelangle=-45, headlabel="False"] ;
11 [label=<creatinine_phosphokinase &le; 125.5<br/>entropy = 0.645<br/>samples = 73<br/>value = [61, 12]<br/>class = 0>, fillcolor="#ea9a60"] ;
10 -> 11 ;
12 [label=<entropy = 0.0<br/>samples = 14<br/>value = [14, 0]<br/>class = 0>, fillcolor="#e58139"] ;
11 -> 12 ;
13 [label=<time &le; 179.0<br/>entropy = 0.729<br/>samples = 59<br/>value = [47, 12]<br/>class = 0>, fillcolor="#eca16c"] ;
11 -> 13 ;
14 [label=<time &le; 148.0<br/>entropy = 0.874<br/>samples = 34<br/>value = [24, 10]<br/>class = 0>, fillcolor="#f0b58b"] ;
13 -> 14 ;
15 [label=<entropy = 0.771<br/>samples = 31<br/>value = [24, 7]<br/>class = 0>, fillcolor="#eda673"] ;
14 -> 15 ;
16 [label=<entropy = 0.0<br/>samples = 3<br/>value = [0, 3]<br/>class = 1>, fillcolor="#399de5"] ;
14 -> 16 ;
17 [label=<ejection_fraction &le; 27.5<br/>entropy = 0.402<br/>samples = 25<br/>value = [23, 2]<br/>class = 0>, fillcolor="#e78c4a"] ;
13 -> 17 ;
18 [label=<entropy = 1.0<br/>samples = 4<br/>value = [2, 2]<br/>class = 0>, fillcolor="#ffffff"] ;
17 -> 18 ;
19 [label=<entropy = 0.0<br/>samples = 21<br/>value = [21, 0]<br/>class = 0>, fillcolor="#e58139"] ;
17 -> 19 ;
20 [label=<time &le; 201.5<br/>entropy = 0.904<br/>samples = 25<br/>value = [8, 17]<br/>class = 1>, fillcolor="#96cbf1"] ;
10 -> 20 ;
21 [label=<platelets &le; 247000.0<br/>entropy = 0.65<br/>samples = 18<br/>value = [3, 15]<br/>class = 1>, fillcolor="#61b1ea"] ;
20 -> 21 ;
22 [label=<entropy = 0.0<br/>samples = 10<br/>value = [0, 10]<br/>class = 1>, fillcolor="#399de5"] ;
21 -> 22 ;
23 [label=<ejection_fraction &le; 32.5<br/>entropy = 0.954<br/>samples = 8<br/>value = [3, 5]<br/>class = 1>, fillcolor="#b0d8f5"] ;
21 -> 23 ;
24 [label=<entropy = 0.0<br/>samples = 4<br/>value = [0, 4]<br/>class = 1>, fillcolor="#399de5"] ;
23 -> 24 ;
25 [label=<entropy = 0.811<br/>samples = 4<br/>value = [3, 1]<br/>class = 0>, fillcolor="#eeab7b"] ;
23 -> 25 ;
26 [label=<platelets &le; 97500.0<br/>entropy = 0.863<br/>samples = 7<br/>value = [5, 2]<br/>class = 0>, fillcolor="#efb388"] ;
20 -> 26 ;
27 [label=<entropy = 0.0<br/>samples = 1<br/>value = [0, 1]<br/>class = 1>, fillcolor="#399de5"] ;
26 -> 27 ;
28 [label=<creatinine_phosphokinase &le; 890.5<br/>entropy = 0.65<br/>samples = 6<br/>value = [5, 1]<br/>class = 0>, fillcolor="#ea9a61"] ;
26 -> 28 ;
29 [label=<entropy = 0.0<br/>samples = 5<br/>value = [5, 0]<br/>class = 0>, fillcolor="#e58139"] ;
28 -> 29 ;
30 [label=<entropy = 0.0<br/>samples = 1<br/>value = [0, 1]<br/>class = 1>, fillcolor="#399de5"] ;
28 -> 30 ;
}