digraph Tree {
node [shape=box, style="filled, rounded", color="black", fontname=helvetica] ;
edge [fontname=helvetica] ;
0 [label=<time &le; 74.0<br/>gini = 0.5<br/>samples = 154<br/>value = [77, 77]<br/>class = 0>, fillcolor="#ffffff"] ;
1 [label=<gini = 0.163<br/>samples = 56<br/>value = [5, 51]<br/>class = 1>, fillcolor="#4ca7e8"] ;
0 -> 1 [labeldistance=2.5, labelangle=45, headlabel="True"] ;
2 [label=<serum_creatinine &le; 1.55<br/>gini = 0.39<br/>samples = 98<br/>value = [72, 26]<br/>class = 0>, fillcolor="#eeae80"] ;
0 -> 2 [labeldistance=2.5, labelangle=-45, headlabel="False"] ;
3 [label=<gini = 0.248<br/>samples = 69<br/>value = [59, 10]<br/>class = 0>, fillcolor="#e9965b"] ;
2 -> 3 ;
4 [label=<gini = 0.495<br/>samples = 29<br/>value = [13, 16]<br/>class = 1>, fillcolor="#daedfa"] ;
2 -> 4 ;
}