digraph Tree {
node [shape=box, style="filled, rounded", color="black", fontname=helvetica] ;
edge [fontname=helvetica] ;
0 [label=<time &le; 67.5<br/>entropy = 1.0<br/>samples = 325<br/>value = [162, 163]<br/>class = 1>, fillcolor="#fefeff"] ;
1 [label=<serum_sodium &le; 133.5<br/>entropy = 0.446<br/>samples = 97<br/>value = [9, 88]<br/>class = 1>, fillcolor="#4da7e8"] ;
0 -> 1 [labeldistance=2.5, labelangle=45, headlabel="True"] ;
2 [label=<entropy = 0.0<br/>samples = 33<br/>value = [0, 33]<br/>class = 1>, fillcolor="#399de5"] ;
1 -> 2 ;
3 [label=<creatinine_phosphokinase &le; 87.0<br/>entropy = 0.586<br/>samples = 64<br/>value = [9, 55]<br/>class = 1>, fillcolor="#59ade9"] ;
1 -> 3 ;
4 [label=<serum_sodium &le; 134.5<br/>entropy = 0.985<br/>samples = 7<br/>value = [4, 3]<br/>class = 0>, fillcolor="#f8e0ce"] ;
3 -> 4 ;
5 [label=<entropy = 0.0<br/>samples = 3<br/>value = [0, 3]<br/>class = 1>, fillcolor="#399de5"] ;
4 -> 5 ;
6 [label=<entropy = 0.0<br/>samples = 4<br/>value = [4, 0]<br/>class = 0>, fillcolor="#e58139"] ;
4 -> 6 ;
7 [label=<time &le; 28.0<br/>entropy = 0.429<br/>samples = 57<br/>value = [5, 52]<br/>class = 1>, fillcolor="#4ca6e8"] ;
3 -> 7 ;
8 [label=<entropy = 0.0<br/>samples = 21<br/>value = [0, 21]<br/>class = 1>, fillcolor="#399de5"] ;
7 -> 8 ;
9 [label=<platelets &le; 312000.0<br/>entropy = 0.581<br/>samples = 36<br/>value = [5, 31]<br/>class = 1>, fillcolor="#59ade9"] ;
7 -> 9 ;
10 [label=<platelets &le; 214500.0<br/>entropy = 0.792<br/>samples = 21<br/>value = [5, 16]<br/>class = 1>, fillcolor="#77bced"] ;
9 -> 10 ;
11 [label=<entropy = 0.0<br/>samples = 11<br/>value = [0, 11]<br/>class = 1>, fillcolor="#399de5"] ;
10 -> 11 ;
12 [label=<ejection_fraction &le; 27.5<br/>entropy = 1.0<br/>samples = 10<br/>value = [5, 5]<br/>class = 0>, fillcolor="#ffffff"] ;
10 -> 12 ;
13 [label=<entropy = 0.0<br/>samples = 5<br/>value = [0, 5]<br/>class = 1>, fillcolor="#399de5"] ;
12 -> 13 ;
14 [label=<entropy = 0.0<br/>samples = 5<br/>value = [5, 0]<br/>class = 0>, fillcolor="#e58139"] ;
12 -> 14 ;
15 [label=<entropy = 0.0<br/>samples = 15<br/>value = [0, 15]<br/>class = 1>, fillcolor="#399de5"] ;
9 -> 15 ;
16 [label=<serum_creatinine &le; 1.19<br/>entropy = 0.914<br/>samples = 228<br/>value = [153, 75]<br/>class = 0>, fillcolor="#f2bf9a"] ;
0 -> 16 [labeldistance=2.5, labelangle=-45, headlabel="False"] ;
17 [label=<ejection_fraction &le; 27.5<br/>entropy = 0.435<br/>samples = 123<br/>value = [112, 11]<br/>class = 0>, fillcolor="#e88d4c"] ;
16 -> 17 ;
18 [label=<age &le; 52.5<br/>entropy = 0.985<br/>samples = 14<br/>value = [8, 6]<br/>class = 0>, fillcolor="#f8e0ce"] ;
17 -> 18 ;
19 [label=<entropy = 0.0<br/>samples = 5<br/>value = [5, 0]<br/>class = 0>, fillcolor="#e58139"] ;
18 -> 19 ;
20 [label=<platelets &le; 192500.0<br/>entropy = 0.918<br/>samples = 9<br/>value = [3, 6]<br/>class = 1>, fillcolor="#9ccef2"] ;
18 -> 20 ;
21 [label=<entropy = 0.0<br/>samples = 2<br/>value = [2, 0]<br/>class = 0>, fillcolor="#e58139"] ;
20 -> 21 ;
22 [label=<platelets &le; 351500.0<br/>entropy = 0.592<br/>samples = 7<br/>value = [1, 6]<br/>class = 1>, fillcolor="#5aade9"] ;
20 -> 22 ;
23 [label=<entropy = 0.0<br/>samples = 6<br/>value = [0, 6]<br/>class = 1>, fillcolor="#399de5"] ;
22 -> 23 ;
24 [label=<entropy = 0.0<br/>samples = 1<br/>value = [1, 0]<br/>class = 0>, fillcolor="#e58139"] ;
22 -> 24 ;
25 [label=<creatinine_phosphokinase &le; 762.5<br/>entropy = 0.269<br/>samples = 109<br/>value = [104, 5]<br/>class = 0>, fillcolor="#e68743"] ;
17 -> 25 ;
26 [label=<entropy = 0.0<br/>samples = 81<br/>value = [81, 0]<br/>class = 0>, fillcolor="#e58139"] ;
25 -> 26 ;
27 [label=<time &le; 137.5<br/>entropy = 0.677<br/>samples = 28<br/>value = [23, 5]<br/>class = 0>, fillcolor="#eb9c64"] ;
25 -> 27 ;
28 [label=<time &le; 120.5<br/>entropy = 0.94<br/>samples = 14<br/>value = [9, 5]<br/>class = 0>, fillcolor="#f3c7a7"] ;
27 -> 28 ;
29 [label=<age &le; 72.0<br/>entropy = 0.684<br/>samples = 11<br/>value = [9, 2]<br/>class = 0>, fillcolor="#eb9d65"] ;
28 -> 29 ;
30 [label=<entropy = 0.0<br/>samples = 8<br/>value = [8, 0]<br/>class = 0>, fillcolor="#e58139"] ;
29 -> 30 ;
31 [label=<serum_sodium &le; 135.5<br/>entropy = 0.918<br/>samples = 3<br/>value = [1, 2]<br/>class = 1>, fillcolor="#9ccef2"] ;
29 -> 31 ;
32 [label=<entropy = 0.0<br/>samples = 2<br/>value = [0, 2]<br/>class = 1>, fillcolor="#399de5"] ;
31 -> 32 ;
33 [label=<entropy = 0.0<br/>samples = 1<br/>value = [1, 0]<br/>class = 0>, fillcolor="#e58139"] ;
31 -> 33 ;
34 [label=<entropy = 0.0<br/>samples = 3<br/>value = [0, 3]<br/>class = 1>, fillcolor="#399de5"] ;
28 -> 34 ;
35 [label=<entropy = 0.0<br/>samples = 14<br/>value = [14, 0]<br/>class = 0>, fillcolor="#e58139"] ;
27 -> 35 ;
36 [label=<creatinine_phosphokinase &le; 74.0<br/>entropy = 0.965<br/>samples = 105<br/>value = [41, 64]<br/>class = 1>, fillcolor="#b8dcf6"] ;
16 -> 36 ;
37 [label=<entropy = 0.0<br/>samples = 11<br/>value = [11, 0]<br/>class = 0>, fillcolor="#e58139"] ;
36 -> 37 ;
38 [label=<time &le; 209.5<br/>entropy = 0.903<br/>samples = 94<br/>value = [30, 64]<br/>class = 1>, fillcolor="#96cbf1"] ;
36 -> 38 ;
39 [label=<ejection_fraction &le; 32.5<br/>entropy = 0.764<br/>samples = 81<br/>value = [18, 63]<br/>class = 1>, fillcolor="#72b9ec"] ;
38 -> 39 ;
40 [label=<time &le; 137.0<br/>entropy = 0.371<br/>samples = 42<br/>value = [3, 39]<br/>class = 1>, fillcolor="#48a5e7"] ;
39 -> 40 ;
41 [label=<serum_sodium &le; 139.5<br/>entropy = 0.575<br/>samples = 22<br/>value = [3, 19]<br/>class = 1>, fillcolor="#58ace9"] ;
40 -> 41 ;
42 [label=<platelets &le; 288000.0<br/>entropy = 0.454<br/>samples = 21<br/>value = [2, 19]<br/>class = 1>, fillcolor="#4ea7e8"] ;
41 -> 42 ;
43 [label=<entropy = 0.0<br/>samples = 14<br/>value = [0, 14]<br/>class = 1>, fillcolor="#399de5"] ;
42 -> 43 ;
44 [label=<serum_sodium &le; 137.5<br/>entropy = 0.863<br/>samples = 7<br/>value = [2, 5]<br/>class = 1>, fillcolor="#88c4ef"] ;
42 -> 44 ;
45 [label=<entropy = 0.0<br/>samples = 2<br/>value = [2, 0]<br/>class = 0>, fillcolor="#e58139"] ;
44 -> 45 ;
46 [label=<entropy = 0.0<br/>samples = 5<br/>value = [0, 5]<br/>class = 1>, fillcolor="#399de5"] ;
44 -> 46 ;
47 [label=<entropy = 0.0<br/>samples = 1<br/>value = [1, 0]<br/>class = 0>, fillcolor="#e58139"] ;
41 -> 47 ;
48 [label=<entropy = 0.0<br/>samples = 20<br/>value = [0, 20]<br/>class = 1>, fillcolor="#399de5"] ;
40 -> 48 ;
49 [label=<sex &le; 0.5<br/>entropy = 0.961<br/>samples = 39<br/>value = [15, 24]<br/>class = 1>, fillcolor="#b5daf5"] ;
39 -> 49 ;
50 [label=<platelets &le; 389000.0<br/>entropy = 0.469<br/>samples = 20<br/>value = [2, 18]<br/>class = 1>, fillcolor="#4fa8e8"] ;
49 -> 50 ;
51 [label=<age &le; 48.5<br/>entropy = 0.297<br/>samples = 19<br/>value = [1, 18]<br/>class = 1>, fillcolor="#44a2e6"] ;
50 -> 51 ;
52 [label=<entropy = 0.0<br/>samples = 1<br/>value = [1, 0]<br/>class = 0>, fillcolor="#e58139"] ;
51 -> 52 ;
53 [label=<entropy = 0.0<br/>samples = 18<br/>value = [0, 18]<br/>class = 1>, fillcolor="#399de5"] ;
51 -> 53 ;
54 [label=<entropy = 0.0<br/>samples = 1<br/>value = [1, 0]<br/>class = 0>, fillcolor="#e58139"] ;
50 -> 54 ;
55 [label=<platelets &le; 225500.0<br/>entropy = 0.9<br/>samples = 19<br/>value = [13, 6]<br/>class = 0>, fillcolor="#f1bb94"] ;
49 -> 55 ;
56 [label=<platelets &le; 213500.0<br/>entropy = 0.918<br/>samples = 9<br/>value = [3, 6]<br/>class = 1>, fillcolor="#9ccef2"] ;
55 -> 56 ;
57 [label=<entropy = 0.0<br/>samples = 3<br/>value = [3, 0]<br/>class = 0>, fillcolor="#e58139"] ;
56 -> 57 ;
58 [label=<entropy = 0.0<br/>samples = 6<br/>value = [0, 6]<br/>class = 1>, fillcolor="#399de5"] ;
56 -> 58 ;
59 [label=<entropy = 0.0<br/>samples = 10<br/>value = [10, 0]<br/>class = 0>, fillcolor="#e58139"] ;
55 -> 59 ;
60 [label=<ejection_fraction &le; 25.0<br/>entropy = 0.391<br/>samples = 13<br/>value = [12, 1]<br/>class = 0>, fillcolor="#e78c49"] ;
38 -> 60 ;
61 [label=<entropy = 0.0<br/>samples = 1<br/>value = [0, 1]<br/>class = 1>, fillcolor="#399de5"] ;
60 -> 61 ;
62 [label=<entropy = 0.0<br/>samples = 12<br/>value = [12, 0]<br/>class = 0>, fillcolor="#e58139"] ;
60 -> 62 ;
}